{"model.1.weight": [[-0.005750443320721388, 0.030557140707969666, -0.00817766785621643, -0.004552824422717094, 0.004499533679336309, 0.0027149533852934837, 0.031500089913606644, 0.010366248898208141, 0.023487241938710213, 0.012092063203454018, -0.029739435762166977, 0.007086464669555426, -0.06168944016098976, -0.07210351526737213, 0.009584913030266762, 0.03143584728240967, 0.030010994523763657, -0.015533422119915485, 0.03130018338561058, 0.007944154553115368, -0.012890429235994816, 0.02226768247783184, 0.015313608571887016, 0.0236115250736475, 0.0230669304728508, 0.02204633317887783, 0.026031337678432465, -0.02503998950123787, 0.009862414561212063, -0.018242010846734047, 0.0166823361068964, 0.024320803582668304, 0.012161136604845524, -0.01325423363596201, -0.11268865317106247, -0.14363843202590942, -0.12396035343408585, -0.07959624379873276, -0.012987487949430943, -0.03692317754030228, -0.05196323245763779, 0.02770083211362362, -0.010179796256124973, -0.0545436255633831, -0.024454591795802116, -0.06842077523469925, -0.000610434333793819, -0.0012836611131206155, -0.0351843386888504, -0.0426323339343071, 0.06696467846632004, 0.10050446540117264, 0.03143387287855148, 0.015591256320476532, -0.02586686797440052, 0.026315124705433846, 0.021942932158708572, -0.014135540463030338, 0.022508587688207626, -0.029874438419938087, -0.07739017903804779, -0.12585599720478058, -0.22060982882976532, -0.2058899998664856, -0.19285891950130463, -0.2955796718597412, -0.20049290359020233, -0.4041878581047058, -0.4683065712451935, -0.5476410984992981, -0.6049395799636841, -0.5454810857772827, -0.36388424038887024, -0.1806909590959549, -0.15081873536109924, -0.1277783066034317, -0.07046384364366531, -0.030344394966959953, -0.005692990031093359, 0.07857481390237808, 0.00794932246208191, 0.0073087518103420734, 0.00044563415576703846, 0.004437016788870096, 0.005098747555166483, -0.03458644822239876, -0.02312389202415943, -0.036430757492780685, 0.14463366568088531, -0.06862454116344452, -0.08347129821777344, 0.35823702812194824, 0.5318121910095215, 0.08544988930225372, 0.04243016988039017, -0.10977944731712341, -0.20424818992614746, -0.5516573786735535, -0.887942373752594, -0.304860919713974, -0.13524672389030457, -0.0905502438545227, -0.03053545579314232, -0.13196031749248505, -0.4043810963630676, -0.14760442078113556, -0.14247506856918335, -0.3250025808811188, -0.11669813841581345, -0.02228529378771782, -0.02267727069556713, -0.015053336508572102, -0.03488245606422424, 0.04144751653075218, 0.0010480369674041867, 0.30714771151542664, 0.11782018095254898, -0.1825433373451233, -0.008976870216429234, 0.010493239387869835, -0.3198431134223938, -0.2251572608947754, 0.010091067291796207, 0.056760337203741074, -0.22021786868572235, -0.358785480260849, -0.3579636514186859, -0.0690147802233696, -0.3261667490005493, -0.3176402151584625, -0.06564425677061081, -0.20022787153720856, -0.3421291410923004, 0.04265482723712921, -0.00759702967479825, 0.30704039335250854, 0.3420697748661041, -0.14656369388103485, 0.23917017877101898, -0.011977319605648518, -0.017563769593834877, 0.026947394013404846, 0.05059321969747543, 0.09672045707702637, 0.212144136428833, 0.005428416188806295, 0.06170579418540001, -0.019304323941469193, -0.2527712881565094, 0.054448340088129044, 0.07810845226049423, -0.026809630915522575, 0.04090861231088638, 0.029289353638887405, 0.017020834609866142, -0.10219337046146393, -0.07344042509794235, -0.1200176402926445, 0.0386565662920475, 0.15994544327259064, 0.1200786679983139, 0.048639927059412, 0.09121743589639664, 0.24597546458244324, 0.204572394490242, -0.08124898374080658, -0.14612938463687897, 0.0034066177904605865, -0.030115703120827675, 0.04439375177025795, 0.20551937818527222, 0.18854951858520508, 0.11755532771348953, 0.03456170856952667, 0.13008469343185425, 0.0322648324072361, -0.015858443453907967, -0.013352394104003906, 0.277848482131958, 0.11660172790288925, 0.08849024772644043, 0.11781111359596252, 0.044744934886693954, 0.1404963880777359, 0.06044957414269447, 0.21110714972019196, 0.11029771715402603, -0.059837937355041504, 0.11787726730108261, 0.13097171485424042, 0.06690151244401932, -0.2657559812068939, -0.10170570015907288, -0.11715187132358551, -0.10477318614721298, 0.23392914235591888, 0.010497749783098698, 0.1052284687757492, 0.345985472202301, 0.22018058598041534, -0.09498025476932526, -0.021579859778285027, 0.2474977672100067, 0.2604365348815918, 0.2355250120162964, 0.09992039203643799, 0.2530081868171692, 0.18919473886489868, 0.2177661955356598, 0.18121714890003204, 0.18798960745334625, 0.13980692625045776, 0.08163060247898102, 0.04883715510368347, 0.09523770213127136, -0.0746038556098938, -0.03142563998699188, 0.11095868051052094, -0.43113452196121216, -0.40068319439888, 0.010640724562108517, -0.06190312281250954, 0.23562197387218475, 0.27584874629974365, 0.0224576648324728, -0.2050836831331253, 0.18449653685092926, 0.07179474085569382, -0.09632430225610733, 0.0536755733191967, 0.1352992057800293, 0.01615229807794094, 0.11334381252527237, 0.17201177775859833, 0.16739407181739807, 0.1270444542169571, 0.2633320689201355, 0.25014516711235046, 0.24473796784877777, 0.19261521100997925, 0.033064983785152435, 0.042557377368211746, -0.12197811901569366, 0.010812514461576939, -0.0801716297864914, -0.15594710409641266, -0.06840924918651581, -0.3013433814048767, -0.3228974938392639, -0.30281519889831543, -0.0669863149523735, 0.12778492271900177, 0.10085173696279526, -0.19184784591197968, 0.20311206579208374, -0.048442017287015915, 0.24800629913806915, 0.026498079299926758, 0.20005996525287628, 0.2065294086933136, 0.2206192910671234, 0.3496851325035095, 0.1714991331100464, 0.22304180264472961, 0.14777503907680511, 0.1881747543811798, 0.14257343113422394, 0.03141946345567703, -0.13587892055511475, -0.06190914288163185, -0.015832282602787018, -0.042321909219026566, -0.22583788633346558, -0.3378547430038452, -0.2109699249267578, -0.23167088627815247, -0.3128909766674042, -0.23929552733898163, -0.10256786644458771, 0.3913174867630005, 0.0959283784031868, -0.16255253553390503, 0.16689205169677734, 0.19081568717956543, 0.14298585057258606, 0.06658387184143066, 0.1853584200143814, 0.15497291088104248, 0.19767038524150848, 0.20385707914829254, 0.17856070399284363, 0.1281943917274475, 0.012051296420395374, 0.20489297807216644, -0.06279001384973526, -0.2248990535736084, 0.03970992937684059, 0.026373235508799553, 0.007031467277556658, -0.013638673350214958, -0.016005612909793854, -0.06751257926225662, -0.1465023010969162, -0.05914895609021187, -0.6323802471160889, -0.5330629348754883, 0.1559569388628006, 0.4098048508167267, -0.17661498486995697, -0.08457259833812714, 0.003472226206213236, 0.18677908182144165, 0.17752423882484436, -0.04655158892273903, 0.05804543197154999, -0.034993547946214676, 0.004301897250115871, 0.07410211116075516, 0.011064155027270317, -0.0389571413397789, -0.06169884279370308, 0.05536646023392677, -0.2123681902885437, -0.15225687623023987, -0.0023026762064546347, 0.020004455000162125, 0.09009794890880585, -0.022504039108753204, 0.06857006996870041, 0.1271798312664032, 0.018530037254095078, 0.1483796238899231, 0.11578068137168884, -0.20394456386566162, 0.0973772257566452, -0.08298949897289276, -0.15473350882530212, -0.05017828196287155, 0.09809049963951111, -0.11329682171344757, 0.1328858584165573, -0.031671177595853806, 0.18386010825634003, -0.0007699821144342422, 0.09595257043838501, -0.055196817964315414, 0.06344394385814667, -0.040550246834754944, -0.20938874781131744, -0.17782272398471832, -0.0375656858086586, -0.21895503997802734, -0.11991431564092636, -0.011189126409590244, 0.1081695556640625, 0.04133544862270355, 0.1150892898440361, 0.292270302772522, 0.3050415515899658, 0.4833672046661377, -0.2504618167877197, -0.0065880571492016315, 0.18538790941238403, -0.18332654237747192, -0.04628269746899605, -0.07959729433059692, -0.027710698544979095, -0.39081957936286926, -0.1765037626028061, -0.062053825706243515, -0.06135263666510582, 0.06805013865232468, -0.06413242965936661, -0.017660843208432198, 0.0789446011185646, -0.15913857519626617, -0.267042338848114, -0.1035638377070427, -0.012412475422024727, -0.25143301486968994, -0.1387316733598709, -0.1030212789773941, -0.05013056844472885, -0.0799730196595192, 0.07465893030166626, 0.1617695391178131, 0.021501773968338966, 0.027015089988708496, 0.12496811896562576, -0.07539410144090652, 0.16860751807689667, -0.1720735877752304, 0.06380718946456909, -0.11738408356904984, 0.01680058054625988, -0.45035701990127563, -0.04744739830493927, -0.32478204369544983, -0.14587554335594177, 0.0272949431091547, 0.027100956067442894, -0.015253721736371517, 0.12174870073795319, -0.15345922112464905, -0.16055791079998016, -0.06979533284902573, 0.02993273176252842, 0.10202515125274658, -0.007054580375552177, -0.19304217398166656, -0.10779059678316116, -0.2522681653499603, -0.018838830292224884, 0.1020931676030159, 0.11176059395074844, 0.3890226185321808, 0.208041712641716, 0.12262043356895447, -0.0479610413312912, -0.07083858549594879, 0.0474829338490963, -0.01715676859021187, -0.5349898338317871, -0.6738166809082031, 0.031125279143452644, -0.15882053971290588, -0.188113272190094, -0.005884577054530382, 0.030202804133296013, 0.13159717619419098, 0.17585638165473938, 0.09954483807086945, -0.07597959786653519, -0.0348808616399765, -0.02067246474325657, 0.034695882350206375, -0.08794087916612625, -0.13335910439491272, 0.03338884189724922, -0.05849162116646767, 0.025278687477111816, 0.23570187389850616, 0.11082333326339722, 0.3964076340198517, 0.47316452860832214, 0.1833520084619522, -0.34181371331214905, 0.11482375115156174, -0.039693377912044525, 0.05381949245929718, -0.07688557356595993, -0.3751589357852936, -0.2683687210083008, -0.2855989634990692, -0.1643422544002533, -0.009195839986205101, -0.038035254925489426, 0.15189367532730103, 0.12183752655982971, 0.12173789739608765, -0.01592373289167881, 0.043062809854745865, -0.13057208061218262, -0.16556741297245026, -0.27404725551605225, -0.24434147775173187, 0.04015582054853439, 0.029273830354213715, -0.13115224242210388, 0.1671518236398697, 0.21800795197486877, 0.2439061552286148, 0.476066529750824, -0.22193707525730133, -0.27464982867240906, 0.21495026350021362, 0.001381231239065528, 0.026410266757011414, -0.13528168201446533, 0.04095183685421944, -0.4847007095813751, -0.05288008600473404, -0.12723016738891602, 0.22186119854450226, 0.0193705502897501, -0.06752005964517593, 0.0009717977955006063, -0.05511739104986191, 0.17190353572368622, 0.0846230611205101, -0.12470804899930954, -0.18742603063583374, -0.31207358837127686, -0.16736692190170288, -0.04625604301691055, 0.06128653138875961, 0.0821404904127121, 0.1125032901763916, 0.08876465260982513, 0.21910640597343445, 0.19458706676959991, -0.1373394876718521, -0.2425960898399353, 0.16828259825706482, 0.05659360811114311, 0.11941438913345337, -0.05452385172247887, 0.1387219876050949, -0.12958528101444244, -0.15346011519432068, -0.0887024998664856, -0.21720515191555023, -0.25065693259239197, -0.24001005291938782, -0.09013824909925461, -0.01898503303527832, -0.09458963572978973, -0.352567195892334, -0.26711952686309814, -0.07107335329055786, -0.1059522032737732, -0.010104535147547722, 0.03984064981341362, 0.20316196978092194, 0.1887740045785904, 0.34929677844047546, 0.30445122718811035, 0.24854975938796997, 0.1047121211886406, 0.19618739187717438, -0.0012664103414863348, -0.11217213422060013, -0.005256044212728739, 0.15959131717681885, 0.36729398369789124, 0.14781206846237183, -0.14799551665782928, -0.06315299868583679, -0.1644284576177597, -0.22847983241081238, -0.36383238434791565, -0.2118140161037445, -0.2828271985054016, -0.3041333556175232, -0.43483966588974, -0.5600210428237915, -0.26708880066871643, -0.10328803956508636, 0.07742006331682205, 0.16509385406970978, 0.2174084484577179, 0.11783037334680557, 0.2230376899242401, 0.2613215446472168, 0.08199846744537354, -0.016979115083813667, 0.05701296031475067, 0.4318615794181824, 0.007096617016941309, 0.028749864548444748, -0.02792494371533394, 0.042236052453517914, 0.05111581087112427, 0.3717452585697174, -0.0084463469684124, -0.2425849288702011, -0.06331369280815125, -0.1768186390399933, -0.26126641035079956, -0.07966205477714539, -0.3493792712688446, -0.5907747149467468, -0.7811792492866516, -0.25679707527160645, 0.041510213166475296, 0.11317281424999237, 0.19114431738853455, 0.2531907558441162, 0.15167103707790375, 0.21326906979084015, 0.10830841213464737, 0.11238355934619904, 0.09651871025562286, 0.05013115704059601, -0.12516993284225464, 0.15024957060813904, 0.2217300981283188, -0.016757238656282425, -0.01708315499126911, 0.030838618054986, 0.2819066047668457, 0.132166787981987, 0.269113153219223, -0.4045103192329407, -0.15710937976837158, -0.04071224108338356, -0.1685749739408493, -0.30993857979774475, -0.2102048695087433, -0.19051453471183777, -0.17945189774036407, -0.034315723925828934, 0.11793723702430725, 0.15917402505874634, 0.21187280118465424, -0.12778782844543457, 0.13337509334087372, 0.028355617076158524, 0.1273033767938614, 0.022973354905843735, 0.02220865897834301, 0.019319254904985428, 0.04217463359236717, 0.06514187157154083, -0.06028107553720474, 0.03835022449493408, -0.014872005209326744, -0.021340345963835716, -0.0009860527934506536, 0.4397410750389099, 0.1339767724275589, -0.0679994449019432, -0.22746151685714722, -0.05027622729539871, -0.17381519079208374, -0.342792809009552, -0.17992813885211945, 0.03314801678061485, 0.16019713878631592, 0.04787258431315422, 0.044898707419633865, 0.0573795884847641, 0.04434150457382202, 0.041558291763067245, 0.02550148405134678, -0.0547047033905983, 0.021723121404647827, -0.0735921636223793, 0.09717265516519547, 0.04121069237589836, 0.11117694526910782, 0.2240629941225052, 0.1736653745174408, 0.09853491187095642, -0.03495972231030464, -0.033779483288526535, 0.0759967491030693, 0.5531682968139648, 0.3673724830150604, 0.02877170778810978, 0.18556058406829834, 0.09933579713106155, -0.09441400319337845, -0.10825931280851364, 0.04863657429814339, 0.27924710512161255, 0.11440079659223557, 0.19263707101345062, 0.08295536786317825, 0.07159088551998138, 0.02953437902033329, 0.041111309081315994, -0.07895153760910034, -0.220509335398674, 0.0037638661451637745, -0.04428332671523094, -0.08995214849710464, -0.04320162162184715, 0.07613373547792435, 0.061143387109041214, 0.16880090534687042, -0.008916216902434826, 0.027646269649267197, -0.02629060484468937, -0.30136340856552124, 0.20276297628879547, 0.2903515100479126, 0.27518802881240845, 0.571927547454834, 0.4721480906009674, 0.2308424562215805, 0.17174144089221954, 0.4399440884590149, 0.28831368684768677, 0.2776336967945099, 0.2769297659397125, 0.26561084389686584, 0.1350037157535553, 0.11018981039524078, 0.17997504770755768, -0.056629326194524765, -0.18452127277851105, -0.02931125834584236, -0.07654886692762375, -0.21772579848766327, 0.10229765623807907, 0.07011955231428146, -0.4836609959602356, -0.3365224003791809, 0.02706441469490528, 0.011914164759218693, -0.008359896950423717, 0.30180495977401733, -0.23074458539485931, 0.016545144841074944, 0.6444129943847656, 0.8762791156768799, 0.7916921973228455, 0.6625770926475525, 0.4376557171344757, 0.3738706111907959, 0.2797238230705261, 0.3861640393733978, 0.44349393248558044, 0.22532735764980316, 0.23450389504432678, 0.27439379692077637, 0.23129908740520477, 0.1472514271736145, 0.4401249289512634, 0.31658491492271423, 0.18524779379367828, 0.1044100672006607, 0.24772275984287262, 0.7000844478607178, -0.13017913699150085, -0.2763596177101135, 0.001133701647631824, 0.02078041061758995, 0.018856875598430634, 0.03549054265022278, 0.004214699845761061, -0.20507855713367462, 0.30373096466064453, 0.36301082372665405, 0.2531241178512573, 0.42586275935173035, 0.12902717292308807, 0.6189529895782471, 0.6797714233398438, 0.51096510887146, 0.5190598368644714, 0.4909253418445587, 0.5293377041816711, 0.5911262631416321, 0.5874199271202087, 0.2673409879207611, 0.30653300881385803, 0.22671794891357422, -0.09898553788661957, 0.05396522209048271, 0.20285135507583618, -0.14143860340118408, 0.005600179545581341, 0.025041231885552406, -0.023142339661717415, 0.02652384154498577, -0.03111293539404869, 0.02956710197031498, 0.02964746206998825, -0.1348523646593094, -0.18590939044952393, 0.2120743840932846, 0.30345311760902405, 0.3457316756248474, 0.07036495953798294, 0.08536963164806366, 0.09026583284139633, 0.13199064135551453, 0.11677562445402145, 0.1848905086517334, 0.3410361707210541, 0.19716644287109375, -0.3620535433292389, -0.19382287561893463, -0.10486363619565964, -0.36145448684692383, -0.45311540365219116, -0.014465222135186195, 0.04331532120704651, 0.011818243190646172, -0.010881978087127209, -0.0013129797298461199, 0.023498160764575005], [-0.009116522036492825, -0.030132073909044266, 0.005510824266821146, -0.0025006320793181658, -0.012663441710174084, -0.026374515146017075, 0.03129541501402855, -0.00855264998972416, -0.008549733087420464, 0.005241841543465853, -0.02127174101769924, -0.017828937619924545, -0.025735661387443542, -0.04435128718614578, -0.043579138815402985, -0.019277820363640785, -0.008867362514138222, 0.027231141924858093, -0.016728444024920464, 0.03193725273013115, -0.03543701022863388, -0.007134953048080206, -0.001441061613149941, 0.031627774238586426, -0.011288885958492756, 0.010565298609435558, 0.02654656022787094, 0.011217573657631874, -0.02377449721097946, -0.013256112113595009, -0.00864502415060997, 0.015263983979821205, 0.0258506927639246, 0.023767398670315742, 0.0023239552974700928, 0.0479678139090538, -0.05421966686844826, -0.08575989305973053, -0.0807672068476677, -0.25339335203170776, -0.18877702951431274, -0.23864398896694183, -0.2012358456850052, -0.18377335369586945, -0.24003365635871887, -0.12578058242797852, 0.23945875465869904, 0.4445280432701111, 0.42912811040878296, 0.1801082342863083, 0.2376692295074463, 0.20095641911029816, 0.016872478649020195, -0.01833592727780342, -0.01515254843980074, 0.033096279948949814, -0.012895924970507622, -0.033155158162117004, 0.04861709102988243, 0.08096174895763397, 0.07314148545265198, -0.042682845145463943, 0.022664913907647133, -0.07103515416383743, -0.10679340362548828, -0.3672584891319275, -0.3586212396621704, -0.27768591046333313, -0.2849908173084259, 0.2022111564874649, -0.20052553713321686, -0.0830206647515297, 0.15831232070922852, 0.3439011871814728, 0.260425329208374, 0.279190331697464, 0.2085442990064621, 0.2310686558485031, 0.36577537655830383, 0.37822991609573364, 0.16985858976840973, 0.02693573385477066, -0.018197128549218178, 0.028796900063753128, 0.01758187636733055, 0.012315226718783379, 0.09806777536869049, 0.02343858778476715, 0.04079119488596916, -0.16540192067623138, 0.04066018387675285, 0.32337796688079834, -0.21480914950370789, -0.0769689679145813, -0.5490669012069702, -0.6096082925796509, -0.47034555673599243, -0.2497796267271042, -0.08606172353029251, -0.024861734360456467, -0.08567611128091812, 0.045163094997406006, 0.12674887478351593, 0.14332373440265656, -0.23872379958629608, 0.23152834177017212, 0.2865733802318573, 0.30807235836982727, -0.01196493674069643, -0.37259265780448914, -0.12225116789340973, 0.02205478772521019, -0.02766750194132328, -0.01651879772543907, 0.2507895529270172, -0.04119699075818062, -0.07098215073347092, 0.03450112044811249, 0.05600501969456673, -0.11690337210893631, -0.4039948284626007, -0.26877135038375854, -0.1358579695224762, -0.1813744455575943, -0.10923533886671066, 0.0689898356795311, -0.05246012285351753, -0.13015449047088623, 0.026527589187026024, 0.11013666540384293, 0.19056850671768188, 0.3633974492549896, 0.16628539562225342, 0.12948743999004364, -0.05202179402112961, 0.07563778758049011, -0.3201262652873993, -0.2540417015552521, -0.38180214166641235, -0.010189473628997803, -0.030517468228936195, -0.0013695317320525646, 0.6276726722717285, -0.13920535147190094, -0.42601943016052246, 0.006701670587062836, -0.08142545819282532, -0.3145383596420288, -0.40944886207580566, -0.5064707398414612, -0.3407787084579468, -0.16082635521888733, -0.1397564858198166, -0.010626289062201977, 0.17532648146152496, 0.1708022952079773, 0.05524216592311859, 0.004887270741164684, -0.0152387460693717, 0.10434289276599884, -0.02192826010286808, 0.14584651589393616, -0.08586824685335159, 0.2456955909729004, -0.10507623851299286, -0.4080828130245209, -0.22475360333919525, -0.05070003122091293, -0.009559014812111855, -0.02522151544690132, -0.23668459057807922, -0.03235507383942604, -0.07007569819688797, 0.2287176549434662, -0.031151555478572845, -0.14269445836544037, -0.44001343846321106, -0.7115298509597778, -0.36915504932403564, 0.02374938316643238, -0.012856933288276196, -0.0410313606262207, 0.12451188266277313, 0.3317609131336212, 0.17512479424476624, -0.05107554420828819, -0.08446121960878372, -0.19144199788570404, -0.2765715718269348, -0.01368093304336071, -0.032365214079618454, 0.11799321323633194, -0.10955864191055298, -0.5338504910469055, -0.21799293160438538, -0.30358579754829407, 0.027676012367010117, -0.2604277729988098, -0.2760741412639618, -0.30866333842277527, 0.1596222072839737, 0.18506254255771637, -0.13118115067481995, 0.10788297653198242, -0.32951119542121887, -0.28306102752685547, 0.10300477594137192, -0.02648920752108097, 0.061470869928598404, 0.010373690165579319, 0.34312906861305237, 0.27480730414390564, 0.1229012981057167, 0.013314682058990002, -0.09488332271575928, -0.28777366876602173, -0.10011176019906998, -0.13258692622184753, 0.2568821907043457, -0.01589730568230152, -0.17239326238632202, -0.7511114478111267, -0.06101254001259804, -0.47009027004241943, 0.020749531686306, -0.0021725723054260015, -0.43080195784568787, -0.7050431370735168, 0.04813867062330246, -0.048297036439180374, -0.20823469758033752, 0.28419962525367737, -0.19693192839622498, -0.35798710584640503, -0.21044333279132843, -0.2743576169013977, -0.030311407521367073, 0.2364370971918106, 0.2789890766143799, 0.1534254550933838, -0.09749473631381989, -0.06755433231592178, -0.33582744002342224, -0.27403920888900757, -0.28999239206314087, -0.16348722577095032, -0.23833701014518738, -0.18716895580291748, -0.018518494442105293, -0.3168249726295471, -0.1476876437664032, -0.18002650141716003, 0.030447514727711678, 0.03168978914618492, -0.4451914429664612, -0.7203259468078613, -0.278814435005188, -0.3597687780857086, -0.12771277129650116, 0.21509972214698792, -0.1496330350637436, -0.14458008110523224, -0.18401919305324554, -0.30747705698013306, -0.25632256269454956, 0.08817099779844284, 0.264115571975708, 0.2794896066188812, 0.005349328741431236, -0.3265666365623474, -0.3347603976726532, -0.17922134697437286, -0.47154712677001953, -0.23375308513641357, -0.27092278003692627, -0.25874772667884827, -0.40462902188301086, 0.23140347003936768, -0.1322541981935501, -0.20057469606399536, -0.014804389327764511, -0.012626064009964466, -0.3250090181827545, -0.5879610180854797, -0.3833068013191223, -0.49724119901657104, -0.05630731210112572, -0.0626850575208664, -0.06001445651054382, -0.09329042583703995, -0.12294039875268936, -0.25670117139816284, -0.32446980476379395, 0.09294486045837402, 0.2720291018486023, 0.24199773371219635, -0.12388981878757477, -0.19459041953086853, -0.3530811667442322, -0.20039452612400055, -0.3124507665634155, -0.2791164517402649, -0.11990320682525635, -0.35312721133232117, -0.4901067912578583, -0.17835509777069092, -0.05828385427594185, 0.19338925182819366, -0.0011455374769866467, -0.06832218915224075, -0.350668340921402, -0.19762398302555084, -0.12951260805130005, -0.08226101845502853, -0.0498485304415226, -0.08625556528568268, 0.038713738322257996, -0.15653924643993378, -0.0819687619805336, -0.22433026134967804, -0.1595921665430069, 0.21853579580783844, 0.22961299121379852, 0.10380727052688599, -0.040702980011701584, -0.17691688239574432, -0.3016940951347351, -0.06520302593708038, 0.007249607238918543, -0.10014381259679794, -0.20406708121299744, -0.26378268003463745, -0.6110562682151794, -0.5253293514251709, -0.19746240973472595, 0.03376191481947899, 0.025634894147515297, -0.1629071831703186, -0.3560681641101837, -0.17370657622814178, -0.12621071934700012, -0.1403585523366928, -0.10492631793022156, -0.032980285584926605, 0.014482494443655014, 0.07814642786979675, 0.07410220801830292, -0.012870955280959606, 0.15622437000274658, 0.20401498675346375, 0.16964635252952576, 0.04457678645849228, 0.07234565913677216, -0.28899601101875305, -0.28916260600090027, -0.228057399392128, 0.12880215048789978, -0.14244043827056885, -0.1558343917131424, -0.14301830530166626, -0.3488790690898895, -0.5088930726051331, -0.4150749742984772, -0.16009101271629333, 0.3133334517478943, -0.262492299079895, -0.06270784884691238, -0.17845234274864197, -0.2617812752723694, -0.22077001631259918, -0.010463708080351353, -0.09072234481573105, 0.001572340726852417, 0.047327566891908646, 0.15873397886753082, 0.07447987049818039, 0.1292162835597992, 0.11347487568855286, 0.15419533848762512, 0.09265259653329849, 0.10659950971603394, -0.21096283197402954, -0.18040278553962708, -0.04766016826033592, 0.13070112466812134, 0.06834669411182404, -0.10075870901346207, -0.219300776720047, -0.6254596710205078, -0.4049488306045532, -0.27083006501197815, -0.1026822105050087, -0.00458526611328125, 0.019405994564294815, -0.028751304373145103, 0.18065997958183289, -0.22811150550842285, -0.1461387723684311, 0.1068892627954483, -0.03465760126709938, 0.0877513438463211, 0.12272283434867859, 0.18263909220695496, -0.04869908466935158, -0.07905861735343933, 0.027209671214222908, 0.042256128042936325, -0.02503390982747078, 0.19136105477809906, -0.17103582620620728, -0.05034812539815903, -0.04849814996123314, 0.06727872043848038, 0.18846933543682098, 0.050314273685216904, -0.4283345937728882, -0.3102705776691437, -0.018188368529081345, -0.262299120426178, -0.008605655282735825, -0.02277079038321972, -0.01732446625828743, 0.13271671533584595, 0.20713721215724945, -0.2826409935951233, -0.06394416838884354, 0.33653169870376587, 0.30841338634490967, 0.1609789878129959, 0.09561748802661896, 0.01690264232456684, 0.01646975241601467, 0.07349342852830887, -0.05157722532749176, -0.02831129916012287, -0.14419832825660706, 0.0016040831105783582, -0.08415870368480682, 0.023015594109892845, -0.019225548952817917, 0.048354826867580414, 0.43513548374176025, 0.14925797283649445, -0.2318209558725357, -0.2013632208108902, -0.06420319527387619, -0.07961910963058472, -0.41878312826156616, -0.009551594033837318, 0.23256361484527588, 0.15720602869987488, -0.016108499839901924, -0.19963860511779785, 0.2076512724161148, 0.11186166107654572, 0.26781168580055237, 0.27595898509025574, 0.18177619576454163, 0.010853814892470837, -0.03259402513504028, 0.013416601344943047, 0.04000994935631752, 0.07676677405834198, -0.05896718055009842, 0.05391737446188927, -0.15513461828231812, 0.054755546152591705, 0.04972132295370102, 0.13605868816375732, 0.23105980455875397, -0.03301788121461868, 0.026528969407081604, 0.3072459399700165, 0.1458401083946228, -0.31259438395500183, -0.4791630208492279, 0.005995814688503742, 0.32656604051589966, 0.26648882031440735, 0.016018448397517204, 0.053445059806108475, 0.2634020149707794, 0.005819499492645264, 0.048710715025663376, 0.12488772720098495, 0.09360548108816147, 0.1062699630856514, -0.05366531386971474, -0.0019466563826426864, 0.20337989926338196, 0.21722103655338287, 0.031082643195986748, 0.07767990231513977, -0.14844511449337006, 0.088498555123806, 0.09080515056848526, 0.1627916544675827, 0.15339110791683197, 0.03452920913696289, 0.1468600630760193, 0.20236454904079437, 0.08509407192468643, -0.03102637641131878, -0.6107169985771179, -0.07922375202178955, 0.23118498921394348, 0.3345456123352051, 0.2615794539451599, 0.35101842880249023, 0.17022131383419037, -0.2079927623271942, -0.08922699838876724, -0.14176806807518005, 0.12581771612167358, -0.15599773824214935, -0.2239025980234146, 0.016692420467734337, 0.27096202969551086, 0.05416087433695793, 0.024543626233935356, -0.060234636068344116, -0.15084032714366913, 0.021328480914235115, 0.06447990983724594, 0.1512569934129715, 0.013123690150678158, -0.299368679523468, 0.08008810132741928, 0.17216676473617554, 0.06299561262130737, -0.06647592782974243, 0.19992998242378235, 0.11239010840654373, -0.3979789912700653, 0.08667324483394623, 0.06236080825328827, 0.4123423993587494, 0.3327706754207611, 0.15227307379245758, 0.021877748891711235, -0.04078781604766846, 0.1999843567609787, 0.04667332023382187, 0.05923563241958618, 0.09012109041213989, 0.158998042345047, 0.0026807456742972136, 0.12367084622383118, 0.08108531683683395, -0.15683773159980774, -0.06258826702833176, 0.006487594917416573, 0.02244323492050171, -0.007461925502866507, -0.3178708255290985, 0.18602095544338226, 0.2709658145904541, 0.051836367696523666, -0.015956101939082146, 0.2809634804725647, 0.015798859298229218, -0.16091030836105347, 0.22784118354320526, -0.0026535820215940475, 0.20836587250232697, 0.2334907203912735, 0.21353504061698914, -0.030250074341893196, -0.23128677904605865, 0.03229144588112831, -0.07677442580461502, 0.09782641381025314, 0.1397031545639038, -0.017710331827402115, 0.16962109506130219, 0.12607009708881378, 0.11789637058973312, -0.1306021511554718, 0.10321761667728424, 0.04602016136050224, 0.07790019363164902, 0.07922868430614471, -0.24934549629688263, 0.13379521667957306, 0.2401568740606308, -0.09387615323066711, 0.2104921042919159, 0.34231576323509216, 0.08524294197559357, 0.10781656950712204, -0.3926403522491455, 0.023811573162674904, 0.03427128493785858, -0.14888393878936768, -0.2534491717815399, -0.2189631462097168, -0.16218692064285278, -0.05001198872923851, -0.023543687537312508, 0.09476026892662048, 0.24091297388076782, 0.11756621301174164, 0.15034151077270508, 0.03420305997133255, 0.07041633129119873, -0.10399039089679718, 0.04756961762905121, 0.010614581406116486, 0.05921855941414833, 0.039467357099056244, -0.17809273302555084, -0.2669357657432556, 0.06491114944219589, 0.03175695613026619, -0.12182290852069855, 0.0004249428166076541, 0.10790247470140457, 0.07136813551187515, -0.34325987100601196, -0.107145294547081, -0.1662607491016388, -0.3139687478542328, -0.6583736538887024, -0.04734945297241211, -0.038359176367521286, -0.14891524612903595, 0.013637927360832691, -0.06593932956457138, 0.07422158122062683, 0.14209163188934326, 0.0002146286569768563, 0.11732470244169235, 0.17226451635360718, -0.01694885827600956, 0.12566395103931427, -0.1576303243637085, -0.09452012926340103, 0.05385906994342804, -0.18598824739456177, -0.0010793330147862434, -0.13914741575717926, 0.12620924413204193, 0.28188732266426086, 9.219135972671211e-05, -0.029681380838155746, 0.009842395782470703, -0.08513302356004715, 0.17367014288902283, -0.09158764034509659, -0.2077385038137436, 0.00583780650049448, -0.03905494138598442, -0.05731882154941559, 0.08771947771310806, -0.24566516280174255, -0.1567445546388626, 0.20068193972110748, 0.08614202588796616, 0.0739097073674202, 0.13197755813598633, 0.015023493207991123, -0.03306012228131294, 0.05039144679903984, 0.049100667238235474, 0.12786170840263367, -0.15615762770175934, -0.16399261355400085, -0.03217998892068863, -0.24180884659290314, 0.099642813205719, 0.30353620648384094, -0.018838495016098022, 0.012681867927312851, 0.006325462367385626, -0.03109133616089821, 0.10638049989938736, -0.1726311892271042, -0.026670068502426147, 0.18337701261043549, 0.1377629041671753, -0.3523734509944916, -0.350301057100296, -0.3336007297039032, -0.14204485714435577, -0.15202946960926056, -0.20376284420490265, 0.10734090954065323, 0.038060907274484634, -0.056313302367925644, 0.0003034779510926455, 0.11946841329336166, 0.17572002112865448, -0.006946970243006945, -0.03435589373111725, 0.19845695793628693, 0.02451537549495697, -0.1893986016511917, 0.2462555319070816, 0.2644290626049042, 0.029771167784929276, 0.031572889536619186, 0.014450427144765854, -0.022949615493416786, 0.0004071636067237705, -0.10689723491668701, -0.0878794863820076, 0.04759983718395233, -0.12209606170654297, -0.20310001075267792, 0.09771674126386642, -0.6370419263839722, -0.2358206957578659, -0.16926343739032745, -0.16970357298851013, -0.06864762306213379, -0.3479101061820984, -0.8903137445449829, -0.6304088234901428, -0.24240700900554657, -0.1832980066537857, 0.08649305999279022, 0.2602093815803528, 0.35177597403526306, 0.3168373703956604, -0.10963378846645355, 0.001615192275494337, -0.01622673124074936, -0.00024343389668501914, -0.008851060643792152, -0.02600836008787155, 0.022164465859532356, 0.0008430481539107859, -0.02101351134479046, 0.038546595722436905, 0.03558902442455292, 0.08665557950735092, 0.3406156897544861, 0.2580585479736328, -0.2212579846382141, -0.059238236397504807, -0.33304116129875183, -0.4744087755680084, -0.4365048408508301, -0.025595415383577347, 0.28166961669921875, -0.031080663204193115, -0.14355500042438507, 0.027731597423553467, -0.13670271635055542, -0.24112112820148468, -0.2867046892642975, -0.2301664501428604, 0.026706824079155922, -0.024053510278463364, -0.02475869283080101, 0.03486792370676994, 0.02941446751356125, -0.007830462418496609, 0.0056660776026546955, -0.026892688125371933, -0.009891387075185776, 0.010672003962099552, -0.0038227143231779337, 0.00627265265211463, 0.019348878413438797, -0.009744683280587196, -0.0011826626723632216, -0.07862738519906998, -0.13699142634868622, -0.41610756516456604, -0.5518141388893127, -0.01258185412734747, 0.019803009927272797, -0.018348878249526024, -0.010236960835754871, -0.03988374024629593, -0.009654405526816845, -0.011353637091815472, -0.017893102020025253, 0.03008863888680935, 0.02270767278969288, -0.026752477511763573, 0.02188717946410179, -0.034557782113552094], [-0.026504360139369965, 0.01453022938221693, -0.025990350171923637, -0.016061460599303246, 0.001399270142428577, -0.02886228635907173, -0.0207653995603323, 0.0017115644877776504, 0.006839952431619167, -0.008296992629766464, 0.027158567681908607, 0.017615413293242455, 0.07238098233938217, 0.11063151806592941, 0.09257934987545013, 0.11428061872720718, -0.017210356891155243, 0.00036320093204267323, 0.03407415375113487, -0.03163610398769379, 0.01359327882528305, -0.010912248864769936, 0.024368857964873314, 0.011204821988940239, -0.016146371141076088, -0.028241010382771492, -0.029826851561665535, 0.0001303085300605744, -0.030872661620378494, 0.02259724959731102, -0.017869604751467705, 0.003457665676251054, -0.050746966153383255, -0.01699710264801979, 0.14965158700942993, 0.12011616677045822, 0.027991410344839096, 0.07241054624319077, 0.10588494688272476, 0.05393572896718979, 0.26840466260910034, -0.1978672295808792, -0.3065469264984131, -0.08442459255456924, 0.23213522136211395, 0.09534111618995667, -0.14643998444080353, -0.03918366879224777, 0.04939090088009834, 0.02930200845003128, 0.07202272862195969, 0.06282924860715866, 0.019427653402090073, -0.01250468846410513, -0.0250417347997427, -0.010369254276156425, -0.02248072251677513, 0.01103944517672062, -0.0007310627843253314, -0.050826288759708405, -0.004915277939289808, 0.05044311657547951, -0.007717954460531473, 0.06923329085111618, 0.09044322371482849, -0.042985815554857254, -0.05739828571677208, 0.05855953320860863, -0.09346054494380951, -0.4208388924598694, -0.308200478553772, -0.12616345286369324, -0.18064217269420624, -0.14176416397094727, 0.09670957922935486, -0.3411211669445038, -0.2927868366241455, -0.02609146386384964, 0.038155749440193176, 0.17021282017230988, 0.14397580921649933, 0.040887318551540375, -0.021623408421874046, -0.01993994228541851, -0.01132166851311922, -0.030500566586852074, 0.21482591331005096, 0.05190171301364899, -0.08336759358644485, 0.05156317725777626, 0.1630180925130844, 0.1404401957988739, 0.35794585943222046, 0.2700263261795044, 0.1274881213903427, 0.12555378675460815, 0.24299022555351257, 0.11825380474328995, 0.16151364147663116, 0.0694194883108139, -0.023312663659453392, -0.30336251854896545, -0.14462028443813324, 0.0619039461016655, -0.0978965163230896, -0.2936001718044281, -0.3465418219566345, 0.2543894350528717, 0.25280892848968506, 0.27185237407684326, -0.04986898601055145, -0.020059727132320404, -0.02660166099667549, 0.01104059536010027, 0.27465349435806274, -0.03426021710038185, -0.2192261815071106, -0.03870241343975067, 0.1400848925113678, 0.10908617079257965, 0.02331358566880226, 0.14113911986351013, 0.09023606777191162, -0.005068052094429731, -0.11787291616201401, 0.06226703152060509, 0.040497008711099625, -0.015138499438762665, -0.05282500386238098, -0.04222310706973076, -0.18802779912948608, -0.13603341579437256, 0.040949996560811996, -0.21017830073833466, -0.43686676025390625, -0.27982383966445923, -0.18018968403339386, 0.16667455434799194, 0.3265836238861084, 0.05914558842778206, 0.0050687240436673164, 0.019947392866015434, 0.1865547150373459, 0.05688895285129547, 0.282321572303772, -0.1968488097190857, 0.025417743250727654, 0.2525700032711029, 0.019497176632285118, -0.2480686455965042, -0.1489991992712021, -0.3301880955696106, -0.34816840291023254, 0.04258688911795616, -0.011203449219465256, -0.050432853400707245, 0.039771668612957, -0.10137267410755157, -0.10254987329244614, 0.0324983112514019, -0.2620733380317688, -0.18445412814617157, -0.165704607963562, -0.053089506924152374, 0.0975792333483696, 0.43434637784957886, 0.32585111260414124, 0.05639448016881943, -0.00612908648326993, 0.061474625021219254, -0.3558914065361023, 0.07276279479265213, 0.0195931289345026, -0.13355660438537598, -0.06952653080224991, -0.07176269590854645, -0.09465748816728592, -0.008193640038371086, 0.1459140032529831, -0.15226015448570251, -0.1254452019929886, -0.06522921472787857, 0.01210004836320877, -0.012087971903383732, 0.06865464895963669, 0.051073286682367325, 0.016797589138150215, -0.06837274879217148, -0.05994159355759621, 0.048051364719867706, -0.35325050354003906, -0.2813820540904999, -0.23081910610198975, 0.3496110439300537, 0.27587297558784485, 0.1547432541847229, -0.023068847134709358, 0.28666001558303833, -0.10306316614151001, 0.03659622371196747, 0.1008206382393837, -0.10561255365610123, 0.008979909121990204, 0.0753374844789505, 0.08858239650726318, -0.06467167288064957, -0.0067932214587926865, -0.06803718954324722, -0.12112253159284592, -0.07835747301578522, -0.08224592357873917, -0.008213789202272892, -0.026612814515829086, -0.029346588999032974, 0.040227361023426056, -0.08561374247074127, -0.07038990408182144, 0.07524269819259644, 0.0961623564362526, -0.5166178345680237, -0.3131985366344452, -0.014705343171954155, 0.1754981130361557, 0.1575794667005539, -0.10932626575231552, 0.3441304564476013, 0.03250088542699814, -0.017988862469792366, 0.026594432070851326, -0.03199678659439087, 0.08125361800193787, -0.015687953680753708, -0.06025043502449989, -0.17399489879608154, 0.13705886900424957, 0.024941468611359596, 0.024935996159911156, 0.04368174821138382, 0.06301017105579376, 0.055061183869838715, 0.08311471343040466, 0.06749753654003143, -0.001658523571677506, 0.17390921711921692, 0.04728776216506958, -0.05107030272483826, 0.14428989589214325, -0.038739051669836044, -0.31290242075920105, -0.13524065911769867, 0.4379560053348541, 0.35828301310539246, 0.29948702454566956, -0.10232436656951904, 0.29685407876968384, 0.025026628747582436, -0.08972756564617157, 0.25953570008277893, 0.0025307293981313705, -0.12957970798015594, 0.03630988672375679, 0.01713111624121666, 0.17645053565502167, 0.1681147962808609, 0.19851885735988617, 0.10315252840518951, 0.09206721186637878, 0.07875963300466537, 0.0958944633603096, 0.12458562105894089, -0.09423449635505676, -0.008127199485898018, 0.07371687889099121, -0.13215386867523193, 0.1800132840871811, 0.24408674240112305, -0.34277448058128357, -0.1329769492149353, 0.29770687222480774, -0.3370799720287323, 0.31386449933052063, -0.29872462153434753, 0.12112300843000412, 0.02684159018099308, -0.01451944001019001, 0.2889617681503296, 0.24957065284252167, 0.04022267088294029, 0.3161998689174652, 0.14224082231521606, 0.22629578411579132, 0.18256497383117676, 0.019842062145471573, 0.0036290786229074, -0.14315754175186157, -0.011936948634684086, 0.0034494507126510143, -0.06346648931503296, 0.1018780767917633, 0.035245202481746674, 0.1516575962305069, 0.015693645924329758, 0.10378771275281906, 0.09936116635799408, -0.19657622277736664, 0.041549984365701675, 0.07106896489858627, -0.2901306450366974, -0.08214978128671646, -0.14483943581581116, -0.23473531007766724, 0.028628848493099213, 0.1668195128440857, 0.31524601578712463, 0.3661431074142456, 0.1687803715467453, 0.23116865754127502, 0.15706588327884674, 0.04447311908006668, 0.24596911668777466, 0.019656116142868996, -0.4081336259841919, -0.4122456908226013, -0.22375622391700745, -0.09579265117645264, -0.06043406203389168, 0.0639064833521843, 0.005185020621865988, 0.1726742684841156, -0.02451316826045513, -0.11549197137355804, -0.04038136824965477, 0.05871502682566643, 0.11027846485376358, 0.14250090718269348, 0.031413398683071136, -0.1625354140996933, -0.09044801443815231, 0.10961349308490753, -0.14339224994182587, 0.298362135887146, 0.12610302865505219, 0.08162885159254074, 0.05030160769820213, 0.005211294628679752, -0.020847588777542114, -0.22487372159957886, -0.35842302441596985, -0.3892512321472168, -0.8475551605224609, -0.4467203915119171, -0.2038971185684204, 0.021218404173851013, 0.09980418533086777, -0.055311836302280426, 0.21662895381450653, 0.19776032865047455, 0.08113815635442734, -0.04904472827911377, -0.27875468134880066, -0.1475074738264084, -0.10430621355772018, 0.058840591460466385, 0.15266361832618713, -0.08699062466621399, -0.08448582887649536, -0.08484361320734024, 0.10458681732416153, 0.02776683121919632, -0.045463982969522476, -0.26573556661605835, -0.25904279947280884, -0.17828018963336945, -0.16258642077445984, -0.23589786887168884, -0.16187596321105957, -0.505609393119812, -0.22356285154819489, -0.13636504113674164, -0.3353425860404968, 0.05784212052822113, 0.20291578769683838, -0.01112002320587635, 0.09704294800758362, 0.10747675597667694, -0.037720128893852234, -0.026386616751551628, -0.07953720539808273, -0.21238532662391663, -0.12152675539255142, 0.572746992111206, 0.35673025250434875, 0.0307551771402359, 0.05585695058107376, 0.22612304985523224, 0.044364724308252335, -0.0963895320892334, -0.7262824177742004, -0.4447796046733856, -0.44154679775238037, -0.5487886071205139, -0.4379015862941742, -0.16112929582595825, -0.13373114168643951, -0.12599027156829834, -0.056995660066604614, -0.11014008522033691, -0.05013374611735344, -0.037022240459918976, 0.12568818032741547, 0.08336558938026428, -0.0345124676823616, -0.14728762209415436, -0.03938209265470505, -0.048314228653907776, 0.13886116445064545, -0.06899353861808777, -0.17257623374462128, 0.6251022219657898, 0.2665644884109497, 0.033156853169202805, 0.17460131645202637, 0.2588595449924469, 0.10251341760158539, -0.33663251996040344, -0.6796259880065918, -0.2667109966278076, -0.3197091221809387, -0.39545807242393494, -0.44717419147491455, -0.3650037348270416, -0.08933239430189133, -0.07216133922338486, 0.20571115612983704, 0.27587711811065674, 0.23311328887939453, 0.08112317323684692, 0.005475916899740696, 0.07068109512329102, -0.048984479159116745, 0.04567284882068634, -0.04331689700484276, 0.09311268478631973, 0.2393653392791748, 0.25847184658050537, -0.00898953340947628, 0.17622579634189606, 0.26780492067337036, 0.09722579270601273, 0.22885936498641968, 0.4640295207500458, 0.3342987895011902, -0.058491047471761703, -0.3788585364818573, -0.352597713470459, -0.22810743749141693, -0.28330862522125244, -0.22048602998256683, -0.13960504531860352, 0.11998747289180756, 0.15401309728622437, 0.29783812165260315, 0.3759107291698456, 0.1926027238368988, 0.123206727206707, 0.12077926844358444, 0.0950363427400589, -0.05692616477608681, -0.22629642486572266, -0.06445067375898361, 0.18480102717876434, 0.168805330991745, 0.06914310157299042, 0.06462626904249191, 0.20081740617752075, 0.3947959244251251, -0.003566103521734476, 0.2803689241409302, 0.42019355297088623, 0.46021661162376404, 0.369363009929657, -0.06985954195261002, -0.26718953251838684, -0.19770479202270508, -0.1743800789117813, -0.20216140151023865, 0.03302193060517311, 0.22985440492630005, 0.224974125623703, 0.25251340866088867, 0.21565011143684387, 0.1134878396987915, -0.009988163597881794, 0.09198150038719177, -0.08682610094547272, -0.029169004410505295, -0.04337843507528305, -0.14062510430812836, -0.1232757493853569, -0.04557002708315849, 0.08590978384017944, 0.49081262946128845, 0.2639998197555542, 0.6916301250457764, -0.02758120745420456, 0.04314760863780975, 0.29464656114578247, 0.5964971780776978, 0.20414918661117554, 0.056918125599622726, 0.01736295595765114, 0.22403500974178314, -0.06867136806249619, -0.1613674908876419, 0.1854591965675354, 0.2855337858200073, 0.1961912363767624, 0.31339341402053833, -0.011523731052875519, 0.13422010838985443, 0.037601571530103683, 0.027041291818022728, -0.025463851168751717, -0.029452117159962654, -0.06568954885005951, -0.29888102412223816, -0.10457577556371689, -0.06974732875823975, 0.2781308591365814, 0.37924593687057495, 0.0006087623187340796, 0.16013284027576447, -0.06198728457093239, -0.09245117008686066, -0.10162536054849625, 0.2310211956501007, 0.22134026885032654, 0.21161271631717682, 0.039919108152389526, 0.27590668201446533, 0.12550020217895508, 0.006097408942878246, 0.2967568039894104, 0.13183191418647766, 0.13706089556217194, 0.13110144436359406, -0.054164670407772064, 0.1147056519985199, 0.09701404720544815, -0.1053619384765625, -0.04577494412660599, 0.0031317027751356363, -0.16613350808620453, -0.35536989569664, -0.12537895143032074, -0.013994885608553886, -0.01956111192703247, 0.027414584532380104, 0.17171736061573029, -0.12266161292791367, 0.02754201367497444, -0.03497776761651039, 0.11702799052000046, 0.38040903210639954, 0.35691389441490173, 0.05604523420333862, 0.09097059816122055, 0.2697102427482605, 0.15981519222259521, 0.009395753964781761, 0.24204964935779572, 0.12227468192577362, -0.057592254132032394, -0.13222667574882507, -0.01286008395254612, 0.018971700221300125, -0.10941093415021896, -0.10539662092924118, -0.06994128227233887, -0.06471537053585052, -0.0023823780938982964, -0.08109158277511597, -0.08786728233098984, -0.051062602549791336, 0.30499809980392456, 0.3385198712348938, -0.022980425506830215, -0.06356501579284668, -0.04042097553610802, 0.04850151389837265, 0.22048376500606537, 0.3240621089935303, 0.49015092849731445, 0.08827276527881622, 0.046331822872161865, 0.07998356968164444, -0.13079936802387238, -0.11732816696166992, 0.22679007053375244, 0.012678660452365875, -0.013463528826832771, 0.0207274928689003, 0.022891441360116005, 0.0035206645261496305, -0.1657530665397644, -0.05730360373854637, 0.1139233410358429, 0.2010258585214615, -0.20073194801807404, 0.005465764552354813, 0.06654593348503113, 0.042238809168338776, 0.38994452357292175, 0.2124919593334198, 0.10077380388975143, -0.02124127373099327, -0.011838573962450027, -0.03739696368575096, 0.36685091257095337, -0.20089994370937347, 0.0870070606470108, 0.18032340705394745, 0.014365454204380512, 0.013078559190034866, -0.06701414287090302, 0.08349714428186417, 0.12778069078922272, 0.1320834755897522, -0.006320117507129908, 0.10062967240810394, 0.051421355456113815, -0.06823098659515381, -0.10888971388339996, 0.1594543159008026, 0.06047621741890907, 0.12158340960741043, -0.2053341269493103, 0.07118578255176544, 0.10344194620847702, 0.1524246335029602, 0.2102571576833725, 0.05838928371667862, -0.1708122193813324, -0.0003443550958763808, 0.022747041657567024, 0.026348566636443138, -0.006499111652374268, -0.59307861328125, -0.452949583530426, -0.009419568814337254, -0.01540195383131504, 0.016846220940351486, -0.09320946782827377, -0.00398924620822072, -0.03171354532241821, 0.08149881660938263, -0.010369331575930119, 0.14918288588523865, -0.06503505259752274, 0.09850603342056274, 0.15435241162776947, 0.2307492196559906, 0.22122371196746826, 0.09670940786600113, -0.023092005401849747, 0.12929576635360718, 0.47160008549690247, 0.41167187690734863, 0.2015502154827118, 0.0632018968462944, -0.14743372797966003, 0.007471706718206406, 0.027293547987937927, 0.033964164555072784, -0.27229899168014526, -0.11254365742206573, 0.019462520256638527, 0.12910468876361847, -0.05987894907593727, -0.3788698613643646, -0.3131859600543976, -0.2366413027048111, -0.23420976102352142, 0.012588086538016796, 0.09962815791368484, -0.010523525066673756, 0.0716705471277237, 0.3155559003353119, 0.19694384932518005, 0.05510213226079941, 0.11057647317647934, 0.21545621752738953, 0.12299187481403351, 0.13436228036880493, 0.4398292303085327, 0.3008633852005005, 0.3837074935436249, 0.16264767944812775, 0.07385101169347763, 0.007344433572143316, 0.02476937510073185, -0.01577787473797798, -0.29050445556640625, -0.11158214509487152, -0.3797781467437744, -0.3630933165550232, -0.03949906677007675, -0.01939004473388195, -0.0061459909193217754, -0.25642091035842896, 0.11578970402479172, -0.024555252864956856, 0.2987571656703949, 0.08197896182537079, 0.04155847057700157, 0.23639172315597534, 0.06551531702280045, 0.029462989419698715, 0.09849583357572556, 0.27127519249916077, 0.21152110397815704, -0.005671810358762741, -0.018114596605300903, -0.19599708914756775, -0.0216959360986948, -0.1101139485836029, -0.017160382121801376, -0.01423946488648653, 0.03399978578090668, 0.006600750610232353, 0.01674419641494751, 0.2151697278022766, -0.6383509635925293, -0.6482583284378052, -0.4349084198474884, 0.35999563336372375, 0.23671351373195648, -0.0839332789182663, 0.09178148210048676, -0.07428152859210968, -0.12308702617883682, 0.07393670082092285, 0.09370923042297363, -0.06983380764722824, -0.02776729315519333, -0.008711419068276882, 0.24275392293930054, 0.29318884015083313, 0.2146586924791336, -0.20752951502799988, -0.17710287868976593, 0.10792357474565506, -0.03658400848507881, -0.06693486124277115, -0.019356345757842064, -0.01360702607780695, 0.000267927156528458, -0.009066467173397541, 0.009066837839782238, -0.02799909934401512, 0.0578237883746624, -0.11206477135419846, 0.0013156150234863162, 0.1552843153476715, 0.24578718841075897, 0.255318284034729, 0.3341653048992157, 0.15162760019302368, 0.08690069615840912, 0.3914544880390167, 0.23187510669231415, 0.19849134981632233, 0.17710979282855988, 0.03111017495393753, -0.03675217181444168, -0.12512408196926117, -0.3245435059070587, -0.3799542784690857, -0.35893383622169495, 0.03463958203792572, 0.02687862142920494, 0.017847755923867226, -0.007032543886452913, 0.018641507253050804], [0.03350429981946945, -0.008324538357555866, -0.034200116991996765, 0.007187166716903448, 0.00819586031138897, 0.011908442713320255, -0.027919575572013855, -0.021278245374560356, 0.021787483245134354, 0.004769419319927692, -0.025325192138552666, 0.0018506902270019054, 0.010473919101059437, 0.05380580574274063, 0.006998606491833925, 0.04702762886881828, -0.013318241573870182, -0.0028919067699462175, -0.017168058082461357, 0.02121088095009327, 0.001389363082125783, -0.015087771229445934, -0.00387712474912405, 0.02982669696211815, -0.0176997147500515, 0.0018340392271056771, -0.02104784920811653, -0.02040454000234604, 0.026651136577129364, -0.014486845582723618, -0.015958650037646294, 0.0016388936201110482, -0.0031368189956992865, -0.010870605707168579, 0.029854141175746918, 0.055504199117422104, 0.06102299317717552, 0.01800675317645073, 0.27860167622566223, 0.28876152634620667, 0.29966795444488525, 0.09269043058156967, 0.024012912064790726, 0.03422269597649574, 0.13720767199993134, 0.1620239019393921, -0.013604423962533474, -0.045425187796354294, -0.05319148674607277, -0.017420772463083267, 0.0389283262193203, 0.05444105342030525, -0.016751695424318314, -0.0006736560026183724, 0.021115576848387718, 0.03461555391550064, 0.015040453523397446, -0.008269314654171467, 0.005820105317980051, 0.04025128483772278, 0.0682007372379303, 0.011136448010802269, 0.20712624490261078, 0.22256964445114136, 0.16298766434192657, 0.19679123163223267, 0.3030143976211548, 0.2598222494125366, 0.35339173674583435, 0.4031118154525757, 0.2566487491130829, -0.02128748781979084, -0.04588213562965393, 0.09110231697559357, 0.18209995329380035, -0.06697041541337967, -0.30003657937049866, 0.03139185532927513, 0.04533593729138374, 0.20875556766986847, 0.24343208968639374, 0.043879929929971695, -0.007662879768759012, -0.008853661827743053, -0.010184356942772865, 0.024912985041737556, 0.034115202724933624, -0.2955749034881592, -0.4024311602115631, 0.054328884929418564, 0.09725391119718552, -0.2900664806365967, -0.27430373430252075, -0.24397186934947968, -0.10227717459201813, 0.1649828851222992, 0.13884560763835907, 0.06236600875854492, 0.06297384947538376, -0.08519544452428818, -0.040717050433158875, 0.07981476187705994, 0.168803870677948, -0.11161050945520401, -0.665968120098114, -0.6121047139167786, -0.3301623463630676, -0.23649384081363678, -0.029186610132455826, -0.05893045291304588, -0.03620348125696182, -0.014426100067794323, 0.027702707797288895, 0.013031099922955036, 0.07261352986097336, -0.24975644052028656, -0.05233127996325493, -0.16733627021312714, 0.07797946035861969, 0.13581408560276031, 0.046626586467027664, 0.05096883326768875, -0.05253925547003746, -0.07942917943000793, -0.045295558869838715, 0.16671210527420044, 0.23110289871692657, 0.17734520137310028, -0.13102096319198608, -0.017395783215761185, 0.29340091347694397, 0.2281327098608017, 0.1704689860343933, -0.20386368036270142, -0.18369200825691223, -0.045286424458026886, -0.4242094159126282, -0.1732310950756073, -0.09799015522003174, 7.465481758117676e-05, 0.014874676242470741, 0.02049620822072029, -0.060103751718997955, -0.14686177670955658, 0.09371036291122437, -0.05520705506205559, 0.03601820766925812, 0.08055064082145691, 0.2797792851924896, 0.2238958179950714, 0.10987038910388947, 0.05994069576263428, 0.08639611303806305, 0.10672592371702194, 0.14930878579616547, 0.02621680311858654, 0.17799222469329834, 0.037071987986564636, -0.056930940598249435, 0.19150002300739288, 0.110997274518013, -0.087711863219738, -0.13909944891929626, 0.21768605709075928, -0.21212902665138245, -0.3058950901031494, -0.2380564957857132, -0.04189852252602577, -0.013071141205728054, 0.06138996407389641, -0.10470025986433029, 0.16128787398338318, 0.21523529291152954, -0.23433679342269897, -0.1244172677397728, 0.03111865557730198, 0.2272476851940155, 0.06938925385475159, 0.12332116812467575, 0.12491223216056824, 0.18504418432712555, -0.07095974683761597, 0.08709413558244705, 0.020318955183029175, 0.08610532432794571, 0.05472654476761818, -0.06916595995426178, 0.0570967011153698, -0.019831115379929543, -0.037099048495292664, -0.09377922117710114, 0.0048891836777329445, -0.04833132401108742, -0.32715290784835815, -0.27989938855171204, -0.08278434723615646, 0.0169684961438179, 0.07075727730989456, -0.024281490594148636, 0.2662622928619385, 0.046185873448848724, -0.21190422773361206, -0.03862738236784935, 0.008812221698462963, -0.07610069960355759, 0.05841921642422676, 0.06002257391810417, 0.1950095146894455, 0.13976150751113892, 0.15401886403560638, 0.06035379320383072, 0.07995709031820297, 0.07679282873868942, 0.06169050186872482, 0.05120278149843216, 0.15373092889785767, 0.13773491978645325, -0.01820114254951477, -0.02439144067466259, -0.1198839470744133, 0.053704507648944855, -0.28335142135620117, -0.27137765288352966, -0.039863280951976776, 0.3254453241825104, 0.3410274088382721, 0.012562878429889679, -0.15211094915866852, -0.3284643292427063, -0.31093618273735046, -0.2413131296634674, -0.07619015127420425, 0.13901014626026154, 0.10772570967674255, 0.1716722697019577, 0.12059848755598068, 0.07418077439069748, -0.08976137638092041, 0.08721054345369339, 0.13953405618667603, 0.13473430275917053, 0.11091715097427368, 0.16928721964359283, 0.3258427679538727, 0.1206231638789177, -0.008626709692180157, -0.11027582734823227, -0.048114120960235596, -0.26925382018089294, -0.7041099071502686, -0.2592676281929016, -0.14038850367069244, -0.014775246381759644, 0.16883210837841034, -0.09821714460849762, -0.17606744170188904, 0.15063710510730743, 0.0979442223906517, -0.15073643624782562, 0.12822024524211884, 0.06618650257587433, 0.1084216758608818, 0.18267089128494263, 0.014853295870125294, 0.07874314486980438, -0.046516112983226776, -0.2803833484649658, -0.2528384029865265, 0.02254789136350155, 0.13354572653770447, 0.2888573408126831, 0.3065616488456726, 0.15556326508522034, -0.07756192237138748, -0.07518181204795837, -0.0075919548980891705, -0.5157626271247864, -0.28264331817626953, -0.34290578961372375, -0.04600577801465988, 0.001313024084083736, -0.0657205581665039, -0.17464469373226166, -0.044182583689689636, 0.01862356625497341, 0.42216840386390686, -0.02733740769326687, 0.16245286166667938, 0.1593894064426422, 0.19931647181510925, 0.06537069380283356, 0.052769534289836884, -0.014622063376009464, -0.06166659668087959, -0.8002318143844604, -0.5071600079536438, -0.058191798627376556, 0.26756954193115234, 0.16412220895290375, 0.1510324776172638, 0.16255494952201843, 0.06565340608358383, -0.08505981415510178, -0.0854438915848732, -0.4045916795730591, -0.48160815238952637, -0.2663055956363678, -0.01963694579899311, -0.06489681452512741, 0.5346470475196838, -0.205552875995636, -0.0868070051074028, -0.1593293994665146, 0.4382161498069763, 0.06380406022071838, 0.11416018009185791, -0.02951507642865181, 0.18261343240737915, -0.012832595966756344, 0.003916150890290737, 0.007257073186337948, -0.2536519467830658, -0.9552069902420044, -0.3562184274196625, -0.0640709176659584, 0.12763474881649017, 0.027959337458014488, -0.022171001881361008, 0.14493273198604584, -0.09454987943172455, -0.26837682723999023, -0.05384184047579765, -0.23919308185577393, -0.49627918004989624, -0.17640772461891174, -0.06711894273757935, -0.06445802748203278, 0.0190495103597641, -0.2111295461654663, -0.29655757546424866, -0.22919000685214996, 0.05001644045114517, 0.02348579280078411, -0.164165198802948, 0.010440055280923843, 0.06798147410154343, -0.012527018785476685, -0.2721507251262665, -0.20957092940807343, -0.5752797722816467, -0.6653050780296326, -0.30491146445274353, 0.07382838428020477, 0.11323008686304092, -0.09732652455568314, -0.1024155244231224, 0.045717012137174606, -0.05479571223258972, -0.026042582467198372, 0.2087031751871109, -0.17401689291000366, -0.661212146282196, -0.4951523244380951, -0.026484739035367966, 0.009701797738671303, 0.11588005721569061, 0.18348009884357452, -0.30665773153305054, -0.3190840780735016, -0.2213001400232315, -0.10710515826940536, -0.17514139413833618, -0.002671535825356841, 0.06459860503673553, -0.18760624527931213, -0.39454570412635803, -0.3810887634754181, -0.3925075829029083, -0.29565584659576416, -0.14687377214431763, 0.0024497276172041893, 0.07929130643606186, -0.07586345821619034, -0.09571949392557144, 0.016047488898038864, -0.18022975325584412, -0.08075389266014099, 0.20951978862285614, -0.14775456488132477, -0.35149556398391724, -0.35461118817329407, 0.012399671599268913, -0.13085685670375824, -0.07258053123950958, 0.2736513912677765, -0.2427385151386261, -0.26819977164268494, -0.29065901041030884, 0.012650132179260254, 0.011518445797264576, -0.14248758554458618, -0.11908502131700516, -0.4572792649269104, -0.41375428438186646, -0.1619689166545868, -0.28906741738319397, -0.2031567394733429, -0.06795723736286163, 0.059729281812906265, 0.08501813560724258, 0.01884952373802662, 0.12840969860553741, 0.03798261284828186, -0.051012489944696426, -0.21634653210639954, -0.3390721380710602, -0.1004316583275795, 0.07706930488348007, 0.16785961389541626, 0.04602274298667908, -0.09785187989473343, -0.15930217504501343, 0.04429614916443825, -0.41567477583885193, -0.4140681028366089, -0.3367736339569092, -0.25113677978515625, -0.17433898150920868, 0.0011120688868686557, 0.10237842798233032, -0.22612586617469788, -0.37111592292785645, -0.20873397588729858, -0.24970310926437378, -0.16608253121376038, -0.057519808411598206, -0.048497118055820465, -0.021757980808615685, 0.02041296847164631, 0.003464039182290435, 0.06994075328111649, 0.1792146861553192, -0.32550472021102905, -0.3563116192817688, -0.1522713452577591, 0.14018796384334564, 0.2723177969455719, 0.034137140959501266, 0.005601836368441582, -0.10116612911224365, 0.16451017558574677, -0.33730602264404297, -0.2533140778541565, -0.2818993031978607, -0.2844320237636566, -0.2047603726387024, -0.09362219274044037, -0.05636473372578621, -0.17572465538978577, -0.13361041247844696, -0.22689944505691528, -0.1859062910079956, -0.25040268898010254, -0.15999285876750946, -0.06445606052875519, -0.08732327818870544, -0.1337481290102005, -0.028177611529827118, -0.10970000177621841, 0.10644792765378952, -0.18594318628311157, -0.21007320284843445, -0.07127885520458221, 0.3021458089351654, 0.14690059423446655, 0.03309058025479317, 0.008310156874358654, -0.14796607196331024, 0.11956818401813507, 0.01495462004095316, 0.021295100450515747, -0.16938455402851105, -0.24444790184497833, -0.28428158164024353, 0.04076840728521347, 0.022807957604527473, -0.09457738697528839, -0.17763176560401917, -0.21566662192344666, -0.27194514870643616, -0.39706116914749146, -0.10078298300504684, -0.0271099004894495, -0.037434935569763184, 0.01930638961493969, 0.06490063667297363, -0.15912219882011414, -0.14778602123260498, -0.11426932364702225, -0.1814471334218979, -0.1393585205078125, 0.5757761001586914, 0.2969164252281189, 0.3219274878501892, 0.007668868638575077, -0.059192921966314316, -0.1258840411901474, -0.2276736944913864, 0.11021889001131058, -0.1801847368478775, 0.0017449756851419806, 0.16726244986057281, 0.175403892993927, 0.05956481397151947, 0.02084042876958847, 0.04818596690893173, -0.0370037704706192, -0.23878398537635803, -0.2769438624382019, -0.11806846410036087, -0.0344993993639946, 0.10770794749259949, 0.12504461407661438, 0.04114779084920883, -0.03570617362856865, -0.1457628458738327, -0.025631582364439964, -0.05505219101905823, -0.08687739819288254, 0.3302406072616577, 0.7248150110244751, 0.3900185525417328, -0.00953738670796156, 0.039492685347795486, -0.0173636544495821, -0.20493175089359283, 0.006475652102380991, -0.21124275028705597, 0.07080160081386566, 0.20992399752140045, 0.08283485472202301, 0.024236304685473442, 0.06045647710561752, 0.2132849246263504, 0.030660731717944145, -0.047410108149051666, -0.13711091876029968, -0.11853291839361191, -0.11030509322881699, 0.010107320733368397, -0.13585558533668518, -0.023292450234293938, 0.08625487983226776, -0.18079565465450287, -0.14945979416370392, 0.06837818771600723, -0.03571450337767601, 0.13786077499389648, 0.6541722416877747, 0.354218989610672, -0.02853047102689743, 0.014079184271395206, 0.27148184180259705, 0.0958278626203537, -0.14415250718593597, -0.05968529358506203, 0.1919713020324707, 0.05945393443107605, -0.02392210252583027, 0.025384632870554924, 0.20201262831687927, 0.3972513973712921, 0.24424013495445251, 0.038481418043375015, -0.14818227291107178, -0.11849291622638702, -0.06442234665155411, -0.1500084102153778, -0.26695290207862854, -0.010305228643119335, 8.304894436150789e-05, 0.00720149977132678, -0.04950128495693207, 0.1573038399219513, -0.0983661562204361, -0.011558017693459988, 0.6301524043083191, -0.08208867162466049, 0.039293959736824036, 0.1477546989917755, 0.42390644550323486, 0.3849678933620453, -0.025534426793456078, -0.06525644659996033, -0.051220715045928955, -0.19974903762340546, -0.07242469489574432, -0.034536805003881454, 0.22089043259620667, 0.31191369891166687, 0.20319660007953644, 0.13289779424667358, 0.1258353441953659, 0.06641232967376709, 0.07217860966920853, -0.09794159978628159, -0.02934999205172062, 0.1549789011478424, 0.07624369859695435, 0.04293675348162651, 0.34082645177841187, 0.5078138113021851, 0.24873241782188416, 0.16061562299728394, 0.523830771446228, 0.017665937542915344, -0.015141889452934265, 0.009011341258883476, 0.3445695638656616, 0.03812377154827118, -0.06320512294769287, -0.08630494028329849, -0.0831414982676506, 0.07136890292167664, 0.11435279250144958, 0.1231958270072937, 0.1906203329563141, 0.02009054645895958, 0.0051054093055427074, -0.02520250529050827, 0.10168437659740448, 0.12190263718366623, 0.09575235098600388, 0.08607374131679535, 0.16698652505874634, 0.15312333405017853, 0.0021215069573372602, 0.09117240458726883, 0.2876213490962982, 0.27916812896728516, 0.38112780451774597, 0.04436561465263367, -0.12562598288059235, -0.025156885385513306, -0.0035816433373838663, 0.008300249464809895, -0.25262451171875, -0.2224714159965515, 0.04362164065241814, -0.17742182314395905, 0.007513448596000671, 0.1981106847524643, 0.15977807343006134, 0.13261331617832184, 0.07025553286075592, 0.07805380970239639, 0.13560324907302856, -0.018591471016407013, 0.08176629990339279, 0.022845586761832237, -0.010019971057772636, 0.04163937270641327, 0.15766248106956482, 0.2893458306789398, 0.11911346763372421, 0.06714130192995071, 0.10416349023580551, 0.21245265007019043, 0.27867624163627625, -0.055951207876205444, -0.20698001980781555, -0.033266954123973846, 0.02638096548616886, -0.020021039992570877, 0.08592198044061661, -0.04460534080862999, 0.4907321035861969, 0.15772710740566254, -0.019178805872797966, -0.11714939773082733, 0.0569479800760746, 0.15088632702827454, -0.12016765028238297, -0.09014596790075302, 0.018119968473911285, -0.19711445271968842, -0.2779942452907562, -0.05807008594274521, 0.17794591188430786, 0.030386492609977722, 0.09260579943656921, -0.029044758528470993, -0.27983003854751587, 0.18137246370315552, 0.15165774524211884, 0.20346589386463165, 0.3748326301574707, 0.3806823194026947, 0.2387200891971588, -0.010395918972790241, -0.00841687060892582, -0.016982806846499443, -0.27833524346351624, 0.21405336260795593, 0.24324381351470947, 0.014946294948458672, 0.06068543344736099, 0.1328185498714447, -0.0008502143318764865, 0.08633553981781006, -0.12766197323799133, -0.03461413457989693, 0.038163553923368454, -0.05208636820316315, -0.02104249782860279, 0.07664153724908829, 0.19607402384281158, 0.1551964432001114, -0.1601286083459854, -0.19897711277008057, 0.11742612719535828, 0.11519616097211838, -0.1505604386329651, -0.21027128398418427, -0.08747049421072006, 0.259312242269516, 0.2407858967781067, -0.033404819667339325, -0.007270157802850008, 0.0055369907058775425, -0.028980035334825516, -0.045386333018541336, -0.3373810946941376, -0.43301042914390564, -0.3345707654953003, 0.2198258638381958, 0.5400437116622925, 0.33219629526138306, -0.05753031000494957, -0.37966445088386536, -0.22051723301410675, -0.059722650796175, 0.09584623575210571, 0.23214168846607208, 0.4009157717227936, 0.06936232000589371, 0.3957052528858185, 0.4186670780181885, 0.1374136507511139, -0.3084910213947296, -0.05043429136276245, -0.15610772371292114, -0.1863085776567459, 0.15197938680648804, 0.007187915965914726, -0.03424646332859993, -0.014818464405834675, 0.004392313305288553, 0.03088466264307499, -0.0229670237749815, 0.1694016456604004, 0.2988433241844177, 0.3497336804866791, 0.40923193097114563, 0.4375463128089905, 0.3197730779647827, 0.44222527742385864, 0.4687104821205139, 0.4133574366569519, 0.6679380536079407, 0.29677310585975647, 0.3820135295391083, 0.5137090682983398, 0.3336602747440338, 0.15825040638446808, 0.3357916474342346, 0.16035884618759155, 0.20622186362743378, -0.023694222792983055, 0.027087515220046043, 0.016637513414025307, 0.03227713331580162, 0.00045391920139081776, 0.031528908759355545], [-0.01853703334927559, 0.0036638423334807158, 0.025652576237916946, -0.025495853275060654, -0.019125748425722122, 0.009442657232284546, -0.024442976340651512, -0.006806386634707451, 0.0028992551378905773, -0.005587624851614237, 0.027660345658659935, 0.0031868177466094494, 0.046434611082077026, 0.10226172208786011, 0.09366010874509811, 0.05126137286424637, 0.024699054658412933, -0.03367917984724045, 0.0018457004334777594, -0.025174934417009354, 0.013415771536529064, 0.0042979419231414795, 0.012814301066100597, -0.02308761328458786, 0.03163951262831688, 0.007482737768441439, 0.02161298505961895, -0.007755790837109089, 0.018627887591719627, 0.02639494277536869, -0.026978518813848495, -0.0035886340774595737, -0.016873933374881744, 0.012868708930909634, 0.09185001999139786, 0.06613463163375854, 0.08790688216686249, 0.10227283835411072, 0.15906257927417755, 0.13133558630943298, 0.1916498988866806, -0.050081659108400345, -0.12521663308143616, 0.2769887447357178, 0.2239428460597992, 0.12054231762886047, 0.07028321176767349, -0.07012069970369339, -0.060659971088171005, -0.04798225313425064, 0.10011138767004013, 0.05105806514620781, 0.0011825263500213623, -0.011855138465762138, -0.0010642239358276129, -0.0038083239924162626, 0.00716779101639986, -0.00665759202092886, 0.04880492016673088, -0.00021223511430434883, -0.06058364734053612, -0.07796656340360641, -0.04118775576353073, 0.015010631643235683, 0.22234861552715302, 0.2248603105545044, 0.092555470764637, -0.1530112624168396, -0.10067559778690338, -0.022847911342978477, -0.11308672279119492, 0.20956319570541382, 0.33737313747406006, 0.39836958050727844, 0.4294133186340332, 0.10811926424503326, 0.1473502367734909, 0.10436912626028061, -0.1141192689538002, 0.029209494590759277, 0.1475583016872406, 0.21117864549160004, -0.01430576667189598, 0.01780017465353012, -0.03225073218345642, -0.024187792092561722, 0.2740691006183624, 0.2690044939517975, -0.259501576423645, -0.12006188184022903, 0.3884049952030182, 0.2961704134941101, 0.11165093630552292, 0.2983281910419464, 0.026250332593917847, -0.02031945437192917, 0.40978214144706726, 0.08642885088920593, -0.39855751395225525, -0.29419252276420593, -0.06471395492553711, -0.07732510566711426, 0.025895925238728523, 0.2756931483745575, 0.21712611615657806, -0.0354788638651371, -0.056821443140506744, -0.24678242206573486, -0.07935120910406113, 0.1976911425590515, 0.02163003571331501, 0.013901042751967907, 0.005241130478680134, -0.04406096041202545, 0.28961166739463806, 0.07226059585809708, 0.10399773716926575, 0.3780650794506073, 0.46280381083488464, 0.07129820436239243, -0.06163836270570755, 0.018309595063328743, 0.12045068293809891, 0.16641168296337128, 0.22059786319732666, 0.17711395025253296, 0.15474973618984222, 0.14825710654258728, 0.10345850139856339, -0.25247418880462646, -0.1601593941450119, -0.016088010743260384, -0.10462995618581772, -0.11242194473743439, -0.1480727195739746, 0.19297021627426147, -0.011702707968652248, 0.13886523246765137, 0.1522424966096878, -0.28115686774253845, -0.0011211080709472299, -0.01308954693377018, 0.31116172671318054, 0.3687722086906433, 0.47820258140563965, 0.38254013657569885, 0.08426110446453094, 0.1211613267660141, -0.03546498715877533, -0.025785112753510475, 0.20704032480716705, 0.003941943868994713, 0.0818789079785347, 0.012191278859972954, 0.09011177718639374, 0.01385911088436842, 0.02420463226735592, -0.048178981989622116, -0.06658989936113358, 0.0316091924905777, -0.15895497798919678, -0.013099010102450848, 0.18792910873889923, 0.28426817059516907, 0.196139395236969, 0.16473719477653503, -0.26033011078834534, -0.20564356446266174, 0.004105384927242994, 0.14912912249565125, -0.38688597083091736, 0.12044357508420944, -0.0763758048415184, -0.2312750518321991, -0.28788694739341736, -0.06813323497772217, -0.06331076472997665, 0.06432818621397018, 0.17144189774990082, 0.01066234428435564, 0.019819656386971474, -0.07686298340559006, 0.011129729449748993, -0.1580684632062912, -0.009471377357840538, 0.03596574440598488, 0.018217217177152634, -0.03153671696782112, -0.1937466859817505, -0.2840207517147064, -0.11219403892755508, 0.19579847157001495, 0.1741601973772049, -0.24854549765586853, -0.19405676424503326, 0.003642365103587508, -0.01929468847811222, 0.23371125757694244, -0.2118239849805832, 0.11533231288194656, -0.04413966089487076, -0.2724262475967407, -0.2500993609428406, 0.00757297407835722, 0.015736177563667297, -0.08062916249036789, -0.07533061504364014, 0.06845615059137344, -0.0033294723834842443, 0.014258955605328083, 0.08788610249757767, -0.051632340997457504, -0.0961150974035263, -0.047562241554260254, 0.061314914375543594, 0.09680157154798508, -0.006893023382872343, -0.22325672209262848, -0.07438558340072632, 0.02666393294930458, 0.11340218782424927, -0.14505203068256378, 0.26612961292266846, -0.03998931124806404, -0.019565172493457794, 0.2718519866466522, -0.10190979391336441, -0.02869894541800022, 0.029613113030791283, -0.08597791194915771, -0.19086533784866333, -0.18542978167533875, -0.2583943009376526, -0.1501462310552597, -0.031881749629974365, -0.009777269326150417, 0.09047133475542068, 0.11974789202213287, 0.24907618761062622, 0.06763380765914917, -0.20211340487003326, 0.03984605148434639, 0.06917907297611237, 0.1729433536529541, 0.0890914648771286, -0.1757509559392929, -0.05438896641135216, 0.12709800899028778, -0.1478416621685028, -0.15047258138656616, 0.05863390490412712, 0.30679672956466675, -0.054091885685920715, -0.00870903953909874, 0.029249850660562515, 0.08930007368326187, -0.0706600770354271, 0.10560325533151627, 0.058604851365089417, 0.06142875924706459, -0.007350366562604904, -0.14318394660949707, 0.1171431690454483, 0.1989920437335968, 0.22604604065418243, 0.03642119839787483, 0.14518296718597412, 0.22468045353889465, -0.029712554067373276, -0.07619819045066833, 0.08641038089990616, -0.0004927158006466925, -0.1305258423089981, -0.2566280961036682, 0.03296404331922531, 0.11678888648748398, -0.33716022968292236, -0.13381212949752808, -0.1828518956899643, -0.2254345715045929, -0.05089367926120758, 0.08156769722700119, -0.13766087591648102, -0.10216059535741806, -0.2480781376361847, 0.12435370683670044, 0.08247894793748856, 0.12891651690006256, 0.27070003747940063, -0.05089978873729706, 0.16577550768852234, 0.10594857484102249, 0.09441963583230972, 0.08778901398181915, -0.06583061814308167, -0.003314984729513526, 0.07365710288286209, -0.12269631028175354, -0.09607551246881485, -0.011709785088896751, -0.15493667125701904, -0.1747339963912964, 0.0015488601056858897, 0.08029212057590485, -0.2418810874223709, 0.02823064662516117, 0.02955668792128563, -0.07404554635286331, -0.16605719923973083, -0.13760215044021606, -0.05517101660370827, -0.18529252707958221, 0.028375234454870224, 0.2013482004404068, 0.09287416934967041, 0.004522898234426975, 0.03304561600089073, 0.003377828048542142, -0.028408261016011238, 0.046802371740341187, -0.18880504369735718, -0.4331425428390503, -0.08373376727104187, -0.10178520530462265, -0.10623835772275925, -0.22366802394390106, -0.06294501572847366, -0.1166224256157875, 0.0487082414329052, -0.05721987411379814, 0.19884371757507324, 0.10186748206615448, -0.15483497083187103, 0.3309280574321747, -0.13306081295013428, 0.4463807940483093, -0.19589018821716309, -0.0684916228055954, -0.08027376979589462, -0.43778273463249207, -0.1945725381374359, -0.11783003062009811, -0.16301414370536804, -0.27681851387023926, -0.16539344191551208, -0.18420107662677765, -0.33428841829299927, -0.562643826007843, -0.4599432945251465, -0.3870026469230652, -0.09693632274866104, -0.1399577558040619, -0.15534310042858124, -0.12642841041088104, -0.07126034051179886, -0.15615078806877136, -0.04558714106678963, 0.18148021399974823, 0.1569906771183014, 0.10791635513305664, 0.11088486015796661, 0.11578316986560822, 0.02555018477141857, 0.14824053645133972, 0.2389935553073883, -0.07082158327102661, -0.1069827526807785, -0.48193562030792236, -0.41000205278396606, -0.2728314697742462, -0.6567568182945251, -0.7981873750686646, -0.6721407175064087, -0.39675065875053406, -0.5832415223121643, -0.4771564304828644, -0.2429521679878235, -0.017264170572161674, 0.08270154148340225, -0.1404002457857132, -0.16415148973464966, 0.010601522400975227, 0.09235231578350067, -0.09370604157447815, 0.111494280397892, 0.09747151285409927, -0.06779906153678894, -0.10713523626327515, -0.12431302666664124, -0.15170082449913025, 0.17017106711864471, -0.05308190733194351, -0.02414170280098915, -0.1720735728740692, 0.257673442363739, -0.3264869153499603, -0.46944326162338257, -0.885644793510437, -0.9023542404174805, -0.7129338383674622, -0.6250820159912109, -0.2319829910993576, -0.21633310616016388, -0.16370870172977448, 0.01911567710340023, 0.10502636432647705, 0.18517829477787018, -0.029864948242902756, -0.061534009873867035, 0.021194472908973694, 0.12067960947751999, 0.048506107181310654, -0.02790166437625885, -0.03239215165376663, -0.09473594278097153, -0.27038440108299255, -0.309882253408432, -0.37285175919532776, 0.30027467012405396, 0.14164090156555176, -0.04826337844133377, -0.08784840255975723, 0.40795624256134033, -0.273136168718338, -0.341839075088501, -0.47548192739486694, -0.285014808177948, -0.16850139200687408, 0.0992586612701416, 0.011980070732533932, -0.0924300104379654, -0.039037879556417465, 0.14064384996891022, 0.3700786530971527, 0.2446182370185852, 0.04417929798364639, -0.028210485354065895, -0.015097983181476593, -0.026287442073225975, -0.04531407728791237, -0.11018913984298706, 0.004206523299217224, -0.27810636162757874, -0.2850027084350586, -0.05003715306520462, 0.05278899148106575, 0.3952155113220215, 0.3994239568710327, -0.032058440148830414, -0.015076208859682083, 0.33239200711250305, -0.013104024343192577, -0.18227973580360413, 0.021126631647348404, 0.31047385931015015, 0.23355169594287872, 0.11541357636451721, 0.23674236238002777, 0.018146609887480736, 0.05179727077484131, 0.16553446650505066, 0.39409324526786804, 0.30361637473106384, -0.029377510771155357, 0.04677877575159073, 0.062401480972766876, -0.05762943997979164, -0.1207272931933403, -0.10727579891681671, 0.11757328361272812, 0.0544515959918499, -0.07512558996677399, 0.3314698040485382, 0.20516324043273926, 0.2529469132423401, 0.36837488412857056, -0.001720696804113686, 0.13145658373832703, 0.10552868992090225, 0.4197140336036682, 0.1385335773229599, 0.1608995944261551, 0.26427367329597473, 0.3450678288936615, 0.3745776116847992, 0.1791132539510727, 0.0038314820267260075, -0.010264232754707336, 0.17222633957862854, 0.23758769035339355, 0.14815793931484222, 0.01521352119743824, 0.013868399895727634, -0.056948963552713394, -0.19590885937213898, -0.12633535265922546, -0.21296143531799316, -0.12336968630552292, -0.13348430395126343, -0.16411690413951874, -0.1422021985054016, 0.12577317655086517, 0.4275592565536499, 0.626098096370697, 0.002489931182935834, 0.14564993977546692, -0.09525229781866074, 0.37197721004486084, 0.30150535702705383, 0.28337788581848145, 0.2643178105354309, 0.2155747413635254, 0.11520479619503021, 0.010801859200000763, -0.01713259331882, -0.12471536546945572, 0.0014905697898939252, 0.09987979382276535, 0.11923448741436005, 0.047555286437273026, 0.04607407748699188, -0.1095232143998146, -0.20339703559875488, -0.06858926266431808, -0.20058979094028473, -0.1624341458082199, -0.09878277033567429, -0.07349316775798798, 0.13392356038093567, 0.38718581199645996, 0.14799901843070984, 0.48074331879615784, 0.031050821766257286, -0.055797360837459564, 0.21787674725055695, -0.03388343006372452, 0.13127024471759796, 0.16358336806297302, 0.3037792146205902, 0.1942102462053299, 0.12420110404491425, 0.026985298842191696, -0.057897668331861496, -0.032175060361623764, -0.1495271623134613, 0.18852323293685913, 0.09298435598611832, 0.024524491280317307, -0.012436902150511742, -0.07280159741640091, -0.0982699766755104, 0.0011498720850795507, -0.11752183735370636, -0.07547127455472946, -0.0002625471679493785, 0.14811836183071136, 0.06501170992851257, 0.6192454695701599, 0.2383139729499817, 0.3821942210197449, -0.013041024096310139, -0.06324423849582672, 0.3476676642894745, 0.412252813577652, 0.2516379654407501, 0.3270356357097626, 0.5080336928367615, 0.22964096069335938, 0.1224556416273117, 0.055464815348386765, 0.03161430358886719, -0.06292351335287094, -0.010497366078197956, 0.040304407477378845, -0.008466795086860657, 0.09584193676710129, 0.27978330850601196, 0.26173001527786255, 0.3590976893901825, 0.005563476122915745, 0.04962039738893509, 0.14076171815395355, 0.13096778094768524, 0.24976703524589539, 0.2055683583021164, 0.6144251227378845, 0.19832225143909454, 0.30539244413375854, 0.004722405690699816, 0.1174805536866188, 0.3322480320930481, 0.5167987942695618, 0.24542459845542908, 0.1696445345878601, 0.1888202279806137, 0.14858593046665192, -0.027710918337106705, -0.03082975372672081, 0.09700032323598862, 0.07139380276203156, 0.1264093518257141, 0.09874454140663147, 0.1268012374639511, 0.23096393048763275, 0.12512792646884918, 0.06583888828754425, 0.4478515386581421, 0.1742858588695526, 0.19989827275276184, 0.20599612593650818, 0.25242292881011963, 0.3986865282058716, 0.5410993099212646, 0.5805572867393494, 0.13110940158367157, 0.03564108535647392, 0.004993741866201162, 0.025538813322782516, 0.12822170555591583, 0.026807347312569618, 0.04302424564957619, 0.26033633947372437, 0.03936414420604706, -0.0057723745703697205, -0.0033080335706472397, 0.007324875798076391, 0.05612138658761978, 0.09619323909282684, -0.03108508326113224, 0.001607498386874795, 0.054380882531404495, 0.06269539147615433, -0.0015006470493972301, 0.04062974825501442, 0.13764555752277374, 0.18752369284629822, 0.2721264958381653, 0.34130001068115234, 0.1733422428369522, 0.2409687340259552, 0.6653715372085571, 0.4569839835166931, 0.14013540744781494, -0.02434593066573143, 0.009912720881402493, 0.004028899595141411, 0.13551056385040283, 0.04353001341223717, -0.011914531700313091, -0.024032846093177795, -0.10003530234098434, -0.0555296428501606, -0.10946181416511536, 0.04815559461712837, 0.12095388770103455, 0.24539275467395782, 0.05738101899623871, 0.1345638930797577, 0.15992890298366547, 0.08714822679758072, 0.1258385181427002, 0.02945328690111637, -0.1392451971769333, -0.049438219517469406, 0.13548415899276733, 0.26337912678718567, 0.10619965940713882, 0.4201684296131134, 0.5749565958976746, 0.302578330039978, 0.46560218930244446, -0.008406056091189384, -0.020999351516366005, 0.0207100510597229, 0.025607192888855934, 0.12010040134191513, 0.19866544008255005, -0.13785263895988464, -0.18714138865470886, -0.27242621779441833, -0.11805396527051926, 0.010591070167720318, -0.11441676318645477, 0.159650519490242, 0.0931706354022026, -0.25615042448043823, -0.18944448232650757, -0.2762864828109741, -0.45389845967292786, -0.001681406400166452, -0.174778550863266, -0.12903958559036255, -0.01990845799446106, 0.07119163125753403, 0.11929652094841003, 0.2612598240375519, 0.3898699879646301, 0.285556823015213, 0.30703628063201904, 0.0073259733617305756, -0.02902606688439846, 0.004669168498367071, -0.0022215459030121565, -0.08036112040281296, -0.5288648009300232, -0.34515616297721863, 0.023228172212839127, 0.022760804742574692, 0.1848125159740448, -0.0907733142375946, -0.009567299857735634, -0.16732735931873322, 0.04002993553876877, -0.16306400299072266, -0.0657193511724472, -0.03299254924058914, -0.09290143102407455, 0.056952524930238724, 0.004403733182698488, 0.01742938533425331, 0.13458441197872162, -0.18998241424560547, -0.35189369320869446, -0.2194565236568451, 0.15417036414146423, 0.23007774353027344, 0.23896166682243347, 0.02937643602490425, 0.0179011020809412, 0.033042654395103455, -0.004116820637136698, -0.041656721383333206, -0.515778660774231, -0.5411474704742432, -0.44122225046157837, -0.10755092650651932, 0.3171607553958893, 0.15549571812152863, 0.42734506726264954, 0.05241890251636505, -0.12177502363920212, -0.10612384974956512, 0.2242552489042282, 0.15673217177391052, -0.1514645516872406, -0.24370162189006805, -0.20831310749053955, -0.2625766098499298, -0.290253221988678, -0.575415849685669, -0.47016170620918274, 0.10324916243553162, -0.025418151170015335, -0.10966839641332626, 0.033178430050611496, 0.02347940392792225, 0.03307344764471054, -0.03283202275633812, -0.02062280848622322, -0.004823293071240187, 0.05368463695049286, -0.16554932296276093, -0.07982932031154633, -0.09252047538757324, 0.029747921973466873, 0.08635441213846207, 0.007534719537943602, -0.16978682577610016, -0.156431645154953, 0.2894051969051361, 0.26171571016311646, 0.028941646218299866, -0.08647040277719498, -0.4557105004787445, -0.34115487337112427, -0.0723171979188919, -0.2961471974849701, -0.4246116578578949, -0.3600950837135315, -0.02883872576057911, 0.02419455163180828, 0.009276513941586018, 0.020364336669445038, -0.015192301012575626], [-0.008247120305895805, -0.017818480730056763, 0.010193872265517712, 0.0023818102199584246, -0.022326471284031868, 0.0009633430745452642, -0.009058569557964802, -0.0014558903640136123, -0.012555493041872978, -0.02898349240422249, 0.022757437080144882, -0.032127708196640015, 0.03344746306538582, 0.05881377309560776, 0.059311140328645706, 0.035578638315200806, 0.028006495907902718, 0.01631755195558071, 0.014851856045424938, -0.013531149365007877, -0.0332333967089653, 0.03367127478122711, -0.015679772943258286, 0.006032824981957674, 0.006347260437905788, 0.01963641494512558, -0.006050910335034132, 0.023067917674779892, -0.02631337009370327, -0.020532388240098953, -0.016602015122771263, -0.002454659901559353, 0.022308621555566788, 0.02782609313726425, 0.14549735188484192, 0.17604610323905945, 0.1877218633890152, 0.17171639204025269, 0.027605369687080383, 0.0566243939101696, 0.13495777547359467, 0.27214741706848145, -0.2310754507780075, 0.3807755708694458, 0.46114709973335266, 0.45246800780296326, 0.35976657271385193, 0.34745314717292786, 0.3315678834915161, 0.23701505362987518, 0.17667561769485474, 0.16756100952625275, 0.0006478343857452273, 0.00019301688007544726, -0.019021136686205864, 0.03092535212635994, 0.013358342461287975, -0.0275205597281456, 0.022193659096956253, 0.13164059817790985, 0.23717311024665833, 0.1810980588197708, 0.15171685814857483, 0.11551447957754135, 0.13781994581222534, 0.15533167123794556, 0.368076890707016, 0.5824444890022278, 0.47365647554397583, 0.00015786185394972563, 0.5003086924552917, 0.42828288674354553, 0.06145281344652176, -0.04173591732978821, 0.12992499768733978, 0.14798134565353394, 0.25368353724479675, 0.2814313471317291, 0.11216560751199722, 0.4047146141529083, 0.28093498945236206, 0.20426718890666962, -0.009113682433962822, -0.03012976609170437, -0.02388671599328518, -0.034469760954380035, -0.27934181690216064, 0.1723652184009552, 0.4723679721355438, 0.3825029730796814, 0.2989596724510193, 0.4605486989021301, 0.6753328442573547, 0.3682914674282074, 0.40829166769981384, 0.2749672830104828, 0.4439031481742859, 0.5153419971466064, 0.3953351676464081, 0.19355665147304535, 0.24304528534412384, 0.3360694348812103, 0.26493358612060547, 0.21587470173835754, 0.4045777916908264, 0.28135132789611816, 0.14154233038425446, -0.10168340802192688, 0.2673327326774597, 0.32025209069252014, 0.37651410698890686, -0.02594500407576561, -0.034456171095371246, 0.020654641091823578, -0.21054033935070038, -0.04884909465909004, 0.35871919989585876, 0.4984727203845978, 0.3605668544769287, 0.21721738576889038, 0.46443215012550354, 0.20017017424106598, 0.35871633887290955, 0.34395864605903625, -0.04289272427558899, 0.11020191013813019, -0.08249752968549728, -0.015469844453036785, 0.052369728684425354, 0.02828366309404373, 0.1746172308921814, 0.11297520250082016, -0.01964741386473179, -0.21378520131111145, -0.11564698070287704, -0.13393276929855347, -0.2502620220184326, 0.0028087622486054897, 0.5755365490913391, 0.29945623874664307, -0.004227161407470703, -0.017169130966067314, 0.14896105229854584, 0.3148109018802643, 0.38386398553848267, 0.1404346525669098, -0.05924243852496147, 0.1133444607257843, -0.1130203977227211, -0.009293410927057266, 0.1894654631614685, -0.0955965518951416, -0.24988728761672974, -0.007180588785558939, -0.07776691019535065, -0.010841665789484978, 0.05515427887439728, 0.014668179675936699, 0.042046502232551575, 0.13034401834011078, 0.3117789328098297, 0.05098405107855797, 0.042414743453264236, 0.0679217278957367, -0.1624620407819748, -0.0854845717549324, 0.027574725449085236, 0.11582198739051819, 0.011761398054659367, 0.12211938202381134, -0.1455177515745163, 0.17430707812309265, 0.06958907097578049, 0.068082794547081, -0.05000611022114754, -0.25226327776908875, -0.05702751874923706, -0.07207497954368591, 0.0547545962035656, -0.3195972144603729, -0.37391775846481323, -0.21482156217098236, -0.2401118129491806, -0.287703275680542, -0.022733056917786598, -0.13722652196884155, -0.08054088056087494, -0.15352457761764526, 0.13798415660858154, 0.13263070583343506, -0.02018328756093979, -0.0842609852552414, 0.1593373566865921, 0.09772994369268417, 0.0655650645494461, 0.09124505519866943, -0.05288482829928398, 0.295621782541275, -0.22012387216091156, -0.009190550073981285, 0.04626135155558586, 0.03734936937689781, -0.4496951997280121, -0.2947607636451721, -0.07233147323131561, -0.045284204185009, -0.015972869470715523, -0.025129050016403198, -0.11532686650753021, -0.05619589611887932, 0.03991881012916565, -0.02303856611251831, 0.03653711825609207, 0.005058256443589926, 0.04415735974907875, -0.04880043864250183, 0.023300526663661003, -0.04029230400919914, -0.22306562960147858, -0.14780433475971222, -0.002899981802329421, -0.17523275315761566, 0.10589703172445297, 0.2628761827945709, 0.5030396580696106, -0.29070624709129333, -0.30168455839157104, -0.34861791133880615, 0.023409318178892136, -0.12567608058452606, -0.06400343775749207, -0.02515590749680996, 0.07292812317609787, 0.01338029932230711, 0.05895836278796196, -0.09785693883895874, 0.023386191576719284, 0.054232798516750336, 0.2690855860710144, 0.05881824344396591, 0.08660503476858139, 0.02334873005747795, -0.08395031094551086, -0.08312686532735825, 0.06674744933843613, 0.0786617249250412, 0.006817854009568691, -0.19147728383541107, -0.3690260052680969, -0.5409054160118103, -0.11512822657823563, -0.19284296035766602, -0.0930091142654419, -0.4033527970314026, -0.45727697014808655, -0.21018171310424805, 0.1856575757265091, 0.18470466136932373, 0.041891489177942276, 0.09396041184663773, 0.13944052159786224, -0.0951387882232666, -0.1479516178369522, -0.23361679911613464, -0.107082799077034, 0.006921221502125263, 0.08356993645429611, 0.09064311534166336, 0.04410843923687935, -0.036040350794792175, -0.0833318680524826, -0.1867498904466629, -0.011263751424849033, -0.06367246806621552, 0.04025474563241005, -0.024867869913578033, -0.2609352767467499, -0.34142377972602844, -0.4369259476661682, -0.12757053971290588, -0.08697856962680817, -0.2833632230758667, -0.11292782425880432, -0.048982974141836166, 0.10054337978363037, 0.13595637679100037, 0.04668634757399559, 0.01117794867604971, -0.07354893535375595, -0.2117968052625656, -0.2580510973930359, -0.15456311404705048, -0.007142115384340286, -0.05151572823524475, 0.00969101581722498, 0.02917920984327793, 0.047317925840616226, 0.14062072336673737, 0.065257228910923, -0.14982755482196808, -0.08923573046922684, -0.2672324776649475, -0.037199296057224274, -0.14001205563545227, -0.3766980469226837, -0.31038737297058105, -0.2950858771800995, -0.06516633182764053, -0.11004350334405899, 0.047866564244031906, -0.3321534991264343, 0.03620601072907448, 0.08902398496866226, -0.12999115884304047, -0.051652442663908005, -0.01782490871846676, 0.08963368833065033, -0.12751106917858124, -0.04088626429438591, 0.055020324885845184, -0.1409810334444046, -0.07334437966346741, -0.1165223941206932, -0.1270877867937088, -0.15048034489154816, 0.16003724932670593, 0.19078965485095978, -0.11644583940505981, -0.26132380962371826, -0.167652890086174, -0.14038300514221191, -0.3294713497161865, -0.5915436744689941, -0.6552667021751404, -0.25650736689567566, -0.041974104940891266, -0.08625240623950958, 0.038309503346681595, -0.4947607219219208, -0.31960782408714294, 0.1918945014476776, 0.03718951344490051, 0.08000794053077698, -0.039818666875362396, -0.0020749487448483706, -0.030787350609898567, 0.009362355805933475, -0.09787396341562271, -0.17673751711845398, -0.09549016505479813, 0.06344772130250931, 0.04355454444885254, 0.020366275683045387, 0.11001845449209213, 0.11545449495315552, -0.05581497773528099, 0.021236270666122437, 0.0858498141169548, 0.17048944532871246, -0.034514427185058594, -0.34185463190078735, -0.528078556060791, -0.15571388602256775, -0.07317529618740082, 0.24274994432926178, 0.02323056198656559, -0.3926387429237366, -0.03273728862404823, 0.23198267817497253, 0.002275048987939954, -0.011079711839556694, -0.23904016613960266, -0.059654999524354935, -0.043994102627038956, 0.0031604201067239046, -0.017087753862142563, -0.09746204316616058, -0.04304790869355202, 0.07782098650932312, 0.006959106307476759, 0.035063646733760834, 0.10269027948379517, 0.06843266636133194, 0.07512940466403961, 0.06577460467815399, 0.24472449719905853, 0.31531721353530884, 0.09439384192228317, -0.2562623918056488, -0.640724778175354, -0.23956969380378723, -0.015998195856809616, 0.03271053731441498, 0.06662734597921371, -0.06468827277421951, 0.2941364645957947, 0.007003785111010075, 0.08121354877948761, -0.2822440266609192, -0.24492299556732178, -0.031481195241212845, 0.13428187370300293, 0.14598096907138824, 0.036328162997961044, 0.004049048759043217, -0.13430842757225037, 0.042486708611249924, 0.11373944580554962, 0.021853867918252945, -0.0379747599363327, 0.05477369204163551, 0.098842091858387, 0.1128469780087471, 0.2224760800600052, 0.34274056553840637, -0.13581950962543488, -0.4622350037097931, -0.7497749328613281, -0.3472120463848114, 0.1032727062702179, -0.02566591277718544, 0.16449622809886932, 0.1812504380941391, -0.05626343563199043, 0.030316660180687904, 0.08078043162822723, -0.11687665432691574, -0.15409648418426514, -0.1968914419412613, -0.03168625757098198, 0.03198150545358658, -0.0647636279463768, 0.10116821527481079, -0.0692640021443367, -0.09188780188560486, 0.06484609842300415, -0.07893140614032745, -0.0742875263094902, 0.1650059074163437, 0.0667092576622963, 0.19684937596321106, 0.23459605872631073, 0.2707415521144867, -0.06627614796161652, -0.20819582045078278, -0.40635496377944946, -0.21361689269542694, 0.2152600884437561, -0.16221465170383453, 0.22315427660942078, 0.5201734900474548, 0.1403270661830902, -0.06823025643825531, -0.018978960812091827, -0.13038545846939087, -0.15437361598014832, -0.2215021699666977, -0.22049741446971893, -0.06199515610933304, 0.01340100634843111, -0.0731392502784729, -0.06740251928567886, 0.005705156363546848, -0.13206660747528076, -0.0881258025765419, -0.12259575724601746, 0.136897012591362, 0.10648643970489502, 0.13576959073543549, 0.12932215631008148, 0.22456811368465424, -0.1906188726425171, -0.09530651569366455, -0.09983931481838226, -0.22985884547233582, 0.25524795055389404, 0.022433903068304062, 0.2797282338142395, 0.17370863258838654, 0.0772717148065567, -0.11646201461553574, -0.056882768869400024, -0.12349873781204224, -0.003621345618739724, -0.13972260057926178, -0.22812975943088531, -0.1341213583946228, -0.05993679165840149, 0.004830921534448862, -0.045272596180438995, -0.22210942208766937, -0.23401063680648804, -0.16680298745632172, 0.0111512066796422, 0.0593089796602726, 0.25240108370780945, 0.010541105642914772, 0.15798048675060272, 0.05214881896972656, -0.22619275748729706, -0.09155619889497757, 0.1639656126499176, -0.198260098695755, 0.37140870094299316, -0.23921065032482147, 0.1510467529296875, -0.11352567374706268, 0.5068903565406799, -0.2630031704902649, -0.004431807901710272, 0.040694475173950195, 0.06491420418024063, 0.09328269958496094, -0.011105733923614025, 0.025311648845672607, 0.1717958301305771, 0.015034819021821022, -0.05783439055085182, -0.09708093106746674, -0.0023665244225412607, 0.09316789358854294, -0.0013670091284438968, 0.1347486525774002, 0.06731395423412323, -0.1683504730463028, 0.09108338505029678, 0.05785881355404854, -0.09796532988548279, -0.03814202547073364, 0.689484179019928, 0.11376269906759262, 0.1125115379691124, -0.009436652064323425, 0.047316018491983414, 0.12401781231164932, 0.35237452387809753, -0.025076135993003845, 0.13352659344673157, 0.030826574191451073, -0.019133543595671654, 0.06006263941526413, 0.0033111011143773794, 0.18526357412338257, 0.2515089809894562, 0.3432629108428955, 0.24057523906230927, 0.20016296207904816, 0.12882721424102783, 0.0504232682287693, 0.16185137629508972, 0.08588719367980957, -0.017360804602503777, -0.055340901017189026, 0.0986645370721817, 0.02010146714746952, 0.06164255365729332, -0.04110243171453476, 0.017687251791357994, 0.04281669110059738, -0.017549125477671623, -0.0068684350699186325, 0.3116954267024994, -0.05703675374388695, 0.3107941448688507, 0.06961773335933685, -0.013510544784367085, -0.07612084597349167, 0.07265309989452362, 0.18351155519485474, 0.45305994153022766, 0.3915707468986511, 0.26191192865371704, 0.24917325377464294, 0.4356882870197296, 0.35599830746650696, 0.1842798888683319, 0.09148728847503662, 0.1948993057012558, 0.10638942569494247, 0.030946025624871254, 0.018194997683167458, 0.2654969394207001, -0.09536442905664444, -0.1668207049369812, -0.04567413032054901, 0.25950586795806885, -0.0552271343767643, 0.20349103212356567, 0.058156147599220276, 0.09301626682281494, -0.01938064582645893, -0.01119155902415514, -0.31094714999198914, -0.2356969565153122, -0.11767086386680603, 0.23304693400859833, 0.12022322416305542, 0.2704465091228485, 0.23470258712768555, 0.15355786681175232, 0.2548496127128601, 0.14253532886505127, 0.2171224057674408, 0.09956201910972595, 0.1532142013311386, -0.03375457599759102, -0.0041231438517570496, 0.048745084553956985, 0.011750660836696625, -0.2170765995979309, -0.20883134007453918, -0.2249973565340042, -0.25404953956604004, 0.4358087182044983, 0.48472657799720764, 0.08355040848255157, -0.001180453458800912, -0.020344499498605728, 0.2665649652481079, -0.16174083948135376, -0.14327076077461243, 0.05868137627840042, -0.14185689389705658, 0.0027034981176257133, 0.10643799602985382, 0.2204226702451706, 0.14009037613868713, 0.12622272968292236, 0.07071229815483093, 0.11320359259843826, 0.16767726838588715, 0.2650841176509857, -0.03359619155526161, 0.06382910907268524, -0.10666219890117645, 0.014348276890814304, -0.31197553873062134, -0.44889363646507263, -0.4065995514392853, -0.4854119122028351, -0.2981951832771301, 0.29895663261413574, 0.4004398584365845, 0.08932756632566452, -0.02273758500814438, -0.02170681580901146, 0.36249399185180664, 0.09201306849718094, 0.04142547398805618, 0.10602248460054398, 0.03287259489297867, -0.03125239163637161, 0.01540348120033741, 0.07739651948213577, 0.13969828188419342, 0.0955108031630516, -0.1112387552857399, -0.05366717651486397, 0.055725373327732086, 0.08524542301893234, -0.21056236326694489, -0.015486745163798332, -0.13030295073986053, -0.4496239423751831, -0.6555562615394592, -0.4307172894477844, -0.22395199537277222, -0.1381385624408722, -0.09582801163196564, 0.34176164865493774, 0.15659531950950623, 0.017263485118746758, -0.02722807601094246, -0.016084522008895874, -0.19213666021823883, 0.12074417620897293, 0.049944572150707245, -0.004749641753733158, -0.23497827351093292, -0.29715195298194885, -0.22370277345180511, -0.018482688814401627, -0.3822733163833618, -0.5223315954208374, -0.3298642635345459, -0.178330197930336, 0.10211718827486038, -0.07705863565206528, -0.3172317445278168, 0.04782407358288765, -0.21310743689537048, -0.5999994277954102, -0.7069969773292542, -0.5802173614501953, -0.24118635058403015, -0.09154477715492249, 0.03050684556365013, 0.1802651584148407, 0.025637412443757057, -0.005244523752480745, 0.012163115665316582, -0.03246193006634712, 0.005348008591681719, -0.367406964302063, -0.1894775927066803, -0.13229207694530487, -0.2963828444480896, -0.4826371669769287, -0.20366373658180237, -0.07937275618314743, -0.15005037188529968, -0.14001667499542236, 0.094081349670887, -0.07475502789020538, -0.3377186059951782, -0.40572434663772583, -0.5096721649169922, -0.2757870554924011, -0.024592356756329536, -0.2734374701976776, -0.5635508894920349, -0.5655850768089294, -0.3197869062423706, -0.318992018699646, -0.3008893132209778, -0.15746136009693146, 0.018269240856170654, -0.021609652787446976, -0.02212630584836006, 0.002076689852401614, 0.024311764165759087, 0.24201741814613342, -0.2758016884326935, -0.2523179352283478, -0.24728798866271973, -0.28982463479042053, -0.5332639217376709, -0.6969971060752869, -0.23722399771213531, -0.31794753670692444, -0.4708421230316162, 