{"model.1.weight": [[0.005776946432888508, -0.027323201298713684, -0.0007472379365935922, 0.002879487816244364, 0.006816208828240633, -0.01024092547595501, -0.03478549048304558, -0.0015218642074614763, 0.0095670185983181, 0.015299610793590546, 0.002964675659313798, -0.014555352739989758, -0.06505308300256729, -0.06287641823291779, 0.04473003372550011, -0.010042907670140266, -0.007223065942525864, -0.035551268607378006, 0.024609137326478958, -0.019357409328222275, 0.016657067462801933, 0.001754837459884584, -0.0006568559911102057, 0.02263818494975567, -0.005816063843667507, -0.021977579221129417, -0.011162009090185165, -0.002948433393612504, 0.0355495922267437, 0.03412184864282608, 0.027745895087718964, -0.023636670783162117, 0.010553009808063507, 0.013051326386630535, -0.04483000561594963, -0.04705972969532013, -0.14320465922355652, -0.10330326110124588, -0.09685709327459335, -0.12432187795639038, -0.12518605589866638, -0.11251842230558395, 0.06756581366062164, 0.14740794897079468, 0.09639672189950943, -0.1050616055727005, -0.07336116582155228, -0.054209429770708084, -0.20231007039546967, -0.09051857888698578, -0.13367119431495667, -0.14423663914203644, -0.03546549752354622, -0.016115734353661537, -0.03326593339443207, 0.01492378581315279, -0.026621075347065926, -0.023346221074461937, -0.027294890955090523, -0.04558663070201874, -0.05093693360686302, -0.10889562219381332, -0.07121925055980682, -0.09535866230726242, -0.08611919730901718, -0.28956204652786255, -0.15129341185092926, -0.09195882081985474, -0.31143951416015625, -0.265383243560791, -0.290502667427063, -0.19616058468818665, -0.3346180021762848, -0.3333549201488495, -0.1550685614347458, -0.40644708275794983, -0.20297011733055115, -0.1438521146774292, -0.15688225626945496, -0.21006128191947937, 0.0006751269102096558, -0.0451575443148613, 0.019876522943377495, -0.027226854115724564, -0.0092893335968256, 0.018643490970134735, -0.0054593333043158054, -0.02919120527803898, 0.0636201947927475, -0.23601356148719788, -0.23521016538143158, -0.09760678559541702, -0.32473647594451904, -0.17717698216438293, 0.08319232612848282, -0.1034410148859024, -0.3534409999847412, -0.7060295939445496, -0.3118235468864441, -0.07650259882211685, -0.006150622386485338, -0.3036429286003113, -0.20575986802577972, -0.41894587874412537, -0.16702379286289215, 0.02739100158214569, 0.08961576223373413, 0.21520449221134186, 0.0633867159485817, -0.10158170014619827, -0.05612434074282646, 0.014084727503359318, -0.004351730924099684, 0.0036224902141839266, 0.2332102358341217, 0.26408571004867554, 0.1755324900150299, -0.38097912073135376, -0.39388272166252136, -0.44000327587127686, -0.24402761459350586, -0.3966796398162842, -0.16443394124507904, -0.22217495739459991, -0.14566823840141296, -0.26743459701538086, -0.42174041271209717, -0.46872931718826294, -0.16156542301177979, 0.11159469932317734, 0.009529455564916134, 0.11312054842710495, 0.12727802991867065, -0.1840084046125412, -0.1968723088502884, 0.09592732042074203, 0.2853446304798126, 0.1776401251554489, -0.03381642326712608, 0.022734662517905235, 0.024020638316869736, -0.02122855745255947, -0.23876897990703583, -0.290158212184906, 0.12698356807231903, 0.18379512429237366, 0.09016526490449905, -0.23770131170749664, -0.039815183728933334, -0.08791282773017883, -0.2441003918647766, 0.022662578150629997, 0.29168781638145447, 0.3436878025531769, -0.013306166045367718, 0.011105862446129322, -0.26799729466438293, -0.13342198729515076, 0.06489043682813644, 0.12952417135238647, -0.031618427485227585, -0.14692436158657074, -0.1408797949552536, -0.1877230554819107, 0.1976301223039627, 0.41606271266937256, -0.07251709699630737, -0.009735437110066414, 0.016948454082012177, -0.08611505478620529, -0.13879762589931488, -0.46193280816078186, -0.26569366455078125, -0.03154323622584343, 0.015061096288263798, 0.08439190685749054, 0.15005560219287872, 0.19949941337108612, 0.14174629747867584, 0.31554803252220154, 0.42588678002357483, 0.37559041380882263, 0.1855771839618683, 0.14817775785923004, 0.08669804781675339, -0.0006232621963135898, -0.12652014195919037, -0.02223898656666279, -0.06904950737953186, 0.07611513882875443, -0.1787395477294922, -0.2222248762845993, -0.37015002965927124, 0.12842817604541779, 0.10710327327251434, -0.1375129669904709, -0.04312874376773834, 0.038022253662347794, -0.08232912421226501, -0.11557304859161377, -0.5966132283210754, -0.649785578250885, -0.1942790150642395, -0.19720731675624847, -0.09990556538105011, 0.0105318333953619, 0.2047935426235199, 0.19115708768367767, 0.14460666477680206, 0.14625117182731628, 0.041571713984012604, 0.0858302041888237, 0.04986598342657089, -0.0891905277967453, -0.14669547975063324, -0.1883586198091507, -0.21287471055984497, -0.09622988849878311, -0.33488917350769043, -0.5372830033302307, -0.2694143056869507, 0.15167441964149475, 0.18647357821464539, -0.07925716787576675, -0.0819341316819191, -0.15158611536026, -0.17800556123256683, -0.3465595543384552, -0.5827006101608276, -0.42020392417907715, 0.16545486450195312, 0.007800741586834192, 0.2314276397228241, 0.01865525171160698, -0.004158828407526016, 0.034779034554958344, -0.06665750592947006, 0.0893433466553688, 0.1646680235862732, 0.1529369354248047, -0.051363568753004074, -0.127870112657547, -0.003546422580257058, 0.0804302990436554, -0.20309923589229584, -0.0829220786690712, -0.0737505853176117, -0.5608583688735962, -0.2390250563621521, 0.28186842799186707, 0.22128432989120483, -0.002649318426847458, 0.02079072780907154, 0.1133689135313034, -0.3214125633239746, 0.09381576627492905, -0.2636919617652893, 0.017611637711524963, 0.17280028760433197, 0.2436801940202713, 0.04458772763609886, -0.056309159845113754, -0.022349383682012558, 0.00024708075216040015, -0.044767625629901886, -0.045157093554735184, 0.14874747395515442, 0.2038995325565338, -0.08127844333648682, 0.06214866787195206, 0.027854975312948227, 0.192522794008255, 0.13918139040470123, -0.0453626811504364, 0.000319628365105018, -0.28034457564353943, 0.053929220885038376, 0.23316603899002075, 0.5269273519515991, 0.2997455894947052, 0.017303939908742905, -0.12417997419834137, -0.22099357843399048, 0.024959897622466087, 0.053413767367601395, 0.32169440388679504, 0.35087519884109497, 0.1913413554430008, -0.10272209346294403, -0.06831279397010803, -0.08898686617612839, -0.20574472844600677, -0.1287354975938797, -0.21457356214523315, 0.07438048720359802, -0.06856965273618698, 0.05711458995938301, -0.07556801289319992, 0.11375080794095993, 0.12021679431200027, 0.24799124896526337, -0.022053798660635948, 0.04988378658890724, -0.035553574562072754, 0.13304249942302704, 0.3622242510318756, 0.048267219215631485, 0.3560482859611511, 0.06270192563533783, -0.3493877947330475, -0.4859248101711273, -0.2536510229110718, 0.060143373906612396, 0.3073157072067261, 0.25834518671035767, 0.2175966054201126, 0.09400143474340439, -0.03888525441288948, -0.19723190367221832, -0.3772759437561035, -0.3349638879299164, -0.2425335943698883, 0.055135808885097504, -0.058021608740091324, 0.1465860903263092, 0.08082219958305359, -0.06300824880599976, 0.009442020207643509, 0.26151421666145325, 0.07516021281480789, -0.0023735836148262024, -0.08892586082220078, 0.27642562985420227, 0.42616701126098633, 0.05499168485403061, 0.33386924862861633, -0.025532633066177368, -0.2697288990020752, -0.011896726675331593, -0.03314452990889549, 0.3910287618637085, 0.13553400337696075, 0.1428384780883789, 0.05647596716880798, -0.10246109217405319, -0.17061102390289307, -0.32179710268974304, -0.3585628569126129, -0.362640917301178, -0.08881501853466034, 0.035251446068286896, 0.006288470234721899, 0.06823094934225082, 0.05407942086458206, 0.02630150318145752, 0.08240929245948792, 0.23330998420715332, 0.285839319229126, 0.17384126782417297, 0.44390565156936646, 0.08213706314563751, 0.3491920232772827, -0.10218188911676407, 0.17961035668849945, -0.2784133851528168, -0.07239379733800888, 0.08838167786598206, 0.1250246912240982, 0.18124046921730042, -0.06559684872627258, 0.017223620787262917, 0.1150827407836914, -0.0012573148123919964, 0.043401915580034256, -0.011157468892633915, -0.02224254049360752, 0.07307044416666031, 0.24147185683250427, 0.09625039249658585, 0.07051677256822586, 0.17221598327159882, 0.08625613898038864, 0.05519342049956322, 0.18575534224510193, 0.3415367007255554, 0.2513057291507721, 0.22453252971172333, 0.24050819873809814, -0.05887323617935181, 0.20216335356235504, -0.1769331395626068, -0.036244139075279236, -0.14548324048519135, 0.2158966362476349, -0.20539052784442902, 0.27325427532196045, 0.1981792002916336, -0.2822451591491699, -0.1264428049325943, 0.030263278633356094, -0.10582906752824783, 0.06597429513931274, 0.18501617014408112, 0.17154550552368164, 0.1883741319179535, 0.1720244586467743, -0.029892371967434883, 0.07856529206037521, 0.05274791643023491, 0.02700231596827507, 0.09645680338144302, 0.048727843910455704, 0.07890188694000244, -0.003698932006955147, 0.1688949465751648, -0.1018289178609848, -0.6441417932510376, -0.3732472062110901, -0.1550488919019699, 0.011602177284657955, -0.14739863574504852, 0.2161385416984558, -0.23115822672843933, 0.08523660153150558, 0.1814415454864502, -0.06798473000526428, -0.3202292025089264, -0.11482785642147064, -0.22600391507148743, -0.08885540068149567, 0.03774509206414223, 0.06684742867946625, 0.14173004031181335, 0.03278007358312607, 0.05266203358769417, 0.07765954732894897, 0.17869797348976135, 0.22287286818027496, 0.02383085899055004, -0.10830539464950562, -0.04061468318104744, 0.18674209713935852, 0.20746365189552307, -0.2092684656381607, -0.7420884966850281, -0.41611990332603455, -0.30565428733825684, 0.10030578076839447, -0.010385225526988506, 0.2388324737548828, -0.11557039618492126, -0.13102707266807556, 0.07672097533941269, -0.2658473551273346, -0.40696239471435547, -0.2812233567237854, -0.09929405152797699, -0.07062993198633194, 0.14547152817249298, 0.17898491024971008, 0.09179048985242844, 0.0768531858921051, 0.13996846973896027, 0.11442562937736511, 0.2230924367904663, 0.16299587488174438, -0.0025447725784033537, -0.22841370105743408, -0.09908969700336456, -0.08006961643695831, 0.1487617790699005, -0.27349790930747986, -0.2936355769634247, -0.6108841896057129, -0.2552891671657562, -0.22451741993427277, -0.02455691434442997, 0.22872336208820343, 0.11200087517499924, -0.21814142167568207, -0.17138107120990753, -0.3396826386451721, -0.45163488388061523, -0.08186884969472885, 0.08443687856197357, -0.02482513152062893, -0.013293508440256119, -0.04992186650633812, 0.09137970209121704, 0.18728592991828918, 0.13263636827468872, 0.08925274014472961, 0.033957041800022125, 0.01569005660712719, -0.0012740199454128742, -0.0957176685333252, -0.1579093039035797, -0.31010472774505615, -0.18525904417037964, -0.3237806558609009, 0.013514869846403599, 0.10056264698505402, 0.21188297867774963, -0.4048561751842499, 0.2778666913509369, 0.14937344193458557, 0.3592431843280792, -0.10930781811475754, -0.30850058794021606, -0.518325686454773, -0.14010700583457947, -0.16677717864513397, -0.25114575028419495, -0.37004682421684265, -0.182560533285141, -0.032625969499349594, -0.2574521005153656, -0.02661518193781376, -0.09595281630754471, -0.1797560304403305, -0.16472065448760986, -0.01801859401166439, 0.06582461297512054, 0.014610707759857178, -0.16029563546180725, -0.3309869170188904, -0.35973259806632996, -0.5680540204048157, -0.26296451687812805, 0.45971205830574036, 0.5559300184249878, -0.3204438388347626, 0.01710166409611702, 0.008428088389337063, 0.25560975074768066, -0.13267920911312103, 0.01757696643471718, -0.3085014224052429, -0.2723100185394287, 0.047277070581912994, -0.049881018698215485, -0.14436699450016022, -0.14951519668102264, -0.21199233829975128, -0.26293855905532837, -0.22418339550495148, -0.23776943981647491, -0.16003482043743134, 0.005402240436524153, -0.04675639048218727, 0.10932987183332443, 0.11865945160388947, -0.13940489292144775, -0.20602168142795563, -0.13711431622505188, -0.33383822441101074, -0.4834843575954437, 0.4152768552303314, -0.09947770088911057, -0.27362099289894104, 0.03334341570734978, -0.09734518080949783, 0.15879784524440765, 0.0010828262893483043, 0.009716623462736607, -0.05941583961248398, -0.19499026238918304, 0.08610212057828903, 0.1588858813047409, -0.17735911905765533, -0.07015436887741089, -0.014840432442724705, 0.0063209543004632, -0.16659176349639893, -0.1428094357252121, -0.1890406608581543, -0.06422514468431473, 0.011763968504965305, 0.0062392777763307095, -0.018999455496668816, -0.10484941303730011, -0.10240697115659714, -0.03953384608030319, -0.29211869835853577, -0.09147443622350693, 0.16789771616458893, -0.0893232524394989, -0.17290346324443817, -0.1673123687505722, 0.05769503116607666, 0.20549684762954712, 0.38483020663261414, 0.2841654121875763, 0.22156034409999847, 0.12872910499572754, 0.12926147878170013, 0.22894035279750824, 0.14544478058815002, 0.0941665917634964, -0.026103943586349487, 0.08517876267433167, -0.057472117245197296, -0.12431039661169052, -0.2159297913312912, -0.008276242762804031, -0.02690017595887184, 0.034305140376091, -0.08139767497777939, -0.07630055397748947, 0.027247127145528793, -0.13517192006111145, -0.48055607080459595, -0.1391000896692276, -0.11020363867282867, -0.23121903836727142, -0.009931880049407482, -0.1808275431394577, -0.052759453654289246, 0.02840554155409336, 0.41887810826301575, 0.31100842356681824, 0.20038995146751404, 0.1923106461763382, 0.14117930829524994, 0.09565863013267517, 0.11416785418987274, 0.15853986144065857, 0.0335189588367939, 0.009486979804933071, -0.08659528940916061, -0.02779010310769081, -0.0913342610001564, -0.06767281889915466, -0.011716197244822979, -0.021825896576046944, -0.11486885696649551, -0.0114842364564538, -0.2618073523044586, -0.09239856898784637, -0.32018575072288513, -0.2124880850315094, -0.11178868263959885, -0.218771293759346, 0.01149949710816145, -0.008138231001794338, 0.009081436321139336, -0.3474436104297638, -0.06325402110815048, 0.03694215416908264, 0.14639952778816223, 0.2955714464187622, 0.1180633082985878, 0.00464971037581563, -0.22290706634521484, -0.2373977154493332, 0.18099188804626465, 0.046267829835414886, -0.18310542404651642, -0.1071946918964386, -0.24122017621994019, -0.2238587886095047, -0.11267006397247314, 0.06407110393047333, -0.08712083846330643, -0.09290208667516708, -0.024119945243000984, 0.1471444070339203, 0.1420503854751587, 0.10446136444807053, -0.14759062230587006, -0.31326574087142944, -0.018371306359767914, 0.01259321067482233, -0.023113342002034187, 0.2556411325931549, 0.07959944754838943, 0.37639132142066956, 0.352695494890213, 0.2460472732782364, 0.250478059053421, 0.06966184824705124, -0.11046141386032104, 0.09634019434452057, 0.01754770800471306, -0.1671765148639679, -0.12163739651441574, -0.17382268607616425, -0.10904176533222198, -0.19555208086967468, -0.21183165907859802, -0.02163618430495262, 0.2859317660331726, 0.22399351000785828, 0.010969556868076324, -0.008098178543150425, 0.3681364357471466, 0.12632746994495392, -0.10445982217788696, -0.15180189907550812, 0.003301935736089945, 0.01822814904153347, -0.0013054737355560064, 0.09598482400178909, 0.3054257333278656, 0.39403221011161804, 0.47251251339912415, -0.06288236379623413, 0.20846927165985107, 0.2144334316253662, 0.0003774358774535358, 0.020514443516731262, 0.0199294276535511, -0.21337032318115234, -0.10036296397447586, -0.14257995784282684, -0.3104631006717682, -0.33450689911842346, -0.07124526053667068, 0.0852041020989418, 0.1773589700460434, 0.09262023866176605, 0.18566717207431793, 0.025290898978710175, 0.06801166385412216, 0.11048620939254761, 0.14332646131515503, -0.0950784683227539, -0.019388115033507347, 0.023746026679873466, 0.01061952579766512, 0.010342036373913288, 0.38226738572120667, -0.05845268443226814, 0.0291847325861454, 0.03333577513694763, 0.32024946808815, 0.46808335185050964, 0.7367098331451416, 0.5629813075065613, 0.2545839846134186, -0.028265921398997307, 0.2655559778213501, 0.4173477590084076, -0.026772035285830498, 0.3138672113418579, 0.5214401483535767, 0.32900363206863403, 0.12515151500701904, 0.33606067299842834, 0.3822072148323059, 0.5117753148078918, 0.4351385533809662, 0.2957128882408142, 0.03996041789650917, 0.013034156523644924, 0.014294982887804508, -0.0024546810891479254, 0.0041861324571073055, -0.02064073644578457, -0.032221533358097076, -0.14633354544639587, -0.09330523014068604, 0.15630462765693665, 0.15904951095581055, 0.18943914771080017, 0.029730351641774178, 0.21829821169376373, 0.2940419912338257, 0.26437386870384216, 0.10416920483112335, -0.0019926466047763824, -0.40412360429763794, -0.09364373981952667, 0.014415288344025612, 0.257750004529953, 0.2800876498222351, -0.03393758833408356, 0.05283674597740173, 0.3150120675563812, -0.30363932251930237, -0.00573344761505723, 0.015635980293154716, 0.006990624591708183, -0.01875695213675499], [-0.013999084010720253, 0.0054941605776548386, -0.012838215567171574, 0.006856931373476982, 0.0032880648504942656, 0.03559071570634842, 0.019592473283410072, 0.017458491027355194, 0.0027822470292448997, -0.029537424445152283, 0.0071333651430904865, -0.018252654001116753, 0.02636178582906723, 0.015627896413207054, -0.0015439902199432254, -0.022642280906438828, -0.020069539546966553, -0.02551243267953396, 0.02149067260324955, 0.014776639640331268, 0.03515239059925079, 9.615506860427558e-05, 0.01214025728404522, -0.016835469752550125, 0.001465410110540688, 0.002132633002474904, -0.002255558967590332, -0.0018296880880370736, -0.028937967494130135, -0.02916753478348255, -0.0029668339993804693, 0.02714032121002674, -0.029464995488524437, 0.024608604609966278, 0.02197786048054695, 0.007675745990127325, -0.002422486199066043, 0.01438777893781662, 0.020699582993984222, -0.027367040514945984, -0.02551569789648056, -0.018029844388365746, -0.018724877387285233, -0.022424805909395218, -0.0285157710313797, -0.029194138944149017, -0.020193688571453094, -0.010139772668480873, 0.0251768846064806, -0.026808276772499084, -0.019697552546858788, 0.02701268158853054, 0.0300002321600914, -0.03081353008747101, -0.016035936772823334, -0.030388519167900085, 0.0045627569779753685, 0.0056320857256650925, 0.030267154797911644, -0.02701902575790882, 0.012045984156429768, 0.0001799677120288834, 0.02468910999596119, 0.006556851789355278, -0.0297292061150074, 0.01982731558382511, -0.022922683507204056, 0.030012017115950584, -0.03225412592291832, 0.031577542424201965, -0.024629095569252968, -0.018406938761472702, -0.017431724816560745, -0.01952502690255642, 0.00894048810005188, -0.032045237720012665, 0.006270638667047024, -0.02456609718501568, -0.0410422720015049, -0.012539566494524479, -0.0009542448678985238, -0.02798013761639595, -0.03035290539264679, 0.02138901688158512, 0.001025932258926332, -0.013566801324486732, -0.027877183631062508, -0.022524617612361908, 0.009340653195977211, 0.015764934942126274, -0.0110969552770257, -0.0017606276087462902, -0.011456890031695366, 0.012184045277535915, 0.011265018954873085, 0.02727533131837845, -0.028611447662115097, -0.001790287671610713, 0.005332539789378643, 0.020087404176592827, -0.03329502046108246, 0.022495435550808907, 0.011874311603605747, -0.005505878012627363, 0.006107271183282137, 0.03530926629900932, -0.023347225040197372, -0.011392402462661266, -0.03358051925897598, 0.03551804646849632, 0.03131702169775963, -0.015770278871059418, 0.010850885882973671, 0.031131984665989876, 0.03467746078968048, 0.0011783030349761248, 0.021360479295253754, 0.014992589130997658, 0.0253762137144804, 0.017871901392936707, -0.04279763624072075, -0.028171580284833908, -0.017835650593042374, -0.03564511239528656, 0.015147279016673565, 0.0147122573107481, 0.00831378810107708, 0.018484648317098618, 0.020621787756681442, 0.0013771916273981333, -0.007362210191786289, 0.0009244783432222903, 0.035395409911870956, 0.017846135422587395, 0.0044750068336725235, 0.03321104124188423, 0.016072552651166916, 0.0147240636870265, -0.02885369397699833, -0.0020367377437651157, -0.004345783498138189, -0.03519969806075096, 0.02711663208901882, 0.024097464978694916, 0.023260433226823807, -0.021359307691454887, 0.011514862067997456, 0.003426846582442522, -0.005800681654363871, -0.04041663557291031, 0.014986683614552021, 0.010712523944675922, -0.03712732717394829, -0.0046193259768188, 0.0022687220480293036, -0.031126003712415695, -0.009845784865319729, -0.0077702440321445465, 0.016961771994829178, -0.02355014532804489, -0.007775045465677977, 0.04049420729279518, 0.002602627035230398, -0.0005463226116262376, 0.027934977784752846, -0.00979341845959425, -0.01831471174955368, -0.028232868760824203, -0.0012571301776915789, -0.004761227872222662, -0.03341474011540413, -0.019341472536325455, -0.011160806752741337, -0.03699846193194389, 0.025896094739437103, -0.0320211797952652, -0.03520696237683296, -0.038944341242313385, 0.02158314548432827, -0.016410546377301216, -0.03918086737394333, 0.026782579720020294, 0.013977905735373497, 0.01278883870691061, -0.004832904320210218, 0.027281777933239937, 0.01207291055470705, -0.01977384090423584, 0.003077330067753792, 0.02374526672065258, -0.027919936925172806, -0.005883260164409876, -0.025922898203134537, -0.011674047447741032, -0.01483286265283823, -0.004738147836178541, -0.0031687619630247355, 0.00796001311391592, -0.02008717879652977, 0.017828967422246933, 0.02356324903666973, 0.0003470717929303646, 0.028293663635849953, 0.0010706945322453976, 0.01672809198498726, 0.02563398703932762, -0.008592484518885612, -0.03347983956336975, -0.030186330899596214, 0.010967173613607883, -0.007869570516049862, -0.020443620160222054, -0.026663843542337418, 0.01842934638261795, -0.012016437016427517, 0.02177887037396431, -0.03593550994992256, -0.01511027105152607, 0.022819537669420242, -0.03843357414007187, 0.013995957560837269, 0.02586311288177967, 0.023539872840046883, 0.02631291002035141, 0.03279617056250572, -0.014348549768328667, 0.018442269414663315, -0.0014758855104446411, -0.002751329680904746, 0.007348216604441404, 0.008311871439218521, -0.014176505617797375, -0.0002546153264120221, -0.03212183713912964, -0.0087136784568429, -0.019280342385172844, -0.03348613530397415, -0.006339401006698608, -0.0383228063583374, 0.007029518950730562, 0.021653739735484123, -0.03913217782974243, 0.01755647547543049, 0.009705877862870693, 0.017073960974812508, 0.005300404503941536, 0.004735332913696766, 0.032890986651182175, 0.03149200603365898, 0.01016152836382389, 0.031246822327375412, 0.02965572662651539, 0.02901795692741871, 0.0070188008248806, 6.1520509007095825e-06, -0.003254127223044634, -0.009432582184672356, 0.016423890367150307, 0.005377385765314102, -0.03739277645945549, -0.04320153966546059, 0.02027377486228943, 0.011563781648874283, -0.042205777019262314, -0.006863561924546957, -0.02466273121535778, 0.00339058437384665, 0.023539936169981956, -0.02485462836921215, 0.002675043884664774, 0.010411658324301243, 0.01736466959118843, -0.02600090391933918, -0.030669433996081352, -0.013110814616084099, -0.028162216767668724, -0.019703535363078117, -0.01684865914285183, 0.016170646995306015, 0.005400040652602911, -6.980555917834863e-05, -0.02300315722823143, -0.03322538360953331, 0.008172082714736462, -0.04216121882200241, -0.01581428200006485, -0.03919312357902527, -0.0012367581948637962, -0.029612582176923752, -0.0041469088755548, 0.010955296456813812, -0.04254133254289627, 0.021512212231755257, -0.037357866764068604, -0.004826449789106846, -0.004752629902213812, -0.02324499934911728, -0.00913673359900713, 0.014752868562936783, -0.008413968607783318, -0.0432819128036499, 0.010829959996044636, -0.041185472160577774, 0.0244557186961174, -0.00595015799626708, 0.02049201726913452, 0.02148468606173992, -0.02982405014336109, -0.02947956509888172, -0.01931087113916874, 0.007358146831393242, -0.03264443948864937, -0.026624279096722603, -0.012186164036393166, 0.0026924959383904934, 0.015057308599352837, -0.004657509736716747, -0.010598945431411266, 0.0005578389391303062, 0.008756432682275772, -0.020147766917943954, 0.022122085094451904, -0.0030358158983290195, -0.007846345193684101, 0.020121898502111435, 0.009300080128014088, -0.03868228197097778, 0.02161635085940361, -0.028992071747779846, 0.011403251439332962, 0.004572087898850441, -0.04015291482210159, 0.041376207023859024, 0.012311110273003578, -0.01877009868621826, 0.007223104126751423, 0.012005125172436237, -0.0030311858281493187, 0.006307912990450859, -0.0409679152071476, -0.0004405021609272808, 0.02700425311923027, -0.0389372855424881, 0.0007348057115450501, -0.03326532244682312, 0.01867957040667534, 0.012813449837267399, -0.035550087690353394, -0.03241443261504173, -0.022137410938739777, -0.006389220245182514, -0.021237676963210106, 0.01876799575984478, 0.02035936526954174, -0.003130808472633362, 0.014797276817262173, 0.009301739744842052, -0.02133558876812458, -0.0260439645498991, 0.025254230946302414, 0.0065732598304748535, -0.006802056450396776, 0.0007589204469695687, -0.03061923012137413, -0.02807997167110443, 0.03567451238632202, 0.01311592198908329, 0.001505057793110609, 0.009530387818813324, -0.001068995799869299, -0.017483552917838097, -0.018233103677630424, 0.015276320278644562, -0.01802361197769642, -0.03931185603141785, -0.010268147103488445, 0.019108684733510017, -0.04149657115340233, -0.028432751074433327, -0.029092086479067802, 0.022747062146663666, -0.03219475597143173, -0.025350207462906837, -0.015524463728070259, -0.02541712112724781, 0.0034833266399800777, -0.03677754104137421, -0.02480575256049633, -0.020837968215346336, 0.009161144495010376, 0.010875080712139606, 0.029496870934963226, 0.006881288252770901, 0.00042467459570616484, 0.015222507528960705, 0.02718382701277733, -0.019578540697693825, -0.015864118933677673, -0.03997398167848587, -0.011642031371593475, -0.03927651047706604, 0.015977563336491585, -0.03971204534173012, -0.012615865096449852, -0.009456618689000607, 0.0032945037819445133, 0.005494336131960154, 0.0018701886292546988, -0.02662370540201664, -0.024915434420108795, 0.0030676154419779778, -0.014322067610919476, -0.010155944153666496, -0.010750474408268929, -0.006915154866874218, -0.009609462693333626, 0.013845430687069893, -0.011043304577469826, 0.008676869794726372, -0.028341898694634438, -0.01665719971060753, 0.006189512554556131, 0.02572900615632534, 0.023697739467024803, -0.01861046999692917, 0.005058432929217815, -0.01561021525412798, -0.0012176987947896123, 0.020958855748176575, -0.0070840222761034966, -0.015645427629351616, 0.004160864744335413, -0.012198634445667267, -0.0008639465668238699, -0.0072564673610031605, -0.019549353048205376, 0.011277487501502037, -0.04249555617570877, 0.024176890030503273, -0.011505600064992905, -0.0010481658391654491, -0.03558424487709999, -0.00023087555018719286, 0.014310468919575214, -0.006290303077548742, 0.0005507463938556612, -0.03474399074912071, 0.0029491570312529802, 0.03551044315099716, -0.002950527938082814, 0.019667094573378563, 0.021384192630648613, 0.004251974169164896, -0.01875201053917408, -0.04214715585112572, 0.025335967540740967, -0.018918201327323914, -0.010519467294216156, 0.011471898294985294, 0.0006852447404526174, -0.005469606723636389, 0.0028691147454082966, 0.006707021966576576, -0.028387857601046562, -0.0370231531560421, -0.02739003300666809, -0.015633800998330116, -0.02121547795832157, -0.015550603158771992, -0.04385342076420784, -0.036256659775972366, -0.035000305622816086, -0.031364213675260544, -0.01372827310115099, -0.02808426320552826, -0.011450818739831448, 0.006670867092907429, -0.031144237145781517, -0.015064180828630924, 0.0204554982483387, 0.013614856638014317, -0.002019220497459173, -0.03642255440354347, 0.01825018599629402, 0.0021302385721355677, -0.02007598802447319, -0.01090263668447733, 0.012097695842385292, -0.024761728942394257, -0.028252089396119118, 0.013153565116226673, -0.03301789239048958, 0.02292267419397831, -0.007460552733391523, -0.03344840183854103, -0.001443385030142963, -0.026890527456998825, 0.01676955632865429, -0.015455766580998898, -0.02614177204668522, -0.0017309372778981924, 0.006006994750350714, 0.031200937926769257, -0.009086553938686848, -0.011106542311608791, -0.0025629231240600348, -0.027203621342778206, 0.0033658575266599655, -0.024486584588885307, -0.021996894851326942, 0.011512874625623226, 0.015577471815049648, -0.008660797029733658, 0.01854536682367325, -0.031418491154909134, 0.038895972073078156, 0.018060360103845596, -0.008034619502723217, -0.02110845036804676, -0.04505760595202446, -0.017372457310557365, -0.00859022419899702, 0.02452642098069191, -0.00856391154229641, -0.02391154132783413, 4.894165977020748e-05, 0.002510692924261093, -0.00645009521394968, -0.003421454457566142, 0.009773923084139824, 0.014206167310476303, 0.013149351812899113, 0.01830475404858589, -0.017659524455666542, -0.022971486672759056, 0.022147400304675102, -0.018169613555073738, -0.03383062779903412, 0.024878978729248047, 0.006745025981217623, -0.026719367131590843, -0.03708691895008087, -0.036492351442575455, 0.004499037284404039, 0.017974134534597397, -0.03741307929158211, -0.04322665557265282, -0.0005343068041838706, 0.018013106659054756, 0.019413596019148827, 0.0072808777913451195, -0.03114944137632847, -4.741508382721804e-05, -0.0339483916759491, 0.005151268094778061, -0.024910271167755127, 0.04191289842128754, -0.0019420397002249956, -5.47213239769917e-05, -0.023122243583202362, -0.02991149015724659, 0.0315045602619648, 0.03158954903483391, 0.02178233116865158, -0.03791394829750061, 0.009825247339904308, 0.016013382002711296, -0.0262590441852808, 0.00042806236888282, -0.01266865897923708, -0.009504256770014763, 0.01859787106513977, -0.02481357753276825, 0.00775514543056488, -0.04713643342256546, 0.013628177344799042, -0.015660498291254044, 0.02174684777855873, 0.019903268665075302, -3.62664031854365e-05, 0.019080957397818565, 0.002622754778712988, 0.02765524573624134, 0.025508349761366844, 0.010359609499573708, -0.0356416180729866, -0.014538203366100788, 0.021616898477077484, 0.008244901895523071, -0.0103224515914917, 0.009888539090752602, -0.01291844341903925, 0.02688455581665039, 0.006381238345056772, -0.01747530698776245, -0.01121615245938301, 0.030987802892923355, 0.004420442972332239, -0.009256216697394848, -0.002862617839127779, 0.004252372309565544, -0.042531803250312805, -0.009595883078873158, -0.027043087407946587, -0.01199334766715765, -0.0038861320354044437, -0.010092929005622864, -0.011896716430783272, 0.006400818936526775, 0.021552620455622673, -0.03612952679395676, -0.028851110488176346, 0.023319397121667862, -0.014822623692452908, -0.019267071038484573, 0.02638036571443081, 0.01689884625375271, 0.014286603778600693, 0.030694887042045593, -0.035397183150053024, -0.010386276058852673, -0.00301600550301373, -0.005370474420487881, -0.018991144374012947, -0.0033071283251047134, -0.021118607372045517, -0.03524278849363327, -0.04344439134001732, -0.010967518202960491, 0.012043642811477184, 0.022052645683288574, 0.015420246869325638, -0.0020472032483667135, -0.002669665263965726, -0.029157351702451706, 0.006523548625409603, -0.009884419851005077, -0.04373405873775482, -0.010490098036825657, 0.021332867443561554, 0.03252079337835312, -0.014589902013540268, 0.01760094240307808, -0.031805574893951416, 0.015069987624883652, -0.02237650938332081, 0.00033545069163665175, -0.03514331579208374, 0.01596844010055065, -0.016635216772556305, -0.0027362604159861803, -0.03293834999203682, -0.02450099028646946, -0.0312235988676548, 0.005068229511380196, 0.013494082726538181, 0.02075350657105446, -0.04701116308569908, 0.01052004098892212, 0.01998266763985157, 0.010189888067543507, -0.01615079492330551, -0.017097024247050285, 0.007611709646880627, 0.018282996490597725, 0.021139046177268028, 0.027536725625395775, -0.0286432895809412, 0.03998381271958351, -0.0002126097824657336, 0.0200482364743948, 0.017867011949419975, 0.022159896790981293, 0.005797756835818291, -0.030017103999853134, -0.007147376425564289, -0.02559373714029789, -5.601294105872512e-05, 0.007808055728673935, 0.02379956655204296, 0.016407735645771027, -0.007148026023060083, -0.03001251071691513, -0.014634819701313972, -0.0013293238589540124, -0.005865118000656366, 0.013162572868168354, -0.04178021103143692, 0.007309152279049158, 0.024678589776158333, 0.02831117995083332, -0.021156949922442436, -0.0008483370766043663, -0.020419858396053314, -0.019811565056443214, -0.026487531140446663, -0.024141738191246986, -0.02425738051533699, 0.0038404297083616257, 0.0027805143035948277, 0.032120272517204285, 0.0016840484458953142, -0.027196383103728294, 0.009654943831264973, 0.025082405656576157, -0.021640438586473465, -0.020884033292531967, 0.018487533554434776, 0.026588214561343193, -0.034857410937547684, 0.02212928608059883, -0.005692341364920139, 0.015533631667494774, -0.004930957220494747, -0.033976808190345764, 0.007154432125389576, -0.0027920491993427277, -0.03409777954220772, 0.008037738502025604, 0.02676553465425968, 0.008158531971275806, 0.000852397526614368, 0.01045997440814972, 0.029011135920882225, -0.0013118642382323742, -0.0032536261714994907, -0.03544868528842926, 0.032599370926618576, 0.013484040275216103, -0.02135472744703293, -0.003643742762506008, -0.025443129241466522, -0.031276486814022064, -0.022029532119631767, -0.02642018534243107, 0.009166854433715343, 0.028666723519563675, 0.015868347138166428, 0.00047395724686793983, 0.020200572907924652, 0.004981671459972858, -0.03846772015094757, 0.002630996983498335, -0.031656090170145035, 0.013304535299539566, 0.012805735692381859, 0.015520107932388783, 0.006459695752710104, 0.02756558544933796, -0.034036822617053986, -0.013488595373928547, -0.013307197019457817, 0.009330090135335922, -0.004331384785473347, 0.02321430668234825, -0.020406289026141167, 0.009294633753597736, 0.0019525460666045547, 0.010358325205743313, 0.030482033267617226, -0.00047050206921994686, 0.0016103812959045172, 0.01460252981632948, 0.0176691934466362, -0.0136563740670681, 0.031865473836660385, 0.02851259335875511, -0.016221540048718452, -0.027233967557549477, 0.02633371762931347, 0.01011548563838005, -0.03343281149864197, 0.02925446256995201, -0.0006453736568801105, -0.01924731954932213, -0.008249538950622082, -0.011905423365533352, -0.021310755982995033, 0.02337663620710373, 0.002344033680856228, -0.016901979222893715, 0.02006354182958603, -0.022961677983403206, -0.01822831854224205], [-0.029864614829421043, 0.029229216277599335, 0.032650139182806015, -0.006032024510204792, -0.0190022774040699, -0.005519875790923834, -0.01686537265777588, -0.001686883857473731, -0.01076448056846857, -0.02275993674993515, -0.0354081355035305, 0.024856360629200935, -0.1551542431116104, -0.10665575414896011, 0.027429599314928055, 0.08759870380163193, -0.00528336875140667, 0.002481320174410939, -0.022739948704838753, 0.027524983510375023, 0.03259909898042679, -0.025307336822152138, 0.013565851375460625, 0.009377267211675644, 0.013353199698030949, 0.02924475632607937, -0.022428717464208603, 0.004284067079424858, 0.002740140538662672, 0.022560985758900642, -0.032359637320041656, 0.010738900862634182, -0.0012559026945382357, 0.0033319778740406036, -0.010151158086955547, -0.10348235070705414, -0.1447322815656662, -0.1933555155992508, -0.22421227395534515, -0.017380764707922935, -0.043258123099803925, -0.14483904838562012, -0.042510733008384705, -0.13354019820690155, -0.16416382789611816, -0.18177461624145508, -0.19264021515846252, -0.11468622088432312, -0.16560475528240204, -0.22788695991039276, -0.18982627987861633, -0.06433148682117462, 0.029736878350377083, -0.031073788180947304, 0.025525571778416634, -0.032916005700826645, 0.02975575625896454, -0.021541353315114975, 0.021127425134181976, -0.025607263669371605, -0.14392909407615662, 0.1928069144487381, 0.04667313024401665, 0.031614698469638824, 0.012656813487410545, 0.06132654473185539, 0.2598501741886139, 0.46369844675064087, 0.36716988682746887, 0.19284643232822418, 0.1070740818977356, 0.37205517292022705, 0.44997599720954895, 0.42516493797302246, 0.38960567116737366, 0.2036392092704773, 0.22282834351062775, -0.0053352415561676025, 0.036618392914533615, 0.007840186357498169, 0.12503290176391602, 0.09775204956531525, 0.030686452984809875, -0.001412923913449049, -0.020236659795045853, -0.03163892775774002, 0.2573145627975464, 0.18866553902626038, 0.10628166794776917, -0.09745141118764877, -0.18332935869693756, 0.019315114244818687, 0.06311234086751938, 0.4510853886604309, -0.07463548332452774, -0.019546685740351677, -0.08816827833652496, -0.1600072681903839, -0.17863008379936218, -0.37295547127723694, -0.024950619786977768, -0.04522251337766647, -0.3221827447414398, 0.18689775466918945, 0.0036019901745021343, -0.040126580744981766, 0.26161348819732666, 0.005366165656596422, 0.37839630246162415, -0.26854655146598816, -0.4020485281944275, -0.01983032189309597, 0.025293981656432152, -0.03894954174757004, 0.1605248898267746, -0.12960468232631683, -0.29314717650413513, -0.2866188585758209, -0.3384567201137543, -0.3033258318901062, -0.09293684363365173, -0.09577376395463943, 0.014040621928870678, 0.11318826675415039, -0.15893548727035522, -0.23588815331459045, -0.31191858649253845, -0.07481860369443893, -0.08353279531002045, 0.036132026463747025, -0.061217352747917175, -0.1735653281211853, -0.20083020627498627, 0.0013655135408043861, 0.2761858105659485, 0.0025343443267047405, -0.16494177281856537, -0.4895418584346771, -0.4682174623012543, -0.16989414393901825, -0.029183384031057358, 0.024268347769975662, 0.09776187688112259, 0.30458569526672363, -0.2725084722042084, -0.04993106797337532, -0.16404081881046295, -0.024084921926259995, 0.3275502324104309, 0.12240608781576157, 0.0013817825820297003, 0.11324556171894073, 0.0733327716588974, -0.15921838581562042, -0.13370798528194427, 0.11150515079498291, 0.028135692700743675, -0.18329554796218872, -0.019086124375462532, -0.04743855819106102, -0.29971009492874146, -0.1034398153424263, 0.1338624656200409, 0.4449564218521118, 0.29867202043533325, 0.034148238599300385, -0.20778998732566833, -0.05950087681412697, 0.0003812611394096166, -0.045591965317726135, -0.2665744721889496, -0.037765443325042725, -0.28309425711631775, -0.20029380917549133, -0.08589182794094086, 0.022936644032597542, -0.055285025388002396, 0.08654475212097168, 0.025484951213002205, 0.009699261747300625, -0.03841547295451164, -0.3156479299068451, -0.22939173877239227, -0.028894321992993355, -0.009591453708708286, -0.15703751146793365, -0.04182026535272598, -0.03138156235218048, -0.2049170881509781, -0.1294039934873581, 0.08496981114149094, -0.07391428202390671, 0.18192481994628906, 0.30057215690612793, 0.14411243796348572, 0.23709736764431, -0.02056630328297615, 0.00014153395022731274, -0.3571549654006958, -0.18458867073059082, 0.027540139853954315, 0.27553629875183105, -0.071199432015419, 0.07762788236141205, 0.04215835779905319, 0.08978993445634842, 0.08708615601062775, 0.02489623613655567, -0.2009878009557724, -0.2556082606315613, -0.16508109867572784, -0.0864124447107315, 0.15415677428245544, 0.21523280441761017, 0.04895457625389099, 0.21717461943626404, 0.1384854018688202, -0.034649815410375595, 0.13401611149311066, 0.05606594681739807, 0.08157604932785034, -0.4052717089653015, 0.23495061695575714, 0.15079182386398315, -0.008318843320012093, 0.27265989780426025, -0.2686920762062073, -0.13506044447422028, -0.12685799598693848, 0.06693560630083084, -0.09632964432239532, 0.16707034409046173, -0.011934147216379642, 0.18222737312316895, 0.1667018085718155, -0.011139381676912308, -0.11912015080451965, -0.1802235245704651, 0.03747651353478432, 0.10628727823495865, 0.17049816250801086, 0.24640019237995148, 0.00968638714402914, 0.05980205908417702, 0.0237402506172657, 0.008997071534395218, 0.1536385715007782, 0.12061117589473724, -0.008270627819001675, -0.29179686307907104, 0.05413689836859703, 0.07647605240345001, 0.0334455668926239, -0.036321114748716354, 0.14351803064346313, -0.22300556302070618, -0.5492523312568665, -0.07993445545434952, -0.18007640540599823, 0.01671137847006321, 0.008387819863855839, 0.17845521867275238, 0.12262161821126938, 0.032714370638132095, -0.14740419387817383, -0.38689368963241577, -0.07184435427188873, 0.22757472097873688, 0.2767363488674164, 0.04000755771994591, 0.02194463647902012, -0.1733350157737732, -0.3804515302181244, -0.4056972861289978, -0.08699842542409897, -0.31399214267730713, 0.1365765780210495, -0.38223564624786377, 0.2106354832649231, 0.37051889300346375, 0.01948234997689724, -0.14578263461589813, 0.09140503406524658, -0.3618195056915283, -0.8578962683677673, -0.16496817767620087, -0.06844226270914078, 0.05417252704501152, -0.09004628658294678, 0.11909547448158264, 0.09756620228290558, 0.005517334211617708, -0.48157450556755066, -0.40600141882896423, -0.05520949885249138, 0.43404683470726013, 0.2454250454902649, -0.013816013932228088, -0.23952530324459076, -0.20162615180015564, -0.4211925268173218, -0.27665674686431885, -0.5472339987754822, -0.4714859127998352, -0.08408157527446747, 0.03297410532832146, -0.10920452326536179, 0.2124214470386505, -0.008517112582921982, -0.01309757586568594, -0.036541763693094254, -0.26701265573501587, -0.15135256946086884, -0.2340850532054901, -0.024300849065184593, -0.05781032517552376, 0.011369054205715656, 0.06010198965668678, -0.019154584035277367, -0.2782253921031952, -0.6786606907844543, -0.38285112380981445, 0.14919599890708923, 0.4126690924167633, 0.19952215254306793, -0.19028757512569427, -0.23221039772033691, -0.33786463737487793, -0.16814178228378296, 0.023683248087763786, -0.12224697321653366, -0.39721158146858215, -0.4281672537326813, -0.3044310510158539, -0.7202269434928894, 0.37577295303344727, 0.023294908925890923, -0.006285497453063726, -0.17116552591323853, -0.35309329628944397, 0.21798932552337646, -0.3978920876979828, -0.47805872559547424, -0.4441264271736145, -0.28820857405662537, -0.4514288604259491, -0.28978651762008667, -0.6282259225845337, -0.3299567699432373, -0.14773838222026825, 0.07144548743963242, 0.25966769456863403, 0.13936065137386322, -0.23787641525268555, -0.05655137076973915, -0.20039662718772888, -0.2036287933588028, 0.10332130640745163, -0.02935856394469738, 0.054983578622341156, 0.09688693284988403, 0.22673261165618896, -0.03121756762266159, 0.518212616443634, -0.14499492943286896, 0.023336803540587425, 0.25973498821258545, 0.07303513586521149, -0.4088617265224457, -0.493278831243515, -0.44105565547943115, -0.31077179312705994, -0.3901774287223816, -0.39363807439804077, -0.0667082741856575, -0.2885529696941376, -0.11597134172916412, 0.1641286164522171, 0.29538536071777344, 0.16745255887508392, 0.009272382594645023, -0.1508817970752716, 0.28445297479629517, 0.03869817405939102, -0.2493022233247757, 0.19776651263237, 0.18155601620674133, 0.389120876789093, 0.5545035600662231, 0.4496667981147766, 0.060012854635715485, -0.13660262525081635, 0.01633380725979805, -0.0909283235669136, 0.13747917115688324, 0.13776695728302002, -0.15805664658546448, -0.3470427095890045, -0.20297853648662567, -0.030146226286888123, -0.002734034089371562, 0.03474913537502289, 0.11677487939596176, 0.09775379300117493, 0.21936506032943726, 0.2601597309112549, 0.2885345220565796, 0.10220666229724884, 0.0401679202914238, -0.030053671449422836, 0.056642141193151474, 0.2721089720726013, 0.08150752633810043, 0.00862753577530384, 0.10769473016262054, 0.2810461223125458, 0.34030288457870483, -0.09158209711313248, 0.35743382573127747, -0.053908441215753555, -0.025341873988509178, 0.00966000184416771, 0.11170115321874619, -0.16293466091156006, -0.5193051695823669, -0.37472474575042725, -0.07220719009637833, 0.05785520747303963, 0.09397003799676895, 0.20896361768245697, 0.14385469257831573, 0.19542059302330017, 0.20400339365005493, 0.3690812587738037, 0.19088146090507507, 0.13911910355091095, -0.0632806047797203, 0.032819073647260666, 0.03535085171461105, 0.08562208712100983, 0.013176321052014828, 0.11879504472017288, -0.027915092185139656, 0.14044465124607086, -0.06115950644016266, -0.3400024473667145, 0.38789084553718567, -0.19791488349437714, 0.012163618579506874, 0.1961093544960022, 0.016981054097414017, -0.3588636517524719, -0.5372633934020996, -0.15210911631584167, 0.056807950139045715, 0.0692293792963028, 0.20942234992980957, 0.32635772228240967, 0.17082278430461884, 0.13797584176063538, 0.08388393372297287, 0.24979406595230103, 0.05351920425891876, 0.04308405518531799, -0.013065407983958721, -0.031220413744449615, -0.15996964275836945, 0.02601560391485691, -0.04959984868764877, -0.010285788215696812, -0.08375360816717148, -0.0009955596178770065, -0.1524663120508194, -0.055419161915779114, 0.6921916604042053, 0.1704176664352417, -0.030696380883455276, 0.10011418163776398, -0.1123182624578476, -0.21407251060009003, -0.3206346929073334, -0.10524405539035797, 0.15183886885643005, 0.047076206654310226, -0.03269548714160919, 0.30265820026397705, 0.31577810645103455, 0.24201491475105286, 0.13268108665943146, 0.06802654266357422, 0.13060379028320312, -0.014110501855611801, -0.10806018114089966, -0.30743786692619324, -0.3179960250854492, -0.34490785002708435, -0.21575890481472015, -0.138083353638649, -0.053469788283109665, -0.017308315262198448, 0.27681005001068115, 0.6456314921379089, 0.6343089938163757, 0.24974581599235535, -0.01800444722175598, 0.09752785414457321, -0.15383797883987427, 0.28224003314971924, 0.20279811322689056, -0.011033629067242146, -0.07259368151426315, 0.09126891195774078, 0.014508191496133804, 0.14538325369358063, -0.00675276480615139, 0.08107466995716095, 0.22281673550605774, 0.1834162324666977, -0.08709923923015594, -0.06691354513168335, -0.2510313391685486, -0.016622554510831833, -0.04024527594447136, -0.1161438375711441, -0.17669443786144257, -0.27440357208251953, -0.04021839424967766, 0.34167587757110596, 0.36084210872650146, 0.12414105236530304, 0.5765722990036011, 0.3499753773212433, -0.03716465085744858, -0.2372746765613556, -0.273201584815979, 0.3829525411128998, 0.3088877201080322, 0.016306066885590553, -0.22824257612228394, -0.16246861219406128, -0.01199905015528202, 0.17399851977825165, -0.008836555294692516, 0.23566658794879913, 0.1824793666601181, 0.2580440640449524, 0.024730781093239784, 0.03305604308843613, -0.22711579501628876, -0.07315786927938461, -0.08937453478574753, -0.16676843166351318, 0.022002464160323143, -0.0445408895611763, -0.052151355892419815, 0.22660328447818756, 0.35113877058029175, -0.11410476267337799, -0.13452115654945374, 0.3301842510700226, -0.03049389086663723, -0.2851991057395935, -0.44961729645729065, 0.15818502008914948, 0.011950858868658543, -0.05162876099348068, -0.07902488857507706, 0.004929068963974714, -0.05669756978750229, 0.05020842328667641, -0.013486634008586407, 0.06310127675533295, 0.09882315248250961, 0.1638808399438858, 0.19999317824840546, 0.09205968677997589, -0.018458424136042595, -0.08981557935476303, -0.10247769206762314, -0.06470602005720139, -0.001210237038321793, 0.020581966266036034, -0.004567843396216631, 0.07184578478336334, -0.031240152195096016, 0.34004083275794983, -0.26849564909935, 0.06302165240049362, -0.040705036371946335, -0.2005072981119156, -0.4360896348953247, -0.059826310724020004, -0.021444065496325493, 0.3769771158695221, -0.09401825070381165, -0.01012447103857994, -0.15303653478622437, -0.02994951419532299, 0.013803082518279552, -0.16643773019313812, 0.010550837963819504, -0.008485114201903343, 0.17718538641929626, -0.031724922358989716, 0.035907670855522156, -0.23798801004886627, -0.2026752233505249, 0.01367333997040987, -0.05549240484833717, -0.05328251048922539, -0.3878558874130249, -0.12159054726362228, 0.1016620472073555, 0.02987164631485939, 0.023385748267173767, -0.029797883704304695, -0.027443625032901764, -0.05474454537034035, -0.1500757336616516, -0.26782312989234924, 0.05919506028294563, 0.1572779417037964, -0.10163848102092743, -0.05084383487701416, -0.10373670607805252, -0.10414434969425201, 0.02940349280834198, -0.21622316539287567, -0.24254362285137177, -0.03402845934033394, 0.03528831899166107, -0.03896396979689598, 0.23146243393421173, -0.20347198843955994, -0.15216472744941711, 0.03420533239841461, 0.13607142865657806, -0.12406912446022034, -0.3547249436378479, -0.003525134176015854, -0.10339587926864624, -0.14678606390953064, -0.09092120826244354, -0.02779589593410492, -0.020113183185458183, -0.01886807195842266, -0.2187138944864273, -0.4285215437412262, -0.03773835673928261, 0.010934082791209221, 0.04217124730348587, 0.16721001267433167, -0.13679665327072144, 0.011924846097826958, -0.0034074033610522747, 0.03786450996994972, 0.047581352293491364, 0.03713660314679146, 0.03558816760778427, 0.027979977428913116, 0.1135282889008522, -0.25172343850135803, -0.4979246258735657, -0.27297672629356384, -0.08166074007749557, -0.30202439427375793, -0.3000747561454773, -0.07749855518341064, -0.07731224596500397, 0.026241527870297432, 0.21254315972328186, 0.017085757106542587, -0.008026063442230225, 0.010120085440576077, -0.33615341782569885, -0.3979281187057495, -0.17681929469108582, -0.21810732781887054, -0.39336544275283813, -0.2145785689353943, -0.24829408526420593, -0.15097159147262573, -0.15675757825374603, 0.04635757580399513, -0.01026931218802929, 0.03261195495724678, 0.16146640479564667, 0.1067994236946106, -0.23308400809764862, -0.2252923995256424, -0.0013174270279705524, -0.27032312750816345, -0.14578759670257568, -0.23079845309257507, -0.24299423396587372, -0.41307318210601807, -0.09052493423223495, 0.24822847545146942, 0.2096254527568817, -0.020598620176315308, 0.03048616833984852, -0.03319237381219864, -0.020118487998843193, 0.18505561351776123, 0.4677329957485199, 0.37175145745277405, 0.31470978260040283, 0.1280442178249359, -0.1665847897529602, -0.23327480256557465, -0.2815353274345398, -0.05051754042506218, -0.1551654189825058, -0.31281691789627075, 0.011084622703492641, 0.2119058072566986, -0.11834881454706192, -0.10270044952630997, -0.2249317318201065, -0.8249507546424866, -0.5710445046424866, -0.41332709789276123, -0.1510007679462433, -0.21486425399780273, -0.13900187611579895, 0.07067501544952393, 0.13178211450576782, 0.03190958499908447, -0.028255881741642952, 0.019413655623793602, 0.008414218202233315, -0.05954096093773842, 0.18343044817447662, 0.3176073729991913, 0.2574496567249298, 0.3896627426147461, -0.12974822521209717, -0.008528389967978, 0.12115973979234695, 0.06796041876077652, -0.14867661893367767, -0.04176595062017441, -0.06920045614242554, 0.02927551418542862, -0.23347081243991852, -0.3411179482936859, -0.5267527103424072, -0.4379845857620239, -0.12317540496587753, -0.02675110660493374, 0.15109582245349884, -0.05691717565059662, -0.029563389718532562, -0.022503839805722237, 0.0037163200322538614, -0.019622765481472015, -0.0037714585196226835, 0.030208751559257507, 0.024726327508687973, 0.0318288579583168, 0.04406149312853813, -0.013566136360168457, -0.0014524707803502679, 0.03292957320809364, 0.06753747165203094, 0.25857898592948914, 0.28397640585899353, 0.44488850235939026, 0.4273969233036041, -0.14032317698001862, -0.3810500502586365, 0.26116812229156494, 0.29114434123039246, -0.3359318673610687, -0.3646109402179718, -0.4180016815662384, 0.01060467679053545, 0.011940744705498219, -0.019571905955672264, 0.00016000015602912754, 0.025338327512145042, -0.004043298307806253, 0.015498911030590534, -0.02781366929411888], [0.0075060217641294, 0.03229829668998718, 0.023338790982961655, 0.01179375872015953, -0.018072767183184624, -0.010451321490108967, -0.02680251933634281, 0.02300965040922165, -0.014344935305416584, 0.02198098413646221, 0.004710027482360601, 0.01684211939573288, 0.0007702831644564867, 0.03351180627942085, 0.013910691253840923, -0.0033101316075772047, 0.013781356625258923, 0.00521355913951993, 0.01927698589861393, 0.020031342282891273, -0.004460164811462164, -0.0013960771029815078, -0.013912631198763847, 0.019384343177080154, -0.0015986051876097918, -0.01766197755932808, -0.028262415900826454, -0.0036041142884641886, -0.02885144203901291, 0.00909601803869009, -0.03312676027417183, -0.011496944352984428, -0.0013432115083560348, -0.006164446007460356, -0.05966776981949806, -0.07075900584459305, -0.03437598794698715, -0.06455493718385696, -0.22162692248821259, -0.14397341012954712, -0.003134057391434908, -0.08447257429361343, -0.12297921627759933, 0.022793222218751907, 0.08332093805074692, 0.024431077763438225, -0.09942737966775894, -0.06286671757698059, -0.10366865247488022, -0.052582260221242905, -0.08840303122997284, -0.02666456438601017, -0.007509193383157253, -0.03429786115884781, -0.0020410590805113316, 0.013265606015920639, -0.0055582569912076, -0.02359750121831894, 0.02704857848584652, 0.051918625831604004, 0.036443080753088, -0.012059046886861324, 0.009260416962206364, -0.05847460776567459, -0.0649527907371521, -0.07565273344516754, 0.17187722027301788, 0.21209855377674103, 0.1924372911453247, -0.23953798413276672, -0.43143171072006226, -0.5099834203720093, -0.7344018220901489, -0.6291365623474121, -0.6618527173995972, -0.39670392870903015, -0.3609701693058014, -0.1259874403476715, -0.09866385161876678, 0.019932184368371964, 0.059950828552246094, 0.08189775049686432, 0.01831900328397751, -0.03450103476643562, 0.016568325459957123, -0.0020571735221892595, 0.04334340989589691, -0.0908324271440506, -0.06509609520435333, 0.2574106454849243, 0.08294461667537689, -0.10134012997150421, 0.12051617354154587, 0.45355749130249023, 0.44956743717193604, 0.17470459640026093, -0.009500152431428432, 0.1058625876903534, -0.11112452298402786, -0.47425246238708496, -0.6354126930236816, -0.1774396449327469, -0.3931756615638733, -0.4801090657711029, -0.4075780510902405, -0.2629164457321167, 0.04316322132945061, -0.03575218841433525, 0.013717500492930412, 0.058985255658626556, 0.0030233487486839294, 0.01778031699359417, -0.021147247403860092, 0.019947387278079987, 0.08464594185352325, -0.1594403088092804, -0.0995621383190155, 0.18736149370670319, 0.12406304478645325, 0.28476452827453613, 0.09753090888261795, 0.5153096914291382, 0.20351609587669373, 0.19847185909748077, 0.2687006890773773, 0.11122753471136093, -0.08246833831071854, -0.19586309790611267, -0.31647971272468567, -0.2437526285648346, -0.2604076862335205, -0.14968937635421753, -0.04818134754896164, -0.3517991304397583, -0.4570341408252716, -0.0973394513130188, -0.06204964965581894, 0.15852941572666168, 0.19149169325828552, 0.042068589478731155, -0.0015990649117156863, 0.03306906670331955, -0.2009352743625641, 0.13292525708675385, 0.478180855512619, 0.09276674687862396, 0.014067082665860653, 0.17804250121116638, 0.45741358399391174, 0.3592154383659363, 0.24016733467578888, 0.28128814697265625, 0.21785813570022583, 0.2761979103088379, 0.28384366631507874, -0.005673602689057589, -0.035066016018390656, 0.030744552612304688, 0.14190790057182312, 0.04317193105816841, 0.04698153957724571, -0.24252328276634216, -0.6079255938529968, -0.20755083858966827, 0.23964227735996246, 0.5541186928749084, 0.3401414155960083, 0.07792843878269196, 0.01612679474055767, -0.10967036336660385, 0.11645593494176865, 0.37065309286117554, 0.40360361337661743, 0.392524391412735, 0.031996067613363266, 0.19429825246334076, 0.2527000904083252, 0.36865001916885376, 0.2725587487220764, 0.09306632727384567, 0.18097028136253357, 0.36130058765411377, 0.26471033692359924, 0.411272257566452, 0.33131611347198486, 0.1528630256652832, 0.03506917506456375, -0.18248797953128815, -0.2193402498960495, -0.36585912108421326, -0.28838324546813965, -0.07722415775060654, -0.23249226808547974, 0.3810359239578247, 0.421004980802536, 0.13783776760101318, 0.02142518013715744, -0.07409793883562088, 0.314926415681839, 0.553989589214325, 0.39486464858055115, 0.20141276717185974, 0.3026673495769501, 0.19998803734779358, 0.2983708679676056, 0.17203480005264282, 0.018473302945494652, 0.16607601940631866, 0.20596915483474731, 0.3447745442390442, 0.3031249940395355, 0.49613335728645325, 0.1648099273443222, -0.14243969321250916, -0.05014577507972717, -0.20033413171768188, -0.23753072321414948, -0.17831601202487946, -0.17899176478385925, -0.49089306592941284, -0.2934468388557434, 0.03907007724046707, 0.3640911877155304, 0.12517321109771729, 0.04446426406502724, 0.13021042943000793, -0.17037656903266907, 0.10669604688882828, 0.28975674510002136, 0.1511022448539734, 0.1991034597158432, 0.05471238121390343, 0.2802150249481201, 0.15803053975105286, 0.14948484301567078, 0.1995633989572525, 0.20112597942352295, 0.297578901052475, 0.2718518376350403, 0.18686866760253906, 0.09014216810464859, -0.09009777754545212, 0.1645868718624115, 0.012996923178434372, -0.0026979607064276934, -0.18631303310394287, -0.10525002330541611, -0.4389897286891937, -0.40294432640075684, 0.34165823459625244, 0.3927235007286072, 0.05655515566468239, 0.06685713678598404, -0.050333172082901, -0.16238364577293396, 0.05194559320807457, 0.3009623885154724, 0.30577853322029114, -0.016205202788114548, 0.04426133260130882, -0.07280215620994568, 0.06873134523630142, 0.1658373922109604, 0.024635707959532738, 0.008490156382322311, 0.07937514036893845, -0.09835337847471237, -0.08254595845937729, -0.17198540270328522, 0.23755885660648346, 0.2675357758998871, 0.03771132603287697, 0.00030679433257319033, -0.15422023832798004, -0.4020319879055023, -0.5341739654541016, -0.294277161359787, 0.21282660961151123, 0.4126451909542084, -0.03064017742872238, 0.08437379449605942, -0.12083696573972702, 0.0356220044195652, 0.06975977122783661, 0.08773074299097061, 0.09146171063184738, 0.21486356854438782, 0.16078335046768188, -0.12546612322330475, -0.17395104467868805, 0.03604955971240997, -0.10364064574241638, -0.28383880853652954, -0.30228427052497864, -0.37910643219947815, -0.3292175531387329, -0.03889961168169975, 0.17036354541778564, 0.21380966901779175, 0.014763042330741882, -0.13075439631938934, 0.06441041082143784, -0.3095988929271698, -0.33936822414398193, -0.20015063881874084, 0.06941960006952286, 0.1529059112071991, -0.08648257702589035, -0.07763587683439255, 0.13132727146148682, 0.14523553848266602, 0.2363300323486328, -0.15609686076641083, -0.01105470396578312, 0.3663564920425415, 0.09804603457450867, -0.23057660460472107, -0.12056409567594528, -0.01366478018462658, -0.039390020072460175, -0.1841249018907547, -0.28619465231895447, -0.27413949370384216, -0.20820219814777374, 0.01640903204679489, 0.24657411873340607, 0.05819741636514664, -0.08624289929866791, -0.2827175557613373, -0.03378842771053314, -0.024045778438448906, -0.1990146040916443, 0.053299374878406525, 0.14486385881900787, 0.15582716464996338, -0.2476084977388382, -0.04847884550690651, 0.05841827765107155, 0.1761312186717987, 0.2945306599140167, -0.16471637785434723, -0.1260230839252472, 0.0055250134319067, -0.0612783208489418, -0.08959375321865082, -0.08155298978090286, -0.26230376958847046, -0.3489856421947479, -0.398573100566864, -0.3098641335964203, -0.23359477519989014, -0.1282287985086441, 0.07774809002876282, 0.15021821856498718, -0.0705217570066452, 0.1403397023677826, -0.13079212605953217, 0.0016967987176030874, -0.11010255664587021, -0.1021689921617508, 0.16850599646568298, 0.10767357796430588, -0.26357001066207886, -0.08259779959917068, -0.19233621656894684, -0.03023477829992771, -0.14433392882347107, 0.30953681468963623, -0.33387476205825806, -0.2565211057662964, -0.12993648648262024, -0.07314765453338623, -0.06345959007740021, -0.0952671691775322, -0.10495651513338089, -0.3133140206336975, -0.2357768714427948, -0.19171635806560516, -0.30665454268455505, -0.0245654359459877, -0.0571620874106884, -0.05822908505797386, -0.010233944281935692, 0.17191456258296967, -0.06262051314115524, -0.04865517094731331, 0.15646682679653168, -0.11099656671285629, -2.5006287614814937e-05, 0.03535491228103638, -0.04769005626440048, 0.2131148874759674, -0.15284746885299683, -0.1002824604511261, -0.07073543220758438, 0.2010137289762497, -0.28289759159088135, -0.316679447889328, -0.11531726270914078, -0.13397343456745148, -0.17483627796173096, -0.2164442241191864, -0.014455951750278473, -0.23802971839904785, -0.24406906962394714, -0.11530887335538864, -0.15817371010780334, -0.029308119788765907, -0.21703268587589264, -0.050128024071455, 0.12629656493663788, 0.033515430986881256, 0.0018294566543772817, 0.09403198212385178, 0.05749917030334473, -0.23872384428977966, 0.06180776283144951, 0.22122859954833984, 0.021792776882648468, 0.18894025683403015, -0.1288662701845169, -0.11740946024656296, -0.03472031652927399, -0.33176863193511963, -0.1672365963459015, -0.1218997910618782, -0.06873194873332977, -0.06932499259710312, -0.12995782494544983, -0.054147206246852875, 0.02646760083734989, -0.20627735555171967, -0.13947921991348267, 0.00955604575574398, 0.02401411347091198, 0.09224719554185867, -0.07924208045005798, -0.034483686089515686, -0.01444376539438963, -0.2408711314201355, -0.01865771971642971, 0.23253710567951202, -0.0958317369222641, -0.2574319541454315, 0.11418113857507706, 0.3854740560054779, -0.3335249722003937, 0.4972585141658783, 0.15929803252220154, -0.08900333940982819, -0.03664853051304817, -0.6179730296134949, -0.34807899594306946, -0.24298200011253357, -0.1424931436777115, -0.2669413387775421, -0.14659783244132996, -0.13240490853786469, -0.01731746643781662, 0.058007288724184036, 0.16015686094760895, -0.046444956213235855, -0.013378221541643143, -0.14628362655639648, -0.05783374607563019, 0.08284860104322433, -0.24854452908039093, -0.2728802263736725, 0.11717801541090012, 0.1300894170999527, 0.059074219316244125, -0.14646576344966888, -0.053998515009880066, 0.3281283676624298, -0.06193811073899269, 0.49456384778022766, 0.03039277158677578, -0.14054162800312042, 0.0651492029428482, -0.35523539781570435, -0.33794382214546204, -0.47625911235809326, -0.0968894213438034, -0.33115875720977783, -0.07111748307943344, -0.10532249510288239, -0.0420895479619503, 0.04345165938138962, 0.08222107589244843, -0.1653241515159607, -0.21657250821590424, -0.029319532215595245, 0.0794791728258133, 0.00019657306256704032, -0.3589867949485779, -0.37971100211143494, -0.0722370520234108, -0.14104171097278595, -0.1561238020658493, -0.239119291305542, 0.01900593377649784, 0.40003836154937744, -0.05174901708960533, 0.4384934604167938, 0.04956723749637604, -0.24048952758312225, -0.2554515302181244, -0.21146908402442932, -0.4730428159236908, -0.574865460395813, -0.06660482287406921, -0.020700570195913315, 0.14114360511302948, 0.016760315746068954, 0.12742219865322113, 0.20255312323570251, 0.09705789387226105, -0.1444331407546997, -0.20985297858715057, 0.07058250904083252, 0.07634898275136948, -0.043205004185438156, -0.03834255039691925, -0.20336948335170746, -0.1749376356601715, -0.15139926970005035, -0.02769688330590725, 0.07195070385932922, 0.0859706774353981, 0.18889012932777405, -0.07689081132411957, 0.02839198336005211, -0.26347610354423523, -0.02259977161884308, -0.21968404948711395, -0.36278173327445984, -0.3391205370426178, -0.683955192565918, -0.4793529510498047, -0.15909916162490845, 0.061883170157670975, -0.01834900490939617, 0.3332642912864685, 0.17428800463676453, 0.02857830375432968, -0.1592513620853424, -0.10941524058580399, 0.04617404192686081, 0.05104563385248184, -0.0055377972312271595, -0.03350411355495453, -0.16830724477767944, -0.05584794282913208, -0.24315501749515533, -0.06226157769560814, -0.03969141095876694, -0.1799890547990799, -0.062480274587869644, -0.020489616319537163, 0.0026423586532473564, -0.03436795622110367, 0.09560323506593704, -0.1366759091615677, -0.19383735954761505, -0.5348005294799805, -0.41988691687583923, -0.45041927695274353, -0.03203671798110008, 0.12708602845668793, 0.03296397626399994, 0.22525648772716522, -0.011648530140519142, -0.08167633414268494, 0.006400760728865862, -0.05274911969900131, 0.03165533393621445, 0.08019296824932098, -0.08036787062883377, -0.1649952232837677, -0.18351174890995026, -0.11883983016014099, -0.28598132729530334, -0.5649001002311707, -0.10512496531009674, -0.12220242619514465, -0.1575082391500473, -0.13385629653930664, -0.31007227301597595, -0.08376508951187134, 0.005202969070523977, 0.09242547303438187, -0.22239120304584503, -0.31266090273857117, -0.4994165003299713, -0.5182076692581177, -0.12525874376296997, -0.044129349291324615, 0.1969701200723648, 0.003171504009515047, -0.08318260312080383, 0.06254108250141144, 0.1412035971879959, 0.09292227029800415, 0.028348460793495178, 0.043040480464696884, 0.10370675474405289, -0.12758399546146393, -0.17547796666622162, -0.3711414635181427, -0.4735707938671112, -0.22815382480621338, 0.09349368512630463, 0.0358915738761425, -0.3077285885810852, 0.27417001128196716, 0.017467981204390526, -0.1103145182132721, -0.10545208305120468, 0.26329636573791504, -0.016777154058218002, -0.2679138481616974, -0.4508609175682068, -0.41912004351615906, -0.029433758929371834, 0.02321917749941349, 0.23605233430862427, 0.10663679242134094, 0.17093779146671295, 0.23924970626831055, 0.22661228477954865, 0.12344247847795486, -0.05487974360585213, -0.07437486946582794, -0.05397605523467064, -0.08200478553771973, -0.3394268751144409, -0.1991642862558365, -0.17927148938179016, 0.21528984606266022, 0.14396783709526062, 0.0912075787782669, -0.4980306327342987, -0.26317930221557617, 0.04830285906791687, -0.0270344540476799, -0.03098412975668907, -0.1359700709581375, -0.4501902163028717, -0.325811505317688, -0.2783045470714569, -0.5660232901573181, -0.4139731824398041, -0.12878519296646118, 0.13035616278648376, 0.10190882533788681, 0.2665112316608429, 0.2531740665435791, 0.07909699529409409, 0.19284524023532867, 0.008176912553608418, -0.039396289736032486, -0.03869113326072693, 0.030202114954590797, 0.10396256297826767, 0.39763715863227844, 0.27172723412513733, 0.43051522970199585, 0.2065766453742981, -0.045922402292490005, -0.383976012468338, -0.5735611915588379, -0.013381035067141056, -0.019030844792723656, -0.01254341471940279, 0.22280628979206085, -0.3492443859577179, -0.14681340754032135, -0.18284066021442413, -0.5794580578804016, -0.4829586148262024, -0.3254137635231018, -0.24030785262584686, -0.18045654892921448, -0.19241607189178467, 0.1154523715376854, 0.184439018368721, 0.15316914021968842, 0.35833847522735596, 0.12174448370933533, -0.1273549497127533, 0.1291748285293579, 0.33440276980400085, 0.17794619500637054, 0.021143289282917976, 0.012028847821056843, -0.043412402272224426, 0.43879202008247375, -0.061200760304927826, -0.07353082299232483, 0.021939508616924286, -0.012411633506417274, -0.0200104508548975, -0.2469823807477951, 0.3322831988334656, 0.09919199347496033, -0.28314629197120667, -0.1354789286851883, -0.0795871838927269, -0.024661483243107796, -0.1364155411720276, 0.24144040048122406, 0.042286474257707596, -0.08934421092271805, -0.20051886141300201, -0.026176687330007553, 0.33800578117370605, 0.05187295004725456, 0.13912707567214966, 0.20440232753753662, -0.015849243849515915, 0.04851027950644493, -0.05121034383773804, -0.317827045917511, -0.27491769194602966, -0.19872532784938812, -0.22457988560199738, 0.04317757487297058, -0.022653235122561455, 0.02724354714155197, 0.030092155560851097, -0.011026604101061821, 0.08402635902166367, -0.19416557252407074, -0.2622520625591278, -0.09169095009565353, 0.5038533806800842, 0.5826423168182373, 0.3731454908847809, 0.05299593135714531, 0.07869210839271545, -0.2271507978439331, -0.22619305551052094, 0.1489788144826889, -0.02044457383453846, 0.31884193420410156, 0.04446997493505478, 0.4270836412906647, 0.4546990692615509, 0.33720165491104126, -0.12238862365484238, -0.10729455202817917, 0.11290595680475235, 0.013757365755736828, 0.062237050384283066, -0.005871811416000128, -0.0008989785565063357, 0.01119273528456688, -0.013852767646312714, -0.02487182803452015, -0.029203202575445175, 0.10061963647603989, 0.12086355686187744, 0.2234003096818924, 0.27459314465522766, 0.37774622440338135, 0.4378353953361511, 0.5469988584518433, 0.49485287070274353, 0.3802509009838104, 0.37171998620033264, 0.09565159678459167, 0.13874854147434235, 0.5661898851394653, 0.37396490573883057, 0.22007939219474792, 0.11374127864837646, -0.008845369331538677, 0.03787630796432495, -0.015460232272744179, 0.02405584789812565, 0.01594587415456772, 0.027667442336678505, -0.03179027885198593, -0.010373375378549099], [0.00982432346791029, 0.000583699787966907, 0.002875698497518897, 0.03480792045593262, -0.00948953628540039, -0.018283823505043983, 0.004479276482015848, 0.006535104475915432, 0.006377697456628084, -0.003875885857269168, -0.0021727767307311296, 0.03234681114554405, -0.023454740643501282, -0.004956371616572142, 0.0049710869789123535, -0.004912248812615871, 0.026918770745396614, 0.021335002034902573, 0.02549430914223194, -0.03195779398083687, 0.02228465862572193, -0.02960912324488163, -4.922918014926836e-05, 0.004953423049300909, -0.027358120307326317, 0.011181844398379326, -0.00810922123491764, -0.007146805990487337, 0.01678566075861454, -0.027616217732429504, -0.029391422867774963, 0.020722845569252968, -0.016841288655996323, -0.027568813413381577, -0.004401007201522589, -0.030664343386888504, -0.033989474177360535, -0.008020210079848766, -0.0390763022005558, -0.03349199891090393, -0.004221838433295488, -0.0282569769769907, -0.13404081761837006, -0.33854177594184875, -0.3607683777809143, -0.25274914503097534, -0.019955256953835487, -0.08379695564508438, -0.13771390914916992, -0.06450948864221573, -0.10573160648345947, -0.052957683801651, -0.010248372331261635, -0.006745632737874985, -0.009347132407128811, 0.020586837083101273, -0.01919698715209961, 0.014558069407939911, -0.012055580504238605, 0.019464442506432533, -0.029704824090003967, 0.025568805634975433, 0.01504208892583847, -0.053218018263578415, -0.04286450520157814, -0.1508062332868576, -0.05093298852443695, -0.1310073435306549, 0.1455007791519165, -0.5839748382568359, -0.7794474363327026, -0.7442619800567627, -0.8613940477371216, -0.5217611193656921, -0.33061087131500244, -0.2779712378978729, 0.1670803427696228, -0.021379996091127396, -0.10319996625185013, -0.1135873794555664, -0.17272718250751495, -0.14256469905376434, 0.02201910689473152, -0.006705697625875473, -0.0086699603125453, 0.020928865298628807, 0.36387285590171814, 0.2664054036140442, 0.013322317972779274, -0.4383425712585449, -0.345164030790329, 0.10214635729789734, -0.0961674228310585, -0.07456722110509872, -0.3269534111022949, -0.29409468173980713, -0.2173052728176117, -0.08021371066570282, -0.1717991679906845, -0.061277735978364944, -0.1550571769475937, -0.042019322514534, 0.5652316808700562, 0.19243469834327698, 0.03455245867371559, -0.010227108374238014, -0.1955055594444275, 0.2525342106819153, -0.0884910523891449, -0.08725327253341675, -0.284710556268692, 0.0027207392267882824, -0.02458048425614834, -0.014734392054378986, 0.3086586594581604, 0.276636004447937, 0.19574658572673798, -0.3877272605895996, -0.19412663578987122, 0.11240393668413162, -0.12622807919979095, -0.5786013603210449, -0.3853996694087982, -0.20398330688476562, -0.15559999644756317, -0.02242923341691494, -0.20408719778060913, 0.1014193445444107, 0.3272232115268707, 0.04960755631327629, 0.04363277554512024, 0.10885230451822281, 0.016104480251669884, 0.16633814573287964, 0.15814583003520966, 0.0854707881808281, -0.4196895956993103, -0.3478287160396576, -0.06947215646505356, -0.3029586970806122, -0.012025169096887112, 0.0020290955435484648, 0.34995409846305847, 0.07752134650945663, -0.2850351631641388, -0.3054560720920563, -0.04433411732316017, -0.0972103700041771, -0.056362658739089966, 0.27385106682777405, 0.2652154266834259, -0.08807376772165298, -0.033506862819194794, -0.011294480413198471, 0.05942974239587784, 0.03373659774661064, -0.03852773830294609, -0.020665204152464867, -0.07822714745998383, -0.274912565946579, -0.41252559423446655, -0.13556289672851562, -0.10800640285015106, -0.3944312632083893, -0.4462130665779114, -0.33769625425338745, -0.5173946022987366, -0.3395214378833771, 0.027167964726686478, -0.10204783082008362, -0.26447540521621704, -0.28118622303009033, 0.4030552804470062, 0.19861531257629395, 0.048534806817770004, 0.16925236582756042, 0.1788320541381836, -0.23008009791374207, -0.1263439655303955, 0.01085164025425911, 0.020748279988765717, -0.07696736603975296, -0.04204269498586655, -0.05438471958041191, 0.10925014317035675, 0.16020262241363525, 0.24746443331241608, 0.10952576249837875, -0.04695704206824303, -0.07666457444429398, -0.10785548388957977, 0.08656999468803406, -0.4266979694366455, -0.13459081947803497, -0.28141382336616516, -0.24885709583759308, -0.033710576593875885, -0.22757577896118164, -0.3484067916870117, 0.0886700302362442, -0.4340198338031769, -0.48440977931022644, -0.1623150259256363, -0.036763597279787064, -0.09987545758485794, -0.49303096532821655, -0.2871944010257721, 0.021565135568380356, -0.05900035426020622, 0.09303340315818787, 0.06025971099734306, 0.1163763776421547, 0.1728033870458603, 0.006196416448801756, 0.11138687282800674, 0.1436750292778015, -0.01933322101831436, 0.00014928718155715615, -0.08150875568389893, 0.23455508053302765, 0.09145339578390121, 0.08921077102422714, -0.1503436118364334, -0.15315046906471252, -0.06206633150577545, -0.029159680008888245, -0.3330364525318146, 0.16880463063716888, -0.3503652811050415, -0.30046942830085754, 0.17454001307487488, 0.13378173112869263, 0.05280844494700432, -0.039644382894039154, -0.07168217748403549, 0.0721127837896347, -0.03928238898515701, 0.1641712635755539, 0.04198021814227104, 0.06029849499464035, 0.00945598166435957, 0.007412655744701624, 0.12886382639408112, 0.03759516030550003, -0.14936448633670807, -0.0026080047246068716, 0.09106341004371643, 0.04970847815275192, 0.42970332503318787, 0.35854265093803406, 0.06709299236536026, -0.05128076300024986, -0.006165419705212116, 0.19150042533874512, -0.05584874749183655, 0.01929709129035473, -0.29547324776649475, -0.23132427036762238, 0.1932547390460968, -0.06043606624007225, -0.13799791038036346, -0.02870327979326248, 0.1084849163889885, 0.025838268920779228, -0.013437217101454735, 0.2276756912469864, -0.07924693822860718, -0.00937559176236391, -0.09577476233243942, -0.1072453185915947, -0.09313668310642242, 0.06894756853580475, 0.05458715930581093, 0.0578228197991848, 0.27654606103897095, 0.23469920456409454, 0.32364383339881897, 0.04158668592572212, 0.39395055174827576, 0.18115021288394928, -0.02122761681675911, 0.22081632912158966, -0.12248124182224274, 0.004737782757729292, -0.181554913520813, 0.10346987843513489, -0.21394725143909454, -0.5422298312187195, -0.21459440886974335, 0.11160806566476822, 0.07482434064149857, 0.1332080215215683, 0.12156883627176285, -0.16883771121501923, -0.10105715692043304, -0.02855881303548813, 0.04530162736773491, -0.3558957576751709, -0.1332869529724121, -0.01589553989470005, 0.07620105892419815, 0.05544085428118706, 0.19529764354228973, 0.31205371022224426, 0.08398633450269699, 0.06474577635526657, -0.15360134840011597, 0.31428763270378113, -0.01661018654704094, -0.3152194321155548, 0.2644655704498291, -0.1493956744670868, 0.1912049651145935, 0.2629775106906891, -0.09074022620916367, -0.11962152272462845, 0.06684641540050507, 0.0295451357960701, 0.2270153909921646, 0.07143686711788177, -0.27731791138648987, -0.4274320602416992, 0.05492957681417465, -0.0013166923308745027, 0.14239580929279327, -0.06739215552806854, -0.010313193313777447, -0.02582470513880253, 0.058729782700538635, 0.11063190549612045, 0.14403624832630157, 0.214658722281456, 0.23209990561008453, 0.12410514056682587, 0.12411085516214371, 0.34773120284080505, 0.007918338291347027, -0.05433839559555054, 0.3363390862941742, 0.19711820781230927, 0.21123313903808594, 0.17400147020816803, 0.02938704751431942, 0.11935470998287201, -0.000824090966489166, -0.05269017443060875, -0.025319628417491913, -0.01421128399670124, -0.5386804938316345, -0.3267304301261902, 0.016002384945750237, 0.27996277809143066, 0.28467366099357605, 0.08980464935302734, 0.00782970990985632, -0.057536881417036057, 0.04984147846698761, 0.26502594351768494, 0.13819275796413422, 0.3276512622833252, 0.11118441820144653, 0.09720478951931, -0.02334400825202465, 0.1955660581588745, 0.0073444354347884655, -0.054498106241226196, -0.106768399477005, 0.08743259310722351, 0.13725796341896057, -0.21162118017673492, -0.07310561835765839, 0.12169227749109268, -0.018265800550580025, 0.0041262926533818245, -0.04068080335855484, -0.13135874271392822, -0.12488905340433121, 0.050728484988212585, 0.2149733155965805, 0.3696431517601013, 0.01471996121108532, -0.057430047541856766, -0.17803169786930084, -0.032091397792100906, 0.0929085984826088, 0.20864365994930267, 0.155306875705719, 0.31973257660865784, 0.14724163711071014, 0.39286839962005615, -0.24856188893318176, 0.018900256603956223, -0.0708337128162384, 0.00402795197442174, -0.12896393239498138, -0.06816782802343369, 0.0048439279198646545, -0.2606760263442993, -0.1647418588399887, -0.06467347592115402, -0.046852197498083115, 0.09723123908042908, -0.03332921117544174, 0.007646101992577314, 0.08527068048715591, 0.21730010211467743, 0.34873366355895996, 0.2725522220134735, 0.0017592309741303325, -0.13133303821086884, -0.21165014803409576, -0.20271600782871246, -0.11569997668266296, 0.010822325013577938, -0.1399189531803131, -0.020914705470204353, 0.013643180020153522, 0.09788533300161362, -0.39022162556648254, -0.03864273056387901, -0.04244251176714897, 0.008140449412167072, -0.11222705245018005, 0.4204874634742737, 0.0629672035574913, -0.057957570999860764, -0.24250975251197815, -0.08792467415332794, -0.012074697762727737, 0.002241895766928792, 0.16191156208515167, 0.11686703562736511, 0.17248165607452393, 0.26727548241615295, 0.3370780050754547, 0.15484154224395752, 0.15099941194057465, 0.11858933418989182, 0.039725665003061295, -0.3306633234024048, -0.20934075117111206, -0.0947536826133728, -0.09344257414340973, -0.1314513236284256, -0.13181854784488678, -0.33826616406440735, -0.13939709961414337, 0.014177133329212666, -0.03014049492776394, -0.13833121955394745, -0.18023863434791565, 0.10781111568212509, 0.17243903875350952, 0.2741551995277405, -0.1330495923757553, -0.15577363967895508, -0.17663049697875977, 0.040878936648368835, 0.1717488318681717, 0.15850253403186798, 0.2305183857679367, 0.27631476521492004, 0.23358483612537384, 0.028732502833008766, 0.0313548669219017, 0.04659731313586235, -0.15768666565418243, -0.4708685874938965, -0.39942488074302673, -0.1117839440703392, -0.15904152393341064, 0.013570670038461685, 0.003433644538745284, -0.4052026867866516, -0.04021032527089119, 0.006582250818610191, 0.0006785435834899545, 0.007285331841558218, 0.11928095668554306, 0.17801602184772491, -0.07418254762887955, 0.034051790833473206, -0.018498657271265984, -0.021451737731695175, -0.0576908104121685, -0.03410690277814865, 0.10761076956987381, 0.19853003323078156, 0.22439147531986237, 0.3036808669567108, 0.09198139607906342, -0.16962295770645142, -0.17105954885482788, -0.20549337565898895, -0.550655722618103, -0.5731430649757385, -0.21431753039360046, 0.001233376795426011, 0.0969923660159111, 0.2362346351146698, 0.46514368057250977, 0.12478097528219223, -0.11538972705602646, -0.41490909457206726, 0.22294189035892487, 0.269115149974823, 0.20610177516937256, -0.21574042737483978, -0.29911383986473083, -0.03714343160390854, -0.16262206435203552, -0.37512147426605225, -0.26955723762512207, -0.32942870259284973, -0.03969593718647957, 0.17164792120456696, -0.035966068506240845, 0.21276600658893585, 0.09535966068506241, -0.12805809080600739, -0.13876259326934814, -0.2355356514453888, -0.5882125496864319, -0.7197525501251221, -0.0580420158803463, -0.060295216739177704, 0.0030071751680225134, -0.10762636363506317, 0.011429550126194954, 0.20060887932777405, 0.1588584929704666, -0.2936517596244812, 0.20919518172740936, -0.2536713182926178, 0.3024086654186249, -0.29958659410476685, 0.0642625167965889, -0.26742082834243774, -0.2608906030654907, -0.12035409361124039, -0.19916695356369019, -0.2838338017463684, -0.24059826135635376, -0.2776966691017151, -0.13072173297405243, 0.06925002485513687, 0.16450820863246918, -0.006535612046718597, -0.05253684148192406, 0.05288461223244667, -0.44337522983551025, -0.6268817186355591, -0.2683950662612915, 0.029554283246397972, -0.0788504034280777, -0.3454439640045166, -0.25730544328689575, 0.12953373789787292, 0.18586969375610352, 0.20518842339515686, 0.016292061656713486, 0.02620498649775982, 0.5232712626457214, -0.09871255606412888, 0.30193787813186646, -0.1434001326560974, -0.03239808976650238, 0.06383918225765228, -0.018777605146169662, -0.10685981810092926, -0.0782039612531662, -0.12995822727680206, 0.041716691106557846, 0.08342883735895157, 0.11358220130205154, 0.04076402634382248, -0.2611143887042999, 0.008992604911327362, -0.5681045651435852, -0.4538184106349945, -0.08451182395219803, -0.09257633984088898, 0.19551433622837067, -0.10386732220649719, -0.06394510716199875, -0.37072551250457764, 0.2238130271434784, 0.14094896614551544, 0.1938447505235672, 0.15546618402004242, 0.22988490760326385, 0.12578697502613068, 0.2373965084552765, -0.26844993233680725, 0.11497969925403595, 0.009820371866226196, -0.05384637042880058, 0.056965988129377365, 0.152252197265625, 0.03814481571316719, -0.06765874475240707, -0.015584752894937992, 0.014482774771749973, -0.01311812549829483, -0.3545050621032715, -0.315843403339386, -0.4594140350818634, -0.4114921987056732, -0.26006126403808594, -0.22077199816703796, -0.10486848652362823, 0.2492551952600479, 0.14396002888679504, 0.16360647976398468, -0.2156592607498169, 0.008542120456695557, 0.15001794695854187, 0.11099275946617126, 0.19867606461048126, 0.09508853405714035, 0.2508273720741272, 0.15718309581279755, 0.06393151730298996, 0.04734272137284279, 0.08613214641809464, 0.08997482061386108, 0.11159420013427734, -0.05263105407357216, -0.03832492232322693, -0.009708610363304615, 0.041108276695013046, -0.16107478737831116, -0.38867297768592834, -0.36173874139785767, -0.5200188159942627, -0.33867597579956055, -0.19585339725017548, -0.1764633059501648, -0.3244290053844452, -0.010900585912168026, 0.24961835145950317, 0.16747035086154938, -0.2515387535095215, 0.03506811335682869, -0.0037490769755095243, -0.03184124082326889, 0.013480843044817448, -0.18017588555812836, 0.11873278766870499, 0.36329033970832825, 0.07337675243616104, 0.1295490860939026, 0.11555534601211548, -0.035579606890678406, 0.04405055567622185, 0.09659280627965927, 0.02666497603058815, -0.012744470499455929, -0.10497210174798965, -0.27477923035621643, -0.32626163959503174, -0.3644441068172455, -0.3300987780094147, -0.41519734263420105, -0.005801674909889698, -0.12324309349060059, 0.08258998394012451, -0.06358817964792252, 0.33538755774497986, 0.15490108728408813, -0.0672556534409523, 0.0066984002478420734, -0.00832444429397583, -0.014873083680868149, 0.0913560539484024, -0.2506880462169647, -0.05913209170103073, 0.17532923817634583, 0.15352416038513184, 0.3636550009250641, 0.21893325448036194, -0.006298169028013945, -0.16540300846099854, -0.1060657948255539, -0.03845749422907829, 0.07269633561372757, -0.008672338910400867, -0.19500309228897095, -0.2870102822780609, -0.42764630913734436, -0.4186588525772095, -0.4306115210056305, -0.11411885172128677, 0.16911634802818298, 0.3042662739753723, 0.32048138976097107, 0.3177483081817627, -0.11209259182214737, -0.06896782666444778, -0.025331992655992508, -0.014009786769747734, 0.030191238969564438, 0.12984861433506012, -0.05377431586384773, -0.10717889666557312, 0.3026074171066284, -0.13997961580753326, -0.03654274716973305, 0.22692573070526123, -0.009686417877674103, -0.14593735337257385, -0.11670231074094772, -0.1569601595401764, -0.03690465912222862, 0.18652591109275818, -0.09805869311094284, 0.3904929757118225, 0.1812131106853485, -0.28093910217285156, -0.2649885416030884, -0.10361657291650772, -0.007582592777907848, 0.13586419820785522, 0.2659777104854584, -0.09062312543392181, -0.08655933290719986, -0.07906661927700043, -0.019645512104034424, 0.027995528653264046, -0.010393589735031128, -0.02403692714869976, 0.40376538038253784, 0.25174784660339355, 0.39051491022109985, 0.37313371896743774, 0.39645716547966003, 0.17044410109519958, 0.11384478956460953, -0.030509158968925476, -0.008755519054830074, 0.07985550165176392, 0.16306114196777344, 0.5329179763793945, 0.2604754567146301, 0.21896055340766907, 0.6658680438995361, 0.8298562169075012, 0.48358097672462463, 0.07622773945331573, 0.3167676627635956, 0.3087393641471863, -0.04497683048248291, 0.020119115710258484, -0.13404057919979095, 0.028304019942879677, -0.024226756766438484, 0.015858523547649384, 0.017173422500491142, -0.0026044719852507114, 0.0050586252473294735, -0.1940937489271164, -0.19866174459457397, 0.17615176737308502, 0.22648979723453522, 0.2265612781047821, 0.20259729027748108, 0.21674767136573792, 0.25612297654151917, 0.26313450932502747, 0.3142966330051422, 0.7681652903556824, 0.3372150957584381, 0.12109436094760895, 0.37156549096107483, 0.3634727895259857, 0.21602004766464233, 0.06000407785177231, -0.018225250765681267, -0.0349658839404583, 0.004872369114309549, -0.029382945969700813, 0.03077901341021061, 0.018091177567839622, -0.0036203437484800816], [0.025614343583583832, 0.011206558905541897, -0.01860935054719448, 0.007743614260107279, -0.031177496537566185, -0.032640449702739716, 0.01458289846777916, -0.00438513932749629, 0.027780942618846893, 0.01807798258960247, -0.00623638741672039, 0.0263520535081625, -0.16291166841983795, 0.06837931275367737, 0.23924985527992249, 0.2146473228931427, -0.011859502643346786, -0.022842271253466606, 0.01700928807258606, -0.026064924895763397, 0.0023632943630218506, 0.026580892503261566, 0.016354434192180634, -0.010680289007723331, -0.012615771032869816, -0.023829473182559013, -0.024361837655305862, 0.009214619174599648, -0.02676219306886196, 0.009802243672311306, 0.003304834943264723, -0.0004216475354041904, -0.029858024790883064, -0.02305150404572487, -0.01760067231953144, -0.016280509531497955, -0.0034803987946361303, 0.12114426493644714, -0.171172633767128, -0.32893404364585876, -0.2648356556892395, -0.1589902937412262, -0.0506911426782608, -0.011284605599939823, 0.3717949390411377, -0.02391049638390541, -0.35723939538002014, -0.34509211778640747, -0.35389479994773865, -0.24464094638824463, -0.09055116772651672, 0.02074197307229042, -0.009149334393441677, -0.02107141725718975, 0.021597791463136673, 0.007995848543941975, -0.01580619066953659, 0.015334547497332096, -0.02595210075378418, -0.008663952350616455, -0.01144858542829752, -0.0702926516532898, -0.04364500939846039, 0.007712841033935547, -0.03379768505692482, 0.029975710436701775, 0.05025172978639603, 0.06756247580051422, 0.258661150932312, 0.42135918140411377, 0.2490542083978653, 0.15167075395584106, 0.0975692942738533, 0.1011119857430458, 0.06959467381238937, -0.17167381942272186, -0.01923983544111252, 0.0753578394651413, -0.18931426107883453, 0.006427451502531767, 0.2304893434047699, 0.016766447573900223, -0.008452504873275757, 0.008438370190560818, -0.025067109614610672, 0.03301497548818588, 0.3338589072227478, 0.4095388650894165, 0.10638397186994553, 0.012186349369585514, 0.11739764362573624, 0.006285271141678095, 0.2213325798511505, 0.3030948042869568, -0.013709158636629581, -0.05315320938825607, -0.08486916124820709, 0.08745325356721878, 0.09334485232830048, 0.10669859498739243, 0.37404948472976685, 0.33702635765075684, 0.24421048164367676, 0.07869735360145569, 0.12604019045829773, -0.137733593583107, -0.5315298438072205, -0.659294605255127, -0.3125254511833191, -0.051672130823135376, -0.03672967106103897, -0.006888219621032476, 0.018737295642495155, 0.016591927036643028, 0.3739801347255707, 0.26192668080329895, -0.0709601491689682, 0.17455171048641205, 0.1819017380475998, 0.08826616406440735, -0.25199246406555176, -0.269063264131546, -0.2160748839378357, 0.23926477134227753, 0.12578321993350983, -0.17680713534355164, -0.2661511301994324, -0.30375662446022034, -0.19765780866146088, -0.032225511968135834, 0.37059715390205383, 0.20090730488300323, 0.1996271014213562, 0.010001382790505886, -0.05955985188484192, -0.14149440824985504, -0.15646718442440033, -0.3749249279499054, -0.15252265334129333, -0.18781596422195435, -0.02988441288471222, 0.02881988137960434, 0.25211668014526367, 0.036580126732587814, -0.04381636530160904, -0.15608353912830353, -0.1296902298927307, -0.1745215207338333, 0.1508827656507492, 0.29254892468452454, 0.06128108128905296, -0.09134262055158615, -0.18380387127399445, 0.048693329095840454, 0.0014957791427150369, -0.11963938176631927, -0.013842062093317509, -0.07381493598222733, 0.10130633413791656, 0.028498493134975433, 0.09379073977470398, -0.02715437486767769, 0.02254130132496357, 0.08724010735750198, -0.038190774619579315, -0.5790464878082275, -0.14791004359722137, -0.1433636099100113, -0.008680591359734535, 0.1961246281862259, 0.03332626074552536, -0.10317309200763702, -0.05302340164780617, 0.021466467529535294, 0.07170001417398453, 0.08448301255702972, 0.028345366939902306, 0.12262751907110214, 0.42995381355285645, 0.07200005650520325, 0.03646655008196831, 0.03139733895659447, 0.11942507326602936, 0.19925493001937866, 0.06251146644353867, -0.12535715103149414, 0.04323156550526619, 0.1464322805404663, 0.13451170921325684, -0.15066373348236084, 0.20026621222496033, 0.020652635022997856, -0.2796791195869446, -0.5022139549255371, -0.2794237434864044, -0.04153657332062721, 0.016296152025461197, 0.35155996680259705, -0.05173230543732643, -0.007066780235618353, 0.2491520345211029, 0.08037696033716202, 0.15073923766613007, 0.155164435505867, -0.06654244661331177, 0.05072314664721489, 0.19982820749282837, 0.08576054126024246, 0.06721827387809753, 0.2367645651102066, 0.2673838436603546, 0.11639033257961273, 0.28157585859298706, -0.02514128014445305, -0.05475253239274025, 0.15478964149951935, 0.125287264585495, -0.12397533655166626, -0.06046493351459503, -0.07626529783010483, -0.051269128918647766, -0.11549177765846252, -0.2680774927139282, -0.06722668558359146, -0.03153754025697708, 0.25414520502090454, -0.0336616113781929, 0.23333871364593506, 0.36748310923576355, 0.18866097927093506, -0.15635374188423157, -0.027486372739076614, -0.0719766914844513, 0.05048782005906105, 0.20829477906227112, 0.2411685734987259, 0.1935119330883026, 0.3357680141925812, 0.36762067675590515, 0.04322148859500885, 0.015618416480720043, -0.048954688012599945, -0.0734916627407074, 0.06335333734750748, -0.051925864070653915, -0.07446771115064621, 0.10695015639066696, 0.08354216068983078, -0.2628198266029358, -7.59199247113429e-05, -0.27130070328712463, 0.07620984315872192, -0.0035674599930644035, 0.05841807648539543, 0.34197238087654114, 0.3176233768463135, 0.11191263049840927, 0.16137506067752838, 0.14738398790359497, 0.13231836259365082, 0.06395917385816574, 0.11990585178136826, -0.04187985137104988, -0.0012811069609597325, 0.19479408860206604, -0.22575166821479797, -0.2698790431022644, -0.11563686281442642, -0.0580737330019474, -0.0034825608599931, -0.04878675192594528, -0.07468030601739883, -0.04839734360575676, -0.06612631678581238, 0.15312716364860535, 0.15833987295627594, -0.45149561762809753, -0.47417187690734863, -0.1256074756383896, 0.289836049079895, -0.005782305728644133, -0.04421871155500412, -0.04372949153184891, 0.1539803147315979, 0.10389021784067154, -0.0026095383800566196, 0.12048543244600296, -0.11510192602872849, 0.1903921663761139, -0.2126086801290512, -0.27242687344551086, -0.4569997787475586, -0.5841858386993408, -0.7741903066635132, -0.5517857670783997, -0.4970749020576477, -0.1521032750606537, -0.022741861641407013, -0.06583207100629807, -0.13396114110946655, -0.033467698842287064, -0.1250883787870407, -0.04756690934300423, -0.036491572856903076, 0.1808113157749176, 0.05254985764622688, -0.21672196686267853, 0.28452783823013306, 0.019695475697517395, -0.0675484910607338, -0.13763569295406342, -0.11125920712947845, 0.02915116399526596, -0.253204882144928, -0.31888797879219055, -0.4589727520942688, -0.361367404460907, -0.6333169341087341, -0.8739105463027954, -0.9362386465072632, -1.1485211849212646, -0.6346189975738525, -0.40720880031585693, -0.11267967522144318, 0.10253826528787613, 0.10845537483692169, -0.16877643764019012, -0.05254662036895752, -0.0244344100356102, -0.07980158925056458, 0.020357981324195862, -0.039604559540748596, -0.08216405659914017, -0.15550526976585388, -0.2872271239757538, -0.007841266691684723, -0.0012125875800848007, -0.1940659135580063, -0.29551762342453003, -0.29458439350128174, -0.25680840015411377, -0.714529812335968, -0.7529301643371582, -0.8356525301933289, -0.9118679165840149, -0.8817382454872131, -0.6218317151069641, -0.45489826798439026, -0.0022444785572588444, 0.17044082283973694, 0.15581612288951874, 0.21521513164043427, 0.29755300283432007, 0.08867897838354111, 0.03412738814949989, -0.14709119498729706, 0.10334853082895279, -0.030234122648835182, -0.04072687402367592, -0.15972895920276642, -0.2735971510410309, -0.04384376481175423, -0.028376536443829536, -0.15469028055667877, -0.014581652358174324, -0.24536459147930145, -0.16141775250434875, -0.18482233583927155, -0.8053485751152039, -0.6656198501586914, -0.5586051940917969, -0.5214068293571472, -0.42660611867904663, -0.32016557455062866, 0.01616513915359974, -0.028748897835612297, 0.16526509821414948, 0.3320757746696472, 0.13396883010864258, 0.07601861655712128, 0.10256313532590866, -0.06058596074581146, -0.10137633979320526, -0.07421877980232239, -0.0023963137064129114, 0.1490873545408249, 0.23002883791923523, -0.1302478313446045, -0.08132821321487427, 0.060364238917827606, -0.048655521124601364, -0.023727912455797195, -0.031108127906918526, -0.24509817361831665, -0.2128995656967163, -0.062217164784669876, -0.21110741794109344, -0.16368550062179565, -0.04117247089743614, 0.03828494995832443, 0.20845666527748108, 0.4606693983078003, 0.4281109571456909, 0.2618435025215149, 0.253622829914093, 0.24274064600467682, 0.15735751390457153, 0.09770237654447556, 0.13405834138393402, 0.12910163402557373, 0.08814894407987595, -0.0467691645026207, 0.018070779740810394, 0.0707077831029892, 0.11946523189544678, 0.23880213499069214, 0.16168729960918427, -0.14797230064868927, -0.00018844366422854364, 0.15689599514007568, 0.006277131848037243, -0.020302454009652138, -0.06606537848711014, -0.01961860992014408, 0.15426300466060638, 0.3132115304470062, 0.34893038868904114, 0.2552863359451294, 0.32580068707466125, 0.2590350806713104, 0.2595062553882599, 0.10007171332836151, 0.02208220399916172, 0.07833900302648544, -0.05520123243331909, 0.021588321775197983, -0.07234461605548859, 0.08063860982656479, 0.2292742133140564, 0.06782485544681549, -0.13696017861366272, 0.05243227630853653, -0.05858943611383438, 0.34336164593696594, 0.24601757526397705, -0.1784226894378662, 0.15245604515075684, 0.018203316256403923, -0.032923512160778046, 0.17768146097660065, 0.08499114215373993, 0.2204025238752365, 0.32381004095077515, 0.2518284320831299, 0.3151261806488037, 0.17963026463985443, 0.04054747521877289, 0.02241952158510685, 0.03216816857457161, -0.14604757726192474, -0.043627720326185226, 0.09025821089744568, 0.10624685883522034, -0.04297855868935585, -0.12204328924417496, -0.01128916535526514, 0.15727739036083221, 0.22341355681419373, 0.012887373566627502, 0.04412278160452843, -0.07956108450889587, 0.3023180663585663, 0.18612909317016602, 0.3580760657787323, 0.34567150473594666, 0.055329471826553345, -0.01066275592893362, 0.2996353507041931, 0.004872956313192844, 0.28292298316955566, 0.09000815451145172, 0.09675963968038559, -0.03573380783200264, -0.08035552501678467, 0.009983652271330357, 0.03404328227043152, -0.14744657278060913, -0.13190190494060516, 0.02137475460767746, 0.017484543845057487, 0.12270766496658325, 0.04945044219493866, -0.21780690550804138, -0.005092261824756861, 0.01684512570500374, 0.05478145182132721, -0.12658193707466125, -0.06233365833759308, -0.00973854586482048, -0.11793339997529984, -0.24540838599205017, -0.212308868765831, -0.08071789890527725, 0.14304037392139435, -0.1277085393667221, 0.039792608469724655, 0.04774988442659378, 0.4942793846130371, 0.017938531935214996, 0.07934396713972092, 0.03575193136930466, -0.014744427055120468, 0.05268469452857971, 0.1318524032831192, 0.018277276307344437, -0.06851491332054138, 0.017270654439926147, 0.1051773652434349, 0.188028022646904, -0.04752717912197113, 0.017740784212946892, 0.10425855964422226, 0.0641961470246315, 0.051898546516895294, 0.0634775385260582, -0.04628882557153702, -0.10409713536500931, -0.15523166954517365, -0.38555654883384705, -0.2755157947540283, -0.17541280388832092, 0.29971879720687866, -0.22835582494735718, -0.12332413345575333, 0.1686876267194748, 0.018195802345871925, 0.03164820373058319, -0.06067168712615967, 0.06825843453407288, 0.05128396302461624, -0.0835842490196228, 0.007634926587343216, 0.029859649017453194, 0.1311008483171463, -0.04780025780200958, 0.19248631596565247, 0.12427231669425964, 0.06065374240279198, 0.039790451526641846, 0.15314167737960815, -0.06556563079357147, -0.09000199288129807, 0.09850012511014938, 0.003228254383429885, -0.23796230554580688, -0.16922059655189514, -0.19651147723197937, -0.14825834333896637, 0.12878423929214478, 0.18669399619102478, 0.03334491327404976, -0.14001406729221344, 0.08364659547805786, 0.10634218901395798, -0.08856462687253952, -0.026211827993392944, 0.11398632079362869, -0.045792073011398315, -0.17541316151618958, 0.016112489625811577, -0.05451831966638565, -0.038412388414144516, -0.03400558978319168, 0.036234986037015915, 0.10536645352840424, 0.018530797213315964, 0.033874817192554474, -0.010695498436689377, -0.05572253838181496, 0.024862416088581085, -0.0161000806838274, -0.10580012947320938, -0.3592349588871002, -0.1674456000328064, -0.1943233162164688, -0.22646012902259827, -0.03264858201146126, -0.1408686488866806, -0.18150654435157776, 0.24073410034179688, 0.5733651518821716, 0.1089075356721878, -0.20941601693630219, -0.1609056442975998, -0.0401606447994709, -0.05104713886976242, 0.0002952121722046286, -0.16216810047626495, 0.09279701858758926, -0.05199991539120674, -0.03413251414895058, -0.01044290792196989, 0.03385268524289131, 0.050013989210128784, 0.07180610299110413, 0.0442836731672287, -0.05990119278430939, 0.13408595323562622, -0.021530218422412872, 0.12933272123336792, -0.3150846064090729, -0.14438989758491516, -0.23009154200553894, -0.22879363596439362, 0.16696412861347198, 0.030115537345409393, -0.1972004920244217, -0.01725076138973236, 0.3877980411052704, 0.12753994762897491, 0.007823178544640541, 0.04954144358634949, -0.18698491156101227, -0.0865783616900444, 0.0794842317700386, -0.11545445024967194, -0.16860869526863098, -0.08167150616645813, -0.17287348210811615, 0.0655960813164711, 0.07247555255889893, 0.02159990556538105, 0.09368357807397842, 0.05422636494040489, -0.027955608442425728, 0.15483573079109192, 0.07049147039651871, -0.16701523959636688, -0.22814907133579254, -0.034502774477005005, -0.28347259759902954, -0.3069784939289093, -0.026984723284840584, 0.0015587892848998308, -0.010856513865292072, 0.03234877809882164, 0.43219757080078125, 0.169108048081398, 0.16678406298160553, 0.03230305388569832, 0.09256482869386673, 0.35002511739730835, 0.24782130122184753, 0.21954528987407684, -0.14097917079925537, -0.05305298790335655, -0.17692436277866364, 0.03127453476190567, 0.005025471094995737, 0.1391313523054123, 0.05113158002495766, -0.13306254148483276, 0.02784261479973793, 0.04458946734666824, 0.3038126528263092, 0.09374935179948807, 0.09534677118062973, 0.030544688925147057, -0.08564962446689606, -0.12286137044429779, 0.09533914923667908, 0.007668682839721441, 0.008927899412810802, 0.01854413002729416, 0.4601518511772156, 0.27122238278388977, 0.2744683027267456, -0.17617341876029968, 0.12542925775051117, 0.3105021119117737, 0.21173153817653656, -0.05151539668440819, -0.1545170694589615, -0.13050894439220428, -0.2092593014240265, -0.18561378121376038, -0.0388813242316246, 0.02975066751241684, -0.2380993813276291, 0.18279647827148438, -0.028988128527998924, -0.15904980897903442, 0.0073486752808094025, 0.19146114587783813, 0.29409059882164, 0.12827645242214203, 0.3444618582725525, 0.0073095508851110935, 0.01051485724747181, 0.015088031068444252, 0.018100058659911156, 0.029208503663539886, -0.1389114409685135, -0.10736428946256638,