{"model.1.weight": [[0.009100650437176228, 0.02201702445745468, -0.033917322754859924, 0.026417072862386703, -0.0251612588763237, -0.001791068585589528, 0.031829625368118286, -0.027529504150152206, 0.0035266366321593523, -0.03324363753199577, -0.016875186935067177, -0.01853654719889164, 0.21265481412410736, 0.28515347838401794, 0.3111611008644104, 0.23362430930137634, -0.005417061969637871, -0.007222844287753105, 0.023682735860347748, 0.0018021039431914687, -0.006724038626998663, -0.018111787736415863, 0.031499218195676804, -0.013836635276675224, -0.010665562003850937, -0.008760303258895874, -0.028198406100273132, 0.007597353309392929, 0.01044319849461317, -0.011484159156680107, 0.03278826177120209, 0.02215108461678028, 0.04149726405739784, 0.018892722204327583, -0.010771594941616058, 0.16297270357608795, 0.0186090636998415, -0.0974971130490303, -0.25311723351478577, 0.342154324054718, 0.057851675897836685, 0.46810048818588257, 0.0736340656876564, 0.3234640657901764, 0.4210619330406189, 0.23721782863140106, -0.2536412477493286, 0.26509663462638855, 0.08046826720237732, -0.20988152921199799, 0.06588151305913925, -0.031192462891340256, -0.019650179892778397, 0.031068969517946243, 0.008256427012383938, 0.012282687239348888, -0.006970555055886507, 0.0015812176279723644, 0.04064309597015381, 0.3844522535800934, 0.4041959047317505, -0.08831097185611725, 0.1147933080792427, 0.2170029729604721, 0.040600623935461044, 0.23611651360988617, 0.36112847924232483, 0.09127259999513626, 0.30150139331817627, 0.14926958084106445, 0.11212342977523804, -0.200673446059227, -0.3116530478000641, -0.20372234284877777, -0.05415325611829758, -0.10446559637784958, -0.09091000258922577, -0.08918344229459763, -0.16395394504070282, -0.14169661700725555, 0.06886904686689377, 0.08285290002822876, 0.03402961790561676, -0.007371732499450445, -0.020093867555260658, -0.03110307641327381, 0.24584636092185974, 0.30764225125312805, -0.43230143189430237, 0.27830809354782104, 0.14968325197696686, 0.17501530051231384, 0.44233912229537964, 0.01597669906914234, 0.19712373614311218, 0.21975192427635193, 0.4336119294166565, 0.35882508754730225, 0.5300156474113464, 0.3525201678276062, 0.28585508465766907, 0.21051856875419617, 0.07352887839078903, -0.11489883065223694, -0.09271276742219925, -0.46059051156044006, -0.34325313568115234, -0.395187646150589, -0.3376988470554352, 0.17593921720981598, 0.16978678107261658, -0.019411291927099228, -0.008515741676092148, 0.0290346909314394, 0.37252679467201233, -0.19415484368801117, -0.11202949285507202, -0.08401835709810257, -0.1857423186302185, 0.16142910718917847, 0.33445557951927185, 0.210307776927948, 0.21940577030181885, 0.2409995198249817, 0.15828131139278412, 0.4266546666622162, 0.5187098383903503, 0.6249779462814331, 0.48658487200737, 0.21301549673080444, 0.22090107202529907, 0.018249161541461945, 0.03235860913991928, -0.27953022718429565, -0.010176816023886204, -0.4391343891620636, -0.4531434178352356, 0.015390636399388313, 0.48922932147979736, -0.33309969305992126, 0.029773594811558723, 0.006461880169808865, 0.27779895067214966, -0.2875131070613861, -0.19204992055892944, -0.05515523999929428, 0.004971039481461048, -0.14220719039440155, 0.1426810324192047, 0.09960455447435379, 0.2787312865257263, 0.11540954560041428, -0.02313964255154133, 0.22618307173252106, 0.20725561678409576, 0.2908598780632019, 0.47599393129348755, 0.08327080309391022, 0.08906572312116623, -0.04258459433913231, -0.028876103460788727, -0.19335445761680603, 0.18162965774536133, 0.040030110627412796, -0.21192322671413422, -0.21764972805976868, -0.28057217597961426, -0.5849447846412659, -0.018791131675243378, 0.300492525100708, 0.2845452129840851, 0.12250025570392609, 0.1413368284702301, 0.07041460275650024, 0.10510081052780151, -0.027404598891735077, 0.06362085044384003, -0.03681521490216255, 0.18167853355407715, 0.2334165871143341, 0.09000707417726517, 0.23600684106349945, 0.11610124260187149, -0.03140663728117943, 0.17710767686367035, 0.11592507362365723, 0.2598941922187805, 0.18379640579223633, 0.10412544757127762, 0.2270456850528717, -0.03768160566687584, -0.19573675096035004, -0.0312793105840683, -0.21288923919200897, -0.20414301753044128, -0.5833197832107544, -0.007357354741543531, 0.6217235922813416, 0.08398260176181793, -0.1189725324511528, 0.06767662614583969, 0.1436072438955307, 0.2622077167034149, 0.10809005796909332, 0.09931933134794235, 0.0608392208814621, 0.0108158765360713, 0.027896782383322716, -0.07399667054414749, -0.022667989134788513, 0.13856488466262817, 0.17724916338920593, 0.33181461691856384, 0.25548702478408813, 0.22571906447410583, 0.25393110513687134, 0.25160670280456543, 0.20091842114925385, 0.2652064263820648, 0.06416281312704086, -0.12419537454843521, 0.23694071173667908, 0.0863972082734108, -0.15551437437534332, 0.1250748634338379, 0.7144289612770081, -0.17110063135623932, -0.24331389367580414, -0.3433637320995331, -0.09912855923175812, 0.016845151782035828, -0.12522584199905396, -0.12059995532035828, -0.31403324007987976, -0.4113102853298187, -0.4896436929702759, -0.39893287420272827, -0.45763182640075684, -0.08293673396110535, 0.25803688168525696, 0.5020156502723694, 0.2834923565387726, 0.34588074684143066, 0.15844103693962097, 0.22136135399341583, 0.12066030502319336, 0.09997586905956268, -0.07320987433195114, -0.28166037797927856, -0.36805444955825806, -0.11893488466739655, 0.0836234763264656, 0.3896999657154083, 0.6749235391616821, -0.20521506667137146, -0.17830400168895721, -0.3955131471157074, -0.28397613763809204, -0.32413920760154724, -0.6588534712791443, -0.4326349198818207, -0.5516241788864136, -0.5950152277946472, -0.6487617492675781, -0.4637029767036438, -0.5391994118690491, -0.41717010736465454, 0.1335495263338089, 0.37929874658584595, 0.25693467259407043, 0.23496656119823456, 0.2233404666185379, 0.1958501785993576, -0.014356167055666447, 0.16402021050453186, -0.1465574949979782, -0.07266677916049957, -0.09134143590927124, -0.4825384020805359, 0.5069757699966431, 0.41356360912323, 0.7475430369377136, 0.15373064577579498, -0.00966859981417656, -0.5036066174507141, -0.6449530124664307, -0.7720458507537842, -0.6934009194374084, -0.4210750162601471, -0.40987256169319153, -0.312723308801651, -0.25640276074409485, -0.19011516869068146, -0.30443307757377625, -0.3560444712638855, -0.1783636510372162, 0.30187952518463135, 0.19248302280902863, 0.17061999440193176, 0.24540069699287415, 0.2605344355106354, 0.23598821461200714, 0.3281758427619934, -0.018747499212622643, -0.08502665907144547, 0.020075051113963127, -0.45890289545059204, 0.4004266858100891, 0.36218398809432983, 0.490079790353775, 0.10959603637456894, 0.04437397047877312, -0.33335205912590027, -0.7202275991439819, -0.47345760464668274, -0.17365685105323792, -0.06855206936597824, -0.17547741532325745, 0.013040239922702312, 0.051784973591566086, -0.04463547095656395, -0.035380735993385315, -0.24244897067546844, -0.04527731239795685, -0.1486613005399704, -0.08979474008083344, -0.0037532190326601267, 0.024135878309607506, 0.2850872874259949, 0.17450249195098877, 0.28951171040534973, 0.14295215904712677, -0.3466651439666748, -0.07691838592290878, -0.37112778425216675, 0.07376812398433685, 0.021523253992199898, -0.012015657499432564, -0.09073271602392197, -0.011407257989048958, -0.17415526509284973, -0.15813851356506348, 0.038499776273965836, 0.1879274547100067, 0.07576379925012589, 0.15530534088611603, 0.2654950022697449, 0.2507017254829407, 0.23694653809070587, -0.10828835517168045, -0.16286584734916687, -0.11016131937503815, -0.12039755284786224, -0.10675668716430664, -0.08737635612487793, -0.08577638864517212, 0.10200425237417221, 0.05707859247922897, 0.0717504620552063, -0.0997561365365982, -0.15450134873390198, -0.5031858086585999, -0.21902771294116974, -0.058697544038295746, 0.004567794036120176, -0.1310468316078186, -0.02161520905792713, 0.09254161268472672, 0.2449011504650116, 0.23235832154750824, 0.1166931688785553, 0.2319103181362152, 0.2633536458015442, 0.13413582742214203, 0.2763918340206146, 0.17446482181549072, 0.059584055095911026, -0.0413438081741333, -0.1530359536409378, -0.12560081481933594, -0.005503603722900152, -0.12070675939321518, -0.02518322877585888, 0.1578321009874344, 0.054276950657367706, 0.027469445019960403, -0.06312475353479385, -0.24650976061820984, -0.18824274837970734, -0.44456446170806885, -0.4755489230155945, 0.04752368479967117, -0.06356319040060043, -0.20547358691692352, 0.21317143738269806, 0.2112688571214676, -0.014195810072124004, 0.3467720150947571, 0.11627263575792313, 0.2200256884098053, 0.17200417816638947, 0.029905473813414574, 0.026485662907361984, -0.008832464925944805, -0.026413770392537117, -0.20369935035705566, -0.15787503123283386, -0.05006396025419235, -0.15867994725704193, -0.03571349009871483, -0.020260673016309738, -0.024674808606505394, -0.02998819574713707, 0.0722503811120987, -0.12800332903862, -0.16259141266345978, -0.2392706423997879, -0.6627486348152161, 0.18359799683094025, 0.0019417507573962212, 0.03198235481977463, 0.2663920223712921, -0.059817008674144745, -0.3063259422779083, -0.05355968326330185, 0.24217398464679718, 0.020312834531068802, 0.10519804805517197, -0.11722061783075333, -0.05273560434579849, 0.04472407326102257, -0.09915076941251755, -0.051912035793066025, -0.10144136846065521, -0.11734302341938019, 0.09000639617443085, 0.06220710277557373, -0.05022981017827988, -0.054035548120737076, -0.049485694617033005, -0.11513185501098633, -0.11178826540708542, -0.15799349546432495, 0.04310672730207443, 0.02069036290049553, -0.3469153344631195, 0.4232231080532074, 0.14030399918556213, 0.05848848819732666, 0.4947633445262909, 0.5930992960929871, -0.09016498178243637, 0.07894857972860336, 0.18097837269306183, -0.14323779940605164, -0.22239652276039124, -0.05598131939768791, -0.002782674739137292, -0.005378591828048229, -0.08144324272871017, 0.02337426133453846, -0.1455197036266327, -0.11568350344896317, -0.008241123519837856, 0.04169391095638275, 0.15855780243873596, -0.02782825566828251, -0.16324590146541595, -0.16530300676822662, -0.12067069113254547, -0.06587246805429459, -0.16498668491840363, 0.037412624806165695, -0.39852792024612427, -0.07715118676424026, 0.1933262050151825, 0.018231868743896484, 0.6146354675292969, -0.12937325239181519, -0.09862814843654633, 0.03121110238134861, -0.005001106299459934, 0.01243357639759779, -0.07787628471851349, 0.045387595891952515, -0.004608800169080496, -0.10377700626850128, -0.13123835623264313, -0.059065066277980804, -0.22918035089969635, -0.18476556241512299, -0.1522071361541748, 0.15195927023887634, 0.13463446497917175, -0.04619805887341499, 0.04907792806625366, -0.25320369005203247, -0.14748278260231018, -0.11445104330778122, -0.25838524103164673, 0.04811238497495651, 0.11954827606678009, 0.1298593133687973, 0.2676059901714325, 0.5607429146766663, 0.2850208878517151, -0.0030956824775785208, -0.045963436365127563, -0.0368325375020504, 0.014399977400898933, 0.011653943918645382, 0.0497976616024971, 0.09969479590654373, 0.03144143521785736, -0.014875034801661968, -0.07949452847242355, -0.01947740837931633, -0.08351117372512817, -0.11077620089054108, 0.038115620613098145, 0.16283561289310455, 0.0002599898725748062, 0.009651102125644684, -0.020024381577968597, -0.048302922397851944, 0.12793847918510437, 0.02505470998585224, -0.3681182861328125, 0.0869460254907608, 0.26151296496391296, 0.2495693862438202, 0.11651074141263962, -0.18676067888736725, 0.5396878719329834, -0.11120408028364182, -0.09191887080669403, -0.12196677923202515, 0.045651014894247055, -0.0002522245922591537, -0.03484398499131203, 0.021518779918551445, 0.03651118278503418, 0.16027331352233887, 0.03960598632693291, 0.24639077484607697, 0.18693290650844574, -0.04485933482646942, -0.02170705981552601, -0.06328174471855164, -0.03553156182169914, -0.08179543912410736, -0.08547267317771912, 0.07341179996728897, -0.049752432852983475, -0.2977677583694458, -0.22455039620399475, -0.04098751023411751, -0.15148408710956573, 0.22849413752555847, 0.15013501048088074, -0.032610490918159485, 0.5498831272125244, -0.14664582908153534, 0.22917817533016205, 0.06645716726779938, 0.014202498830854893, -0.12607720494270325, -0.0745159238576889, 0.09851107746362686, 0.08443821966648102, 0.16125454008579254, 0.11199827492237091, 0.1577244997024536, 0.1085013747215271, 0.03696437552571297, -0.00876870471984148, -0.05268336832523346, -0.07684488594532013, -0.14190901815891266, -0.1627611666917801, -0.01669001393020153, 0.05894758552312851, -0.0714399665594101, -0.1900656670331955, -0.28270483016967773, -0.179154172539711, 0.27719274163246155, 0.039182398468256, -0.12606355547904968, 0.34467217326164246, 0.2776002585887909, 0.37226808071136475, -0.12988445162773132, -0.1346566528081894, -0.06491251289844513, -0.058719880878925323, -0.012817460112273693, -0.015265467576682568, 0.1100059375166893, -0.045617878437042236, 0.03867023065686226, 0.08238378167152405, -0.04265308752655983, -0.13346154987812042, -0.15067991614341736, -0.05449754744768143, -0.1286563128232956, -0.019903969019651413, -0.01287318766117096, 0.06419961154460907, 0.058004315942525864, 0.030768290162086487, -0.13709034025669098, 0.2145368456840515, 0.4834437668323517, 0.01828794926404953, -0.13660171627998352, 0.42337051033973694, 0.3231489956378937, 0.20450244843959808, -0.4042547941207886, -0.02551438845694065, -0.03205204755067825, -0.041538503021001816, 0.12242604047060013, 0.11176058650016785, -0.03285059332847595, 0.037486013025045395, 0.0769757628440857, 0.100698322057724, 0.10809297114610672, -0.03331173583865166, -0.0837576612830162, 0.043177779763936996, -0.08217915892601013, -0.06994416564702988, -0.0578559935092926, -0.11967260390520096, 0.019508998841047287, 0.1571083664894104, 0.24102263152599335, 0.2430739402770996, 0.3713778555393219, 0.07808570563793182, -0.014073879458010197, 0.008625907823443413, 0.64720219373703, 0.2961062490940094, -0.3050479590892792, -0.08496465533971786, -0.023900717496871948, 0.30577850341796875, -0.01984814740717411, 0.1406187266111374, 0.2043619006872177, 0.19328312575817108, 0.1862984299659729, 0.15949828922748566, 0.08016668260097504, -0.02357090823352337, -0.08244563639163971, -0.06518194079399109, -0.1813381016254425, -0.06118516996502876, -0.2033371478319168, -0.0035116521175950766, 0.4131729006767273, 0.3197774589061737, 0.19705304503440857, -0.20666489005088806, 0.1921699345111847, 0.034498073160648346, 0.004237009212374687, 0.014448953792452812, 0.24446982145309448, 0.48046913743019104, 0.5642156600952148, 0.26406267285346985, 0.08478575199842453, -0.001918807509355247, -0.004142052493989468, -0.007960488088428974, 0.04684774950146675, 0.05521521344780922, 0.17934878170490265, 0.01299898512661457, -0.0846651941537857, -0.021413901820778847, -0.18088741600513458, 0.18045105040073395, -0.24353337287902832, -0.36025047302246094, -0.25809451937675476, 0.21493737399578094, 0.20539458096027374, -0.018908189609646797, 0.22882412374019623, 0.05839187279343605, 0.030095169320702553, -0.02596152387559414, -0.017661815509200096, 0.0330171100795269, -0.19938194751739502, 0.01625766232609749, -0.2498134821653366, -0.1642712652683258, 0.04606982320547104, 0.053681764751672745, -0.058924172073602676, -0.07340312004089355, -0.07019081711769104, 0.14573919773101807, 0.19550107419490814, 0.11911230534315109, 0.17516522109508514, -0.009222643449902534, -0.2149747908115387, -0.15130606293678284, -0.25008973479270935, 0.002071454655379057, 0.034931495785713196, 0.16724850237369537, 0.25939109921455383, -0.18347711861133575, -0.09619010984897614, -0.0633254423737526, 0.031355973333120346, -0.035354819148778915, -0.010728091932833195, -0.01757245883345604, 0.011007607914507389, 0.07684077322483063, -0.42841318249702454, -0.2823401093482971, -0.19281233847141266, 0.03574451804161072, 0.08949040621519089, -0.03518581762909889, 0.0944504663348198, 0.1544399857521057, 0.1766202747821808, 0.30185404419898987, -0.0617249459028244, -0.04443058744072914, 0.2863275706768036, 0.4394415318965912, 0.10663936287164688, -0.1187351793050766, 0.109152652323246, 0.3296680450439453, 0.5041003227233887, 0.3857998847961426, -0.005033555440604687, 0.30736252665519714, -0.02945699542760849, 0.030430011451244354, -0.034313783049583435, 0.014558983966708183, 0.03300147503614426, 0.017841745167970657, 0.30484890937805176, 0.4782668650150299, 0.33019697666168213, 0.2335709035396576, 0.34756338596343994, 0.11575021594762802, 0.5704951286315918, 0.2936041057109833, -0.1521652191877365, 0.46418923139572144, 0.6448660492897034, 0.3114299774169922, 0.44391676783561707, 0.35600343346595764, -0.12235195934772491, 0.08541172742843628, 0.0011102117132395506, -0.0319514237344265, 0.030808348208665848, 0.06008846312761307, 0.0018653955776244402, -0.03272777423262596, 0.008974578231573105, 0.004726865794509649], [-0.0033664279617369175, 0.0019667320884764194, 0.02219347096979618, 0.02582661248743534, 0.02190004102885723, 0.025422923266887665, 0.016232091933488846, -0.02342233993113041, -0.007335667498409748, 0.004133458714932203, -0.0038778826128691435, 0.03431554138660431, -0.028009096160531044, -0.042646389454603195, -0.07854852080345154, -0.077639639377594, 0.025768332183361053, -0.00901088584214449, 0.0004323508183006197, -0.006991216447204351, -0.03192587569355965, 0.020950032398104668, 0.005165470764040947, -0.004495301749557257, 0.01742125116288662, -0.005665306933224201, 0.015179711394011974, -0.017587309703230858, 0.012256886810064316, 0.012615102343261242, -0.010837036184966564, 0.027458474040031433, 0.03465250879526138, 0.12111391872167587, 0.04746837913990021, 0.1054886057972908, 0.21226049959659576, 0.19416682422161102, 0.17622411251068115, 0.3474820852279663, 0.344747930765152, 0.5854566097259521, 0.19494809210300446, 0.27167433500289917, 0.4653438925743103, 0.5391521453857422, 0.5937578082084656, 0.6162058711051941, 0.6285353899002075, 0.4894254505634308, 0.12290439754724503, 0.035812340676784515, -0.019880205392837524, -0.010641319677233696, -0.026388240978121758, 0.03402447700500488, 0.0018611593404784799, 0.010232453234493732, 0.13640713691711426, 0.4083867073059082, 0.4279254674911499, 0.1671484410762787, 0.5019463896751404, 0.38261833786964417, -0.14433813095092773, -0.2481369972229004, -0.2604699432849884, -0.11031942069530487, -0.22714832425117493, -0.29937174916267395, -0.6847143173217773, -0.4895097315311432, -0.04069969430565834, 0.17865042388439178, 0.3533124029636383, 0.2645534873008728, 0.04684928432106972, 0.2895761728286743, 0.22009098529815674, 0.5517801642417908, 0.2848340570926666, -0.06819752603769302, 0.03136421740055084, -0.024459393694996834, 0.019744230434298515, 0.03564165160059929, -0.06302156299352646, 0.4040454626083374, -0.17026130855083466, 0.02962120994925499, 0.14649854600429535, -0.057966649532318115, -0.2490626573562622, 0.006064802408218384, -0.06925942748785019, -0.03613172471523285, -0.03316245600581169, 0.17171022295951843, 0.187063068151474, -0.12149867415428162, -0.12431015819311142, -0.01997843012213707, 0.1659042239189148, 0.31147855520248413, 0.12204351276159286, 0.16432392597198486, 0.3918929696083069, 0.43440738320350647, 0.2503170073032379, -0.15716774761676788, 0.2522433400154114, 0.003905999008566141, -0.004645726643502712, 0.00934397429227829, -0.14824293553829193, -0.28313013911247253, -0.025240840390324593, -0.3406465947628021, -0.6262946128845215, -0.48344704508781433, -0.6572585701942444, -0.580227255821228, -0.28317952156066895, -0.16436821222305298, -0.05527105927467346, -0.043789006769657135, 0.011755147948861122, 0.005249734036624432, 0.10691924393177032, 0.20081129670143127, 0.24167419970035553, 0.20878379046916962, 0.19353178143501282, 0.11383827775716782, 0.19744525849819183, 0.16684673726558685, -0.2266729176044464, 0.08186076581478119, 0.10865484923124313, 0.5682500004768372, -0.0015530374366790056, 0.01944875717163086, 0.15836502611637115, -0.40736597776412964, -0.47071364521980286, -0.8149420022964478, -0.5618945360183716, -0.17532338201999664, -0.09809394180774689, -0.1304364651441574, 0.057109467685222626, -0.01964379847049713, -0.007400210946798325, -0.01788724586367607, -0.05227197706699371, -0.1454000174999237, -0.010770624503493309, 0.2610416114330292, 0.18306443095207214, 0.22651556134223938, 0.21999040246009827, 0.1850164532661438, 0.10589631646871567, -0.017320850864052773, -0.04606949910521507, 0.33950066566467285, 0.13946367800235748, 0.13861986994743347, 0.03283388167619705, -0.028590921312570572, 0.22635942697525024, -0.04319782927632332, -0.16940972208976746, -0.4847520887851715, -0.2904617488384247, -0.12286660075187683, -0.11957734823226929, -0.13397283852100372, 0.1410362422466278, 0.07314728200435638, -0.03880433738231659, 0.04566771537065506, 0.0759962797164917, 0.18592701852321625, 0.03889111801981926, 0.06985478848218918, 0.05602765828371048, 0.18632787466049194, 0.07281907647848129, 0.008837775327265263, -0.04871403053402901, -0.209003746509552, -0.03772074356675148, -0.023950859904289246, -0.2962735891342163, -0.28437721729278564, -0.011934212408959866, 0.14950816333293915, 0.17860718071460724, -0.3854738473892212, -0.19335632026195526, -0.26821768283843994, -0.1986699402332306, -0.08762659132480621, -0.3007710576057434, -0.06760098785161972, 0.1467551290988922, 0.2596217393875122, 0.0856696143746376, 0.05460060015320778, -0.048056818544864655, 0.15667597949504852, 0.10100720822811127, 0.1788172423839569, 0.26660990715026855, 0.09562437981367111, -0.04276078939437866, -0.025797411799430847, -0.04089504852890968, -0.09425386041402817, -0.17212609946727753, -0.31058061122894287, -0.5065655708312988, -0.3977794349193573, 0.07402029633522034, 0.12664537131786346, 0.222679004073143, 0.07367618381977081, -0.4235183596611023, -0.16319961845874786, -0.0958932638168335, -0.1046692281961441, -0.17431211471557617, -0.111577108502388, 0.0374176986515522, 0.16160669922828674, 0.1458774358034134, 0.05555665120482445, 0.010038508102297783, -0.047149885445833206, -0.02028319425880909, 0.07522169500589371, -0.07230595499277115, -0.0381559282541275, 0.002053702948614955, -0.15383592247962952, -0.1925743967294693, 0.07315820455551147, -0.08520623296499252, -0.14433413743972778, -0.2262677103281021, -0.29584363102912903, -0.06141214817762375, 0.026358356699347496, 0.0978696420788765, -0.030953647568821907, -0.3077492415904999, -0.2682802379131317, -0.38462263345718384, -0.28734874725341797, -0.12924587726593018, -0.05863367021083832, 0.10641353577375412, 0.16128839552402496, 0.14337658882141113, 0.21770668029785156, 0.09113060683012009, -0.1917373389005661, -0.3297853171825409, -0.22777192294597626, -0.21666336059570312, -0.1267530471086502, 0.006499034818261862, -0.02892632596194744, -0.13462334871292114, 0.12933333218097687, 0.17726106941699982, 0.11114350706338882, -0.277980774641037, -0.42680850625038147, -0.04664437100291252, -0.016219889745116234, 0.037482552230358124, -0.2623289227485657, 0.038112375885248184, -0.04329386353492737, -0.18164776265621185, -0.09591726213693619, -0.04856181517243385, 0.22820071876049042, 0.10183152556419373, 0.1185772493481636, 0.15758366882801056, 0.287678062915802, 0.267011821269989, -0.14233282208442688, -0.19986100494861603, -0.2079090178012848, -0.19464115798473358, -0.2347184419631958, -0.015076332725584507, 0.0840563252568245, 0.17373648285865784, 0.07184548676013947, 0.0701230987906456, -0.0995861366391182, -0.2300690859556198, -0.3491358757019043, -0.09877145290374756, 0.028836049139499664, -0.1327221840620041, -0.568669319152832, -0.10903072357177734, -0.38615989685058594, -0.07686172425746918, 0.2480928897857666, 0.003544033272191882, -0.14941167831420898, -0.18822792172431946, -0.007057721260935068, -0.019382832571864128, 0.16495385766029358, 0.14271053671836853, -0.1880190372467041, -0.15160346031188965, -0.1914152204990387, -0.11374164372682571, 0.0024537774734199047, -0.248224675655365, 0.0637332871556282, -0.06083586812019348, -0.10241740942001343, 0.016596365720033646, -0.4885692298412323, -0.05307495966553688, -0.007677506189793348, -0.04171464964747429, 0.23082411289215088, -0.025113699957728386, -0.507770299911499, -0.28401681780815125, -0.15627995133399963, 0.07851606607437134, 0.06195339933037758, -0.04998118057847023, -0.07994753867387772, -0.17437244951725006, -0.15854191780090332, -0.03323725610971451, 0.1453426480293274, 0.06527579575777054, -0.10506799072027206, -0.07675330340862274, 0.08784712851047516, -0.044897329062223434, -0.042415015399456024, 0.034733545035123825, -0.0005558822886087, 0.08638632297515869, 0.022942740470170975, 0.3316531181335449, -0.204814150929451, -0.5048361420631409, -0.07443249970674515, -0.013949458487331867, 0.29193824529647827, 0.22457164525985718, -0.07976876944303513, 0.13981762528419495, -0.146189883351326, 0.07374759018421173, 0.11537716537714005, -0.02740756794810295, -0.028572503477334976, -0.08525307476520538, -0.12073036283254623, 0.005349869839847088, -0.024170272052288055, -0.060685306787490845, -0.1624438613653183, -0.2477373331785202, -0.05146122723817825, -0.08446056395769119, -0.038893043994903564, -0.11392032355070114, -0.10907277464866638, 0.16291506588459015, 0.2706958055496216, 0.3507172763347626, 0.059291403740644455, -0.3154386579990387, 0.13238464295864105, 0.3058582842350006, -0.11635951697826385, -0.1476690173149109, -0.21012815833091736, 0.24906940758228302, 0.05551495775580406, 0.07269543409347534, 0.06380660831928253, -0.026840815320611, -0.05227639153599739, 0.12677429616451263, 0.018151989206671715, 0.026325784623622894, 0.0076291803270578384, -0.17612701654434204, -0.11408590525388718, -0.2111918032169342, -0.11552713811397552, -0.059965573251247406, -0.2310456931591034, 0.057763516902923584, 0.07981326431035995, 0.2239929437637329, 0.08525116741657257, 0.1703873574733734, 0.012264804914593697, -0.3421013653278351, 0.19773341715335846, 0.2877768576145172, -0.16038279235363007, -0.36797139048576355, -0.08223573863506317, 0.04469425231218338, 0.15137436985969543, -0.09816183894872665, 0.02123163267970085, 0.003115476807579398, 0.06800049543380737, 0.09168568253517151, -0.121068075299263, 0.08848951011896133, -0.21884046494960785, -0.16601304709911346, -0.11079943180084229, -0.12712961435317993, 0.005305735860019922, -0.04239225387573242, -0.18456098437309265, 0.01936490461230278, 0.1685139238834381, -0.04462035000324249, 0.07378379255533218, 0.1264808624982834, -0.14332152903079987, -0.8534575700759888, -0.2183852344751358, -0.08522091060876846, -0.00036489145713858306, -0.476821631193161, 0.2071904093027115, -0.09316866844892502, 0.10907091945409775, -0.07926946133375168, 0.0993037074804306, 0.13760705292224884, 0.09333672374486923, 0.08408205956220627, 0.08315010368824005, -0.013026131317019463, -0.23372845351696014, -0.0850502997636795, -0.1986660659313202, -0.3124640882015228, -0.06912782043218613, -0.09795965999364853, 0.014598398469388485, 0.10889890044927597, 0.0960947573184967, 0.07055409997701645, -0.03898593410849571, -0.3047902584075928, -0.10717302560806274, -0.5449544191360474, -0.1895756870508194, -0.00882162805646658, -0.32311493158340454, -0.38372841477394104, 0.28532058000564575, 0.10088954120874405, 0.06406305730342865, 0.06514720618724823, -0.061089348047971725, -0.052810996770858765, 0.04655499383807182, 0.2046998143196106, 0.10449900478124619, -0.08396027237176895, -0.24254819750785828, 0.02913583628833294, -0.034378811717033386, -0.08785388618707657, -0.0442112497985363, 0.07488778978586197, 0.018423698842525482, 0.08214125782251358, 0.0506540946662426, 0.059794872999191284, -0.13754725456237793, -0.33001944422721863, -0.21725741028785706, -0.3128732144832611, 0.17495989799499512, -0.14862266182899475, -0.29961299896240234, -0.3876728415489197, -0.042787838727235794, 0.21333861351013184, -0.10391949117183685, 0.0924450010061264, 0.15640126168727875, 0.04840181767940521, 0.17911192774772644, 0.1384253352880478, 0.01468434277921915, -0.2822433114051819, -0.41277727484703064, 0.0014513809001073241, 0.12139683961868286, -0.03146755322813988, 0.035136159509420395, -0.1035037487745285, 0.0004063329834025353, 0.004248472861945629, -0.010042655281722546, 0.17364856600761414, -0.08761727064847946, -0.07385257631540298, -0.027344651520252228, -0.08393702656030655, 0.102084219455719, 0.016825400292873383, 0.2020595818758011, 0.3285767436027527, -0.2509131133556366, 0.07163592427968979, -0.10139776766300201, 0.17747312784194946, 0.19049929082393646, 0.24758687615394592, 0.19876012206077576, 0.33206379413604736, 0.052227869629859924, -0.3192068636417389, -0.295845627784729, 0.006243927404284477, -0.07874350994825363, -0.0658620074391365, -0.10338052362203598, -0.18047690391540527, -0.0008374510216526687, 0.005011852364987135, 0.1546335518360138, 0.2658493220806122, -0.10363779962062836, -0.1327640414237976, -0.3013530373573303, -0.10713756084442139, 0.053889039903879166, -0.006073756143450737, 0.3660491108894348, 0.3771691620349884, -0.07019665837287903, 0.2800096869468689, 0.2607967257499695, 0.07561824470758438, 0.04444412887096405, 0.15268215537071228, 0.25444668531417847, 0.2584526836872101, 0.18440745770931244, -0.051441095769405365, -0.1309465616941452, -0.18081018328666687, 0.005029500927776098, -0.2170676290988922, -0.1349823772907257, -0.23941409587860107, -0.06853190809488297, -0.07832394540309906, 0.04517730697989464, 0.17184293270111084, -0.2859193980693817, -0.6509506702423096, -0.38047870993614197, -0.10888787358999252, 0.004404137376695871, -0.01793673262000084, -0.20192354917526245, 0.2388552725315094, 0.26518020033836365, 0.20834892988204956, 0.11421962082386017, 0.14156198501586914, 0.15303626656532288, 0.10946913808584213, 0.21829403936862946, 0.12681372463703156, 0.1824752241373062, 0.06855648756027222, -0.03516469523310661, -0.03577502816915512, -0.005970691796392202, -0.17574186623096466, -0.0579058900475502, -0.023363076150417328, -0.11790946125984192, -0.036010630428791046, 0.0027822675183415413, 0.056069109588861465, -0.3533500134944916, -0.49013400077819824, 0.05019014701247215, 0.2632997930049896, 0.06953749060630798, -0.01655562035739422, -0.30185529589653015, 0.06265464425086975, 0.1097504198551178, -0.11635639518499374, 0.08712571859359741, 0.15334872901439667, 0.22548262774944305, 0.18291425704956055, 0.287582665681839, 0.16657599806785583, 0.1590862274169922, 0.18025287985801697, 0.16728655993938446, 0.008904634974896908, 0.13334736227989197, 0.023569904267787933, 0.037411175668239594, 0.08019804954528809, -0.06238840892910957, -0.08397583663463593, -0.1796867698431015, -0.339830219745636, -0.22796867787837982, -0.23386158049106598, 0.09608419239521027, -0.14643025398254395, 0.08223661035299301, -0.00672211404889822, 0.007148955948650837, 0.16918319463729858, 0.2985002398490906, 0.1299738734960556, 0.23540474474430084, 0.3361809253692627, 0.1339404135942459, 0.18151961266994476, 0.25287848711013794, 0.2854444980621338, 0.1571393758058548, 0.1206013634800911, 0.17398494482040405, 0.13108894228935242, -0.01625184156000614, 0.04202060401439667, 0.030258890241384506, -0.06662973016500473, 0.023372001945972443, 0.013663732446730137, -0.1312492936849594, 0.018392853438854218, 0.07103907316923141, -0.38649678230285645, 0.07009130716323853, -0.3606705367565155, -0.00492451898753643, 0.032624512910842896, 0.014094115234911442, -0.08764002472162247, 0.10872005671262741, 0.09634650498628616, 0.04240122810006142, 0.1285867840051651, -0.022090572863817215, 0.05903118476271629, 0.20289617776870728, 0.10195324569940567, 0.17897771298885345, 0.27256864309310913, 0.16213300824165344, -0.03524770587682724, 0.025478653609752655, -0.03723646327853203, -0.07302609831094742, 0.2813745439052582, -0.12447990477085114, 0.31969180703163147, -0.130127415060997, -0.13233567774295807, -0.12951919436454773, 0.07528694719076157, -0.18954765796661377, -0.24365171790122986, 0.021370088681578636, 0.03501759096980095, 0.0159812830388546, 0.11206868290901184, -0.24595144391059875, -0.4588315486907959, -0.2508362829685211, 0.1738828718662262, -0.04486757144331932, -0.11975108832120895, -0.09347178041934967, 0.001151187578216195, 0.16080540418624878, 0.011383340694010258, 0.38982826471328735, 0.3252798020839691, 0.4098236858844757, 0.19972383975982666, 0.16575434803962708, 0.16945254802703857, 0.45129892230033875, 0.3289165794849396, 0.1563330739736557, 0.23459483683109283, 0.16884048283100128, -0.09278332442045212, -0.02458716183900833, 0.017931856215000153, 0.019483745098114014, -0.0013755176914855838, 0.005308602936565876, 0.022095566615462303, 0.20553719997406006, 0.15421460568904877, -0.21792133152484894, -0.44622984528541565, -0.7213906645774841, -0.6058688759803772, -0.2541404962539673, -0.2258797138929367, 0.07749269902706146, 0.007900813594460487, 0.23157848417758942, 0.267792284488678, 0.28425729274749756, 0.20978695154190063, 0.0005966518656350672, 0.1465601921081543, 0.22869306802749634, -0.3717031478881836, -0.4871375858783722, -0.23051609098911285, 0.04334668070077896, 0.012290582992136478, -0.07558894902467728, -0.031094122678041458, 0.02608295902609825, -0.03496694564819336, -0.016619214788079262, -0.02839556895196438, 0.0051248203963041306, -0.028718210756778717, -0.05451057106256485, -0.17068447172641754, -0.1328543722629547, -0.20207899808883667, -0.18837612867355347, 0.1667253077030182, 0.2610361576080322, 0.22856083512306213, 0.09562037140130997, -0.4047512412071228, -0.14155416190624237, -0.15120351314544678, -0.22708752751350403, -0.20972579717636108, -0.16637954115867615, -0.026326047256588936, -0.12717899680137634, -0.1607467234134674, -0.035055190324783325, -0.028578564524650574, -0.029289336875081062, 0.01314989197999239, -0.025947201997041702], [0.03422929719090462, 7.8214070526883e-05, 0.001660491805523634, 0.024079646915197372, 0.010790140368044376, 0.014747233130037785, 0.005912687163800001, 0.018311871215701103, 0.035590656101703644, 0.03097759187221527, -0.006974161136895418, -0.01323292963206768, -0.14318546652793884, -0.18901176750659943, -0.07942686975002289, -0.06064010411500931, 0.031604986637830734, 0.009874778799712658, -0.02109377458691597, -0.015951570123434067, -0.0010306239128112793, -0.01564125157892704, -0.030268605798482895, -0.016148870810866356, -0.010952911339700222, 0.020908433943986893, -0.005833604838699102, 0.01000685803592205, -0.008931901305913925, -0.028306344524025917, -0.015155349858105183, 0.029512321576476097, 0.19285371899604797, 0.16041794419288635, -0.21493934094905853, -0.23527447879314423, -0.1593310683965683, 0.06663007289171219, 0.09501718729734421, 0.19999143481254578, 0.2833636999130249, 0.3658857047557831, 0.3043283224105835, -0.18369750678539276, -0.32947444915771484, -0.23688873648643494, -0.30772194266319275, -0.3778851628303528, -0.47933295369148254, -0.4017946720123291, -0.26087307929992676, -0.2732122242450714, -0.011192948557436466, 0.035008128732442856, -0.021569499745965004, -0.010364873334765434, -0.0021031245123595, -0.009008961729705334, -0.3026568591594696, -0.12721951305866241, -0.10311505198478699, 0.0895877555012703, 0.1719880998134613, 0.021123893558979034, -0.04163214564323425, -0.07990111410617828, 0.051051586866378784, 0.0633271113038063, -0.011090531013906002, 0.09826401621103287, 0.13494902849197388, 0.194180428981781, 0.05403924360871315, -0.12959834933280945, -0.35000187158584595, 0.06395431607961655, -0.4343569874763489, -0.02933458797633648, 0.15303468704223633, -0.48294344544410706, -0.3320440351963043, -0.20960064232349396, -0.004746241495013237, -0.016169851645827293, 0.010526866652071476, 0.0021896534599363804, -0.22029095888137817, -0.2645074725151062, -0.39504626393318176, -0.1781463772058487, -0.43425145745277405, -0.5461128950119019, -0.32256877422332764, -0.3492330014705658, -0.31340786814689636, -0.08538768440485, -0.21330390870571136, -0.2955673635005951, -0.08122251182794571, -0.26483166217803955, -0.22580821812152863, -0.03862358257174492, 0.00824812799692154, -0.27950137853622437, -0.3320763409137726, 0.015744784846901894, 0.1193142831325531, -0.2837707996368408, -0.1270713359117508, 0.3306211531162262, -0.034933093935251236, -0.012805739417672157, 0.017110910266637802, 0.09007101505994797, -0.17935074865818024, -0.051262758672237396, -0.11325201392173767, -0.4717416763305664, -0.7674381732940674, -0.2540160119533539, -0.48432907462120056, -0.41934895515441895, -0.08400814235210419, 0.16681373119354248, 0.10624430328607559, -0.023854510858654976, -0.10838554799556732, -0.035008903592824936, -0.16597501933574677, 0.03460323065519333, 0.07131236791610718, -0.03269526734948158, 0.14019738137722015, 0.13524334132671356, 0.21393287181854248, -0.004086494445800781, 0.23588059842586517, 0.2800489366054535, 0.08680916577577591, 0.007052143104374409, 0.01065379474312067, 0.011697838082909584, -0.48077261447906494, -0.3382553458213806, -0.34949538111686707, -0.17167407274246216, -0.30614736676216125, -0.33749067783355713, -0.18708090484142303, 0.001966366544365883, 0.11337751150131226, 0.2696189284324646, 0.18613682687282562, 0.15303774178028107, 0.03953000530600548, 0.04353165999054909, -0.2452668994665146, 0.024778593331575394, 0.0960589200258255, 0.04672043398022652, -0.07995613664388657, -0.03678016737103462, -0.018732868134975433, -0.10633784532546997, 0.16109758615493774, 0.20943967998027802, -0.5071923136711121, -0.26672083139419556, 0.012659069150686264, -0.2979109287261963, 0.22931522130966187, 0.24960961937904358, 0.00577574735507369, 0.17848989367485046, -0.28433483839035034, -0.33301013708114624, -0.06412874907255173, -0.15147773921489716, 0.07362174242734909, 0.1527966409921646, 0.045580968260765076, 0.17461292445659637, 0.20515534281730652, 0.05823276564478874, 0.11154919862747192, 0.17921233177185059, 0.1044742539525032, 0.07992326468229294, 0.0026685248594731092, 0.11881141364574432, -0.04312616214156151, 0.01610071212053299, -0.04398810490965843, -0.09975980222225189, -0.25130495429039, -0.4388565421104431, 0.03299771994352341, -0.3346501290798187, 0.11423477530479431, 0.1330757737159729, -0.327103853225708, -0.36848142743110657, -0.3792906105518341, -0.35286733508110046, -0.04539592191576958, 0.15124276280403137, 0.08814778178930283, 0.14352670311927795, 0.19089572131633759, 0.16530731320381165, 0.17032945156097412, 0.3033258616924286, 0.2715238630771637, 0.234075129032135, 0.2866877317428589, 0.10476464778184891, -0.017571628093719482, -0.16817836463451385, -0.12448684871196747, 0.07168407738208771, 0.09210009127855301, 0.09620000422000885, -0.08698183298110962, -0.12683914601802826, -0.495678573846817, -0.12322203814983368, 0.212504580616951, 0.1234053522348404, -0.22825923562049866, -0.2666645348072052, -0.16277103126049042, -0.2314470261335373, 0.1413954645395279, 0.056011661887168884, 0.05053029581904411, 0.18714633584022522, 0.0812424048781395, 0.08003024011850357, 0.14524973928928375, 0.16028378903865814, 0.16130611300468445, -0.08584030717611313, 0.15217329561710358, -0.08512123674154282, -0.05740264803171158, -0.041889239102602005, -0.20527182519435883, -0.023707402870059013, 0.061296164989471436, 0.3315735459327698, -0.08229026198387146, -0.2597065269947052, 0.3542052209377289, 0.1089702770113945, 0.021950548514723778, 0.02158125303685665, -0.0297845546156168, -0.22622452676296234, -0.09873808175325394, -0.08429871499538422, -0.1364768147468567, 0.12723535299301147, 0.21595270931720734, 0.1934749037027359, 0.13698501884937286, 0.040365561842918396, 0.0073847644962370396, -0.10886970907449722, 0.01141753327101469, 0.04508601129055023, 0.06290746480226517, 0.08169414848089218, 0.13756534457206726, -0.051340408623218536, -0.16694247722625732, 0.04599032923579216, -0.010407651774585247, -0.17656980454921722, -0.2138964980840683, -0.13067299127578735, 0.3655773997306824, 0.25405561923980713, 0.1424359381198883, 0.13216730952262878, 0.09494470804929733, -0.09609376639127731, -0.21452374756336212, 0.042432818561792374, 0.004471223801374435, 0.2051886022090912, 0.10639215260744095, -0.007413059938699007, -0.00012134334247093648, -0.16600832343101501, -0.19256336987018585, -0.05965529382228851, 0.014419447630643845, 0.025257717818021774, 0.15422390401363373, 0.1951066106557846, 0.23588202893733978, 0.1399073302745819, 0.05503011494874954, 0.21011729538440704, -0.012556958943605423, -0.26765328645706177, -0.5561666488647461, -0.2572658658027649, 0.42071330547332764, 0.07086814939975739, 0.5946073532104492, -0.013088312931358814, 0.12322480231523514, -0.0030359409283846617, 0.03414659574627876, 0.15832071006298065, 0.22726643085479736, 0.19851702451705933, 0.20365774631500244, 0.04239936172962189, 0.013997239992022514, 0.11336764693260193, -0.001710250275209546, 0.06567930430173874, 0.12864595651626587, 0.26680678129196167, 0.23235496878623962, 0.13523690402507782, 0.302811861038208, 0.18836049735546112, 0.22046911716461182, 0.04718955233693123, -0.2431459277868271, -0.5911485552787781, -0.29810789227485657, -0.5023571252822876, 0.12518826127052307, 0.12438353151082993, 0.2768825590610504, 0.05589507147669792, 0.2378445267677307, 0.22090600430965424, 0.04275145381689072, 0.11207539588212967, 0.18330168724060059, 0.0879613384604454, -0.05556860566139221, 0.051977723836898804, 0.02334958128631115, 0.11394967883825302, 0.06559916585683823, 0.1619497686624527, 0.18080542981624603, 0.25273630023002625, 0.2961340844631195, 0.21969754993915558, 0.04396567493677139, 0.0975683405995369, 0.3145008683204651, 0.11687660217285156, -0.238839790225029, -0.6839796900749207, -0.3554168939590454, -0.35417601466178894, -0.13738314807415009, -0.23590436577796936, 0.46463632583618164, 0.07483108341693878, 0.38399866223335266, 0.2740061283111572, 0.07972192019224167, 0.3342365026473999, 0.1714746356010437, -0.003028722247108817, 0.028898317366838455, 0.0276362095028162, 0.07853619009256363, 0.037411343306303024, -0.018788112327456474, 0.09223318099975586, 0.017061997205018997, 0.24218732118606567, 0.17301611602306366, 0.07797790318727493, 0.02406424470245838, 0.1338573545217514, 0.24891266226768494, -0.24477927386760712, -0.43343067169189453, -0.4839060604572296, -0.337089866399765, -0.3965330123901367, 0.01206946186721325, 0.19746476411819458, 0.47100701928138733, 0.1741677075624466, 0.23117926716804504, 0.14408454298973083, 0.09002013504505157, 0.2695668637752533, 0.22749994695186615, 0.028958635404706, -0.11619571596384048, -0.07301127910614014, 0.032528504729270935, 0.03539455682039261, -0.07511729747056961, 0.0037205384578555822, -0.1037292405962944, 0.1659647524356842, 0.11903110146522522, 0.06710486859083176, 0.09723789989948273, -0.07082056254148483, -0.0602935329079628, -0.16532175242900848, -0.3315621316432953, -0.28302645683288574, -0.09185139834880829, -0.2659405469894409, 0.06382115185260773, 0.24409298598766327, -0.08093483746051788, -0.06746535748243332, -0.04122890159487724, 0.09464028477668762, 0.12007970362901688, 0.13333487510681152, -0.020241769030690193, -0.07643822580575943, -0.004401389043778181, 0.06520137190818787, 0.06697452068328857, -0.10593852400779724, -0.19682219624519348, -0.01632262021303177, -0.1715579330921173, 0.0840085819363594, 0.054162491112947464, 0.14820392429828644, 0.0898081362247467, 0.0020496773067861795, 0.10667720437049866, -0.0033467081375420094, -0.6119553446769714, -0.38048890233039856, 0.11071263998746872, -0.5773382782936096, 0.3976208567619324, -0.0006783592398278415, -0.4171307384967804, -0.4389819800853729, 0.07641053944826126, -0.005796272773295641, 0.02761654555797577, 0.05520537868142128, 0.1682741343975067, -0.16585151851177216, -0.001785918022505939, 0.04703766107559204, 0.06922105699777603, -0.13842198252677917, -0.22887402772903442, -0.09023375809192657, -0.07100663334131241, 0.08279680460691452, 0.1376919150352478, -0.13370127975940704, 0.06078653037548065, -0.08527228236198425, -0.08515270054340363, -0.2810054421424866, -0.44614124298095703, -0.2742645740509033, 0.01695321872830391, -0.5249424576759338, 0.028101637959480286, -0.06613563001155853, -0.47001412510871887, -0.3681474030017853, -0.13085304200649261, -0.03188197687268257, -0.1343786120414734, -0.15684647858142853, -0.016400981694459915, 0.02881144918501377, 0.06924653798341751, -0.13046404719352722, 0.0194692462682724, 0.027850447222590446, -0.024647817015647888, -0.028096456080675125, 0.0058644236996769905, 0.15473508834838867, 0.19085584580898285, 0.01574619859457016, 0.1250835657119751, -0.10437226295471191, -0.12580430507659912, -0.35934823751449585, -0.5058580040931702, -0.10839420557022095, 0.09755930304527283, -0.3762971758842468, 0.5335991382598877, -0.33809763193130493, -0.08832406252622604, -0.35867562890052795, -0.2132430225610733, -0.12324423342943192, -0.09942424297332764, -0.13538949191570282, 0.005758936516940594, 0.04038279131054878, -0.034611523151397705, -0.06265537440776825, -0.1759023666381836, -0.08838774263858795, -0.09749287366867065, -0.13669294118881226, -0.05348081514239311, 0.13405419886112213, 0.27955713868141174, 0.21643100678920746, -0.060264747589826584, -0.19454513490200043, -0.22989852726459503, -0.6300312280654907, -0.8146093487739563, -0.23996299505233765, 0.07198486477136612, -0.3116360604763031, -0.29759201407432556, 0.5275481343269348, 0.3289034962654114, -0.002769631566479802, -0.03145025297999382, 0.15729911625385284, -0.0330394022166729, -0.04375835508108139, 0.06341812014579773, -0.14665091037750244, -0.19437938928604126, -0.1777884066104889, -0.07168574631214142, -0.2486693561077118, -0.18506371974945068, -0.2189488559961319, -0.04407569766044617, 0.0700417160987854, 0.3245382308959961, 0.22528843581676483, -0.04070431366562843, -0.3515964150428772, -0.36334553360939026, -0.527244508266449, -0.39709439873695374, -0.19109798967838287, -0.4258665144443512, -0.377196729183197, -0.03168268874287605, 0.21654272079467773, 0.10022559762001038, -0.24689841270446777, -0.025417784228920937, 0.11484106630086899, -0.18852628767490387, -0.12617193162441254, -0.10153266042470932, -0.24914251267910004, -0.1822730302810669, -0.14629586040973663, -0.0061750104650855064, -0.03897135704755783, -0.04710552468895912, -0.17089897394180298, -0.03268861398100853, 0.1300378292798996, 0.0698365792632103, 0.13952024281024933, -0.22617985308170319, -0.3723820745944977, -0.3479200601577759, -0.36889922618865967, 0.02074577659368515, 0.27770695090293884, -0.5621609687805176, -0.10710383951663971, -0.318483829498291, -0.15997017920017242, 0.06940968334674835, -0.025927159935235977, 0.028159242123365402, 0.08844870328903198, 0.014835329726338387, -0.05264117568731308, -0.10800591111183167, -0.12241349369287491, -0.1453889012336731, -0.08500063419342041, -0.05708492919802666, 0.010148289613425732, -0.14713849127292633, -0.16007064282894135, -0.021952269598841667, -0.15678460896015167, -0.14742295444011688, -0.13768282532691956, -0.1646871566772461, -0.15034957230091095, -0.1247122660279274, -0.20275862514972687, 0.43041425943374634, -0.03952718898653984, -0.47640544176101685, 0.03260357305407524, -0.31906992197036743, -0.15869665145874023, -0.2032262682914734, 0.08847800642251968, -0.08050689846277237, -0.1957550197839737, 0.05996866151690483, -0.07108943164348602, 0.014323693700134754, -0.16942448914051056, -0.12230396270751953, -0.02691633068025112, 0.14992354810237885, 0.14404387772083282, 0.005546132568269968, -0.12562832236289978, -0.12139138579368591, -0.2566920220851898, -0.17636717855930328, -0.060861412435770035, -0.16446912288665771, -0.09516048431396484, 0.04439404979348183, 0.19716396927833557, 0.2512289881706238, 0.2332889586687088, 0.02642001397907734, 0.04321465268731117, -0.016840506345033646, 0.01637347787618637, -0.49236080050468445, 0.07138721644878387, -0.2484053075313568, 0.010867217555642128, 0.015420899726450443, 0.00255118147470057, 0.04426272213459015, -0.04783731326460838, 0.1187136173248291, -0.009641003794968128, -0.09142284095287323, -0.05422554910182953, -0.05000435933470726, -0.12153201550245285, -0.14816588163375854, -0.08397852629423141, -0.16754350066184998, -0.29522907733917236, -0.15420927107334137, 0.17573799192905426, 0.14610835909843445, 0.272826224565506, 0.5567492842674255, 0.13040092587471008, -0.26858603954315186, 0.013760963454842567, -0.016819601878523827, -0.03004252165555954, 0.10142683982849121, 0.3372727930545807, 0.2621777057647705, 0.41083911061286926, 0.26145631074905396, 0.3438061773777008, 0.24599716067314148, 0.1178184449672699, 0.20680662989616394, 0.03666839003562927, -0.04622295871376991, -0.14569899439811707, -0.26776960492134094, -0.010227049700915813, 0.04203291982412338, -0.016308875754475594, -0.08539940416812897, 0.21672645211219788, 0.399856835603714, 0.3645004630088806, 0.6304378509521484, 0.5713117122650146, -0.07389499992132187, -0.4583466947078705, -0.4909411072731018, 0.021134372800588608, 0.02024924010038376, -0.02766358107328415, -0.15414367616176605, 0.42281287908554077, 0.13665500283241272, 0.1010788157582283, 0.031659260392189026, 0.3757458031177521, 0.43614479899406433, 0.2750261425971985, 0.08337293565273285, 0.2083369791507721, 0.02331896685063839, 0.012008139863610268, 0.14279264211654663, 0.10334903001785278, 0.3118270933628082, 0.19371828436851501, 0.34525132179260254, 0.5208379626274109, 0.5499268770217896, 0.5849602222442627, 0.5976802706718445, 0.2973380386829376, -0.06525484472513199, -0.10242567211389542, -0.4447821080684662, -0.03437250107526779, 0.021826375275850296, -0.006947641260921955, 0.03432619571685791, 0.4037024974822998, 0.20915460586547852, 0.1617148220539093, 0.36940833926200867, 0.6731506586074829, 0.5102735757827759, 0.5431085228919983, 0.3241897523403168, 0.2229827493429184, 0.6321139931678772, 0.6058224439620972, 0.5749041438102722, 0.23958654701709747, 0.3045337498188019, 0.38202670216560364, 0.3300551176071167, 0.6132562756538391, 0.5102106928825378, 0.6264883279800415, 0.6624360680580139, -0.07971589267253876, 0.31077703833580017, 0.2307339906692505, -0.025948407128453255, 0.008813713677227497, -0.011024466715753078, 0.005408155266195536, 0.007507162634283304, -0.0022647723089903593, 0.4363584518432617, 0.6573743224143982, 0.3846609592437744, 0.1295386701822281, 0.32065147161483765, 0.6246543526649475, -0.25335198640823364, 0.13690653443336487, 0.02283976785838604, 0.6307165026664734, 0.9469378590583801, 0.11987946182489395, 0.20089615881443024, 0.8584109544754028, 0.6206978559494019, 0.3197525143623352, 0.5159294009208679, 0.5794939994812012, 0.7215570211410522, 0.47641733288764954, -0.00986882671713829, 0.003396230284124613, -0.0031722828280180693, -0.0009190014679916203], [0.01344097126275301, 0.016509180888533592, 0.03442108631134033, -0.0067367046140134335, 0.021193254739046097, 0.011915067210793495, -0.027421846985816956, 0.024280553683638573, 0.004425219260156155, 0.01599092222750187, 0.028652528300881386, -0.006550903897732496, 0.020479798316955566, -0.014763815328478813, 0.029975956305861473, -0.017995774745941162, 0.01632426120340824, 0.03244099020957947, 0.007219498045742512, 0.023509431630373, 0.028802476823329926, -0.010185658931732178, -0.026947636157274246, -0.02177305333316326, -0.009506672620773315, -0.014161404222249985, 0.033144962042570114, -0.013855241239070892, 0.024368751794099808, -0.01521037332713604, 0.03471833094954491, 0.022465409711003304, 0.013665430247783661, -0.03179669380187988, 0.0003483954060357064, 0.06753172725439072, 0.022839408367872238, 0.044756680727005005, 0.04313372075557709, 0.045773666352033615, 0.10393447428941727, 0.08793452382087708, 0.018319275230169296, -0.011274863965809345, 0.020250145345926285, 0.0449899286031723, 0.057566605508327484, 0.04746946319937706, -0.0008995675598271191, 0.037751346826553345, -0.015262731350958347, 0.03880831599235535, 0.007099194452166557, -0.024385811761021614, 0.0009726030984893441, 0.002275139093399048, 0.014469815418124199, 0.025402916595339775, 0.012422126717865467, 0.032826390117406845, -0.005164016038179398, -0.014704875648021698, 0.052802037447690964, 0.15753112733364105, 0.093105748295784, -0.16893984377384186, -0.2052629441022873, -0.22155015170574188, -0.177935391664505, -0.06938190013170242, -0.0026360834017395973, 0.0023648254573345184, 0.05604735016822815, 0.3675406575202942, 0.3812122344970703, 0.30480772256851196, 0.19961002469062805, -0.2690524160861969, -0.26787135004997253, -0.20227637887001038, 0.017628485336899757, 0.042775750160217285, 0.035212866961956024, 0.0017412008019164205, 0.03204569220542908, -0.02156946249306202, -0.010530130937695503, -0.0014130515046417713, 0.20945973694324493, -0.04850860312581062, 0.12037231773138046, -0.011902297846972942, 0.24001331627368927, -0.32248079776763916, -0.3612014353275299, -0.6112088561058044, -0.21773608028888702, -0.29400938749313354, -0.14627546072006226, -0.17283378541469574, -0.41662055253982544, -0.2575489580631256, 0.07611925154924393, 0.1848077028989792, -0.33031636476516724, -0.2436354160308838, -0.38687410950660706, -0.7484808564186096, -0.25657281279563904, 0.2589372396469116, 0.4374435544013977, 0.026675229892134666, -0.015474434942007065, 0.09682460129261017, -0.27054205536842346, 0.29685261845588684, -0.09946659207344055, -0.46949833631515503, -0.38960888981819153, -0.10615034401416779, -0.24679861962795258, -0.029114942997694016, -0.05920569226145744, 0.06986134499311447, 0.08891413360834122, -0.007744300179183483, 0.1148061528801918, 0.13995200395584106, 0.07847919315099716, 0.2345060259103775, 0.1469908207654953, -0.021052177995443344, 0.0609356053173542, 0.35138601064682007, 0.20374205708503723, 0.1052413210272789, 0.26854225993156433, 0.5464172959327698, 0.659833550453186, 0.28813785314559937, 0.014222920872271061, 0.009276620112359524, 0.10211590677499771, -0.1449122577905655, -0.29775312542915344, -0.34088900685310364, -0.34179526567459106, -0.11484046280384064, 0.020654283463954926, 0.06582417339086533, -0.055073004215955734, 0.011749877594411373, -0.0041653430089354515, -0.044561658054590225, -0.0037836339324712753, -0.2127731293439865, -0.05788528546690941, 0.11385884135961533, -0.01531253568828106, 0.054891061037778854, 0.32550761103630066, 0.32675331830978394, 0.5609203577041626, 0.37640854716300964, 0.104981429874897, 0.25617197155952454, 0.33960404992103577, 0.3725527822971344, -0.0012960307067260146, 0.19008973240852356, 0.3297994136810303, 0.2049219310283661, 0.1743406057357788, -0.11617035418748856, -0.36419788002967834, -0.04249495640397072, -0.07604216039180756, 0.12672467529773712, 0.10971032083034515, -0.028110401704907417, 0.07869712263345718, 0.12210691720247269, 0.15114472806453705, 0.07433771342039108, 0.07814717292785645, 0.20106779038906097, 0.23527199029922485, 0.26511842012405396, 0.28293555974960327, 0.1763445883989334, 0.35445865988731384, 0.2870676517486572, 0.701015830039978, 0.5586899518966675, 0.20748566091060638, 0.21156080067157745, -0.00926370732486248, 0.31127145886421204, 0.2204034924507141, 0.2004513144493103, -0.3061128854751587, 0.021547280251979828, -0.28437134623527527, 0.04238242655992508, 0.06992510706186295, 0.045821137726306915, 0.062072545289993286, 0.05369794741272926, 0.03177138790488243, 0.16359561681747437, 0.24334609508514404, 0.20123642683029175, 0.32576727867126465, 0.3331689238548279, 0.3818430006504059, 0.3156941533088684, 0.3393518626689911, 0.3483545184135437, 0.22433756291866302, 0.24067337810993195, 0.4396797716617584, 0.5932888388633728, 0.2431286722421646, 0.3565402925014496, 0.013071547262370586, 0.2951565682888031, 0.009630103595554829, 0.32636499404907227, -0.2736636996269226, -0.06505968421697617, -0.03533271700143814, 0.12786121666431427, -0.04695913940668106, 0.08568906784057617, -0.046393442898988724, 0.07327639311552048, 0.17738434672355652, 0.1320839524269104, 0.21850930154323578, 0.14839647710323334, 0.34174859523773193, 0.22162480652332306, 0.1975499391555786, 0.24901430308818817, 0.24605099856853485, 0.18291833996772766, 0.2298009693622589, 0.319317102432251, 0.4983654022216797, 0.5210310816764832, 0.5188035368919373, 0.44782182574272156, 0.04229692742228508, 0.3706884980201721, 0.26701706647872925, 0.07518184185028076, 0.03407939150929451, -0.24224542081356049, -0.09830912202596664, -0.049121782183647156, 0.08066671341657639, 0.13059650361537933, 0.0914883241057396, 0.10317175090312958, 0.07931148260831833, 0.010887568816542625, -0.0896819531917572, -0.09434448182582855, -0.08598494529724121, -0.055009663105010986, 0.12149888277053833, 0.06298565119504929, 0.12264866381883621, 0.2134116142988205, 0.17543348670005798, 0.1758212149143219, 0.576077938079834, 0.6938633918762207, 0.2626219093799591, 0.550837516784668, 0.04856279119849205, 0.36809220910072327, 0.288479208946228, 0.18565495312213898, -0.005494699347764254, -0.12371775507926941, 0.0577072948217392, 0.07198573648929596, 0.14801013469696045, 0.1553785502910614, 0.15293817222118378, 0.14572922885417938, 0.09141102433204651, -0.019283799454569817, -0.3908863365650177, -0.42788100242614746, -0.36119675636291504, -0.47973284125328064, -0.4166228473186493, -0.4247784912586212, -0.1773436814546585, -0.24067090451717377, -0.2560645341873169, -0.3376448452472687, 0.17785443365573883, 0.3601614236831665, 1.0123742818832397, 0.3359573483467102, 0.23506204783916473, 0.4020695388317108, 0.1413107067346573, 0.07986698299646378, 0.1554485410451889, -0.0827687680721283, 0.14383424818515778, 0.07066339999437332, 0.030021049082279205, 0.0398726649582386, 0.07171081006526947, 0.05027700588107109, -0.08632035553455353, -0.10354182869195938, -0.2625106871128082, -0.23075342178344727, -0.3980955183506012, -0.4176270365715027, -0.4328044354915619, -0.4820432960987091, -0.6797130703926086, -0.921503484249115, -0.8772658109664917, -0.41680848598480225, -0.2273382991552353, 0.19371387362480164, 0.7572036385536194, 0.07490222156047821, 0.00043349104817025363, 0.19746607542037964, 0.0896061584353447, 0.006817595101892948, -0.11218087375164032, -0.15624943375587463, 0.13269288837909698, -0.09657742083072662, 0.18774254620075226, 0.11554469913244247, 0.20369620621204376, 0.026253987103700638, -0.060189057141542435, -0.030353255569934845, 0.03426538035273552, -0.10898304730653763, -0.25049254298210144, -0.11564908921718597, -0.148202046751976, -0.24835848808288574, -0.11028402298688889, -0.5471922159194946, -0.7995111346244812, -0.45408761501312256, -0.6699784398078918, -0.624440610408783, 0.3711411952972412, -0.2456037998199463, -0.016227012500166893, -0.13385805487632751, 0.1316450983285904, 0.11160730570554733, -0.012594439089298248, -0.10405099391937256, 0.033548448234796524, 0.19156061112880707, -0.04923085495829582, -0.07383431494235992, -0.031819574534893036, 0.07871893048286438, 0.08145883679389954, 0.13378958404064178, 0.03329716622829437, -0.16116152703762054, -0.2058393359184265, -0.04825406149029732, -0.04342189058661461, 0.047963209450244904, 0.020137278363108635, -0.335842102766037, -0.3143586218357086, -0.14909441769123077, -0.03857524320483208, -0.4242960512638092, 0.2490929365158081, -0.3886636197566986, 0.3472243547439575, 0.1944008469581604, 0.4421970844268799, -0.0029239782597869635, 0.1731400340795517, -0.1220385879278183, 0.14074201881885529, 0.02500263601541519, 0.06887143850326538, 0.032046183943748474, 0.007298375479876995, 0.016467243432998657, 0.02680020034313202, -0.07004395872354507, 0.028251279145479202, -0.12310080975294113, -0.2725403904914856, -0.11162181943655014, -0.1923685371875763, -0.25350695848464966, -0.09072339534759521, -0.06445229798555374, -0.029682544991374016, 0.1348876953125, 0.4134792387485504, -0.3450888693332672, -0.3909873068332672, -0.41665780544281006, 0.2899031937122345, 0.28634387254714966, -0.22677788138389587, -0.14613643288612366, -0.11057114601135254, 0.06268752366304398, 0.08290835469961166, -0.10733014345169067, 0.10271419584751129, 0.18063117563724518, 0.17609578371047974, 0.12774130702018738, 0.21676599979400635, -0.028935881331562996, -0.1269344985485077, -0.143924742937088, -0.06342718750238419, -0.16566669940948486, -0.14307032525539398, -0.2905511260032654, -0.04029643535614014, -0.12061178684234619, -0.25848034024238586, -0.07264003157615662, 0.11683988571166992, -0.11204255372285843, -0.2491641342639923, -0.3284183144569397, 0.04453010484576225, 0.3824867904186249, -0.1403317004442215, -0.14019320905208588, -0.15366291999816895, -0.0007867612293921411, -0.34972020983695984, -0.3019607365131378, 0.009979805909097195, 0.11127576977014542, 0.2579168677330017, 0.2784053087234497, 0.22101359069347382, 0.09330220520496368, -0.20304040610790253, -0.11723247915506363, -0.14674700796604156, -0.22205448150634766, -0.1681363731622696, -0.08407307416200638, -0.16311700642108917, -0.1648552417755127, -0.07675644010305405, -0.039991412311792374, -0.028201384469866753, 0.08824433386325836, -0.24619954824447632, -0.29953131079673767, -0.01379703264683485, 0.3456140458583832, -0.4287625551223755, 0.11983886361122131, -0.20616930723190308, -0.4738519787788391, -0.3369144797325134, -0.19147072732448578, -0.20506122708320618, -0.034296438097953796, 0.14913415908813477, 0.20544128119945526, 0.19227087497711182, 0.05326283723115921, -0.16922278702259064, -0.09774692356586456, -0.2564983665943146, -0.13109387457370758, 0.05099762603640556, -0.035613346844911575, -0.13376569747924805, 0.003339726710692048, -0.04035644233226776, 0.014568647369742393, -0.048575833439826965, -0.0626286119222641, -0.5111927390098572, -0.42254728078842163, 0.09096525609493256, 0.0067372932098805904, -0.158613920211792, -0.008301095105707645, 0.02665257267653942, -0.3861386179924011, -0.22803190350532532, -0.25464218854904175, -0.39987483620643616, -0.42116349935531616, -0.2854101359844208, -0.625177264213562, -0.4579657316207886, -0.3502201437950134, -0.3334309756755829, -0.04002206400036812, 0.006762468256056309, 0.012763801030814648, 0.038684673607349396, 0.16901293396949768, 0.2565282881259918, 0.10324549674987793, 0.1559404730796814, 0.03100057691335678, -0.04432138800621033, -0.4816765785217285, -0.45402243733406067, -0.3689885437488556, 0.007366870529949665, -0.0500793494284153, 0.6657317876815796, 0.06167101487517357, 0.14260487258434296, -0.2344542145729065, -0.10171600431203842, -0.22895467281341553, -0.3545333743095398, -0.4971354305744171, -0.5986782908439636, -0.571499764919281, -0.44887498021125793, -0.3247980773448944, -0.11432570219039917, -0.020983537659049034, 0.09042951464653015, 0.12704557180404663, 0.15735583007335663, 0.21668671071529388, 0.3179386258125305, 0.175767183303833, 0.2222461998462677, 0.18728044629096985, 0.23299714922904968, -0.28129279613494873, -0.45759040117263794, -0.25646960735321045, -0.0031044399365782738, -0.07529044151306152, 0.3764066696166992, 0.31771379709243774, 0.14241860806941986, 0.11038791388273239, 0.1399403065443039, -0.06859485059976578, -0.039769869297742844, -0.0018585592042654753, 0.025755196809768677, 0.09892437607049942, -0.02565470151603222, -0.02324061095714569, -0.1220952570438385, 0.0021059727296233177, 0.15932877361774445, 0.09873392432928085, 0.16379892826080322, 0.1738445907831192, 0.2836184799671173, 0.11420092731714249, 0.3741973340511322, 0.3417346477508545, 0.10383997857570648, -0.12937255203723907, -0.047954011708498, 0.051133353263139725, 0.01003729086369276, -0.036855775862932205, 0.048602394759655, 0.2525571584701538, 0.2714594006538391, 0.25950977206230164, 0.07090311497449875, 0.1323424130678177, 0.16098451614379883, 0.022442013025283813, -0.039327312260866165, 0.015033403411507607, 0.1351696401834488, 0.155318945646286, 0.03757728636264801, 0.2609715759754181, 0.12349175661802292, -0.1218477264046669, 0.005353330168873072, -0.0036263607908040285, 0.28135135769844055, 0.27443408966064453, 0.3506677746772766, 0.40583881735801697, 0.36056768894195557, -0.02896486036479473, 0.07912338525056839, 0.05745808780193329, -0.004290972836315632, -0.23920507729053497, -0.12329687178134918, 0.28484153747558594, 0.014073489233851433, 0.09426744282245636, 0.13365527987480164, -0.0009628301486372948, 0.01784714125096798, -0.1022447794675827, -0.16162735223770142, -0.03465250879526138, 0.058096401393413544, -0.04162473604083061, 0.08731623739004135, 0.2269957959651947, 0.021115537732839584, 0.022790072485804558, 0.00896748248487711, 0.0539097785949707, 0.16261884570121765, 0.031772203743457794, 0.09945268929004669, 0.4895789921283722, 0.37758973240852356, 0.1003713458776474, -0.20627322793006897, 0.0371575653553009, 0.009957215748727322, -0.01510719396173954, 0.4929235577583313, 0.6614313721656799, 0.4005007743835449, 0.4207417368888855, 0.3329826295375824, 0.06439442187547684, -0.05377808213233948, 0.060411546379327774, 0.21805055439472198, 0.18705400824546814, 0.15046052634716034, 0.11927073448896408, 0.22043664753437042, 0.1551666408777237, 0.1205277219414711, 0.14241376519203186, 0.006931965239346027, -0.2009468823671341, 0.14947101473808289, -0.2095087468624115, 0.08016280084848404, 0.061829276382923126, 0.26496219635009766, 0.08959313482046127, 0.03742244839668274, 0.011422605253756046, 0.011259360238909721, 0.03312179446220398, 0.29127365350723267, 0.8875535130500793, 0.6372131705284119, 0.3846491575241089, 0.45314836502075195, 0.2819986045360565, 0.17427636682987213, 0.37672677636146545, 0.2832217514514923, 0.22639623284339905, 0.19466570019721985, 0.17815914750099182, 0.24703827500343323, 0.08521581441164017, -0.09758564084768295, 0.08131920546293259, 0.2177180051803589, -0.015183733776211739, 0.2564200460910797, 0.3108883798122406, 0.300212562084198, 0.07146427035331726, 0.11707957088947296, -0.5811529755592346, -0.32801395654678345, 0.008426053449511528, 0.02065352164208889, -0.0011107027530670166, 0.1555955559015274, 0.2316717654466629, -0.05435623973608017, 0.11358821392059326, 0.37819981575012207, 0.49636611342430115, 0.48522692918777466, 0.5985413789749146, 0.3611535429954529, 0.39055705070495605, 0.6165770888328552, 0.5710164904594421, 0.0600711815059185, 0.36068403720855713, 0.4280950129032135, 0.41055843234062195, 0.43645814061164856, 0.7597647905349731, 0.3270326852798462, 0.44741731882095337, 0.46436649560928345, 0.6031668186187744, 0.7265717387199402, -0.3212741017341614, -0.2795596718788147, -0.008823846466839314, 0.03503601253032684, -0.0022913047578185797, -0.017481906339526176, 0.03650998696684837, 0.24684232473373413, 0.056933656334877014, -0.2508227825164795, -0.04566892609000206, 0.02987268753349781, 0.0344562791287899, 0.18058395385742188, 0.24633055925369263, 0.30538246035575867, 0.5936549305915833, 0.5289327502250671, 0.5672813057899475, 0.6346282362937927, 0.48698174953460693, 0.42344576120376587, 0.5035614967346191, 0.4003866910934448, 0.45543134212493896, 0.4174719452857971, -0.08089879155158997, -0.003671246115118265, -0.023169392719864845, -0.026010585948824883, 0.0339098684489727, -0.017958233132958412, -0.01922265626490116, -0.026478376239538193, 0.02524673193693161, 0.05066385120153427, 0.12038380652666092, 0.27534958720207214, 0.34448447823524475, 0.4184492528438568, 0.37716010212898254, 0.5989277958869934, 0.4194014370441437, 0.5410221815109253, 0.6919181942939758, 0.3585503399372101, 0.2797835171222687, -0.03552103042602539, 0.15723757445812225, -0.08827286213636398, -0.15223772823810577, 0.02898375131189823, 0.201499804854393, 0.2886410057544708, -0.0004552077443804592, 0.024039708077907562, 0.03423989564180374, -0.013452943414449692, 0.02032863348722458], [0.02312038280069828, 0.004575239960104227, 0.0006026413175277412, -0.027714688330888748, -0.0078488290309906, 0.03222214803099632, 0.027280012145638466, 0.018277978524565697, 0.00511044729501009, 0.0039794063195586205, -0.004608754999935627, 0.009518725797533989, 0.05063195526599884, -0.02636018954217434, -0.021701660007238388, -0.014543673023581505, -0.01712077111005783, 0.01738038659095764, 0.028003711253404617, 0.02400108054280281, 0.010420535691082478, 0.0317460261285305, -0.004508418962359428, -0.030393483117222786, 0.007727236021310091, -0.018704112619161606, 0.0028177755884826183, 0.008741447702050209, 0.02079339139163494, -0.0028250175528228283, 0.018463796004652977, 0.014543567784130573, 0.06519349664449692, 0.06059763953089714, -0.05210775509476662, -0.006558211054652929, -0.06105919927358627, -0.0356748141348362, 0.08727709949016571, -0.36509212851524353, -0.16557927429676056, 0.11773815006017685, -0.03828692063689232, -0.29360440373420715, -0.6959556937217712, -0.3671339154243469, 0.35586410760879517, 0.04669296741485596, 0.0016096151666715741, 0.23320771753787994, 0.044572096318006516, -0.03042549081146717, 0.0329500287771225, 0.011872845701873302, 0.022722633555531502, -0.008604642003774643, 0.012378791347146034, -0.0058144633658230305, 0.21961253881454468, -0.29418885707855225, -0.29946961998939514, 0.23723305761814117, 0.14746129512786865, -0.2738354504108429, -0.2310362309217453, -0.4496123492717743, -0.5211233496665955, -0.3946434259414673, -0.4743753969669342, -0.5987439155578613, -0.25058409571647644, 0.19473789632320404, -0.05339657887816429, -0.11514705419540405, -0.04926317185163498, 0.4027298390865326, 0.1172259971499443, -0.07221399992704391, 0.31461551785469055, 0.41489267349243164, -0.09680555760860443, -0.16902978718280792, -0.029876936227083206, -0.02726765349507332, -0.0028212114702910185, -0.010627095587551594, -0.2664145827293396, -0.19687916338443756, 8.501427510054782e-05, 0.3172266185283661, 0.3450775146484375, 0.17713283002376556, -0.10871957987546921, -0.22076515853405, -0.47163933515548706, -0.144852414727211, -0.18346606194972992, -0.33164432644844055, 0.06149684265255928, 0.015385344624519348, -0.11147987097501755, -0.019523700699210167, 0.005593518726527691, -0.04606001451611519, -0.19932451844215393, -0.0001911920844577253, 0.17649085819721222, 0.09439098834991455, -0.32319176197052, -0.013102182187139988, 0.27966445684432983, 0.01096839178353548, 0.009744955226778984, 0.010949317365884781, -0.2801758646965027, -0.12239962816238403, -0.32358303666114807, 0.36247602105140686, 0.20009082555770874, 0.03174322098493576, -0.5574755668640137, -0.3621801733970642, -0.5485765337944031, -0.5016400218009949, -0.37838512659072876, -0.098853200674057, -0.13033835589885712, -0.07929659634828568, -0.11260572075843811, -0.026239002123475075, -0.17289422452449799, -0.0942014828324318, -0.14571630954742432, -0.07980052381753922, -0.06788712739944458, 0.3694327175617218, 0.22331970930099487, -0.06471776217222214, -0.18535050749778748, 0.18949002027511597, -0.01259609218686819, 0.011275509372353554, -0.17973250150680542, -0.077985018491745, -0.11681395024061203, 0.20490005612373352, 0.1681545227766037, 0.2750355005264282, -0.21406887471675873, -0.21671012043952942, -0.16986830532550812, -0.09361298382282257, -0.039192672818899155, -0.025567132979631424, 0.10939076542854309, -0.04064810276031494, -0.07898444682359695, 0.1700066775083542, 0.004434749484062195, 0.009015729650855064, 0.01910492591559887, -0.02837279438972473, -0.1241132840514183, -0.09354572743177414, 0.22076575458049774, 0.08687099069356918, 0.06448965519666672, 0.5363391637802124, -0.004071146249771118, -0.2949458062648773, 0.10500311106443405, -0.051720209419727325, 0.012051550671458244, 0.23033387959003448, -0.026567256078124046, -0.0910547524690628, -0.3528287410736084, -0.4735967516899109, -0.33956998586654663, -0.2910608947277069, -0.10729055851697922, -0.05525418370962143, 0.12373591214418411, 0.15697383880615234, -0.10054375231266022, 0.06132044270634651, 0.04101591557264328, -0.002521620597690344, 0.18155093491077423, 0.10588973760604858, 0.12375842034816742, 0.16469667851924896, 0.3090381622314453, 0.3905789256095886, 0.25576552748680115, 0.40322551131248474, -0.01830693893134594, -0.5974207520484924, -0.009959881193935871, 0.22037743031978607, -0.1975187063217163, -0.16222187876701355, -0.19619120657444, -0.2513372600078583, -0.32095426321029663, -0.2881177067756653, -0.34957176446914673, -0.09074121713638306, -0.12069247663021088, -0.1088285967707634, 0.0861341804265976, 0.15313220024108887, 0.11400565505027771, 0.20320424437522888, 0.05153283476829529, 0.01806972548365593, 0.11958353221416473, 0.1519535332918167, 0.1826842725276947, 0.10264690965414047, 0.2802058458328247, 0.3726707100868225, 0.2838726341724396, 0.18221734464168549, 0.18922924995422363, -0.8948913216590881, 0.09978670626878738, 0.1591920107603073, -0.2559371888637543, -0.3255644142627716, 0.08682545274496078, -0.10841105133295059, -0.14888039231300354, -0.12896578013896942, -0.2803533673286438, -0.07632334530353546, -0.1267724484205246, 0.057943910360336304, 0.051228053867816925, 0.0034800597932189703, 0.0692313015460968, 0.044857993721961975, 0.08936544507741928, 0.08284953236579895, 0.09048526734113693, 0.2182861715555191, 0.05387440696358681, -0.04304088279604912, 0.4744344651699066, 0.6057915687561035, 0.011498020961880684, -0.06502719223499298, 0.04238181188702583, -0.6236911416053772, -0.0992095023393631, -0.37644341588020325, -0.1393534243106842, -0.4591187834739685, -0.28637248277664185, -0.08649613708257675, -0.3794604539871216, -0.3406793177127838, -0.21457059681415558, -0.04849559813737869, 0.12355588376522064, 0.2019500434398651, 0.0996546521782875, -0.07727440446615219, -0.06824027001857758, -0.014415696263313293, 0.08101996034383774, 0.07996153831481934, 0.15272435545921326, 0.0671144649386406, -0.049036622047424316, 0.07885362952947617, 0.5005980134010315, 0.19701413810253143, -0.1461791843175888, -0.29793640971183777, 0.08176545053720474, -0.5582610964775085, -0.32689231634140015, -0.1790648251771927, -0.07258586585521698, -0.07249918580055237, -0.5998544096946716, -0.17130441963672638, -0.3856804072856903, -0.4580932855606079, -0.3374113142490387, 0.027867531403899193, 0.221803218126297, 0.2788137197494507, 0.15266163647174835, -0.04980866611003876, -0.10334879159927368, -0.22103042900562286, -0.009351924061775208, -0.040015868842601776, -0.027559272944927216, 0.04256148636341095, 0.2819046676158905, 0.4124855697154999, 0.2952752113342285, 0.28930267691612244, -0.04041097313165665, -0.5222657918930054, 0.08994189649820328, -0.10786786675453186, 0.06890024989843369, -0.6434098482131958, -0.09907834976911545, -0.26774862408638, -0.5148447751998901, -0.40262654423713684, -0.3652269244194031, -0.3611055314540863, -0.0720488429069519, 0.10146710276603699, 0.29635855555534363, 0.2842254340648651, 0.22961755096912384, -0.11688040941953659, -0.0856783390045166, -0.10179872810840607, -0.075859934091568, -0.08419714868068695, -0.24055391550064087, 0.019986683502793312, -0.019570287317037582, 0.09709864854812622, 0.22408795356750488, 0.20028811693191528, 0.25975027680397034, -0.5947883129119873, -0.025133201852440834, 0.060334887355566025, -0.44622480869293213, -0.48623913526535034, -0.28452107310295105, -0.4016091227531433, -0.3606821298599243, -0.41779759526252747, -0.26588475704193115, -0.18337057530879974, 0.11369035392999649, 0.31943279504776, 0.1074981540441513, 0.3429420590400696, 0.19459854066371918, -0.03515004739165306, -0.07356075942516327, -0.041203588247299194, -0.19586215913295746, -0.09495820105075836, -0.03989851474761963, -0.1474391669034958, -0.19736437499523163, -0.38562238216400146, -0.3663109540939331, -0.48968935012817383, -0.2646494209766388, -0.6191562414169312, -0.34598255157470703, 0.10074352473020554, -0.5037978291511536, -0.4022076427936554, -0.557295560836792, -0.35073721408843994, -0.02006218209862709, 0.2013283222913742, 0.022795280441641808, 0.1262330710887909, 0.18330146372318268, 0.12445446103811264, 0.2087245136499405, 0.1830531358718872, 0.12333466112613678, 0.16787715256214142, 0.01151362992823124, -0.029136452823877335, -0.1741359531879425, -0.0034991027787327766, -0.0733039602637291, -0.27961981296539307, -0.2869057357311249, -0.569460391998291, -0.7367433309555054, -0.5651429891586304, -0.3790258467197418, -0.15822158753871918, 0.27098971605300903, 0.047770701348781586, -0.05826221778988838, -0.28476205468177795, -0.5105196833610535, -0.35735657811164856, -0.3539515435695648, -0.04578222706913948, 0.028533166274428368, 0.20334197580814362, 0.13119104504585266, 0.03637390211224556, 0.12744487822055817, 0.2822587788105011, 0.09446164220571518, 0.08689791709184647, -0.005311771761626005, 0.019968142732977867, -0.2087065726518631, -0.19139018654823303, 0.02432912588119507, -0.13880473375320435, -0.34559866786003113, -0.5775566697120667, -0.533662736415863, -0.10848893225193024, -0.5325629115104675, -0.2395574152469635, 0.2769731879234314, 0.06258534640073776, -0.10325047373771667, -0.33400723338127136, -0.18960818648338318, -0.21390488743782043, -0.10734284669160843, -0.06405000388622284, -0.1053631529211998, 0.04161796718835831, -0.010704590938985348, -0.05733891576528549, 0.19264480471611023, 0.01843445375561714, 0.07663662731647491, 0.16011522710323334, 0.048344749957323074, 0.08084303140640259, -0.02795838750898838, -0.02786337584257126, 0.09993258118629456, -0.0581996813416481, -0.1322244554758072, -0.17076538503170013, -0.44847527146339417, -0.4160943329334259, -0.687894344329834, -0.15238521993160248, -0.09526639431715012, -0.43135759234428406, -0.6146065592765808, -0.32462018728256226, -0.020798569545149803, 0.011223280802369118, 0.01834193430840969, -0.016776105388998985, -0.03629748150706291, -0.1928366869688034, -0.10567796230316162, 0.0958595722913742, 0.07514236867427826, -0.029857369139790535, 0.042039789259433746, 0.23232977092266083, 0.16480852663516998, 0.07409035414457321, 0.053598031401634216, 0.013736768625676632, 0.0784442126750946, -0.166122704744339, -0.2801137864589691, -0.31112703680992126, -0.4844866693019867, -0.6601865887641907, -0.6726250052452087, -0.17669250071048737, 0.0008175884140655398, -0.47620314359664917, -0.4425947666168213, -0.1611674726009369, 0.05879553034901619, 0.0034996492322534323, 0.025282900780439377, -0.021946527063846588, 0.04743395000696182, 0.15281561017036438, 0.2534671127796173, 0.09738291054964066, -0.11261764168739319, -0.07132091373205185, 0.0622493214905262, 0.29002127051353455, 0.19860607385635376, 0.10920709371566772, -0.049723707139492035, 0.0017077259253710508, -0.007492634933441877, -0.40056169033050537, -0.6792818903923035, -0.6593884825706482, -0.6548053026199341, -0.665465235710144, -0.35774317383766174, -0.18867886066436768, -0.4544094204902649, -0.23087453842163086, -0.294731080532074, -0.39274534583091736, -0.12260672450065613, -0.16085922718048096, 0.035500191152095795, -0.05514856055378914, 0.06867393851280212, 0.08499457687139511, 0.007065235171467066, 0.11246363073587418, -0.0008191275410354137, -0.011043860577046871, 0.15698528289794922, 0.1149868592619896, 0.20271074771881104, 0.1093655452132225, -0.1366581916809082, -0.20301230251789093, -0.1110304445028305, -0.3724132478237152, -0.8814871311187744, -0.6726534962654114, -0.5805319547653198, -0.586041271686554, -0.24702538549900055, -0.28168389201164246, 0.17162135243415833, -0.21154576539993286, -0.25666293501853943, -0.5383111834526062, -0.41897130012512207, 0.0008142582373693585, -0.117589570581913, -0.1039593517780304, 0.04116450622677803, -0.06388288736343384, -0.029758507385849953, 0.11565229296684265, 0.0679614394903183, 0.06526706367731094, 0.2230796366930008, 0.1470152735710144, 0.18484243750572205, 0.03088761307299137, 0.00798893067985773, -0.18830613791942596, -0.1294323205947876, -0.3242272138595581, -0.7210195660591125, -0.6988000869750977, -0.6121702194213867, -0.07711420208215714, 0.289673388004303, -0.3217748701572418, 0.022130819037556648, 0.23562437295913696, -0.15000340342521667, -0.5794727206230164, -0.5274921655654907, 0.017530709505081177, -0.0007710085483267903, -0.06671484559774399, -0.01161964237689972, 0.015900706872344017, 0.021037377417087555, 0.025376470759510994, -0.026563309133052826, 0.17340342700481415, 0.1528613269329071, 0.02968483604490757, -0.06526369601488113, 0.02492770366370678, -0.13761122524738312, -0.11761722713708878, -0.4553484320640564, -0.3434615731239319, -0.5502023696899414, -0.35520246624946594, -0.3839239180088043, -0.1645982712507248, 0.09092111885547638, -0.10036194324493408, -0.19335304200649261, -0.3131572902202606, -0.5006621479988098, -0.06846186518669128, 0.08293496817350388, -0.03827875107526779, -0.011134892702102661, -0.03690562769770622, -0.044280044734478, 0.06024003401398659, -0.08009598404169083, 0.08662830293178558, -0.008573452942073345, 0.10767862200737, -0.008587854914367199, -0.06596981734037399, -0.08076745271682739, 0.0635465756058693, -0.1847420632839203, -0.2836848199367523, -0.48141440749168396, -0.560038685798645, -0.6783002614974976, -0.07177833467721939, 0.08369249105453491, -0.11125296354293823, -0.31510862708091736, -0.02881365269422531, -0.1545870304107666, -0.2440304160118103, -0.4159945547580719, -0.17753148078918457, 0.05578606575727463, -0.1988147646188736, 0.17963257431983948, -0.09507466107606888, -0.07557030767202377, -0.03229145705699921, 0.14054414629936218, 0.12475437670946121, 0.20970655977725983, 0.21007071435451508, 0.015338961966335773, -0.030461475253105164, -0.05777622386813164, -0.10275197774171829, -0.3342932164669037, -0.29020777344703674, -0.7987097501754761, -0.8397733569145203, -0.47576725482940674, 0.0845387876033783, 0.35100242495536804, -0.20519177615642548, -0.21815858781337738, 0.006089461967349052, 0.004455110989511013, 0.031156498938798904, -0.09174750745296478, -0.004675204865634441, -0.24263738095760345, -0.03205423802137375, 0.054498471319675446, -0.03038586862385273, 0.21882033348083496, -0.08506593853235245, 0.06358960270881653, 0.0773049145936966, 0.12446261197328568, 0.05399499833583832, 0.023340914398431778, -0.15873190760612488, -0.2134489119052887, -0.23567339777946472, -0.079981729388237, -0.2839830815792084, -0.595650315284729, -0.3872106373310089, -0.4480169117450714, -0.17091673612594604, -0.05707577243447304, 0.044399961829185486, -0.39640796184539795, -0.012395825237035751, -0.009260514751076698, -0.0021131678950041533, -0.011971221305429935, 0.13927124440670013, -0.3629249930381775, 0.028261706233024597, -0.048160016536712646, 0.04286956042051315, 0.12289555370807648, 0.08542104065418243, 0.04995912313461304, -0.0567503347992897, 0.13035796582698822, 0.1798344850540161, -0.001512905117124319, -0.14975762367248535, 0.03487253934144974, -0.1996283084154129, 0.021338969469070435, 0.12553349137306213, 0.011453010141849518, 0.029298536479473114, 0.0040963031351566315, 0.10056014358997345, 0.08111501485109329, -0.15442287921905518, -0.38723188638687134, 0.005082594696432352, -0.023265434429049492, 0.0257183276116848, 0.04251125827431679, -0.3249891400337219, -0.20576192438602448, -0.20214465260505676, -0.2828121483325958, 0.0010307725751772523, -0.15301288664340973, -0.07012313604354858, 0.07962319254875183, 0.15648823976516724, -0.07104552537202835, -0.17938919365406036, -0.28308767080307007, -0.24148166179656982, -0.31172502040863037, -0.20665529370307922, 0.11557117104530334, 0.3859984576702118, 0.5073803663253784, 0.5898725986480713, 0.7347713708877563, 0.40798553824424744, 0.026938751339912415, -0.046888623386621475, -0.10738000273704529, 0.01755252480506897, -0.028824781998991966, 0.016864892095327377, 0.03340114280581474, 0.3481437563896179, 0.408429354429245, 0.2477608472108841, 0.2103366106748581, -0.05403941869735718, -0.07184431701898575, 0.18495817482471466, 0.12406143546104431, 0.11137506365776062, 0.1756969690322876, 0.09493909031152725, 0.035656485706567764, -0.08125358819961548, 0.2884373366832733, 0.0435522235929966, 0.21497216820716858, 0.1932598352432251, -0.12034354358911514, -0.08802480250597, -0.15470543503761292, 0.06654078513383865, 0.23679719865322113, -0.10938308387994766, -0.031390655785799026, 0.019237905740737915, 0.009144830517470837, -0.030573472380638123, 0.03361436352133751, 0.03404461219906807, -0.1064334437251091, -0.09753689914941788, -0.12905937433242798, -0.1429177224636078, -0.23178409039974213, 0.21905319392681122, -0.4755926728248596, -0.00689335260540247, 0.15180587768554688, -0.1257527470588684, -0.28266510367393494, 0.14925770461559296, -0.03144514933228493, 0.13842809200286865, 0.15937061607837677, -0.1048426628112793, -0.01773284375667572, -0.02320699580013752, -0.05199608579277992, 0.01377760712057352, -0.003840480698272586, 0.019881274551153183, -0.019561316817998886, -0.008097116835415363], [-0.009538284502923489, 0.019222093746066093, -0.004876175429672003, 0.003671352518722415, 0.01179054006934166, 0.01238481979817152, -0.02394925430417061, -0.029024960473179817, 0.02368709072470665, 0.02430666796863079, -0.025541920214891434, -0.017484627664089203, -0.017875203862786293, -0.060044001787900925, -0.03732162341475487, -0.050675250589847565, 0.009282916784286499, -0.00023106166918296367, 0.010856258682906628, -0.008992689661681652, 0.00889636855572462, 0.009900297969579697, -0.0175645612180233, -0.03012922964990139, 0.030502166599035263, -0.00583611661568284, -0.00812401995062828, -0.02130613662302494, 0.0063680624589324, -0.006598012987524271, 0.020544279366731644, 0.02141924947500229, 0.03356213867664337, -0.048644743859767914, -0.07194305211305618, -0.02903718128800392, -0.01193117257207632, 0.008971364237368107, -0.13195769488811493, -0.2443179190158844, -0.17819717526435852, -0.36194148659706116, 0.06631486117839813, 0.23446881771087646, 0.12431371957063675, -0.022604305297136307, -0.07959102094173431, -0.10893029719591141, -0.02167254500091076, -0.03658178448677063, -0.0033736659679561853, -0.012873881496489048, -0.005947466474026442, -0.017702214419841766, -0.012013823725283146, 0.006436224561184645, 0.01780693046748638, -0.0014766157837584615, -0.11728687584400177, -0.046877652406692505, 0.02338762953877449, 0.13047344982624054, -0.10034950822591782, -0.024389533326029778, 0.032951150089502335, -0.11863618344068527, -0.2200215458869934, -0.2814197242259979, -0.5350379943847656, -0.24415501952171326, -0.21114863455295563, -0.1035238727927208, -0.11520642787218094, -0.4005437195301056, -0.22416238486766815, -0.5862869024276733, -0.3945870101451874, -0.4155306816101074, -0.08602631092071533, -0.23164910078048706, -0.2542664706707001, -0.13845083117485046, -0.032891105860471725, -0.00015978302690200508, -0.028311142697930336, -0.008002204820513725, 0.22072303295135498, -0.04972260817885399, -0.17136968672275543, -0.15215611457824707, -0.29236820340156555, -0.4027455747127533, -0.4824150800704956, 0.0453011728823185, -0.18972420692443848, -0.172466441988945, -0.18605197966098785, 0.03669902682304382, -0.1802145540714264, -0.044810861349105835, -0.0012004018062725663, -0.06788961589336395, 0.09305489808320999, -0.10957028716802597, -0.42333194613456726, 0.0822773352265358, 0.5404151082038879, 0.4396304786205292, -0.18163956701755524, -0.5625715851783752, -0.672623336315155, 0.016033697873353958, 0.016038959845900536, -0.0014957699459046125, 0.3111424446105957, 0.013637194409966469, 0.17891430854797363, 0.024027224630117416, -0.11136014759540558, 0.02282365784049034, 0.006239509209990501, 0.003845831146463752, -0.18869973719120026, -0.05996132269501686, 0.03800581395626068, -0.05735263228416443, 0.09336034208536148, 0.11516519635915756, 0.2885783016681671, 0.17971546947956085, 0.05497504025697708, 0.11097259074449539, 0.1685813069343567, 0.020185915753245354, 0.11539413779973984, -0.07175835967063904, -0.024053551256656647, -0.15598095953464508, 0.1621888279914856, -0.22480924427509308, 0.031930822879076004, -0.017687717452645302, 0.3347689211368561, -0.030386991798877716, 0.003732614917680621, 0.056763965636491776, -0.1416977196931839, 7.432779966620728e-05, -0.14795559644699097, 0.010416237637400627, -0.057718779891729355, 0.19864532351493835, 0.2720984220504761, 0.04331963136792183, -0.04071873798966408, 0.0640687346458435, -0.1809644103050232, -0.09625176340341568, -0.15268249809741974, 0.09515158087015152, 0.17210474610328674, 0.3058929443359375, 0.218812957406044, 0.1031191423535347, 0.29975005984306335, 0.4129466414451599, 0.3089708387851715, -0.1891840398311615, 0.0116379139944911, -0.30026718974113464, 0.022214829921722412, -0.4069371819496155, -0.3927151560783386, -0.2600972056388855, -0.1967998445034027, -0.13116459548473358, 0.05762677267193794, 0.03641628101468086, -0.055973999202251434, 0.06561766564846039, 0.08537086844444275, 0.07329053431749344, 0.12886053323745728, 0.18358485400676727, 0.1877896636724472, 0.2511318027973175, 0.19973549246788025, 0.27517348527908325, 0.19591939449310303, 0.05299731343984604, 0.08536140620708466, 0.24629318714141846, 0.1386534869670868, 0.547816276550293, 0.21662010252475739, 0.06975645571947098, 0.01163768582046032, -0.42425620555877686, -0.2551077902317047, -0.6841675639152527, -0.478146493434906, -0.3209507167339325, -0.18384112417697906, -0.1497926115989685, 0.004335037898272276, 0.047284018248319626, 0.026399845257401466, -0.046633776277303696, 0.08942553400993347, 0.22537238895893097, 0.2160661816596985, 0.4508691132068634, 0.3556518256664276, 0.19687378406524658, 0.26639652252197266, 0.26594534516334534, 0.089351125061512, 0.1904444396495819, 0.09940260648727417, 0.10644004493951797, 0.20983588695526123, 0.06918279081583023, 0.2840697169303894, -0.05752842500805855, 0.29311642050743103, -0.2819264531135559, -0.08584093302488327, -0.08180103451013565, 0.03930094093084335, -0.02327633649110794, 0.19439852237701416, 0.1068388968706131, 0.17268097400665283, 0.09250552952289581, 0.13644655048847198, 0.05950142815709114, 0.11169945448637009, 0.2697562873363495, 0.14353212714195251, 0.26995423436164856, 0.24918818473815918, 0.10278545320034027, 0.05510466918349266, 0.13501015305519104, 0.05382039025425911, 0.11474792659282684, 0.05771012231707573, 0.02995995618402958, 0.24293634295463562, 0.062216583639383316, 0.3901073634624481, 0.2930183410644531, -0.039147596806287766, 0.04517301917076111, 0.21638953685760498, 0.14549998939037323, -0.3421914279460907, -0.03857683390378952, 0.15643998980522156, 0.10022374242544174, 0.05955236032605171, -0.02585715986788273, 0.14442621171474457, 0.07839138805866241, 0.0006127061787992716, 0.22243855893611908, 0.07355045527219772, 0.020650388672947884, 0.05418606847524643, -0.05699634179472923, -0.14175303280353546, -0.06580772995948792, 0.015163044445216656, -0.1261475384235382, -0.09084932506084442, 0.1349066197872162, -0.023204218596220016, 0.1728058010339737, 0.5803069472312927, -0.37394416332244873, -0.027308769524097443, 0.008083514869213104, -0.017611073330044746, -0.2849712669849396, -0.21727871894836426, -0.2138206958770752, 0.0725088119506836, -0.056362949311733246, -0.005574545823037624, 0.15257230401039124, 0.17504574358463287, 0.027767708525061607, 0.10656709223985672, -0.06592830270528793, -0.06499142199754715, -0.07728608697652817, -0.12538689374923706, -0.1345086246728897, -0.04234819859266281, -0.1121852695941925, -0.10019874572753906, -0.1612190306186676, 0.022610042244195938, 0.151512011885643, -0.1768035590648651, -0.09974305331707001, 0.13621127605438232, 0.039400823414325714, -0.18459346890449524, -0.38452059030532837, -0.4247593879699707, -0.2680259943008423, -0.11524569988250732, 0.20342905819416046, 0.09082740545272827, 0.16143013536930084, 0.22847647964954376, 0.31603899598121643, 0.2407407909631729, 0.2333546131849289, 0.08064835518598557, -0.07343976199626923, 0.11704210937023163, 0.061282359063625336, 0.05001089349389076, -0.022235609591007233, -0.016526874154806137, -0.12188787758350372, -0.003381206886842847, -0.01875740848481655, 0.1256004124879837, -0.025354882702231407, -0.03954930976033211, -0.25869983434677124, 0.1078924760222435, 0.45214423537254333, -0.03829936683177948, -0.6455599665641785, -0.09697484970092773, 0.21873340010643005, 0.14881619811058044, 0.26242512464523315, 0.13714390993118286, 0.266986221075058, -0.029689766466617584, 0.16215477883815765, 0.08980333805084229, -0.023205416277050972, -0.24586613476276398, -0.019336901605129242, 0.21909643709659576, 0.2705172896385193, 0.09150377660989761, 0.1869843602180481, 0.09404827654361725, 0.21328860521316528, 0.13174834847450256, 0.1843307912349701, 0.01072037685662508, 0.1884637176990509, -0.019358478486537933, -0.5708865523338318, -0.33101552724838257, 0.4358077049255371, 0.3735086917877197, -0.31598585844039917, -0.3373693823814392, 0.22414880990982056, 0.2378818243741989, 0.23279239237308502, 0.14184749126434326, 0.059129346162080765, 0.07619971036911011, 0.014623797498643398, -0.24105867743492126, -0.13291418552398682, -0.011631581000983715, 0.1845165491104126, 0.3395874798297882, 0.45444709062576294, 0.27277615666389465, 0.15791942179203033, 0.18261751532554626, 0.23130416870117188, 0.24037744104862213, 0.07332911342382431, -0.12050951272249222, -0.17899902164936066, -0.7134011387825012, -0.43820899724960327, -0.4042057693004608, 0.098654605448246, -0.1856253296136856, -0.2973541021347046, -0.6840223073959351, -0.027478421106934547, 0.1349613517522812, 0.28510603308677673, 0.24604636430740356, -0.12570640444755554, -0.2506827712059021, -0.15591508150100708, -0.11372391879558563, 0.000327661371557042, 0.032296739518642426, 0.42702680826187134, 0.4332408308982849, 0.13368377089500427, 0.17443546652793884, 0.044781751930713654, -0.04347284883260727, -0.0684310644865036, -0.11527382582426071, -0.17244762182235718, -0.3494585156440735, -0.7015265822410583, -0.7012710571289062, -0.4371696710586548, -0.2692930996417999, 0.04189193248748779, -0.21546034514904022, -0.022472530603408813, -0.13953806459903717, -0.151408389210701, -0.19495125114917755, -0.17328286170959473, -0.11567392200231552, -0.049534935504198074, 0.033296212553977966, -0.05268717557191849, 0.015376183204352856, 0.219557523727417, 0.08591049909591675, 0.23839986324310303, 0.30162832140922546, -0.12066219002008438, 0.0004998976946808398, 0.059931229799985886, -0.06871956586837769, -0.1927454173564911, -0.3847774863243103, -0.4900214672088623, -0.5455211400985718, -0.5387885570526123, -0.45532792806625366, -0.603691816329956, -0.49894729256629944, -0.00384759739972651, -0.29090917110443115, 0.0670323297381401, 0.05513912811875343, -0.11521236598491669, -0.16508574783802032, -0.40411537885665894, -0.376198947429657, -0.13054461777210236, 0.1941264569759369, 0.2724548876285553, 0.2314404845237732, 0.3165348172187805, 0.18707849085330963, 0.14252294600009918, 0.09131059795618057, -0.017913522198796272, 0.005777462385594845, -0.12842531502246857, -0.14586926996707916, -0.45702558755874634, -0.5127204060554504, -0.5578188300132751, -0.4786147475242615, -0.29411959648132324, -0.5453501343727112, -0.542110800743103, -0.12016621977090836, 0.011929822154343128, 0.008541141636669636, 0.02266576513648033, -0.18465830385684967, -0.3293079137802124, -0.3083931505680084, -0.39320239424705505, -0.32365527749061584, -0.2500993609428406, 0.18207138776779175, 0.36942049860954285, 0.2892999053001404, 0.3364660441875458, 0.26239097118377686, 0.025532884523272514, 0.0011568210320547223, -0.0372539721429348, -0.08050023019313812, -0.25166985392570496, -0.4465867877006531, -0.4380607008934021, -0.3946535885334015, -0.4444114565849304, -0.25825580954551697, -0.10700391978025436, -0.1862288862466812, -0.43229514360427856, 0.09625551849603653, 0.03782777860760689, 0.30071577429771423, 0.07023195922374725, -0.16060370206832886, -0.7012887597084045, -0.7106892466545105, -0.28364092111587524, -0.3070915937423706, -0.27377861738204956, -0.18544083833694458, 0.09982200711965561, 0.2010110765695572, 0.33016470074653625, 0.17568999528884888, 0.07630277425050735, -0.10159584134817123, -0.15377599000930786, -0.26156026124954224, -0.38317999243736267, -0.3073675036430359, -0.23391808569431305, -0.11645369976758957, -0.2671641409397125, -0.23736226558685303, -0.15199609100818634, -0.1980932503938675, -0.3010747730731964, 0.08449698984622955, 0.006924774032086134, 0.2241768091917038, -0.5209777355194092, -0.6611811518669128, -0.6964869499206543, -0.5523867607116699, -0.15607400238513947, -0.21605251729488373, -0.21460938453674316, -0.22695569694042206, -0.08526931703090668, 0.04045400768518448, -0.20501722395420074, -0.11430381238460541, -0.11466660350561142, -0.181428924202919, -0.2448187917470932, -0.2650481164455414, -0.20966733992099762, -0.2463199943304062, -0.00512067973613739, 0.05238987132906914, -0.0662141963839531, 0.057937443256378174, -0.1339263617992401, -0.31180450320243835, -0.3437919020652771, 0.4871184527873993, -0.04964644834399223, 0.01302835438400507, -0.39985886216163635, -0.6994578242301941, -0.86385178565979, -0.49504607915878296, -0.1396527737379074, 0.02328365668654442, -0.06060069799423218, -0.16328106820583344, -0.18526749312877655, -0.23016396164894104, -0.31949830055236816, -0.27479061484336853, -0.19841605424880981, -0.1938858926296234, -0.09667789191007614, -0.10886946320533752, -0.10523712635040283, -0.13569244742393494, 0.21853984892368317, 0.20190444588661194, 0.19987541437149048, 0.2411772608757019, -0.01752711646258831, -0.14096838235855103, -0.0741100013256073, 0.06522682309150696, 0.1290368288755417, 0.287375807762146, 0.0688467025756836, -0.40907540917396545, -0.5481616258621216, -0.23688046634197235, -0.015018288046121597, 0.26143768429756165, 0.06615153700113297, -0.07299084961414337, -0.08542761951684952, -0.11799712479114532, -0.228512242436409, -0.22107906639575958, -0.16206839680671692, -0.006307672709226608, -0.08509926497936249, -0.117781862616539, -0.05684711039066315, -0.04061634838581085, 0.07551612704992294, 0.10341999679803848, 0.22049739956855774, 0.13795042037963867, 0.0175368320196867, -0.2033683806657791, -0.46721336245536804, -0.03980356827378273, -0.05241067707538605, 0.29554152488708496, 0.10270840674638748, 0.00032206272589974105, -0.015543106012046337, 0.14347703754901886, 0.05420844629406929, 0.21613848209381104, 0.10731218010187149, -0.16990777850151062, -0.11330980062484741, 0.014226095750927925, -0.06126026809215546, -0.13631251454353333, 0.031337346881628036, 0.1249196007847786, 0.007385574281215668, 0.06870417296886444, 0.14942403137683868, 0.1095770075917244, 0.04120056331157684, 0.00019280506239738315, 0.06040169298648834, 0.07870874553918839, 0.14429453015327454, -0.14607755839824677, -0.49464625120162964, -0.11592982709407806, -0.04430263116955757, 0.0008823957177810371, 0.010315022431313992, 0.03167963773012161, -0.20474357903003693, 0.10301358252763748, -0.0507744736969471, -0.06033160164952278, -0.06293844431638718, 0.017548127099871635, -0.1479257047176361, -0.052405789494514465, -0.06226819008588791, 0.04551051929593086, 0.15696121752262115, 0.12615086138248444, 0.14654098451137543, 0.1921105980873108, 0.1096690222620964, 0.1021960973739624, 0.03348803520202637, 0.11354831606149673, 0.19357676804065704, 0.36700642108917236, 0.6416592597961426, 0.04510222375392914, -0.2916254699230194, 0.08714335411787033, -0.02504645101726055, 0.01884870044887066, -0.028942450881004333, 0.1759750247001648, -0.33091381192207336, -0.12504026293754578, -0.2996620237827301, -0.22285661101341248, -0.04932180047035217, 0.08248350024223328, -0.06858853995800018, 0.11813869327306747, 0.14257556200027466, 0.10770830512046814, 0.1869679093360901, 0.08583465963602066, 0.09915412217378616, 0.20181216299533844, -0.21017730236053467, 0.1502886712551117, 0.2923375964164734, 0.2552606761455536, 0.039343591779470444, 0.16339212656021118, 0.526730477809906, -0.3660486936569214, -0.35358718037605286, -0.31310001015663147, -0.03188810870051384, -0.010775728151202202, -0.006991731468588114, 0.14518630504608154, -0.4139763414859772, -0.14128823578357697, 0.2210076004266739, 0.08636927604675293, 0.031958017498254776, 0.14071844518184662, 0.044350843876600266, 0.08095254749059677, -0.06940001994371414, 0.03701692074537277, 0.1432642936706543, 0.32354798913002014, 0.1875740885734558, 0.17943836748600006, 0.44471409916877747, 0.47261521220207214, 0.3876231014728546, 0.7056480646133423, 0.42640265822410583, -0.04432295262813568, 0.07549813389778137, -0.42622870206832886, -0.20762759447097778, -0.3681770861148834, -0.022770486772060394, -0.03332716226577759, -0.010233002714812756, 0.013847645372152328, 0.4154394268989563, 0.4843877851963043, 0.323446124792099, 0.15522249042987823, 0.3321795165538788, 0.5044093132019043, 0.5301023125648499, 0.25738126039505005, 0.19561943411827087, 0.3266787528991699, 0.3249494433403015, 0.6760651469230652, 0.35002899169921875, 0.31934306025505066, 0.61087965965271, 0.4916257858276367, 0.1471809446811676, 0.6134659051895142, 0.28324854373931885, -0.17967651784420013, 0.23286786675453186, -0.18539422750473022, -0.0829927995800972, 0.029680605977773666,