{"model.1.weight": [[0.017379574477672577, 0.034628622233867645, 0.016479885205626488, 0.01161285862326622, -0.02484474517405033, -0.00925377942621708, -0.002232385566458106, -0.009996065869927406, -0.02817988023161888, -0.010441946797072887, -0.004254698753356934, -0.024459920823574066, 0.3238063454627991, 0.36044517159461975, 0.23323149979114532, 0.1078798770904541, -0.017375614494085312, -0.027689293026924133, 0.02698832005262375, 0.028366193175315857, -0.01815199851989746, 0.0023033320903778076, 0.029686883091926575, 0.016302697360515594, 0.015402117744088173, -0.009800238534808159, -0.022571586072444916, 0.00969625823199749, 0.013655774295330048, -0.03505854308605194, 0.029514526948332787, -0.01205652579665184, 0.1095242127776146, 0.1057531088590622, 0.2968269884586334, 0.2899676263332367, 0.3124901354312897, 0.3901185691356659, 0.9594171047210693, 0.155103862285614, 0.07956493645906448, 0.3057221472263336, -0.0038851832505315542, -0.3780567944049835, -0.0009847796754911542, 0.09874336421489716, 1.0123085975646973, 0.6449905633926392, 0.5728538632392883, 0.5188369154930115, 0.5540940165519714, 0.4821203649044037, 0.01819944940507412, -0.004191441461443901, 0.01899120770394802, 0.0035313284024596214, 0.025961140170693398, 0.02392207831144333, 0.07283186167478561, -0.306721031665802, -0.052788011729717255, 0.6226019859313965, 0.2182987630367279, 0.554124653339386, 1.0008379220962524, 0.9232562780380249, 0.1675679236650467, 0.0971066951751709, 0.5994694232940674, 0.14369826018810272, 0.3775091767311096, 0.2274002879858017, 0.2869768440723419, 0.5973508358001709, 0.7217183709144592, 0.5636570453643799, 0.608837902545929, 0.7052900791168213, 0.5462675094604492, 0.43001115322113037, 0.8142232894897461, 0.34349605441093445, -0.016009092330932617, -0.018341392278671265, -0.0030417146626859903, -0.013607153668999672, -0.37024787068367004, -0.35666126012802124, -0.0654836967587471, 0.2959735095500946, 0.5753564238548279, 0.4721739888191223, 0.3811449408531189, 0.5030877590179443, 0.5477305054664612, 0.44900834560394287, -0.019892942160367966, 0.06545622646808624, 0.11064237356185913, 0.04069828614592552, -0.0881231501698494, -0.3747106194496155, -0.2722077965736389, -0.14792300760746002, -0.26419878005981445, 0.3010944724082947, 0.2065485417842865, 0.3217943012714386, 0.30245712399482727, -0.42535513639450073, 0.1805708408355713, -0.0052786641754209995, -0.018869319930672646, -0.30447402596473694, -0.4910091459751129, -0.7042573690414429, 0.1482958048582077, 0.26360219717025757, 0.4356684982776642, 0.2014521211385727, 0.22967563569545746, 0.17778006196022034, 0.29762163758277893, 0.016534043475985527, 0.13383814692497253, 0.14090730249881744, 0.26433515548706055, -0.0012502874014899135, 0.10084027051925659, 0.28015846014022827, 0.16699062287807465, 0.15386870503425598, 0.15326060354709625, -0.02776816114783287, -0.06235698238015175, 0.3759861886501312, 0.4785573184490204, 0.4062747359275818, -0.2672324478626251, 0.526853084564209, -0.031938761472702026, -0.015054307878017426, -0.15467162430286407, 0.028114203363656998, 0.39597171545028687, 0.011440668255090714, 0.27065545320510864, -0.06907407194375992, -0.18492989242076874, -0.16797439754009247, 0.24679815769195557, 0.1655443161725998, 0.16432039439678192, -0.11712220311164856, 0.21172235906124115, -0.019457310438156128, 0.11058127880096436, 0.04988676309585571, 0.0019656026270240545, 0.22046418488025665, 0.34019342064857483, -0.01286589726805687, -0.1623658984899521, 0.08430037647485733, 0.33284392952919006, 0.42557471990585327, 0.3855144679546356, 0.4793277382850647, -0.02385338395833969, -0.07295733690261841, 0.38270846009254456, -0.1871863454580307, 0.29648247361183167, -0.02554761804640293, -0.21009813249111176, -0.11029006540775299, -0.39753425121307373, -0.163008913397789, -0.26779845356941223, -0.23765994608402252, -0.12382383644580841, -0.27954551577568054, -0.19911204278469086, 0.03132801502943039, -0.06605615466833115, -0.1596936136484146, -0.2922901511192322, 0.14490827918052673, -0.04451422020792961, -0.4107200801372528, -0.13185766339302063, 0.06167522445321083, 0.05540674924850464, 0.3429550230503082, 0.1432882398366928, 0.3163397014141083, 0.0065130810253322124, 0.006067472044378519, 0.561735212802887, -0.3520547151565552, -0.06223871558904648, 0.06775758415460587, -0.30165883898735046, -0.46386146545410156, -0.26183608174324036, -0.28000161051750183, -0.1188945323228836, 0.14549671113491058, -0.3485255241394043, -0.2348862588405609, -0.23044733703136444, -0.09132681787014008, -0.14871789515018463, -0.07305116206407547, -0.11661246418952942, -0.10705665498971939, -0.1261553019285202, -0.030520766973495483, 0.06997764110565186, -0.31043413281440735, 0.26598286628723145, 0.6157247424125671, 0.051471028476953506, 0.24761638045310974, -0.17192061245441437, 0.11053968220949173, 0.6036800146102905, -0.4358859062194824, -0.24602876603603363, -0.19536328315734863, -0.2690011262893677, -0.359962522983551, -0.439413845539093, -0.05920935794711113, -0.05814012885093689, -0.09293682873249054, -0.3129391074180603, -0.07174362987279892, -0.17907734215259552, -0.27869752049446106, -0.30248820781707764, -0.08926220238208771, -0.1760883331298828, -0.01806490682065487, -0.056145332753658295, 0.09152748435735703, -0.1590205579996109, -0.18515802919864655, 0.04620378091931343, 0.5242462158203125, 0.21136152744293213, -0.27913475036621094, -0.07963547855615616, -0.44214463233947754, -0.00344642112031579, -0.1192827820777893, -0.449535608291626, -0.13275764882564545, -0.3087172210216522, -0.033342838287353516, -0.10872701555490494, -0.0671391710639, -0.07056703418493271, 0.0126351872459054, -0.07374583184719086, -0.1058531403541565, -0.2066342681646347, -0.19897189736366272, -0.10447051376104355, -0.2819351553916931, -0.09574674814939499, -0.004798441659659147, 0.09084248542785645, 0.12804695963859558, -0.1477026641368866, -0.10927734524011612, -0.07431402802467346, -0.24116818606853485, -0.272523432970047, -0.6400920748710632, -0.022073930129408836, -0.45339035987854004, -0.6579200029373169, -0.1501198559999466, -0.1549585610628128, 0.19986723363399506, -0.034689608961343765, 0.06512060016393661, -0.14380092918872833, -0.023232532665133476, 0.08950095623731613, 0.04331429302692413, -0.04592552408576012, -0.41810545325279236, -0.29402825236320496, -0.30860912799835205, -0.36527812480926514, -0.1645502746105194, -0.16469228267669678, -0.20102059841156006, -0.26332467794418335, 0.09242697805166245, -0.27185994386672974, 0.07170706242322922, 0.0225331112742424, -0.18855498731136322, -0.3679311275482178, -0.6775235533714294, -0.09142190963029861, -0.576289713382721, -0.6447781920433044, -0.3883890211582184, -0.25086772441864014, 0.27628293633461, 0.24032863974571228, -0.08044527471065521, 0.09568789601325989, 0.21669968962669373, 0.016232609748840332, -0.09287556260824203, -0.2588222026824951, -0.7690399289131165, -0.4448191821575165, -0.44232121109962463, -0.17952215671539307, -0.32015177607536316, -0.1761271059513092, -0.127372145652771, -0.41595983505249023, -0.23774339258670807, -0.15494956076145172, 0.07169735431671143, -0.39572590589523315, 0.21617917716503143, -0.47462502121925354, -0.6759923696517944, -0.08928514271974564, -0.18772150576114655, -0.23506265878677368, -0.023620562627911568, -0.07338567823171616, 0.2400064617395401, 0.10496529191732407, 0.09825512021780014, 0.1216798722743988, 0.06649447977542877, 0.07997745275497437, 0.1837426722049713, -0.038012586534023285, -0.14435134828090668, -0.3193100392818451, -0.368627667427063, -0.13711071014404297, -0.159732848405838, -0.24955430626869202, 0.023058351129293442, 0.03137525916099548, 0.11168664693832397, 0.07565715909004211, 0.2200915366411209, 0.23036238551139832, 0.21451492607593536, -0.3471086323261261, -0.6148982048034668, -0.12459380179643631, 0.07713086903095245, -0.4850313067436218, -0.010446450673043728, 0.028685562312602997, 0.1688222885131836, 0.201914444565773, 0.12509118020534515, 0.20248492062091827, 0.08863219618797302, 0.2663555443286896, 0.3414420485496521, 0.4771275222301483, 0.3851146101951599, -0.016539789736270905, 0.08740004897117615, 0.12573109567165375, -0.016891391947865486, 0.1454571783542633, 0.2649768590927124, 0.15774419903755188, -0.011219587177038193, 0.17297258973121643, 0.8210625052452087, 0.3936583995819092, 0.2809809744358063, 0.11897409707307816, 0.5858697891235352, 0.25444334745407104, -0.15821769833564758, -0.9000905156135559, 0.028186997398734093, 0.15228872001171112, 0.24372170865535736, 0.3601098954677582, 0.2511865198612213, 0.2524248957633972, 0.17907766997814178, 0.29521796107292175, 0.49112358689308167, 0.3105160593986511, 0.3127342462539673, 0.1584612876176834, 0.1950865238904953, 0.28517597913742065, 0.055740874260663986, 0.18305128812789917, 0.14123384654521942, 0.026141703128814697, 0.09359917789697647, 0.3614594042301178, -0.031519971787929535, 0.004354498814791441, 0.9075942635536194, 0.44110482931137085, 0.6071376800537109, 0.27900761365890503, -0.38270115852355957, 0.12584692239761353, 0.48087358474731445, 0.08746565133333206, 0.02073974534869194, 0.21215397119522095, 0.16055753827095032, 0.2638449966907501, 0.3998587429523468, 0.29198887944221497, 0.20302750170230865, 0.4188074469566345, 0.3575356900691986, 0.3154838979244232, 0.08405720442533493, 0.3373698890209198, 0.23120303452014923, 0.06878118962049484, 0.2768005132675171, -0.23064270615577698, -0.08391366899013519, -0.07919541001319885, -0.2162591814994812, -0.07103031873703003, 0.8587509393692017, 0.8007103800773621, 0.3751346468925476, -0.06197574362158775, -0.09786839038133621, 0.046717189252376556, 0.2733112871646881, -0.3063664436340332, 0.04427207261323929, 0.236929252743721, 0.16270816326141357, 0.17551574110984802, 0.22071288526058197, 0.17559181153774261, 0.3479335904121399, 0.24850597977638245, 0.10849785059690475, 0.17794132232666016, 0.3171248435974121, 0.3457989990711212, 0.29778406023979187, 0.1962556391954422, 0.17821399867534637, -0.05766269937157631, 0.13695558905601501, 0.13949254155158997, 0.298766553401947, 0.20263363420963287, 1.3681142330169678, 1.258166790008545, 0.011510093696415424, -0.02313665859401226, -0.4159688949584961, 0.635256826877594, -0.10866258293390274, -0.21055130660533905, -0.07846871763467789, 0.20399540662765503, 0.24476028978824615, 0.3192598819732666, 0.24143916368484497, 0.31336379051208496, 0.33871445059776306, 0.025752544403076172, 0.033136628568172455, 0.15262889862060547, 0.2992219924926758, 0.3513301908969879, 0.29808488488197327, 0.35471904277801514, 0.06940124183893204, 0.05617702379822731, 0.2203282117843628, -0.06647679209709167, 0.009516451507806778, -0.11779847741127014, 0.3272007405757904, 0.26017865538597107, 0.31543439626693726, -0.2132684737443924, -0.4152158498764038, -0.08111626654863358, 0.047261182218790054, 0.24736467003822327, 0.36891409754753113, 0.3377813994884491, 0.4989027678966522, 0.4055314064025879, 0.29793497920036316, 0.15207764506340027, 0.05158377066254616, 0.40365859866142273, 0.2800823450088501, 0.2960256040096283, 0.23646235466003418, 0.24905651807785034, 0.134187251329422, 0.1283235102891922, -0.0046694474294781685, -0.025678718462586403, -0.013180258683860302, -0.13176539540290833, 0.2584444582462311, 0.3582172393798828, 0.1153179258108139, -0.3701750338077545, 0.506649911403656, -0.17738279700279236, -0.43834924697875977, -0.2545248866081238, -9.070608211914077e-05, 0.19358903169631958, 0.3903343081474304, 0.21301376819610596, 0.19959954917430878, 0.2686554491519928, 0.24139423668384552, 0.300336629152298, 0.23829998075962067, -0.056977082043886185, 0.20092158019542694, 0.3298063576221466, 0.20678631961345673, 0.08974902331829071, 0.07243089377880096, 0.13650165498256683, -0.052077680826187134, -0.008062086999416351, -0.055331841111183167, 0.12351668626070023, 0.42162084579467773, 0.067042775452137, 0.2232457548379898, 0.6063490509986877, 0.09940069168806076, 0.0075003718957304955, -0.4789212644100189, 0.48195773363113403, 0.2920931279659271, 0.41812223196029663, 0.20823416113853455, -0.2190169095993042, 0.10397554188966751, 0.0839272290468216, 0.19568894803524017, 0.005936052184551954, -0.135859876871109, -0.13667428493499756, -0.10078024864196777, -0.1282784342765808, -0.008322938345372677, 0.015978233888745308, 0.024109527468681335, 0.2093971073627472, 0.0055334800854325294, 0.07244081050157547, -0.04557613655924797, 0.041359588503837585, 0.1676073521375656, 0.05988374352455139, 0.026112841442227364, 0.2031421810388565, -0.33849483728408813, -0.11338601261377335, 0.21812623739242554, 0.312921404838562, 0.19284647703170776, 0.30452221632003784, 0.12045041471719742, -0.2440224289894104, -0.1057368665933609, 0.13019977509975433, 0.19364307820796967, -0.10923532396554947, -0.10815127193927765, -0.21892403066158295, 0.026676563546061516, -0.08975821733474731, -0.04088842496275902, -0.012530132196843624, 0.1716720163822174, 0.258863240480423, 0.27392029762268066, 0.07502473890781403, 0.058147791773080826, 0.458220899105072, 0.6265614032745361, 0.012434548698365688, 0.37541472911834717, -0.16822834312915802, -0.11663941293954849, -0.10011014342308044, 0.1410943567752838, 0.47602736949920654, 0.23368914425373077, 0.18541257083415985, -0.1994357705116272, -0.40831854939460754, -0.2835589647293091, -0.15863268077373505, -0.05133228003978729, 0.07775192707777023, -0.02669292502105236, -0.06081211566925049, 0.057485416531562805, -0.23362338542938232, -0.04649442806839943, 0.07997830957174301, -0.01669757440686226, 0.111131951212883, 0.3355899155139923, 0.2380070835351944, 0.6200392246246338, 0.39416229724884033, 0.2652547359466553, 0.08416102081537247, 0.07393314689397812, -0.1697748601436615, -0.21114934980869293, -0.018511414527893066, 0.004236834589391947, 0.6652241349220276, 0.49167242646217346, 0.43627044558525085, 0.15323753654956818, -0.336031436920166, -0.4083487391471863, -0.15511783957481384, -0.19989332556724548, -0.22723302245140076, -0.2012060582637787, -0.21910639107227325, -0.2925269305706024, 0.01390553917735815, -0.2524753510951996, -0.27712154388427734, -0.3398192226886749, -0.020635168999433517, 0.33545926213264465, 0.5390418767929077, 0.7594411969184875, 0.4392169415950775, 0.15751679241657257, -0.2348041534423828, 0.21301871538162231, 0.038886770606040955, -0.03303445503115654, 0.00019267202878836542, 0.011597437784075737, 0.45934373140335083, -0.36412426829338074, -0.02373240515589714, 0.11473899334669113, -0.22801288962364197, -0.446452260017395, -0.4660183787345886, -0.13084645569324493, -0.09409984201192856, 0.08706621080636978, -0.2525699734687805, -0.37696975469589233, -0.14456330239772797, -0.17408554255962372, -0.03789747133851051, -0.24650654196739197, -0.06844096630811691, 0.11672621220350266, 0.2550656795501709, 0.28683793544769287, 0.4881519377231598, 0.2523074448108673, 0.10809659212827682, 0.6550596356391907, 0.022470613941550255, 0.0014644734328612685, 0.03231886774301529, 0.025265533477067947, 0.4128206670284271, -0.15758708119392395, 0.5058159232139587, 0.25823506712913513, 0.3845076262950897, 0.24209965765476227, 0.08467427641153336, -0.30565282702445984, 0.12304677814245224, 0.01595604233443737, -0.3468655049800873, -0.07356184720993042, -0.08152411878108978, 0.11193416267633438, -0.11087987571954727, -0.04096101224422455, -0.04346828535199165, -0.3086930513381958, -0.3097456991672516, -0.33555617928504944, -0.12505069375038147, 0.22217057645320892, -0.22712452709674835, 0.3277569115161896, 0.1363922655582428, 0.027148814871907234, 0.020426150411367416, 0.035507455468177795, 0.02233608439564705, -0.11349912732839584, 0.52951979637146, 0.4856044352054596, 0.6828609108924866, 0.3049022853374481, 0.36503469944000244, 0.05226361006498337, -0.21731635928153992, 0.20476676523685455, 0.34253203868865967, 0.37047114968299866, -0.24581748247146606, -0.0711396336555481, -0.20158874988555908, -0.4777137041091919, -0.5318061113357544, -0.4359762668609619, -0.17003537714481354, -0.21376164257526398, -0.6039963364601135, -0.5410315990447998, -0.4453333616256714, -0.020599860697984695, -0.012652670033276081, 0.02302120439708233, 0.020348532125353813, -0.021951260045170784, 0.0028210964519530535, -0.005420455243438482, -0.04365880787372589, -0.4467456042766571, -0.4298017919063568, -0.4046764075756073, -0.5392749905586243, 0.19244728982448578, -0.2876341640949249, -0.15785811841487885, 0.0007577515789307654, -0.3403717577457428, -0.2880648672580719, -0.3095671236515045, -0.5343528985977173, -0.6340371966362, -0.7021058797836304, -0.23376375436782837, 0.0955788716673851, -0.7882869243621826, -0.5669419169425964, -0.5905774235725403, 0.0010598558001220226, 0.0008808673010207713, -0.031285978853702545, -0.032071929425001144], [0.02923407405614853, 0.03477882221341133, -0.035576701164245605, 0.019521325826644897, -0.01690518483519554, 0.03342066705226898, -0.023254429921507835, -0.02187221497297287, 0.03011569008231163, 0.03415469080209732, 0.007859132252633572, -0.017612671479582787, -0.024259202182292938, -0.08925464749336243, 0.028549619019031525, -0.00018243813246954232, -0.029150567948818207, -0.017938891425728798, -0.022878987714648247, -0.006068932358175516, -0.014909178949892521, -0.011248431168496609, -0.00575540354475379, -0.03460137918591499, 0.008628628216683865, -0.002715736860409379, -0.024923134595155716, 0.020185228437185287, 0.016830194741487503, -0.003659214358776808, 0.03514521196484566, -0.011104690842330456, -0.021002549678087234, -0.022790683433413506, -0.3463507890701294, -0.3489183783531189, -0.24248722195625305, -0.24631385505199432, -0.3929390013217926, -0.27063724398612976, -0.25490468740463257, -0.487771213054657, -0.4835030436515808, -0.39094775915145874, -0.3259888291358948, -0.3263765573501587, -0.4576965868473053, -0.4569622278213501, -0.5155014395713806, -0.444174200296402, -0.5636010766029358, -0.4392729103565216, -0.02433807961642742, 0.032072439789772034, -0.012350138276815414, -0.003774268552660942, 0.03176812082529068, -0.006407967768609524, -0.04778086021542549, -0.16179129481315613, -0.1946771889925003, -0.08994880318641663, -0.334459513425827, -0.7546268105506897, -0.7145261168479919, -0.865948498249054, -1.0057977437973022, -1.121627688407898, -1.0179213285446167, -1.115033507347107, -0.992615818977356, -0.6020537614822388, -0.20049652457237244, 0.2224459946155548, 0.6671665906906128, 0.3759209215641022, -0.013841567561030388, -0.20264661312103271, 0.11910033226013184, -0.543552577495575, -0.17203277349472046, -0.18175406754016876, 0.000612872012425214, 0.006017966195940971, 0.014804713428020477, -0.035607874393463135, -0.0673670545220375, -0.2266196459531784, -0.12719020247459412, 0.4384186267852783, -0.6595485210418701, -0.9733614325523376, -0.8592780828475952, -1.043752908706665, -0.7366089820861816, -0.2621808648109436, -0.7591685652732849, -1.4678711891174316, -0.6632485389709473, -0.4545002579689026, -0.2917506992816925, 0.22720041871070862, 0.44426947832107544, 0.2584938108921051, 0.1669497936964035, 0.30496343970298767, 0.42552459239959717, 0.08702482283115387, 0.03937998414039612, -0.275795578956604, -0.11417488008737564, 0.003897258313372731, -0.013423362746834755, 0.34950992465019226, 0.008003341034054756, 0.6531490683555603, 0.2931724786758423, 0.05627501383423805, -0.46657538414001465, -0.10894775390625, -0.3454507887363434, -0.6383207440376282, -0.456962913274765, -0.11874320358037949, -0.21021859347820282, -0.1323048174381256, -0.5157871246337891, -0.1517253816127777, -0.15689322352409363, -0.27408236265182495, 0.05109946057200432, 0.10198866575956345, -0.23106800019741058, 0.3003966510295868, 0.24868088960647583, 0.3989385962486267, 0.47530004382133484, 0.09082883596420288, -0.08729130774736404, -0.4251015782356262, 0.035307642072439194, -0.01692311279475689, -0.4086725413799286, -0.06739030033349991, -0.34920936822891235, -0.01644633337855339, -0.2169100046157837, 0.03969884291291237, 0.4482448101043701, 0.3227632939815521, -0.17383520305156708, 0.02408876270055771, 0.09791596978902817, -0.22268204391002655, -0.17882122099399567, -0.10569553822278976, -0.16536466777324677, 0.033067163079977036, 0.13800230622291565, -0.26810911297798157, -0.10275397449731827, -0.10182749480009079, -0.05480531230568886, 0.08487660437822342, 0.31001272797584534, 0.6698064804077148, -0.3789854347705841, -0.48160865902900696, 0.0026837631594389677, -0.023815447464585304, 0.05672307312488556, 0.018140383064746857, -0.22594867646694183, -0.061712056398391724, 0.05180586874485016, 0.23256076872348785, 0.3608287572860718, 0.2960817217826843, -0.05577630549669266, -0.09063142538070679, -0.027661260217428207, 0.006488210055977106, 0.022839585319161415, -0.14270655810832977, -0.06453149765729904, 0.033375199884176254, -0.054504383355379105, 0.03853932023048401, 0.18354831635951996, 0.33154401183128357, 0.039061039686203, -0.11210323870182037, -0.1594574749469757, 0.10410010069608688, 0.2771683633327484, -0.2677362859249115, 0.18116311728954315, 0.15924401581287384, 0.5802544951438904, 0.3207072913646698, -0.062375281006097794, -0.03265682980418205, 0.24787509441375732, 0.2295496016740799, 0.006129611283540726, 0.15045730769634247, 0.003370193764567375, 0.03749892860651016, 0.06699541956186295, 0.06389928609132767, -0.13444635272026062, -0.2238778918981552, -0.11133016645908356, 0.09689853340387344, -0.04200454428792, 0.10297251492738724, 0.12662513554096222, -0.03121623583137989, -0.08627241104841232, 0.02802114002406597, 0.1916891634464264, 0.243819922208786, 0.3768812417984009, -0.1852373331785202, -0.052730742841959, 0.7275691628456116, 0.42343834042549133, 0.29651859402656555, 0.02964993193745613, 0.08669211715459824, 0.1921655237674713, 0.23448389768600464, 0.09494420886039734, 0.1274101883172989, 0.11849571019411087, 0.10213813185691833, 0.07717389613389969, -0.15639284253120422, -0.22993743419647217, -0.09551099687814713, -0.09919823706150055, -0.13249602913856506, 0.06564050167798996, -0.020057372748851776, -0.05954435095191002, 0.06585399061441422, -0.029694871976971626, -0.003893784014508128, 0.3587959408760071, 0.4808909296989441, -0.03753835707902908, -0.44655266404151917, 0.4295627176761627, 0.5905129909515381, 0.5238991379737854, -0.0010764687322080135, 0.09678900241851807, 0.14638234674930573, 0.29895922541618347, 0.01427986565977335, 0.031069118529558182, -0.013030369766056538, -0.054990608245134354, 0.19011807441711426, 0.24223974347114563, 0.0651642233133316, -0.05905631557106972, -0.05077315494418144, -0.0884622260928154, -0.03564253821969032, 0.10896862298250198, 0.03177708014845848, 0.0523948073387146, 0.03717031329870224, 0.0907043069601059, -0.038349781185388565, -0.07966460287570953, -0.16238638758659363, -0.11138907074928284, 0.5212177634239197, 0.46445581316947937, 0.7798831462860107, 0.48939579725265503, 0.18762759864330292, 0.05537588521838188, 0.07126905769109726, -0.007462721783667803, 0.04577359929680824, -0.01358837354928255, 0.10567820072174072, -0.07664047181606293, -0.08449218422174454, 0.07171278446912766, 0.017708953469991684, -0.2006252408027649, -0.004020880442112684, -0.1366262584924698, -0.11172301322221756, -0.10286041349172592, 0.04713910073041916, 0.0922156497836113, -0.1123940497636795, 0.050081636756658554, -0.5052008628845215, -0.2912769913673401, 0.5227504968643188, -0.18190273642539978, 0.6201733946800232, 0.7250457406044006, 0.20331650972366333, 0.7557639479637146, 0.09751991927623749, 0.13011319935321808, 0.08057810366153717, 0.10755419731140137, 0.10412867367267609, 0.12217097729444504, 0.0790838822722435, 0.12708112597465515, 0.02666151151061058, 0.24437354505062103, -0.0852126032114029, -0.0531165674328804, 0.12760329246520996, -0.00290512153878808, 0.13789457082748413, 0.03663741797208786, 0.02360265702009201, 0.05918722227215767, -0.136818990111351, 0.04164188727736473, -0.12594877183437347, -0.66242915391922, 0.2262773960828781, -0.4529157876968384, 0.606416642665863, 0.2858111262321472, 0.9285097718238831, 0.9863539934158325, -0.22097937762737274, 0.09035106003284454, -0.20145902037620544, 0.08363718539476395, 0.22242264449596405, 0.17594251036643982, -0.006961131002753973, 0.26604822278022766, 0.08019141852855682, -0.05925179645419121, -0.0008613626705482602, 0.07037121057510376, 0.1447671502828598, 0.047915179282426834, 0.08176828920841217, 0.15402457118034363, 0.14181609451770782, 0.14300614595413208, -0.0785941556096077, 0.1561455875635147, 0.06231735646724701, -0.2394171953201294, 0.11837247014045715, 0.06884042918682098, 0.38332074880599976, -0.09641598910093307, 0.6174237132072449, 1.4085710048675537, -0.2862400412559509, 0.3811500072479248, 0.16496311128139496, 0.1803656965494156, 0.24082344770431519, 0.024477409198880196, 0.07468197494745255, 0.17022667825222015, 0.24737785756587982, 0.09680315852165222, -0.021028921008110046, 0.10270427167415619, 0.14825397729873657, 0.09126310795545578, 0.10804018378257751, 0.16895152628421783, -0.0862688422203064, 0.3403751254081726, 0.2598645091056824, -0.05545983836054802, -0.19683867692947388, -0.02196931093931198, -0.17057164013385773, -0.10719740390777588, -0.5210188031196594, -0.36914265155792236, 0.6552791595458984, 1.2740758657455444, 0.5504816770553589, 0.2548728585243225, 0.3161260485649109, 0.0817495808005333, 0.18902228772640228, 0.2605712115764618, 0.28185972571372986, 0.2143610715866089, 0.059312861412763596, 0.1307687908411026, 0.016798201948404312, 0.010370828211307526, 0.15273767709732056, 0.19264286756515503, 0.324423611164093, 0.05423656851053238, 0.03879626840353012, 0.1711173951625824, -0.026306528598070145, 0.224149689078331, 0.15092557668685913, 0.05330042913556099, -0.5960710048675537, -0.594855546951294, -0.501072347164154, -0.341652512550354, 0.422206848859787, 0.5560201406478882, 0.5602355003356934, 0.038462866097688675, -0.17798443138599396, 0.010813978500664234, 0.12342581897974014, 0.2996940314769745, 0.3275487720966339, 0.43310537934303284, 0.3959659934043884, 0.10247325152158737, -0.06461654603481293, 0.0054964469745755196, 0.2873266935348511, 0.13041770458221436, 0.4172765016555786, 0.05801672860980034, -0.07982892543077469, 0.17087700963020325, 0.17190174758434296, 0.46921250224113464, 0.37759459018707275, -0.2903023362159729, -0.8281052708625793, 0.043640702962875366, -0.4528421461582184, 0.4422997236251831, 0.07769539952278137, -0.3095734715461731, 0.02549145556986332, -0.20424820482730865, -0.36491602659225464, 0.020365174859762192, 0.1786305010318756, 0.2892075479030609, 0.16345755755901337, 0.24481281638145447, 0.21339035034179688, 0.366891473531723, 0.12660707533359528, 0.09506583958864212, 0.4079345464706421, 0.1296064257621765, 0.2567218244075775, 0.12723280489444733, 0.09186838567256927, 0.19564224779605865, 0.3096471428871155, 0.09686402976512909, 0.04657813906669617, -0.08313978463411331, -0.7900160551071167, -0.5469898581504822, -0.5843626260757446, -0.027644503861665726, 0.04327613115310669, -0.18389107286930084, -0.2888755202293396, 0.07430905103683472, -0.03569238632917404, -0.1439659744501114, -0.0036151129752397537, -0.259705513715744, -0.1658756136894226, 0.0707540512084961, -0.02010010927915573, 0.08373205363750458, 0.006079414393752813, 0.035172753036022186, 0.23979470133781433, 0.02864808961749077, 0.15373669564723969, 0.21374960243701935, 0.011421202681958675, -0.11999348551034927, 0.10037185251712799, 0.03511936962604523, 0.10411734879016876, -0.04227716475725174, 0.048781782388687134, -0.2452601045370102, -0.7322771549224854, 0.25225943326950073, 0.45605048537254333, 0.3378797769546509, -0.43107718229293823, 0.10828302055597305, -0.15907955169677734, -0.3553081154823303, -0.30219516158103943, -0.44583243131637573, -0.5058716535568237, -0.30294910073280334, -0.11047933250665665, -0.2573365271091461, -0.30339235067367554, -0.23148223757743835, -0.1846407651901245, 0.11483819037675858, -0.09466581046581268, -0.19234038889408112, -0.2389436662197113, -0.10435516387224197, -0.007658324670046568, -0.35578638315200806, -0.14103414118289948, -0.15067501366138458, -0.15503562986850739, 0.516298234462738, -0.44359487295150757, 0.013185646384954453, 0.19615541398525238, 0.5766825079917908, -0.16473589837551117, -0.12427904456853867, -0.20953941345214844, -0.38718339800834656, -0.48382896184921265, -0.7542352676391602, -0.837773859500885, -0.9218654632568359, -0.5369752645492554, -0.6708593368530273, -0.4967057704925537, -0.2514217793941498, -0.22662797570228577, -0.17238031327724457, -0.21198037266731262, -0.20404072105884552, -0.34105125069618225, -0.3201388120651245, -0.11587288975715637, -0.7442582249641418, -0.3716888725757599, -0.27351853251457214, -0.2602931261062622, 0.08822555094957352, 0.015419861301779747, -0.003385535441339016, -0.2137030065059662, 0.8055679798126221, 0.25604328513145447, -0.1796799749135971, -0.4126330614089966, -0.5507898330688477, -0.7560487985610962, -0.7841628789901733, -0.5515871047973633, -0.5219976902008057, -0.5047623515129089, -0.40909627079963684, -0.24371664226055145, -0.05700249969959259, -0.12975873053073883, -0.05032237991690636, -0.030608654022216797, -0.15261460840702057, -0.22832749783992767, -0.20588837563991547, 0.016370702534914017, -0.1120392382144928, 0.06225273385643959, -0.027369042858481407, -0.3489137887954712, 0.21929985284805298, 0.0034171054139733315, -0.016798101365566254, 0.03204239532351494, 0.6796310544013977, -0.01051789615303278, -0.07588312029838562, -0.14304907619953156, -0.3843050003051758, -0.27465957403182983, 0.0918956995010376, 0.01634357124567032, 0.10106033086776733, 0.04112538695335388, 0.03073032759130001, -0.09494616091251373, -0.16112683713436127, -0.0828607901930809, 0.02184292860329151, -0.1378275603055954, 0.06313461065292358, -0.025793155655264854, -0.05618235468864441, -0.03329269215464592, -0.17937281727790833, -0.12651772797107697, 0.02037142775952816, 0.014291229657828808, -0.045334942638874054, -0.02547198161482811, 0.010844683274626732, 0.1822143793106079, 0.5073372721672058, 0.045977633446455, -0.07462970912456512, -0.2840356230735779, -0.024358630180358887, 0.10675853490829468, 0.34760117530822754, -0.016978800296783447, 0.20618608593940735, 0.2346828132867813, 0.14024634659290314, 0.009664679877460003, 0.050669293850660324, 0.0037509314715862274, 0.05769094079732895, 0.02223234437406063, -0.16034293174743652, -0.06165647879242897, -0.09465258568525314, -0.1590382158756256, 0.0004009261028841138, -0.024792596697807312, 0.13759465515613556, -0.2549950182437897, 0.10434013605117798, 0.02395966835319996, -0.00751717621460557, 0.012426943518221378, -0.6274400949478149, -0.06704602390527725, -0.008092008531093597, -0.042879000306129456, 0.21340610086917877, 0.24267062544822693, -0.04104043170809746, 0.13719458878040314, 0.21298228204250336, 0.16238927841186523, 0.036058247089385986, 0.09393560886383057, 0.16322070360183716, -0.06894942373037338, -0.030070403590798378, -0.03372848033905029, -0.09680157899856567, -0.03057812713086605, -0.5205090045928955, -0.20154741406440735, -0.3521064519882202, -0.19211997091770172, 0.3898446261882782, -0.4943733513355255, -0.010599290952086449, -0.03194832056760788, 0.03244475647807121, 0.0011977553367614746, -0.005260908510535955, -0.10400758683681488, -0.16298046708106995, 0.48840752243995667, 0.5714550614356995, 0.208793506026268, -0.07667335867881775, 0.2969888746738434, 0.181947261095047, 0.2660979628562927, -0.1492985188961029, 0.032307568937540054, 0.03239890933036804, -0.04322085157036781, -0.028239181265234947, 0.09395579993724823, -0.04828464239835739, -0.06985015422105789, 0.04249945282936096, 0.06332824379205704, -0.09363646805286407, 0.11832841485738754, -0.62376469373703, 0.047338761389255524, -0.22294935584068298, 4.756025009555742e-05, 0.028245309367775917, -0.011981019750237465, 0.006485270336270332, -0.2855275571346283, 0.24675226211547852, 0.3567076623439789, 0.020856214687228203, 0.024395642802119255, 0.16540612280368805, 0.07275224477052689, -0.13713377714157104, 0.13482823967933655, -0.025239061564207077, 0.18324600160121918, 0.056785207241773605, -0.0813584104180336, 0.10301007330417633, 0.06490138918161392, 0.3325592577457428, -0.05548085272312164, -0.04294180870056152, 0.03058178536593914, 0.28528544306755066, 0.33530062437057495, -0.286651074886322, 0.18003566563129425, -0.23958830535411835, 0.01569249853491783, -0.0057075791992247105, 0.03457926958799362, -0.0355706512928009, -0.31252506375312805, 0.14829279482364655, 0.053796712309122086, 0.27588245272636414, 0.2174513190984726, -0.002320654923096299, 0.05940663814544678, 0.09043142199516296, -0.033460553735494614, 0.05987422540783882, 0.23260560631752014, 0.24333034455776215, 0.31149822473526, 0.4123319983482361, 0.1269497126340866, -0.06863004714250565, 0.19526883959770203, -0.05677732080221176, -0.1848558485507965, -0.3118976354598999, -0.634817898273468, -0.4921048581600189, 0.3516034781932831, -0.029936233535408974, -0.020525984466075897, -0.0010549299186095595, -0.005642533767968416, -0.016372501850128174, 0.03150327876210213, 0.46889224648475647, 0.6373310089111328, -0.22877056896686554, -0.37017032504081726, -0.3652106523513794, -0.5482279658317566, -0.09056253731250763, -0.39946845173835754, -0.5691595077514648, 0.320017009973526, -0.6119000315666199, -0.2578541338443756, -0.02735903672873974, 0.4043055474758148, 0.16640284657478333, -0.04388612136244774, 0.4454306364059448, 0.9853216409683228, 0.5368226766586304, 0.6889769434928894, -0.001756297773681581, -0.012732344679534435, -0.031872570514678955, 0.02941524237394333], [0.03443266823887825, 0.004248470067977905, 0.011675805784761906, 0.010753164067864418, -0.004474567715078592, -0.021489029750227928, -0.032126542180776596, -0.004289797507226467, 0.018662631511688232, -0.024666855111718178, -0.005068911239504814, -0.020238656550645828, 0.015274050645530224, 0.006070549599826336, -0.02791961096227169, -0.029546741396188736, 0.002969537628814578, -0.02919290028512478, 0.032185085117816925, -0.017959799617528915, -0.021032942458987236, -0.004054359160363674, -0.026103230193257332, 0.008925259113311768, -0.029324622824788094, 0.02669503539800644, -0.01599302887916565, -0.02250414341688156, -0.032779231667518616, 0.0036433979403227568, -0.01778481714427471, 0.0083439527079463, 0.02823404036462307, -0.017479633912444115, 0.0818503350019455, 0.06942649930715561, -0.14169588685035706, -0.11677814275026321, 0.32264572381973267, -0.09827292710542679, 0.07305444777011871, -0.057306643575429916, 0.057726215571165085, -0.0756031721830368, -0.5570008158683777, -0.47685056924819946, 0.6875876188278198, 0.6895058751106262, 0.6720221042633057, 0.7087370157241821, 0.6436613202095032, 0.46959158778190613, -0.01316104270517826, 0.010432286188006401, -0.0068876659497618675, 0.0169215127825737, -0.0018423370784148574, -0.02743895724415779, 0.06314998865127563, 0.2236163467168808, 0.2610851228237152, 0.1613183170557022, 0.08630673587322235, 0.1647697538137436, -0.2129264920949936, -0.4432923197746277, -0.18775522708892822, 0.1825498342514038, -0.03193831443786621, 0.5703157782554626, 0.7309718132019043, 0.6110450625419617, 0.529291570186615, 0.4080411493778229, 0.0040855505503714085, 0.5421232581138611, 0.6730340719223022, 0.9193651676177979, 0.8367552161216736, 0.23143012821674347, -0.03946545720100403, -0.021724527701735497, 0.00017283644410781562, 0.006410236936062574, -0.027109982445836067, 0.021955329924821854, 0.4131403863430023, 0.5838035345077515, 0.22659753262996674, -0.03557126596570015, 0.11549533158540726, -0.16525831818580627, -0.9316635727882385, -0.13569548726081848, -0.4177171587944031, -0.25716716051101685, -0.2358236461877823, -0.14783082902431488, -0.10203289985656738, -0.268806129693985, -0.37477725744247437, -0.20792825520038605, -0.1122279092669487, -0.0407940074801445, -0.26438355445861816, 0.13390199840068817, 0.3215085566043854, 0.06944188475608826, 0.012155217118561268, -0.38981541991233826, -0.22434101998806, 0.024202799424529076, -0.018846385180950165, 0.010890803299844265, 0.5748630166053772, 0.4193725287914276, -0.26751357316970825, -0.3885515034198761, -0.6207686066627502, -0.3904666006565094, -0.05838398262858391, -0.08032334595918655, -0.21198199689388275, -0.21210403740406036, -0.29763850569725037, -0.1780894547700882, -0.10717545449733734, -0.31700530648231506, -0.11666566133499146, -0.07321277260780334, -0.2418082356452942, -0.12904441356658936, -0.0706741213798523, -0.0817774161696434, 0.1314765214920044, 0.6585178375244141, -0.3301865756511688, -1.051092505455017, -0.952619194984436, 0.2337455153465271, -0.015884242951869965, -0.02435878850519657, 0.8477511405944824, -0.08864394575357437, 0.018246343359351158, 0.19657249748706818, -0.18921586871147156, -0.26754072308540344, -0.3802114427089691, -0.46298468112945557, -0.4984447956085205, -0.35738468170166016, -0.44854211807250977, -0.16228224337100983, -0.09432405978441238, -0.05205579102039337, -0.36377498507499695, -0.1600312739610672, -0.12609629333019257, 0.11097487807273865, 0.034959834069013596, 0.21459367871284485, 0.22788271307945251, 0.2558538317680359, 0.4686028063297272, -0.2344113290309906, 0.10008583962917328, 0.575819194316864, 0.007339303381741047, -0.522818386554718, -0.2367793321609497, -0.15598507225513458, 0.21215420961380005, -0.32458987832069397, -0.3107105493545532, -0.2698928117752075, -0.45733752846717834, -0.6623082756996155, -0.39462101459503174, -0.06283983588218689, -0.0599534697830677, -0.18256840109825134, -0.03408181294798851, -0.19878672063350677, -0.1929910033941269, -0.0664421021938324, 0.11640650033950806, 0.052383843809366226, 0.3004874289035797, 0.32819342613220215, 0.18405555188655853, -0.0809364914894104, 0.420616090297699, 0.3524263799190521, 0.07158882170915604, 0.28965622186660767, 0.006568453274667263, -0.7645432353019714, -0.5438105463981628, -0.5359435677528381, -0.10740083456039429, 0.005860262084752321, -0.6026366353034973, -0.6017261147499084, -0.7198178768157959, -0.21112923324108124, 0.06733106076717377, -0.010372959077358246, 0.09279085695743561, -0.020135829225182533, -0.016715623438358307, -0.1330244392156601, -0.12596701085567474, 0.057216446846723557, 0.07092233002185822, 0.19344252347946167, 0.3979489803314209, 0.4719918370246887, 0.30757391452789307, 0.23632977902889252, -0.18633824586868286, -0.2700023353099823, 0.010612640529870987, 0.11508748680353165, -0.03474725782871246, -0.25408199429512024, -0.5564820766448975, -0.276207834482193, -0.13279524445533752, 0.18674053251743317, -0.11026047170162201, -0.05720056965947151, -0.12075888365507126, -0.2580108046531677, -0.18930070102214813, -0.14563460648059845, 0.1591300517320633, 0.1861497163772583, 0.08651446551084518, -0.16312609612941742, -0.3403966724872589, 0.0014428844442591071, -0.040378883481025696, 0.1806487739086151, -0.08584427833557129, 0.31366419792175293, 0.17685721814632416, 0.25835147500038147, 0.30985623598098755, -0.16909995675086975, 0.30899253487586975, 0.04000703990459442, -0.0052450913935899734, -0.5148022174835205, -0.48699554800987244, -0.4651578366756439, -0.493565171957016, -0.27876079082489014, 0.0130236204713583, -0.16767585277557373, -0.1447565257549286, -0.20709176361560822, 0.06755626946687698, 0.14661818742752075, 0.058214012533426285, 0.3668156862258911, 0.2266995906829834, 0.030054451897740364, -0.24512921273708344, -0.3144725263118744, -0.29956093430519104, -0.19683757424354553, -0.3950652778148651, 0.19101189076900482, 0.14226822555065155, 0.05059189721941948, 0.626006007194519, -0.1259469836950302, 0.7276172041893005, -0.04925692081451416, 0.06012532114982605, -0.19152626395225525, -0.5316414833068848, -0.5891234278678894, -0.6353816986083984, -0.11703330278396606, -0.558535099029541, -0.4687199890613556, 0.009592891670763493, -0.07569152861833572, 0.16972465813159943, 0.23188170790672302, 0.16972795128822327, 0.26536184549331665, 0.3077729642391205, 0.16586321592330933, -0.27410879731178284, -0.26569104194641113, -0.2744196355342865, -0.2485693097114563, -0.6990537643432617, 0.062186457216739655, -0.12516024708747864, 0.00030159560265019536, 0.013997988775372505, 0.0798371210694313, 0.5971193313598633, 0.2310141623020172, -0.015548302792012691, 0.15813560783863068, 0.327463299036026, -0.7061692476272583, -0.25676873326301575, 0.2474294900894165, -0.5551284551620483, -0.3003920316696167, -0.3166588842868805, -0.14885039627552032, 0.3472887873649597, 0.21281278133392334, 0.21716457605361938, 0.2559497356414795, 0.10306327790021896, 0.1053113341331482, 0.015303065069019794, -0.2690865099430084, -0.21298104524612427, -0.47571077942848206, -0.4944901764392853, -0.15492255985736847, -0.6023943424224854, 0.012440486811101437, -0.24790489673614502, -0.1918654590845108, -0.025229763239622116, 0.5637991428375244, -0.01999310404062271, 0.03941686823964119, 0.2500322759151459, 0.08875105530023575, 0.13709956407546997, -0.06255435943603516, 0.23235009610652924, 0.003598557785153389, -0.000425410398747772, 0.008658716455101967, -0.1432744413614273, 0.39934125542640686, 0.4048020541667938, 0.21050889790058136, 0.14206258952617645, 0.2159724086523056, 0.11249902844429016, 0.07195192575454712, 0.008786164224147797, -0.4138578772544861, -0.23620575666427612, 0.21389177441596985, -0.23499447107315063, -0.06202990561723709, 0.12093675136566162, 0.3723149001598358, 0.026020627468824387, 0.20234522223472595, 0.43165120482444763, -0.10242924839258194, 0.1725907027721405, 0.2544402778148651, -0.363028347492218, -0.4952346980571747, 0.3125212788581848, 0.14411981403827667, 0.10163697600364685, 0.023568902164697647, -0.26701515913009644, 0.19183853268623352, 0.3028597831726074, 0.1998189389705658, 0.25426700711250305, 0.37499919533729553, 0.10842704027891159, 0.11896607279777527, -0.08609937876462936, 0.051099203526973724, 0.18900690972805023, 0.522691547870636, -0.2735508382320404, -0.7384798526763916, -0.22485749423503876, -0.11851686984300613, -0.16507692635059357, -0.14053751528263092, 0.2549031376838684, -0.03680698201060295, 0.34834128618240356, 0.42569392919540405, -0.2977505922317505, -0.1578201800584793, -0.49780622124671936, -0.19540220499038696, -0.019575098529458046, 0.1811210811138153, 0.08935751765966415, 0.08938940614461899, 0.004683204926550388, 0.23864154517650604, 0.30036336183547974, 0.23133140802383423, 0.17138229310512543, -0.026721855625510216, -0.16553543508052826, 0.0834520161151886, 0.2298661172389984, 0.13640111684799194, -0.1792106032371521, -0.6612960696220398, 0.04991946741938591, 0.46048495173454285, -0.4715460240840912, -0.12567995488643646, 0.2399969846010208, 0.005113089457154274, 0.5430089235305786, 0.13062253594398499, -0.5674744844436646, -0.21209700405597687, -0.3386615216732025, -0.0845395177602768, 0.09224069863557816, 0.05514902621507645, 0.20836307108402252, 0.03731577470898628, 0.15044933557510376, 0.23790906369686127, 0.4329966902732849, -0.02211868204176426, 0.13800372183322906, -0.011273454874753952, -0.10404510051012039, -0.1259395182132721, -0.3961297869682312, -0.10150042176246643, -0.5205283164978027, -0.449094295501709, 0.1956435590982437, 0.07492350041866302, -1.006888747215271, -0.5281416177749634, -0.033327553421258926, 0.3409716486930847, -0.06559926271438599, 0.19175636768341064, -0.4235336184501648, -0.042345792055130005, -0.10151632130146027, -0.03346370905637741, 0.05258270353078842, 0.05065080150961876, -0.08812376111745834, 0.17365656793117523, 0.021523211151361465, 0.11180047690868378, 0.27099791169166565, -0.03218147158622742, 0.15269719064235687, -0.1672607660293579, -0.22997568547725677, -0.37871283292770386, -0.37852779030799866, -0.2366335093975067, 0.03572634980082512, -0.27444905042648315, -0.07266705483198166, -0.2230943888425827, -0.11707396060228348, -0.32899338006973267, 0.025209171697497368, 0.37469643354415894, -0.7171042561531067, 0.49789923429489136, 0.1551331728696823, -0.058646753430366516, -0.19359533488750458, -0.19331273436546326, 0.1346038430929184, 0.08080940693616867, 0.2907816469669342, 0.03304918855428696, 0.14510560035705566, 0.12211635708808899, 0.24173372983932495, 0.09884514659643173, -0.07054425030946732, -0.23379400372505188, -0.23949235677719116, -0.33182433247566223, 0.14829199016094208, -0.18085941672325134, 0.06951748579740524, -0.09042960405349731, -0.055190201848745346, -0.23516233265399933, -0.5049276947975159, -0.4777439534664154, 0.09576640278100967, 0.4639538824558258, -0.5589234828948975, 0.06044032424688339, 0.09256728738546371, -0.2647898495197296, -0.2811328172683716, -0.2938923239707947, -0.035177916288375854, 0.26832038164138794, -0.02968825213611126, -0.004721696022897959, 0.0854579359292984, 0.20893217623233795, 0.19668014347553253, -0.2039354294538498, -0.3165173828601837, 0.016656460240483284, -0.15899328887462616, -0.4045889675617218, -0.10905345529317856, -0.13981567323207855, -0.5418634414672852, -0.2526518702507019, -0.07067687064409256, -0.08669884502887726, 0.3019835650920868, 0.31444475054740906, 0.5079696774482727, -0.5585523247718811, -0.5298418402671814, -0.532784640789032, -0.5301316976547241, -0.40240904688835144, -0.08711808174848557, 0.06258741021156311, -0.08300991356372833, 0.10480435192584991, -0.17710857093334198, -0.08798394352197647, 0.15970496833324432, 0.07212401181459427, 0.04594215005636215, -0.07566742599010468, -0.07591672986745834, -0.2296246439218521, -0.28441259264945984, -0.04696657508611679, -0.04758042097091675, -0.2628021240234375, -0.298078715801239, -0.08093390613794327, 0.24110278487205505, -0.10478698462247849, 0.0229965653270483, 0.39986681938171387, -0.006264618597924709, 0.016147639602422714, -0.6657514572143555, -0.6473506689071655, -1.1068435907363892, -0.18398906290531158, 0.17587032914161682, 0.08482945710420609, 0.04840962216258049, -0.09543865919113159, -0.0207518320530653, 0.17906630039215088, 0.1981080025434494, -0.16087666153907776, 0.04372016713023186, 0.02152126654982567, 0.04135832563042641, -0.06509151309728622, -0.1653214395046234, -0.003102297894656658, -0.0024426537565886974, -0.18162177503108978, -0.21289032697677612, -0.2793040871620178, 0.0012378789251670241, -0.1802547574043274, 0.08357951790094376, 0.5072489380836487, 0.42820122838020325, 0.21665999293327332, -0.553448498249054, -0.03888363391160965, -0.7688986659049988, -0.08746730536222458, 0.09530846029520035, -0.04024119675159454, -0.05688163638114929, 0.15645819902420044, 0.1222204715013504, 0.07052084058523178, 0.0842040628194809, -0.02582019567489624, -0.029858969151973724, -0.10846428573131561, -0.17195171117782593, -0.031703148037195206, -0.00036859820829704404, -0.07746332138776779, 0.16565750539302826, -0.013789230026304722, -0.4327051341533661, -0.09155774116516113, 0.1781081259250641, -0.2701166570186615, -0.5861430168151855, 0.027211828157305717, 0.45555543899536133, 0.42048656940460205, -0.22117823362350464, 0.21532703936100006, -0.3673721253871918, -0.10338900983333588, -0.03237590938806534, -0.1381378173828125, -0.0406343899667263, 0.051233042031526566, -0.003422830021008849, -0.16155003011226654, 0.07471539825201035, 0.16782183945178986, 0.2842652499675751, 0.07025907188653946, 0.054149944335222244, 0.2550187110900879, 0.3055884540081024, 0.017241043969988823, 0.17610439658164978, 0.10562878847122192, -0.605823814868927, 0.25536972284317017, 0.4713059365749359, 0.08472561091184616, 0.4796046018600464, 0.022906087338924408, 0.014794188551604748, 0.007406171411275864, -0.5634634494781494, -0.47452595829963684, -0.5502867102622986, -0.13316746056079865, -0.2245168536901474, -0.25759297609329224, 0.024878762662410736, 0.14253318309783936, 0.061911676079034805, -0.05407402664422989, 0.2205151468515396, 0.015300107188522816, 0.07989481836557388, 0.07848628610372543, 0.14325685799121857, 0.060013771057128906, 0.06929991394281387, 0.3041226267814636, 0.2517889738082886, 0.02699895389378071, -0.41447174549102783, -0.049116432666778564, 0.3023577332496643, 0.1608627885580063, 0.5161058902740479, -0.03443397581577301, -0.016982756555080414, -0.03512030839920044, -0.6465739607810974, -0.7391356229782104, -0.7543049454689026, 0.1321292370557785, -0.31836795806884766, -0.13021118938922882, 0.052468571811914444, -0.062181051820516586, -0.089219830930233, -0.06127765402197838, -0.16331180930137634, -0.2118809074163437, -0.14215241372585297, 0.08415934443473816, -0.1189165934920311, -0.29756495356559753, 0.43945902585983276, 0.01442958228290081, -0.06811007112264633, 0.08068379014730453, 0.09280133992433548, 0.5086250901222229, 0.5240216255187988, 0.4232039451599121, 0.14931929111480713, -0.020183943212032318, -0.012621394358575344, 0.012510772794485092, 0.13729211688041687, 0.3097876310348511, -0.711508572101593, -0.675601065158844, -0.6363609433174133, -0.4977342486381531, -0.3494664132595062, -0.1518860161304474, -0.45797333121299744, -0.04542798921465874, -0.18283340334892273, -0.34685754776000977, -0.031176839023828506, -0.1863170862197876, -0.23576247692108154, 0.10096732527017593, 0.13774092495441437, -0.294289767742157, -0.16930797696113586, -0.1155545562505722, 0.24946953356266022, 0.40541550517082214, -0.1330694854259491, -0.38941213488578796, -0.3895244300365448, -0.02913442812860012, 0.02904125303030014, -0.02085079997777939, -0.013911771588027477, 0.4338226020336151, 0.2652915120124817, -0.35232558846473694, -0.07202660292387009, 0.13077092170715332, 0.17789742350578308, 0.6065233945846558, -0.007510039489716291, 0.3027450442314148, 0.4553627669811249, -0.3575535714626312, 0.23577402532100677, 0.285817950963974, 0.24262015521526337, 0.27821290493011475, -0.21979530155658722, -0.2525955140590668, -0.29908034205436707, -0.600929319858551, -0.5520336627960205, 0.08708310127258301, 0.3023349940776825, -0.1699870079755783, 0.00976469274610281, -0.03485098481178284, -0.0013246281305328012, -0.0046585118398070335, -8.784022065810859e-05, -0.022175295278429985, -0.15922901034355164, -0.19100984930992126, 0.26740166544914246, 0.24036146700382233, 0.17821094393730164, 0.39594942331314087, 0.3792392909526825, 0.8094497323036194, 0.9210421442985535, 0.297528475522995, 0.9243813753128052, 0.8593357801437378, 0.7665510177612305, 0.8840598464012146, 0.655306339263916, 0.4014313519001007, -0.11798727512359619, -0.33015739917755127, -0.3405749201774597, -0.005445020738989115, 0.020160561427474022, 0.03138772398233414, -0.03395962715148926, -0.03134002536535263], [0.009051281027495861, 0.02643546648323536, -0.027386538684368134, -0.009206891059875488, 0.00687001459300518, -0.021302228793501854, 0.008970269933342934, 0.011806360445916653, -0.032467663288116455, -0.027758531272411346, -0.026030192151665688, 0.022710831835865974, 0.03160397708415985, 0.02891371212899685, 0.006904521491378546, 0.012995128519833088, -0.025246771052479744, 0.013060817494988441, -0.02277972921729088, -0.02013443224132061, -0.0029925110284239054, -0.030748151242733, 0.007431724574416876, 0.02856188267469406, -0.028330199420452118, 0.031702782958745956, -0.010666409507393837, 0.025015654042363167, -0.03046783059835434, 0.024174490943551064, 0.008100373670458794, 0.03200682997703552, 0.044336702674627304, 0.04369856417179108, -0.006454885471612215, 0.03378969058394432, -0.04254831001162529, -0.06928257644176483, -0.14149847626686096, 0.5211816430091858, 0.4894128143787384, 0.49569427967071533, -0.31782299280166626, 0.4046773612499237, 0.4810692071914673, 0.5221781134605408, -0.4944867789745331, 0.15212112665176392, 0.07650111615657806, -0.41353097558021545, -0.11533558368682861, 0.09499676525592804, 0.0008705939981155097, 0.008841229602694511, 0.012894234620034695, -0.027911890298128128, -0.019052663818001747, -0.01147491205483675, -0.023370252922177315, 0.41020339727401733, 0.43956178426742554, -0.18139886856079102, 0.383047878742218, 0.41627171635627747, 0.3263762295246124, 0.15912751853466034, -0.11496278643608093, -0.027005501091480255, 0.202478289604187, -0.36493924260139465, -0.9246732592582703, -0.6232519745826721, 0.13173796236515045, 0.2464442104101181, 0.5404729247093201, 0.3529140055179596, 0.15589763224124908, 0.013842253014445305, 0.13692811131477356, 0.4204349219799042, -0.2262565940618515, -0.2721771001815796, -0.011182700283825397, 0.03280504420399666, -0.022666778415441513, -0.007500355131924152, -0.2793844938278198, 0.5047209858894348, 0.579433262348175, -0.48487019538879395, -0.596365213394165, -1.0888686180114746, -0.5790279507637024, 0.009338119998574257, -0.09812650084495544, -0.12121409922838211, -0.3814976215362549, -0.6896986365318298, -0.2932996153831482, -0.1847306340932846, -0.21596936881542206, -0.35155490040779114, -0.018405187875032425, -0.22495576739311218, 0.0421205535531044, -0.008209665305912495, 0.18291454017162323, 0.42311516404151917, 0.17887923121452332, 0.5097468495368958, 0.02986740879714489, -0.01832553744316101, 0.029234793037176132, -0.03154046833515167, -0.26118889451026917, 0.160888209939003, -0.8547631502151489, -0.7025685906410217, -0.47862735390663147, -0.22792047262191772, -0.393968403339386, -0.3280656039714813, -0.6011075973510742, -0.1437353640794754, -0.38193652033805847, -0.21969443559646606, -0.06627801805734634, 0.035999540239572525, -0.037221863865852356, 0.16733159124851227, 0.08678147196769714, -0.12248897552490234, 0.09132570028305054, 0.12645092606544495, 0.08863676339387894, 0.09298457205295563, 0.1341032087802887, 0.7195953130722046, 0.7335239052772522, -0.3635637164115906, -0.02045373059809208, 0.010838049463927746, -0.0003090683021582663, 0.09875325858592987, -0.7853450179100037, -0.532616138458252, -0.45276954770088196, -0.2841309905052185, -0.36870133876800537, -0.6298379898071289, -0.7000888586044312, -0.5457108616828918, -0.5241943001747131, 0.026471439749002457, -0.11508012562990189, -0.2821086347103119, 0.11490359902381897, 0.28075718879699707, 0.059926245361566544, 0.04189940169453621, 0.2139095664024353, 0.0004260101995896548, -0.028793273493647575, -0.1689365655183792, -0.17388245463371277, 0.2608450651168823, -0.08926713466644287, -0.49604249000549316, 0.02262534573674202, -0.05888044089078903, 0.06468058377504349, 0.36220428347587585, 0.3511420488357544, 0.5494614243507385, 0.2762732207775116, -0.29505008459091187, -0.2862555980682373, -0.446719229221344, -0.4128173887729645, -0.35024410486221313, -0.26818615198135376, -0.4709513187408447, -0.3601939082145691, -0.20741571485996246, -0.2977396845817566, -0.13317428529262543, -0.11632480472326279, 0.057898327708244324, 0.08114811033010483, -0.06020431965589523, -0.04650980979204178, 0.09085311740636826, 0.055600035935640335, 0.105888232588768, -0.025459829717874527, -0.1218627542257309, 0.09977984428405762, 0.18171560764312744, 0.3677668869495392, 0.24470801651477814, -0.2070135474205017, -0.02243909426033497, 0.21142695844173431, 0.17740322649478912, -0.06241185590624809, -0.15401412546634674, 0.017336202785372734, -0.10764939337968826, -0.2442607432603836, -0.33266812562942505, -0.3970547616481781, -0.28203627467155457, -0.12896442413330078, -0.050178881734609604, 0.12370771169662476, -0.0532064363360405, -0.1218312457203865, 0.047280408442020416, 0.054864730685949326, 0.28965264558792114, 0.31053808331489563, 0.3825136423110962, -0.032478343695402145, -0.018432535231113434, -0.056221965700387955, 0.8435958623886108, 0.28379788994789124, 0.19064654409885406, -0.3257608115673065, 0.09904113411903381, 0.16105589270591736, 0.20534823834896088, 0.2023906409740448, -0.022225668653845787, -0.0010608871234580874, 0.10788164287805557, 0.3160362243652344, 0.1336418241262436, 0.06076372042298317, -0.05261339992284775, 0.061163127422332764, -0.05511371046304703, 0.07166880369186401, 0.11705954372882843, 0.19152553379535675, 0.15971799194812775, 0.2462349832057953, 0.6879905462265015, 0.6484415531158447, 0.37281492352485657, 0.04725976660847664, 0.6144675016403198, 0.4870906174182892, 0.732607901096344, 0.05043209716677666, 0.35953137278556824, 0.19923150539398193, 0.3757980465888977, 0.00213027186691761, -0.0022817300632596016, 0.02479954995214939, 0.11329101771116257, -0.05710012465715408, 0.22581477463245392, 0.40702661871910095, 0.38943856954574585, 0.2953338027000427, -0.0247222650796175, 0.004653729498386383, 0.08998401463031769, 0.09724071621894836, -0.012281102128326893, 0.18286588788032532, 0.29736942052841187, 0.1795688420534134, 0.49325889348983765, 0.8865743279457092, 0.9760383367538452, 0.30168408155441284, 0.7745004892349243, 0.4733021855354309, 0.7026082873344421, 0.40878036618232727, 0.05809741094708443, 0.42665034532546997, 0.2348526120185852, 0.14939118921756744, 0.016865257173776627, 0.12832871079444885, 0.2924017608165741, 0.21137814223766327, 0.3653262257575989, 0.4568452537059784, 0.6764556765556335, 0.29804155230522156, 0.24715811014175415, 0.14859619736671448, -0.01633317954838276, -0.04430222883820534, -0.19963088631629944, 0.22876575589179993, 0.23712077736854553, 0.1936519593000412, 0.5978183150291443, 1.030835747718811, 0.40645501017570496, 0.4470616281032562, 0.345051646232605, 0.5110412240028381, 0.8218200206756592, 0.9345486164093018, 0.3114032447338104, 0.440210223197937, 0.06109559163451195, -0.00644969567656517, 0.09960351139307022, -0.040650758892297745, 0.15215635299682617, 0.131339430809021, 0.32033610343933105, 0.38688942790031433, 0.40714284777641296, 0.07572456449270248, -0.09238375723361969, -0.1410401314496994, -0.1958223283290863, -0.025759950280189514, -0.2189926654100418, -0.20645958185195923, -0.06846556067466736, 0.05656027793884277, 0.39111706614494324, 1.0477006435394287, 0.18504106998443604, 0.5644943714141846, 0.22060900926589966, 0.24000532925128937, 0.6919698119163513, 0.4170956313610077, 0.42022445797920227, 0.26761704683303833, 0.23744632303714752, 0.04552772641181946, 0.14505866169929504, -0.0013249004259705544, 0.08617445826530457, -0.036613017320632935, -0.026732398197054863, 0.06540152430534363, 0.023805368691682816, -0.024772867560386658, -0.0725858211517334, -0.16170534491539001, 0.04343133792281151, 0.017851999029517174, -0.1440121829509735, -0.11295213550329208, -0.32387012243270874, -0.04388696700334549, 0.09089918434619904, 0.037100762128829956, -0.22164976596832275, 0.5153034329414368, 0.20114056766033173, -0.03492747247219086, 0.5331581830978394, 0.5713366270065308, 0.11116611212491989, 0.023836268112063408, 0.3269868791103363, 0.030805131420493126, -0.1706080287694931, -0.16434285044670105, -0.08084440976381302, -0.15542100369930267, 0.06877593696117401, -0.1336144506931305, -0.18234266340732574, 0.10955119878053665, -0.06923136860132217, -0.12723194062709808, -0.08391296118497849, -0.2367851436138153, -0.142543226480484, -0.0665990337729454, 0.09788104891777039, 0.349830687046051, 0.24333254992961884, 0.3686411380767822, -0.12718625366687775, -0.06890890002250671, -0.07988743484020233, 0.4906393587589264, 0.14390872418880463, 1.0685436725616455, -0.1849634200334549, -0.46943721175193787, -0.015078938566148281, -0.07462215423583984, -0.23257695138454437, -0.03964977338910103, -0.03692030906677246, 0.24578270316123962, 0.04151352867484093, -0.09398303925991058, -0.15094120800495148, 0.18542221188545227, -0.008754347451031208, -0.22492749989032745, -0.02687806822359562, -0.1665506809949875, -0.07968324422836304, -0.011720458045601845, 0.12497534602880478, 0.18594804406166077, 0.7146134376525879, 0.5066167116165161, -0.8028741478919983, 0.3328467309474945, 0.20073837041854858, 0.46351271867752075, -0.2992028295993805, -0.1837490350008011, -0.5191140174865723, -0.6910180449485779, -0.0028381007723510265, 0.10005440562963486, -0.027052300050854683, -0.21900108456611633, -0.053663890808820724, -0.028234800323843956, -0.05845508724451065, 0.025630686432123184, -0.04580788314342499, -0.0422997772693634, -0.08353734016418457, -0.38292574882507324, -0.0651942640542984, 0.1678507775068283, 0.055880021303892136, 0.22120022773742676, -0.18610027432441711, 0.07474406063556671, 0.3563586473464966, 0.3589276075363159, -0.5902847647666931, -0.38267818093299866, 0.32723432779312134, 0.3238976299762726, -0.6000276803970337, -0.6740734577178955, -0.447994589805603, -0.4947633743286133, -0.05347821116447449, 0.011922426521778107, -0.15748396515846252, -0.06498577445745468, 0.07499490678310394, 0.01603746972978115, -0.12152054905891418, -0.050937555730342865, -0.06408534198999405, -0.05359942093491554, -0.007375120185315609, -0.10670623928308487, 0.061609916388988495, 0.07594898343086243, 0.18745726346969604, -0.05909768491983414, -0.10107985138893127, 0.1684751659631729, -0.09020168334245682, -0.17427782714366913, -0.2509136199951172, 0.4604184329509735, 0.4153696894645691, 0.0032104935962706804, -0.8415281176567078, -0.586222231388092, 0.3692646026611328, -0.3392431437969208, 0.13110442459583282, 0.23596255481243134, 0.03232688456773758, -0.068755142390728, 0.12262629717588425, -0.08460741490125656, 0.024311278015375137, -0.2311469465494156, -0.1012621521949768, 0.08330437541007996, -0.0582427978515625, -0.014916355721652508, 0.28412333130836487, 0.19388963282108307, -0.0034124876838177443, 0.12288577109575272, -0.14427661895751953, -0.09629514068365097, -0.15434928238391876, 0.1254911571741104, 0.012101201340556145, 0.4102090895175934, 0.3443187475204468, 0.5273188948631287, -0.529731035232544, -0.13299252092838287, 0.2468038648366928, -0.09431546181440353, -0.18985214829444885, 0.15533433854579926, 0.3075863718986511, -0.006081110332161188, -0.24354982376098633, -0.2749437093734741, -0.2552098333835602, -0.31429654359817505, -0.1110583022236824, 0.05158047378063202, 0.16496919095516205, 0.1823708713054657, 0.2840034067630768, 0.041340507566928864, -0.09239901602268219, -0.10219522565603256, -0.0889434888958931, -0.05721956863999367, -0.06479828804731369, 0.0489908792078495, -0.3095763623714447, 0.01600184291601181, -0.14359401166439056, -0.03974876180291176, 0.5729280710220337, 0.3408718705177307, -0.3539152443408966, 0.15243902802467346, -0.2948046326637268, 0.11568833142518997, 0.15161506831645966, 0.4296896159648895, -0.055552802979946136, -0.19075943529605865, -0.26437070965766907, -0.04500838741660118, 0.0937255397439003, 0.019776687026023865, -0.001180216670036316, 0.027758236974477768, 0.15978141129016876, -0.04135651886463165, -0.005815769545733929, -0.09134657680988312, -0.12746062874794006, -0.12075435370206833, 0.06630923599004745, 0.06047059968113899, -0.5846555233001709, -0.34500521421432495, -0.2567863166332245, -0.020435236394405365, 0.29369574785232544, -0.5261642932891846, -0.5572562217712402, -0.12331563979387283, 0.14841319620609283, 0.020596273243427277, 0.008542914874851704, 0.3412435054779053, 0.1456070840358734, 0.20895224809646606, 0.155771866440773, 0.15804213285446167, 0.10579188168048859, -0.05257568508386612, 0.05360572412610054, -0.20013873279094696, 0.09261096268892288, -0.13056810200214386, -0.09470859169960022, -0.2251581996679306, -0.04806087911128998, -0.022264333441853523, 0.18579250574111938, -0.20171448588371277, -0.3219594657421112, -0.2290942519903183, 0.03565828874707222, -0.4060884118080139, -0.4305802881717682, -0.623029887676239, -0.16280901432037354, -0.04872487485408783, -0.14403270184993744, 0.21270738542079926, 0.1643696129322052, 0.035992901772260666, 0.2004966288805008, 0.13219928741455078, 0.14591552317142487, 0.1601673662662506, 0.1607922613620758, 0.009581921622157097, -0.04079785570502281, -0.011058783158659935, 0.1270512491464615, -0.06928139179944992, -0.22460977733135223, -0.24808694422245026, -0.21433839201927185, -0.12018857151269913, -0.3049803376197815, -0.0884091705083847, -0.4187622666358948, 0.3069768249988556, 0.1375695765018463, -0.4184703826904297, -0.4599587321281433, -0.892192006111145, -0.631842315196991, -0.35822999477386475, -0.15488237142562866, -0.08628922700881958, 0.02036529779434204, 0.05193616449832916, 0.3845164477825165, 0.126139298081398, 0.09381569176912308, 0.18812468647956848, 0.1020844429731369, 0.1013885959982872, 0.09699854999780655, -0.1002056673169136, -0.052298836410045624, -0.039906252175569534, 0.015454093925654888, -0.08856813609600067, -0.4038996994495392, -0.29079943895339966, -0.417333722114563, 0.03526793792843819, -0.3401869237422943, -0.11451547592878342, 0.22589904069900513, 0.0009716196218505502, -0.025772279128432274, -0.6573787927627563, -0.5952266454696655, 0.184547558426857, 0.09701697528362274, 0.22882531583309174, -0.22839012742042542, -0.09146851301193237, 0.060867175459861755, 0.101529061794281, 0.08818215876817703, -0.12987063825130463, -0.019292771816253662, -0.014008737169206142, 0.14711672067642212, 0.13594932854175568, 0.04112500697374344, -0.1252003163099289, -0.08484261482954025, -0.21077178418636322, -0.36041340231895447, -0.32718542218208313, 0.006057097110897303, 0.046469707041978836, -0.24833354353904724, -0.6194725632667542, 0.015896551311016083, -0.010979627259075642, 0.023988256230950356, -0.22110672295093536, 0.19066226482391357, -0.1428738534450531, -0.07540352642536163, 0.10591783374547958, -0.11595053970813751, -0.11644671112298965, -0.09602212905883789, -0.09927412122488022, -0.11070642620325089, 0.12647944688796997, 0.04981858283281326, -0.02382897399365902, 0.0375303253531456, -0.0455634705722332, -0.07227479666471481, -0.1463511884212494, -0.0809214860200882, 0.07896687835454941, -0.30275675654411316, -0.1723136305809021, -0.17494381964206696, 0.43586304783821106, -0.75621497631073, -0.5004985928535461, -0.0006135276635177433, -0.02247566543519497, -0.004936563316732645, -0.20769242942333221, 0.5730780363082886, 0.1589461714029312, -0.1246616318821907, 0.17253290116786957, 0.1193871796131134, -0.1466943919658661, -0.04021307826042175, 0.08440876007080078, 0.27742621302604675, 0.08466888219118118, -0.11986209452152252, -0.17240335047245026, 0.08896049112081528, 0.32964202761650085, 0.25916239619255066, 0.180487722158432, 0.6012324690818787, 0.27480775117874146, 0.5632864236831665, 0.46851056814193726, 0.029206743463873863, 0.3974016010761261, -0.09678046405315399, -0.03309158980846405, -0.016286540776491165, 0.006515813991427422, -0.03023187257349491, -0.014308172278106213, -0.1242416650056839, -0.3420504629611969, -0.29826465249061584, -0.22543437778949738, 0.25248533487319946, 0.44638869166374207, 0.11577846109867096, 0.20339152216911316, 0.3408036231994629, 0.15979471802711487, 0.5580613613128662, 0.11123677343130112, 0.18373458087444305, 0.09357846528291702, 0.03174170106649399, 0.1403224617242813, 0.3894481062889099, 0.10927746444940567, 0.20372667908668518, 0.38512054085731506, 0.5641536712646484, -0.25202733278274536, 0.3226032257080078, -0.010169217362999916, 0.03322538733482361, 0.0017428952269256115, -0.02582678757607937, -0.010863853618502617, 0.03031270205974579, 0.4477047622203827, 0.6414293646812439, 0.4950050413608551, 0.39963236451148987, 0.4841645658016205, -0.13236097991466522, 0.45566660165786743, 0.13730381429195404, -0.10702142864465714, 0.9441042542457581, 0.1477544903755188, -0.17727971076965332, 0.055838461965322495, 0.42618709802627563, 0.032327428460121155, -0.23973365128040314, -0.2802349925041199, 0.5416384935379028, 0.3984835147857666, 0.7001104950904846, 0.013463698327541351, -0.022872189059853554, 0.004253042861819267, -0.03429394215345383], [-0.024174248799681664, -0.02893047034740448, -0.010665123350918293, -0.034491684287786484, -0.026241732761263847, 0.017880108207464218, -0.005124816205352545, -0.02309972234070301, -0.0026022621896117926, -0.015002114698290825, -0.03319205343723297, 0.031308308243751526, 0.27538254857063293, 0.39922279119491577, 0.44562625885009766, 0.15489989519119263, -0.022848935797810555, 0.0288222786039114, 0.018815791234374046, 0.019668661057949066, 0.005247401539236307, -0.02972707338631153, -0.0042632222175598145, -0.028187641873955727, -0.025300081819295883, 0.03566528111696243, 0.0030049725901335478, 0.005251029040664434, 0.012003052048385143, -0.0190287958830595, 0.03315277025103569, 0.001002967357635498, 0.0007058909395709634, 0.03212244063615799, 0.3393349051475525, 0.39129334688186646, 0.08407734334468842, 0.11738035827875137, 0.5941554307937622, 0.46784794330596924, 0.8564246892929077, 0.06761746853590012, -0.2867581844329834, 0.4961327314376831, 0.5297925472259521, 0.4731878340244293, 0.9080696105957031, 0.6635522246360779, 0.46517181396484375, 0.6003910899162292, 0.46415480971336365, 0.2157510370016098, 0.024376245215535164, -0.011070537380874157, -0.009795448742806911, 0.02283887006342411, 0.014790493063628674, -0.015335718169808388, 0.06954126060009003, 0.014104824513196945, 0.2802239656448364, 0.5201774835586548, 0.5805931687355042, 0.6857349276542664, 0.9413496255874634, 0.8030471801757812, 0.6200113296508789, 0.6029394268989563, 0.3352769911289215, -0.14944864809513092, -0.09632782638072968, 0.03030030056834221, -0.2816568911075592, -0.20308862626552582, 0.3558601140975952, -0.1991730034351349, 0.3783012628555298, 0.8052467107772827, 0.6271429061889648, 0.4787133038043976, 0.01887534186244011, -0.004237852990627289, -0.014451934024691582, 0.03404035046696663, -0.03376021608710289, 0.0021947198547422886, -0.4981599748134613, -0.6054000854492188, -0.31346556544303894, 0.6978795528411865, 0.9847967028617859, 0.9174887537956238, 0.5958550572395325, 1.0124199390411377, 0.8505210876464844, 0.8116755485534668, 0.48450520634651184, 0.7587429285049438, 0.29687604308128357, 0.16721802949905396, 0.20734557509422302, 0.38856181502342224, 0.6147519946098328, 0.06031837314367294, -0.20144416391849518, 0.2447696477174759, 0.13775527477264404, 0.3474716246128082, -0.11937449127435684, -0.49787992238998413, -0.4444384276866913, 0.0324881486594677, -0.000359318102709949, 0.34329545497894287, -0.30857422947883606, 0.0330875888466835, -0.17488163709640503, -0.07306933403015137, 0.2760547995567322, 0.3158295452594757, 0.5668593049049377, 0.5827375054359436, 0.6607199311256409, 0.34043121337890625, 0.24777455627918243, 0.1287969946861267, 0.32717248797416687, 0.14009593427181244, 0.48276031017303467, 0.4006156623363495, 0.347888320684433, 0.2550167441368103, 0.07916318625211716, -0.11805491149425507, -0.026798829436302185, -0.3747704029083252, -0.17334474623203278, 0.0970425009727478, 0.5202655792236328, 0.34984174370765686, -0.02065248228609562, 0.034717824310064316, 0.20728588104248047, -0.040966372936964035, 0.39255183935165405, -0.6695159673690796, 0.0755440816283226, 0.45529475808143616, 0.07255169004201889, -0.08807964622974396, -0.04675035551190376, -0.0005398223293013871, -0.018212677910923958, 0.09902182966470718, 0.25415313243865967, 0.1884542554616928, 0.2924586236476898, 0.3124520480632782, 0.11832079291343689, 0.3467264771461487, 0.3621203303337097, 0.1772080808877945, 0.07836718112230301, -0.15470707416534424, -0.16693486273288727, 0.6212925910949707, 0.2784632742404938, -0.08260861039161682, 0.03301631286740303, 0.5312486290931702, 0.23534329235553741, -0.037135038524866104, -0.07897523790597916, -0.10327690094709396, 0.009828873910009861, 0.08085109293460846, 0.06554234772920609, -0.011034618131816387, -0.08374685049057007, 0.007861683145165443, 0.042959023267030716, 0.14427678287029266, 0.016402775421738625, 0.2005678415298462, 0.0826452448964119, 0.17308282852172852, -0.11359373480081558, 0.2082379162311554, 0.2608776390552521, 0.22419142723083496, 0.3187122941017151, 0.39431437849998474, -0.10942213982343674, 0.5118804574012756, 0.0635187029838562, -0.005946507677435875, -0.05774739384651184, 0.15662281215190887, -0.025425227358937263, -0.1920340210199356, 0.5454593896865845, 0.1345330774784088, -0.012662554159760475, 0.008345354348421097, 0.2507614195346832, 0.03136873245239258, 0.020968742668628693, -0.037252116948366165, -0.04439302161335945, 0.12247619777917862, -0.05983123928308487, 0.2671027183532715, -0.04716682434082031, -0.12389535456895828, 0.11295221745967865, 0.14597013592720032, 0.12379349768161774, 0.2747696042060852, 0.39074137806892395, 0.38468581438064575, 0.19911836087703705, 0.12623324990272522, 0.018782293424010277, -0.17763841152191162, -0.06663338840007782, -0.7422465085983276, 0.10537870228290558, 0.4140720069408417, 0.7800849676132202, 0.15065424144268036, 0.3431786894798279, 0.12256352603435516, -0.059011925011873245, -0.030363580211997032, 0.13225111365318298, 0.05231175571680069, 0.10699836164712906, 0.34736016392707825, 0.04502208158373833, -0.03665754199028015, 0.11166176199913025, -0.051432471722364426, 0.15557898581027985, 0.2032443881034851, 0.07649284601211548, 0.07746030390262604, 0.24266557395458221, 0.02418111450970173, 0.07977317273616791, 0.28527143597602844, 0.7782447934150696, 0.20613601803779602, -0.06637774407863617, -0.4609750509262085, 0.1617472767829895, 0.851801335811615, 0.10159818083047867, 0.10115671157836914, 0.14667533338069916, 0.11875854432582855, -0.06680362671613693, -0.07516221702098846, -0.10292617231607437, -0.2739560008049011, -0.1920570582151413, -0.0400572195649147, -0.10607147961854935, -0.24672645330429077, -0.10839050263166428, -0.05335429683327675, -0.08004054427146912, 0.12672759592533112, 0.07460799068212509, 0.1843644380569458, 0.139626145362854, 0.2197832614183426, 0.07426082342863083, 0.45071765780448914, 0.3279379606246948, -0.49277299642562866, -0.07945495843887329, -0.10445630550384521, -0.4573773741722107, 0.45200783014297485, 0.02836010791361332, -0.0647067055106163, 0.1875283271074295, -0.21720850467681885, -0.34117603302001953, -0.4538990557193756, -0.21409350633621216, -0.3844839930534363, -0.34747716784477234, -0.331804484128952, -0.11512801051139832, -0.3781099021434784, -0.23513492941856384, -0.1410851925611496, 0.18161289393901825, 0.15148679912090302, 0.18299192190170288, 0.01356475055217743, 0.15013711154460907, 0.38164013624191284, -0.1754823476076126, -0.3748619854450226, -0.3918359577655792, -0.4724920392036438, -0.27840858697891235, 0.10306130349636078, -0.6052234768867493, 0.32490918040275574, -0.17762847244739532, -0.17794588208198547, -0.17416031658649445, -0.15608209371566772, -0.31624317169189453, -0.2629252076148987, -0.4212985932826996, -0.3330371081829071, -0.1396912932395935, -0.05788174271583557, 0.2924908399581909, -0.03628817945718765, -0.06068781763315201, -0.0027359118685126305, 0.0014925795840099454, 0.17747488617897034, 0.2092854231595993, 0.13601262867450714, 0.24151204526424408, 0.05987072363495827, 0.07442273944616318, 0.029111266136169434, 0.3806782364845276, -0.631134569644928, -0.2507205605506897, 0.1942741572856903, -0.2743881642818451, 0.1238841637969017, -0.20181816816329956, -0.03963550552725792, -0.3427578806877136, -0.05834127590060234, -0.3504027724266052, -0.14179560542106628, -0.1553182750940323, 0.05786668881773949, 0.2716011703014374, 0.40377095341682434, 0.3786420226097107, 0.10916895419359207, 0.02546335943043232, 0.0464644581079483, -0.2111680954694748, 0.17927893996238708, 0.1620101034641266, 0.3096611797809601, 0.20294888317584991, 0.39742064476013184, 0.400825560092926, -0.08998071402311325, -0.49394384026527405, -0.6439023017883301, 0.2029588520526886, 0.18647408485412598, -0.9866793155670166, -0.12691693007946014, -0.3343023955821991, 0.05229330435395241, -0.0671958401799202, -0.09201239049434662, 0.13112308084964752, 0.05687349662184715, 0.01621401682496071, 0.2001841515302658, 0.41197407245635986, 0.570466160774231, 0.2646079361438751, 0.22560714185237885, 0.02775990590453148, -0.11824540048837662, 0.03093761019408703, 0.07508402317762375, 0.16848468780517578, -0.01370954792946577, 0.24301108717918396, 0.22075609862804413, -0.22221072018146515, 0.1636073738336563, 0.010297688655555248, 0.7551262378692627, -0.4698272943496704, 0.4096403419971466, -0.8130460381507874, -0.1770603209733963, -0.42107635736465454, 0.20589809119701385, 0.12688596546649933, 0.019991787150502205, 0.001146579161286354, 0.046109605580568314, 0.09017907083034515, 0.36178314685821533, 0.34456703066825867, 0.5158671140670776, 0.2624627947807312, 0.1896211951971054, 0.16168226301670074, 0.1328667849302292, 0.033041443675756454, 0.002436755457893014, -0.16042685508728027, 0.08673786371946335, -0.30445176362991333, -0.5093294978141785, -0.5022605657577515, 0.47775599360466003, 0.4952142834663391, 0.6787259578704834, -0.4454980194568634, 0.4105174243450165, -0.26358339190483093, 0.23706886172294617, -0.2010924071073532, -0.12044605612754822, -0.062497951090335846, -0.08592527359724045, 0.07815594226121902, 0.13639982044696808, 0.06541024893522263, 0.32267624139785767, 0.3335249423980713, 0.3962150514125824, 0.5106194615364075, 0.1478869467973709, 0.14480838179588318, 0.022758502513170242, -0.03595784679055214, 0.023051457479596138, -0.189457967877388, -0.3310917019844055, 0.04744502902030945, -0.19464386999607086, 0.016780082136392593, 0.16881413757801056, -0.32603445649147034, 0.23864887654781342, -0.03374164551496506, 0.5599180459976196, 0.6798948645591736, 0.20171484351158142, 0.07181397080421448, -0.24653802812099457, -0.0880889818072319, -0.00567614333704114, -0.23390425741672516, 0.13821499049663544, 0.28580281138420105, 0.32350894808769226, 0.43864038586616516, 0.326977014541626, 0.22218741476535797, 0.013129779137670994, 0.09717622399330139, 0.025562293827533722, -0.012628970667719841, -0.27485454082489014, -0.2825699746608734, -0.28729909658432007, -0.08344599604606628, 0.21790452301502228, 0.02458951808512211, 0.1913960576057434, -0.18405170738697052, 0.4825742840766907, -0.014155988581478596, 0.5320311188697815, 0.501254141330719, -0.04248136654496193, 0.28144070506095886, -0.16162675619125366, -0.14867427945137024, -0.12828779220581055, -0.0766817182302475, -0.08570186048746109, -0.008301678113639355, 0.17357295751571655, 0.05570870265364647, 0.12579073011875153, 0.009093188680708408, -0.1259652078151703, 0.22470858693122864, 0.0951966717839241, -0.25024932622909546, -0.12163662910461426, -0.28316718339920044, -0.046618152409791946, -0.04743775725364685, 0.28396791219711304, 0.28944265842437744, -0.5124648213386536, -0.21824827790260315, 0.5501574873924255, 0.02830398455262184, 0.29398342967033386, 0.42713403701782227, 0.1243540495634079, -0.004831491503864527, 0.16052526235580444, 0.038997601717710495, -0.14949655532836914, -0.18672001361846924, -0.1422387808561325, -0.09704716503620148, -0.13172690570354462, -0.12136784195899963, 0.02632557414472103, -0.0930035188794136, 0.0051096281968057156, 0.07442207634449005, 0.04679729789495468, -0.044366415590047836, -0.12611696124076843, -0.2260752022266388, -0.048938069492578506, 0.011935703456401825, 0.21551600098609924, 0.20140603184700012, -0.410532683134079, -0.4849874675273895, 0.13416755199432373, -0.4601776599884033, -0.6325505971908569, -0.2435319721698761, -0.06866122037172318, 0.21506522595882416, 0.3795628249645233, 0.03580782935023308, -0.15953895449638367, -0.10642822831869125, -0.16954804956912994, 0.10263410955667496, -0.20853932201862335, -0.3000640273094177, -0.17155344784259796, -0.22275476157665253, -0.023546826094388962, 0.1346897929906845, 0.24956998229026794, 0.06251028180122375, -0.06442157179117203, -0.15785732865333557, 0.11434910446405411, 0.2611861228942871, 0.582434892654419, -0.1339816451072693, -0.7371596693992615, 0.8082016706466675, 0.2782994210720062, 0.033539846539497375, -0.019170915707945824, 0.05381932854652405, 0.28603363037109375, 0.3739929795265198, 0.15771086513996124, 0.13466811180114746, 0.24714693427085876, -0.09624044597148895, -0.21439644694328308, 0.04360322281718254, -0.12058164924383163, -0.1571541428565979, -0.03111748769879341, -0.09412535279989243, 0.12974077463150024, -0.0012083725305274129, -0.012638840824365616, 0.07295525074005127, 0.0052961022593081, 0.17549444735050201, 0.34512025117874146, 0.10136039555072784, 0.2878820300102234, -0.5324739813804626, -0.7517924904823303, 0.6609198451042175, -0.5574870705604553, -0.4157792925834656, 0.8245147466659546, 0.8034628629684448, 0.2784915864467621, 0.28860458731651306, -0.24740485846996307, 0.2670648396015167, 0.07933925092220306, -0.09906322509050369, 0.0051330262795090675, -0.137788325548172, 0.0593089684844017, -0.022925669327378273, 0.24729418754577637, 0.1587582528591156, 0.09117674827575684, 0.03127004951238632, 0.26433756947517395, 0.035936303436756134, 0.037866830825805664, -0.00818459503352642, -0.162386953830719, 0.07118134200572968, 0.29345372319221497, -0.6894696354866028, -0.33269381523132324, 0.4595257341861725, -0.149427130818367, -0.3863530457019806, 0.4029015004634857, 1.0663232803344727, 0.2629011869430542, 0.23298123478889465, -0.011514424346387386, 0.1517818570137024, 0.05323569476604462, -0.010259605944156647, 0.06400661915540695, 0.1483139842748642, 0.300214022397995, 0.1568937450647354, 0.23866556584835052, 0.12246497720479965, 0.12541694939136505, 0.07581137120723724, 0.05288248881697655, 0.14151428639888763, 0.12251686304807663, -0.0624673031270504, -0.1816534548997879, 0.06938183307647705, 0.09709279984235764, 0.11086741089820862, 0.06670249253511429, -0.6027729511260986, -0.17926502227783203, -0.022350406274199486, -0.0010673787910491228, 0.7675068378448486, 0.6777476668357849, 0.12390156090259552, -0.14339827001094818, -0.25033003091812134, 0.08176851272583008, 0.45184525847435, 0.29874101281166077, 0.25582215189933777, 0.2597213387489319, 0.23588727414608002, 0.41909459233283997, 0.12465771287679672, 0.1592060625553131, 0.2553517520427704, 0.20930592715740204, 0.5557138323783875, 0.19328585267066956, 0.18521949648857117, 0.13925550878047943, 0.3388391435146332, 0.3980652391910553, -0.10967209935188293, 0.09902343899011612, -0.5627120137214661, 0.0350385382771492, -0.0084750447422266, 0.005765842739492655, 0.2615388035774231, 0.510037899017334, -0.2054341733455658, -0.49385878443717957, 0.053900402039289474, -0.067361980676651, 0.1444534957408905, 0.20704202353954315, 0.3445979058742523, 0.2376658320426941, 0.3148249089717865, 0.20732524991035461, 0.13402290642261505, 0.18495656549930573, 0.4066712260246277, -0.15197595953941345, 0.1823251098394394, 0.09438029676675797, -0.11073369532823563, -0.14746612310409546, -0.02657255530357361, -0.09818562865257263, 0.30916404724121094, -0.39521682262420654, -0.35546958446502686, -0.027588240802288055, -0.02316293679177761, -0.029340149834752083, 0.15404380857944489, -0.6673564314842224, -0.6584168672561646, -0.4280893802642822, 0.08808636665344238, -0.09777280688285828, -0.13634027540683746, 0.036025144159793854, 0.3811986744403839, 0.039868611842393875, 0.05540443956851959, 0.03687594085931778, 0.2618792951107025, 0.22575601935386658, 0.2571008801460266, 0.35336852073669434, 0.009710640646517277, 0.2658007740974426, 0.08006464689970016, 0.04235738515853882, -0.46261462569236755, -0.5594547390937805, -0.21650151908397675, -0.2341180145740509, 0.05451051518321037, 0.011471918784081936, -0.03569323942065239, -0.028075164183974266, -0.0004050646675750613, 0.2976132035255432, 0.2176579236984253, 0.20963098108768463, -0.07122206687927246, 0.10293295234441757, 0.4000847041606903, 0.16262131929397583, -0.06783455610275269, -0.0742477998137474, -0.0831136554479599, -0.06159572675824165, -0.032366104423999786, -0.4322114884853363, -0.033666521310806274, 0.4036896526813507, 0.5311219096183777, -0.38135284185409546, -0.5363755822181702, 0.19328457117080688, 0.2863301634788513, 0.32470938563346863, 0.19880400598049164, -0.08059912919998169, -0.004622532054781914, -0.001110528246499598, -0.01654653623700142, 0.0038384031504392624, 0.025823695585131645, 0.006578237283974886, -0.31797465682029724, -0.3249276280403137, 0.27905717492103577, 0.39566826820373535, 0.4046781659126282, 0.6117050647735596, -0.17227992415428162, 0.3066887855529785, 0.5388718247413635, -0.34311047196388245, 0.585002601146698, 0.4688940644264221, 0.1739022582769394, -0.029818780720233917, 0.08077873289585114, 0.5475340485572815, 0.41192924976348877, 0.2376137673854828, 0.21953953802585602, 0.024195872247219086, 0.00585282314568758, -0.0021264427341520786, 0.003030819585546851, -0.02447003684937954], [0.03255809098482132, -0.014957760460674763, -0.004912334028631449, 0.014815296977758408, 0.033326681703329086, 0.0301517341285944, 0.016949957236647606, -0.011345978826284409, 0.01873071864247322, -0.024917544797062874, 0.025764573365449905, 0.010444394312798977, 0.3125714361667633, 0.459431916475296, 0.2868129014968872, 0.1638506054878235, -0.012360143475234509, -0.03465304523706436, 0.032470591366291046, 0.02129008248448372, -0.015031201764941216, -0.017399396747350693, -0.024964312091469765, 0.003928137943148613, -0.03170640394091606, 0.013454698026180267, 0.013072389177978039, 0.007882889360189438, 0.02676834538578987, 0.02260422334074974, 0.022848492488265038, 0.02963116392493248, 0.09864133596420288, 0.12965592741966248, 0.3960041105747223, 0.38914594054222107, 0.33254894614219666, 0.52390056848526, 0.813265860080719, 0.2925698161125183, 0.3792833983898163, 0.31474626064300537, -0.36150842905044556, -0.18574117124080658, -0.2501170039176941, -0.11583606153726578, 1.2629368305206299, 0.5584850311279297, 0.4180295765399933, 0.3801608085632324, 0.47992372512817383, 0.1044250950217247, -0.015493227168917656, -0.0030022861901670694, -0.022460976615548134, 0.021942080929875374, -0.019007636234164238, -0.021115904673933983, 0.1395532488822937, 0.4330349564552307, 0.5209664106369019, 0.5835654139518738, 0.3993860185146332, 0.5968602299690247, 0.9713545441627502, 0.6413434743881226, -0.01952757127583027, 0.1234043538570404, 0.10784989595413208, -0.6609727740287781, -0.3319584131240845, -0.06843824684619904, 0.006643557921051979, 0.04140592738986015, 0.259802907705307, 0.4123808741569519, 0.30770209431648254, 0.1112765446305275, 0.12185841053724289, -0.06303933262825012, -0.30108538269996643, -0.4349891245365143, -0.03326793015003204, -0.002022010972723365, 0.006082735024392605, 0.02826719358563423, -0.41601845622062683, 0.13149912655353546, -0.08934199810028076, 0.09986826032400131, 0.5159592628479004, -0.21722590923309326, -0.5292912125587463, -0.28115764260292053, -0.3675193786621094, -0.43165796995162964, -0.2930450141429901, -0.2772899866104126, -0.16332074999809265, 0.08685172349214554, -0.1834547072649002, -0.3737180233001709, -0.05332035571336746, -0.3982110619544983, -0.14567863941192627, 0.6964479684829712, 0.6432488560676575, 0.7960131168365479, 0.051786866039037704, -0.3713280260562897, -0.3669661581516266, 0.028858445584774017, -0.012147856876254082, -0.31912529468536377, -0.3224317729473114, -0.1762329787015915, -0.5429539680480957, -0.3958713412284851, -0.03950623795390129, 0.02253730222582817, -0.4335210919380188, -0.3703068792819977, -0.22775810956954956, -0.04713330790400505, 0.1259273886680603, -0.06709146499633789, 0.06536398082971573, 0.09257491677999496, 0.04093146696686745, 0.12172455340623856, 0.03432520478963852, 0.22388657927513123, 0.2232508808374405, 0.29014652967453003, 0.02397807501256466, 0.4580138921737671, 0.40753015875816345, 0.23461689054965973, -0.29861295223236084, 0.14567986130714417, -0.006422600708901882, 0.01850530505180359, 0.17944872379302979, -0.774757444858551, -0.8977033495903015, -0.6305943131446838, -0.05648931860923767, 0.007840130478143692, -0.07909321039915085, 0.2295456826686859, 0.1990566998720169, 0.09897252172231674, 0.09814196825027466, 0.013078024610877037, 0.3076432943344116, -0.067366823554039, 0.13150963187217712, 0.14099088311195374, -0.20388132333755493, -0.20899009704589844, -0.10736016929149628, -0.07166122645139694, -0.0003979138855356723, 0.05153707042336464, -0.2806776762008667, 0.27196797728538513, 0.33935749530792236, 0.5180551409721375, -0.015713144093751907, 0.17328542470932007, 0.5205799341201782, -0.8780249357223511, -0.47105351090431213, 0.23170675337314606, 0.01916271634399891, 0.021244609728455544, 0.23487454652786255, 0.1177920326590538, 0.042450763285160065, -0.02797294594347477, 0.12117448449134827, -0.05491112545132637, -0.24369393289089203, -0.2300800234079361, -0.41207751631736755, -0.31953781843185425, -0.6436026096343994, 0.0011657936265692115, -0.16595299541950226, -0.2141033113002777, 0.262661874294281, 0.518726646900177, 0.41240057349205017, 0.28542467951774597, 0.41483113169670105, -0.25901272892951965, 0.008332878351211548, 0.22227177023887634, 0.3664807975292206, -0.9403401613235474, -0.8242021203041077, 0.0191536583006382, -0.29985252022743225, -0.02135305665433407, 0.1517682522535324, 0.320690393447876, 0.24066221714019775, 0.15525774657726288, -0.10372181236743927, -0.14536237716674805, -0.2573893368244171, -0.3614022135734558, -0.5080340504646301, -0.25501152873039246, -0.1747201681137085, -0.19244857132434845, -0.4954054355621338, -0.14384713768959045, 0.2132011353969574, 0.5664618015289307, 0.7648362517356873, 0.5546603202819824, 0.3677240014076233, -0.029633283615112305, 0.3464095890522003, -0.3676116168498993, 0.2964729368686676, -0.6344391703605652, -0.7978455424308777, -0.28204086422920227, -0.0002144752797903493, -0.02933560498058796, -0.10892266035079956, 0.33854204416275024, 0.08012789487838745, 0.2403288036584854, 0.25020474195480347, 0.004811048973351717, -0.2533982992172241, -0.2850840985774994, -0.4090466797351837, -0.2376108318567276, -0.2197946459054947, -0.3298357427120209, -0.02632446214556694, -0.15350022912025452, 0.011676766909658909, 0.5010125041007996, 0.7840506434440613, 1.1325502395629883, 0.3804819583892822, -0.20363104343414307, 0.3895816504955292, 0.42471909523010254, 0.18098917603492737, -0.847386360168457, -0.646022379398346, -0.7196313738822937, -0.3223736882209778, -0.04346992447972298, 0.2778666019439697, 0.06387601047754288, -0.05997789651155472, 0.2553863525390625, -0.033300165086984634, -0.14880403876304626, -0.23523446917533875, -0.6041436791419983, -0.32269376516342163, -0.09078756719827652, -0.11080801486968994, -0.05040249228477478, -0.08855350315570831, 0.32733193039894104, 0.2843693196773529, 0.31585583090782166, 0.6249091029167175, 0.8142184615135193, 1.2511918544769287, -0.50445955991745, 0.44151198863983154, 0.40935584902763367, -0.4932140111923218, -0.8455331325531006, -0.26491525769233704, -0.549549400806427, -0.3180370032787323, 0.09025119990110397, 0.08761885017156601, 0.1134963408112526, 0.0733368843793869, -0.099995918571949, 0.053104642778635025, 0.03282266855239868, -0.02407420240342617, 0.013923076912760735, -0.19683651626110077, 0.022890770807862282, -0.04278138279914856, 0.02745508775115013, 0.02656298689544201, 0.24250240623950958, 0.2705593705177307, 0.3043653070926666, 0.9405918121337891, 0.37816765904426575, 0.30572575330734253, -0.9194697141647339, 0.3651795983314514, 0.13896004855632782, -0.06664519757032394, -0.5316824316978455, -0.1083892434835434, -0.12589812278747559, -0.06840179115533829, 0.17409314215183258, -0.08551933616399765, 0.21997486054897308, 0.11536363512277603, -0.018402427434921265, 0.18384303152561188, -0.0116374921053648, 0.04921471327543259, 0.05224050581455231, -0.012873228639364243, -0.20308297872543335, -0.22718757390975952, 0.005924596916884184, -0.4195941686630249, -0.2225438803434372, 0.11896640062332153, -0.03211575001478195, 0.3169647455215454, -0.0878770500421524, -0.10927242785692215, -0.5799247622489929, 0.04520993307232857, 0.337696373462677, -0.08293358981609344, 0.4054713547229767, -0.4127386808395386, -0.08549799770116806, -0.12368977814912796, 0.1813231110572815, 0.05701829493045807, 0.039648834615945816, 0.1384580433368683, 0.2405686378479004, 0.396403431892395, 0.2728509306907654, -0.029570436105132103, 0.08404199779033661, 0.0583513118326664, -0.15984636545181274, -0.08749742805957794, -0.04091267287731171, -0.13592787086963654, 0.11489522457122803, 0.0014546052552759647, -0.2218760848045349, 0.06948508322238922, -0.2252991795539856, 0.1712198704481125, -0.5567964315414429, -0.35705435276031494, 0.45212194323539734, -0.14699651300907135, 0.5783697962760925, -0.4372101128101349, 0.2908422350883484, -0.00927512813359499, 0.07668358087539673, -0.003587320214137435, 0.25344011187553406, 0.2604077458381653, 0.33010736107826233, 0.276872843503952, -0.027553986757993698, -0.15966840088367462, 0.13414403796195984, -0.024594081565737724, 0.004086744971573353, 0.06734882295131683, 0.13099068403244019, 0.30193936824798584, 0.32062843441963196, 0.23769310116767883, 0.27988091111183167, 0.008610475808382034, -0.17185631394386292, -0.0724438801407814, -0.3602703809738159, 0.4436494708061218, -0.20003242790699005, -0.29635509848594666, 0.5130174160003662, -0.8972334265708923, 0.15524789690971375, -0.1542341113090515, 0.07351281493902206, 0.18523243069648743, 0.24806934595108032, 0.17242582142353058, 0.23649701476097107, 0.1352788358926773, 0.028647756204009056, 0.04738188907504082, -0.04235000163316727, -0.09402944892644882, 0.07108035683631897, -0.015502426773309708, -0.0739133208990097, 0.029068436473608017, 0.3575115203857422, 0.4288484454154968, -0.04295053333044052, 0.09073115140199661, -0.9362521171569824, -0.7714747786521912, -0.09960555285215378, 0.45063379406929016, 0.002190773840993643, -0.13676999509334564, 0.43633410334587097, -0.7830970287322998, -0.7483901977539062, -0.5381782650947571, -0.062354106456041336, 0.05499046668410301, 0.20359724760055542, 0.07474184781312943, 0.031057100743055344, 0.12248440831899643, -0.028826067224144936, 0.24814344942569733, 0.012227058410644531, -0.09576983004808426, 0.1661311388015747, 0.1699199378490448, -0.03396179527044296, -0.09706749022006989, 0.21822957694530487, 0.2513991892337799, 0.06063941866159439, -0.23474247753620148, -0.729576587677002, -0.579705536365509, 0.08135053515434265, 0.09652196615934372, -0.4289303123950958, -0.7123026847839355, 0.11466969549655914, -0.4125513434410095, -0.4066506326198578, -0.3584517538547516, -0.08202245086431503, 0.07313059270381927, 0.0030026156455278397, -0.10224368423223495, -0.02720429003238678, 0.24858230352401733, 0.29449644684791565, 0.2691068947315216, 0.3541008532047272, -0.06789691746234894, 0.2675469219684601, 0.005122732371091843, 0.014580572955310345, -0.015472861006855965, 0.0008757002651691437, -0.055903464555740356, -0.06049360707402229, -0.33986735343933105, -0.11343313753604889, -1.2971419095993042, -0.3710474967956543, -0.022579556331038475, -0.7398413419723511, -0.5452813506126404, 0.302351176738739, 0.32589006423950195, -0.14933113753795624, 0.023255223408341408, 0.08595125377178192, 0.14762768149375916, 0.06254471838474274, -0.12758171558380127, 0.1760183572769165, 0.03919612243771553, 0.27214890718460083, 0.28381216526031494, 0.014247952960431576, 0.19128389656543732, 0.1767021119594574, 0.19405505061149597, -0.0034124741796404123, 0.16293169558048248, 0.3818008005619049, 0.1986561268568039, 0.2897479832172394, 0.24837802350521088, 0.4463965892791748, -0.5148743391036987, -0.32482269406318665, -0.703331708908081, -0.8025245666503906, -0.6613531708717346, 0.1061016395688057, 0.5312923789024353, 0.20930658280849457, 0.036035872995853424, 0.06643480807542801, 0.019776439294219017, -0.10849872976541519, -0.04890310764312744, -0.0025481553748250008, 0.2895966172218323, 0.408213347196579, 0.06146926060318947, -0.02271776832640171, 0.03903299197554588, -0.15732252597808838, -0.005148767493665218, -0.0031350969802588224, 0.16996628046035767, 0.13967294991016388, -0.2214231640100479, 0.005840275902301073, 0.4397755265235901, 0.43686312437057495, 0.555388331413269, -0.07097174227237701, -0.42173489928245544, -0.1355385184288025, 0.30927368998527527, 0.17776836454868317, 0.48605382442474365, 0.34182021021842957, 0.21322721242904663, 0.1048244759440422, 0.019094252958893776, -0.07372000813484192, 0.3087119162082672, 0.40847182273864746, 0.12617014348506927, 0.11776620894670486, 0.10477771610021591, 0.038643978536129, -0.28352251648902893, -0.04873398318886757, -0.17502254247665405, -0.3177201747894287, -0.11178377270698547, -0.005155111663043499, -0.17324481904506683, -0.07697255164384842, -0.10725244879722595, -0.11702502518892288, 0.3586702048778534, -0.1966741532087326, -0.022429319098591805, 0.26020684838294983, 0.4043413996696472, 0.040512677282094955, 0.35177868604660034, 0.14027073979377747, -0.21611271798610687, -0.085619255900383, 0.028029577806591988, 0.16045726835727692, 0.321078360080719, 0.3833424746990204, 0.41301798820495605, 0.1004214957356453, 0.08581983298063278, 0.07348193973302841, -0.22050589323043823, -0.14206862449645996, -0.1827767938375473, -0.3105652630329132, -0.2701915204524994, -0.00208482937887311, -0.10755615681409836, -0.36990126967430115, -0.48781508207321167, -0.6332510113716125, 0.4402143359184265, -0.33772337436676025, -0.45564669370651245, -0.28743410110473633, -0.38400545716285706, -0.22660601139068604, 0.4084329605102539, 0.005845330189913511, -0.22093026340007782, -0.03659672662615776, 0.0839756578207016, 0.22164355218410492, 0.10541395097970963, 0.3561660349369049, 0.23022645711898804, 0.1075754314661026, 0.21608807146549225, 0.05331643298268318, -0.1492353230714798, 0.0720306858420372, -0.09729372709989548, -0.40339890122413635, -0.07693388313055038, 0.21658869087696075, 0.2490939050912857, -0.11655744910240173, -0.3650779128074646, -0.41150158643722534, 0.5734575986862183, 0.12821000814437866, -0.3851175904273987, -0.4666231870651245, 0.03939592465758324, -0.1241290494799614, 0.6456142663955688, -0.3060872554779053, -0.484963983297348, -0.06473773717880249, -0.09154362976551056, -0.0006066401838324964, 0.03726998344063759, 0.21709875762462616, 0.2440609484910965, 0.20876771211624146, 0.08654537796974182, 0.22984927892684937, 0.2298688441514969, -0.010744663886725903, -0.27126985788345337, 0.024136796593666077, -0.3489329218864441, -0.17523808777332306, -0.15290714800357819, -0.7100487947463989, -0.5503372550010681, -0.6199882626533508, -0.07043713331222534, 0.1545705795288086, 0.021369608119130135, -0.01163025014102459, -0.4293237626552582, -0.2099347859621048, 0.48457983136177063, -0.2298453003168106, -0.2245594710111618, -0.2385891228914261, -0.03479783609509468, -0.05769950523972511, 0.018737532198429108, 0.027560822665691376, 0.1737833470106125, 0.29780304431915283, 0.4672302305698395, 0.3278282880783081, 0.3132876455783844, -0.16457337141036987, -0.4219685196876526, -0.29592373967170715, -0.7600370645523071, -0.7477166652679443, -0.4605764150619507, -0.44708704948425293, -0.56844562292099, -0.8274326920509338, -0.5442662835121155, -0.0351903960108757, -0.007692541927099228, -0.003996393643319607, 0.028446407988667488, -0.14372743666172028, -0.448052316904068, -0.3707105219364166, 0.04463275894522667, -0.5497742295265198, -0.47066280245780945, -0.009026259183883667, -0.10424165427684784, -0.0028971268329769373, 0.13033664226531982, 0.3498169779777527, 0.39088431000709534, 0.1234818696975708, 0.3527480959892273, -0.20698224008083344, -0.2682303786277771, -0.23990674316883087, -0.6280872225761414, -0.5615120530128479, -0.07175464183092117, -0.3087072968482971, -0.049721043556928635, -0.09096947312355042, -0.37864217162132263, 0.026110535487532616, -0.015012281946837902, -0.02531728707253933, -0.46639230847358704, 0.06794293969869614, -0.354809045791626, -1.0146708488464355, -0.5425976514816284, -0.6336004734039307, -0.9399755597114563, -0.5067290663719177, -0.12812545895576477, -0.12130492180585861, -0.27303290367126465, -0.25982603430747986, -0.3155098855495453, -0.13305194675922394, -0.1392989158630371, -0.2406262457370758, -0.22966213524341583, -0.20311760902404785, -0.460321843624115, -0.1980876922607422, -0.12953133881092072, -0.13347581028938293, -0.18114590644836426, -0.43818214535713196, 0.04231152683496475, -0.004126438405364752, -0.03051670268177986, -0.031058743596076965, 0.018131662160158157, -0.07271040976047516, -0.5221807956695557, -0.8431786894798279, -1.1896495819091797, -1.1005408763885498, -0.8572624921798706, -0.9446229934692383, -1.0364654064178467, -1.087514042854309, -0.9116231203079224, -1.0480717420578003, -1.8783825635910034, -1.2316794395446777, -0.7994171380996704, -0.8683115839958191, -0.6674763560295105, -0.8066559433937073, -0.46036574244499207, 0.2942681908607483, -0.15717813372612, -0.37247434258461, 0.14480656385421753, 0.07925961166620255, -0.03292294591665268, 0.0072098844684660435, -0.004768652841448784, -0.016099130734801292, 0.024424809962511063, 0.03228991851210594, 0.06528275460004807, 0.11595328897237778, -0.2259102165699005, -0.3101653754711151, -0.34302499890327454, -0.34067681431770325, -0.4975166916847229, -0.5869593620300293, -0.6969206929206848, -0.5031369924545288, -0.9291273355484009, -0.5513225197792053, -0.12173914909362793, -0.12170235067605972, -0.24920058250427246, -0.20610329508781433, 0.2816907465457916, 0.19634826481342316, 0.18207845091819763, -0.04788735881447792, -0.0010087959235534072, 0.007226067129522562, -0.022425051778554916, 