{"model.1.weight": [[-0.030145131051540375, -0.028095681220293045, -0.0348663330078125, -0.007224926259368658, 0.0113518750295043, 0.013831871561706066, -0.004608750343322754, -0.018441464751958847, 0.023955341428518295, -0.035421814769506454, -0.0077988081611692905, 0.02893913723528385, -0.007941353134810925, -0.0276368148624897, 0.022709166631102562, -0.0017010016599670053, 0.009128579869866371, -0.009011154063045979, -0.019163528457283974, 0.007445765659213066, 0.020395804196596146, -0.0257937740534544, 0.014239542186260223, -0.0354035310447216, -0.028384512290358543, 0.029544614255428314, 0.023535264655947685, 0.014988516457378864, -0.019285930320620537, 0.028265902772545815, 0.03025037981569767, 0.027026738971471786, 0.0105513297021389, -0.018857521936297417, -0.003661109134554863, -0.0675022229552269, -0.07455812394618988, -0.10321877151727676, -0.0885714590549469, 0.23558974266052246, 0.22625407576560974, 0.006179580464959145, 0.42662927508354187, 0.45441871881484985, -0.3063797652721405, -0.17698058485984802, 0.2848416864871979, 0.467342346906662, 0.5536504983901978, 0.4166889488697052, 0.4096183776855469, 0.11001420766115189, 0.030104229226708412, -0.02841382473707199, -0.003931744024157524, -0.029200606048107147, -0.011837687343358994, -0.002491746796295047, -0.01805441826581955, 0.027772024273872375, 0.3755016326904297, -0.032465022057294846, -0.03183295205235481, -0.24426214396953583, -0.08468089997768402, -0.17358598113059998, -0.48555290699005127, -0.599157989025116, -0.39910340309143066, -0.611193060874939, -0.09317079931497574, 0.08164916187524796, -0.04837239906191826, -0.2116132378578186, -0.6275892853736877, 0.03316353261470795, 0.018352961167693138, 0.3035659193992615, 0.5718037486076355, 0.31396186351776123, 0.09516739845275879, 0.1000254899263382, -0.01598280668258667, -0.011546778492629528, 0.031135763972997665, -0.032601796090602875, 0.3936295509338379, 0.46801117062568665, 0.11249691992998123, -0.45986875891685486, 0.09107112884521484, 0.3588082492351532, -0.19160021841526031, -0.33093446493148804, -0.6904338002204895, -0.8732182383537292, -0.7024189233779907, -0.9406017065048218, -0.801734447479248, -0.6796174049377441, -0.5025072693824768, -0.042976558208465576, -0.4146162271499634, -0.5028392672538757, -0.5017446279525757, -0.2840578854084015, -0.22548750042915344, -0.5834751129150391, -0.4952687621116638, 0.028267936781048775, 0.07884570211172104, 0.03351947292685509, 0.017326844856142998, 0.02866339311003685, 0.382388710975647, 0.20478452742099762, 0.23486091196537018, -0.5635055303573608, 0.10170870274305344, 0.23829373717308044, -0.4517107903957367, -0.8962539434432983, -0.7713339924812317, 0.011015510186553001, -0.22804993391036987, -0.14552569389343262, -0.19616256654262543, -0.2540879547595978, -0.14975465834140778, -0.11116666346788406, -0.14571945369243622, -0.09678193181753159, -0.2489635944366455, -0.18702849745750427, -0.22628077864646912, 0.13172011077404022, -0.4072072505950928, -0.2873249650001526, -0.3717765212059021, -0.3608557879924774, -0.02386905625462532, -0.026871243491768837, 0.659008800983429, 0.3228076994419098, 0.5933584570884705, -0.2924897074699402, -0.39161810278892517, -0.196443572640419, -0.9486144781112671, -0.9487475156784058, -0.6500933170318604, -0.23603738844394684, -0.25804033875465393, -0.36293578147888184, -0.16859355568885803, 0.06530316919088364, -0.19836413860321045, -0.2860828638076782, -0.2621996998786926, -0.29007968306541443, -0.07232128828763962, -0.26437845826148987, -0.010186545550823212, 0.06475924700498581, -0.09189625829458237, -0.40054455399513245, 0.0956205427646637, -0.16663040220737457, -0.034710194915533066, -0.3696136176586151, -0.06666716933250427, 0.38295528292655945, 0.40062186121940613, -0.5189354419708252, -0.05663537606596947, -0.05727408826351166, -0.5252685546875, -0.9739587306976318, -0.545333743095398, -0.32007458806037903, -0.23806053400039673, -0.31389257311820984, -0.18919390439987183, -0.21238167583942413, -0.05538715049624443, -0.11040181666612625, 0.11235932260751724, -0.13219262659549713, -0.020636294037103653, -0.06496166437864304, 0.059603527188301086, 0.1444522887468338, -0.0720125362277031, -0.4388332664966583, 0.27400854229927063, 0.20894840359687805, -0.01791512593626976, -0.2206936776638031, -0.0007996288477443159, 0.1886633336544037, -0.19406193494796753, -0.5235605239868164, -0.45591503381729126, -0.24433490633964539, -0.651239275932312, -0.6344945430755615, -0.2521408200263977, -0.2410830408334732, -0.03814203664660454, 0.03875624015927315, 0.007936902344226837, -0.26254841685295105, -0.0733690857887268, -0.0410090833902359, -0.11670702695846558, -0.07233108580112457, -0.015111062675714493, 0.18136902153491974, 0.19743455946445465, 0.11193948984146118, -0.43104949593544006, -0.3208155333995819, 0.29884493350982666, 0.44423165917396545, -0.13488847017288208, 0.07089448720216751, 0.37048962712287903, 0.32413747906684875, -0.3184603154659271, -0.013831929303705692, -0.19933438301086426, -0.5761993527412415, -0.6015239953994751, -0.3210718631744385, -0.3579398989677429, -0.4864800274372101, -0.13258692622184753, 0.20335116982460022, 0.2554033696651459, 0.11576898396015167, -0.026045560836791992, 0.168849915266037, 0.029323486611247063, 0.1941162794828415, 0.11932116001844406, 0.17866569757461548, 0.08281586319208145, -0.13218055665493011, -0.14228634536266327, 0.06046685203909874, -0.022006938233971596, 0.3681047856807709, 0.0009693289757706225, 0.15042944252490997, 0.2708177864551544, -0.29202619194984436, -0.12420295178890228, 0.2603587806224823, -0.10183674842119217, -0.33668068051338196, -0.2699573338031769, -0.2623744308948517, 0.031455863267183304, -0.2475198656320572, -0.27009642124176025, 0.29914507269859314, 0.46270421147346497, 0.4720456898212433, 0.2457270622253418, 0.18837016820907593, 0.3819921612739563, 0.2662097215652466, 0.05281156674027443, 0.2652747929096222, 0.06651683151721954, -0.3061215579509735, 0.03851469233632088, 0.0669315829873085, 0.08277132362127304, 0.15916657447814941, -0.007837917655706406, 0.23769068717956543, 0.23672346770763397, -0.20112738013267517, 0.07476648688316345, -0.005855369847267866, -0.17522656917572021, -0.08487232029438019, -0.09996213018894196, -0.2872171401977539, 0.03551959618926048, -0.19760183990001678, 0.016786795109510422, 0.4480133354663849, 0.4762648344039917, 0.5481500625610352, 0.3683372735977173, 0.12973904609680176, 0.15392950177192688, 0.24160347878932953, 0.03192061930894852, 0.2445148378610611, 0.07981070876121521, 0.09350384771823883, 0.4842016100883484, 0.4996276795864105, 0.38497406244277954, -0.08443505316972733, 0.15121830999851227, 0.3243657350540161, -0.3404921293258667, 0.3228827714920044, 0.5136507153511047, -0.024780666455626488, -0.0013977609341964126, -0.1471996009349823, -0.19801050424575806, -0.21116909384727478, -0.00885200034826994, -0.09257867932319641, 0.06052856892347336, 0.28117913007736206, 0.10695071518421173, 0.17540501058101654, 0.051590628921985626, -0.10889789462089539, -0.09908328950405121, 0.019282512366771698, -0.05525616928935051, 0.298432320356369, 0.12457617372274399, 0.5207809209823608, 0.28185832500457764, 0.24474038183689117, -0.1437085121870041, 0.150890052318573, 0.023666370660066605, 0.23390039801597595, -0.1337195336818695, -0.3661988079547882, -0.15359018743038177, -0.859328031539917, -0.16734491288661957, 0.13879966735839844, -0.08842285722494125, -0.13596029579639435, 0.08543498814105988, -0.05177116021513939, 0.07960701733827591, 0.18108423054218292, 0.2730265259742737, 0.16149097681045532, -0.09378547966480255, -0.17540201544761658, -0.19051805138587952, -0.25053972005844116, -0.4063207805156708, -0.1863270401954651, -0.23709812760353088, -0.11034262925386429, 0.13058680295944214, 0.25945061445236206, 0.2965678870677948, -0.08214879781007767, 0.3069097101688385, 0.4029562473297119, 0.30548349022865295, 0.24258649349212646, -0.4009552299976349, -0.43960538506507874, -0.1542847454547882, 0.07745038717985153, 0.12593698501586914, 0.040993984788656235, -0.09497921168804169, 0.030194181948900223, 0.17130762338638306, 0.07950576394796371, 0.2078065723180771, -0.010132296942174435, 0.07140812277793884, 0.07286793738603592, 0.008123045787215233, -0.20699860155582428, -0.829837441444397, -0.7755872011184692, -0.9133959412574768, -0.7293437719345093, -0.5378554463386536, -0.21567828953266144, 0.22401820123195648, 0.009263843297958374, 0.019690323621034622, 0.002377319149672985, 0.17473232746124268, 0.5081276893615723, -0.6685491800308228, -0.07086597383022308, -0.333170622587204, -0.32580551505088806, 0.07991307973861694, 0.10109463334083557, 0.015345649793744087, 0.0009006027248688042, 0.09207428991794586, 0.1090216338634491, 0.11363847553730011, -0.07775525748729706, 0.11313209682703018, -0.03708355873823166, 0.10901006311178207, -0.06843884289264679, -0.12871022522449493, -0.3267224431037903, -0.5282565951347351, -0.758202850818634, -0.4104885458946228, -0.4991888999938965, -0.11412551999092102, -0.0283243115991354, -0.11196151375770569, 0.0037771763745695353, -0.27296939492225647, -0.4311468303203583, -0.5643320083618164, -0.03922737017273903, 0.0004284284368623048, 0.02366042509675026, -0.0296835508197546, -0.14028459787368774, 0.0030815189238637686, 0.034859661012887955, 0.22140978276729584, 0.12015698105096817, 0.16016781330108643, -0.06091070547699928, 0.19749054312705994, -0.06307729333639145, 0.08903598040342331, -0.14281760156154633, -0.08568957448005676, -0.3093155026435852, -0.7376657724380493, -0.7312114834785461, -0.6491855382919312, -0.7365992069244385, -0.3326568305492401, -0.22752714157104492, -0.1103510931134224, -0.29755014181137085, -0.4499131739139557, -0.636163055896759, -0.14487330615520477, 0.1782606691122055, -0.05182212218642235, -0.2030843198299408, -0.2916311025619507, -0.09586803615093231, -0.05423777550458908, 0.03656282648444176, 0.011618629097938538, 0.27692580223083496, 0.05393519625067711, -0.039230428636074066, 0.04453711584210396, -0.24270597100257874, 0.06146085262298584, -0.07844693958759308, -0.008599789813160896, -0.35739898681640625, -0.8982332348823547, -0.5108597278594971, -0.03129371628165245, -0.7498366832733154, -0.23706874251365662, 0.33471596240997314, -0.01694967970252037, 0.05280177667737007, -0.5371169447898865, -0.5954269170761108, 0.037667278200387955, 0.08904172480106354, 0.1717294156551361, -0.11326440423727036, -0.1805589497089386, 0.05385136976838112, 0.11514391750097275, 0.06368421018123627, 0.19286885857582092, 0.22919128835201263, 0.1581001728773117, -0.05404254049062729, -0.0661882683634758, -0.13341835141181946, -0.004143552388995886, -0.21801520884037018, 0.02373286709189415, -0.2759143114089966, -0.12289194017648697, -0.11186417937278748, 0.04904709383845329, 0.01772918365895748, 0.06632265448570251, 0.32978934049606323, 0.26816296577453613, 0.09327451884746552, -0.5762650966644287, -0.6345692276954651, -0.014354643411934376, -0.15310654044151306, -0.2074653059244156, -0.054008420556783676, -0.04570271819829941, 0.052136991173028946, 0.00775519385933876, 0.1244286447763443, 0.23969623446464539, 0.22502858936786652, 0.11585825681686401, -0.2273063212633133, -0.2745707035064697, 0.04785836115479469, -0.13934117555618286, -0.1779654622077942, 0.028436793014407158, -0.45949140191078186, -0.532038688659668, -0.20211166143417358, -0.2806175649166107, 0.1613498479127884, 0.5417811274528503, 0.2805204391479492, 0.33731749653816223, 0.6762911081314087, 0.40793609619140625, -0.6944235563278198, -0.4223986864089966, -0.26136454939842224, -0.05656856298446655, 0.18914653360843658, -0.019844915717840195, 0.15012191236019135, 0.02380598522722721, 0.037397220730781555, 0.23485992848873138, 0.3288269340991974, 0.004520832560956478, -0.13152316212654114, -0.16728812456130981, -0.08614545315504074, -0.12665437161922455, 0.0042383405379951, -0.283430278301239, -0.4870312213897705, -0.5353440642356873, -0.26229384541511536, 0.09363503009080887, 0.304582804441452, 0.27276358008384705, 0.5193104147911072, 0.02888638712465763, 0.43098026514053345, -0.07008793205022812, -1.1000053882598877, -0.5155405402183533, -0.011707325465977192, 0.06486575305461884, 0.09941362589597702, 0.20094355940818787, 0.007908357307314873, 0.016585856676101685, 0.10582587122917175, 0.1245638057589531, 0.08344224095344543, 0.07675232738256454, -0.03459373116493225, -0.05094236135482788, -0.10083124041557312, -0.11712409555912018, 0.07164274901151657, -0.22161412239074707, -0.3574996590614319, -0.15454234182834625, -0.09217838943004608, 0.1533450484275818, 0.013829128816723824, 0.31685903668403625, 0.3846144676208496, 0.39999687671661377, 0.0467979870736599, -0.5188773274421692, -0.5142264366149902, -0.40805602073669434, -0.11080573499202728, -0.05518262833356857, 0.008261622861027718, -0.09562492370605469, 0.09448147565126419, -0.002742248820140958, -0.05453548952937126, -0.09777582436800003, -0.04847044497728348, 0.045139629393815994, -0.08210109919309616, -0.15305401384830475, -0.23814624547958374, -0.045014746487140656, -0.016448117792606354, 0.10192422568798065, -0.12137098610401154, -0.10262283682823181, 0.25938743352890015, 0.3641062378883362, 0.28391125798225403, 0.2794434428215027, -0.03251935914158821, 0.4514159560203552, 0.3125200867652893, -0.24487321078777313, -0.2616954445838928, -0.2702000141143799, -0.01673043519258499, 0.15951474010944366, 0.16179034113883972, 0.027185987681150436, 0.09542194753885269, -0.11039206385612488, -0.186277374625206, -0.02521018497645855, -0.05219331383705139, 0.02276737429201603, -0.013367784209549427, 0.034575190395116806, -0.014127232134342194, 0.24010758101940155, -0.17138540744781494, -0.279577374458313, -0.25181010365486145, 0.07497650384902954, 0.539332926273346, 0.4340701103210449, 0.3384428024291992, 0.5146800875663757, -0.020414574071764946, -0.007564958184957504, -0.008420306257903576, -0.61439049243927, -0.7874397039413452, -0.4483359456062317, 0.14432255923748016, 0.1569199562072754, 0.10646414756774902, 0.03943075239658356, 0.10419660061597824, 0.061997052282094955, 0.11479642987251282, 0.238962784409523, -0.10637228935956955, -0.0094477329403162, 0.146349236369133, 0.1088833436369896, 0.40100589394569397, 0.059907857328653336, -0.5710934996604919, -0.10621703416109085, -0.3394550681114197, -0.003943540155887604, 0.39400994777679443, 0.5884538888931274, 0.34269869327545166, 0.5344960689544678, -0.011454859748482704, 0.00962221622467041, 0.02570495568215847, -0.516562819480896, -0.4416850507259369, -0.9026183485984802, 0.15602834522724152, -0.1953125, -0.005206505302339792, -7.686715252930298e-05, 0.1432972401380539, 0.0781407430768013, -0.03932179883122444, -0.09275524318218231, -0.26703178882598877, -0.06089241802692413, 0.039387933909893036, -0.24990814924240112, 0.2789932191371918, 0.11843924224376678, 0.22264136373996735, 0.18396493792533875, 0.46481451392173767, 0.45574724674224854, 0.3746531307697296, 0.31754446029663086, 0.41965144872665405, 0.41674157977104187, -0.024119233712553978, -0.00032013654708862305, -0.027298592031002045, 0.011903124861419201, 0.014112145639955997, -0.03992747515439987, -0.4107172191143036, -0.43679460883140564, -0.4118926227092743, -0.1416863352060318, -0.12739680707454681, -0.6515128016471863, -0.397226482629776, -0.16176731884479523, -0.011983194388449192, -0.045345503836870193, -0.21114982664585114, -0.5187109708786011, -0.4391244649887085, -0.13950946927070618, -0.6517875790596008, -0.6832892298698425, -0.2799840271472931, 0.46983593702316284, 0.5293184518814087, 0.32181307673454285, -0.016325317323207855, 0.015695661306381226, 0.03480135276913643, -0.03530155122280121, -0.03139738738536835, -0.029450859874486923, -0.014043118804693222, -0.7293750047683716, -0.4313390254974365, -0.3634157180786133, -0.5334973931312561, -0.441641628742218, -0.28021860122680664, -0.46047407388687134, -0.3126577138900757, -0.1337263137102127, -0.2659371495246887, -0.7388569712638855, -0.22809554636478424, -0.2887429893016815, 0.13723960518836975, -0.4577521085739136, -0.427260160446167, 0.09266109019517899, -0.4639781713485718, -0.2993236482143402, 0.062039922922849655, -0.022349810227751732, 0.16466034948825836, -0.027455875650048256, 0.0013238106621429324, 0.0077194105833768845, -0.02811189368367195, 0.014880670234560966, -0.027825582772493362, 0.14810530841350555, 0.17567883431911469, -0.15211854875087738, -0.08836564421653748, -0.19430173933506012, -0.37771254777908325, -0.5458416938781738, -0.21844671666622162, -0.14004004001617432, -0.2565312683582306, -0.8717981576919556, -0.5632727146148682, -0.38291099667549133, -0.6543006896972656, -0.44753748178482056, -0.4455103576183319, 0.025241563096642494, -0.0017189299687743187, -0.01079214084893465, -0.028053458780050278, 0.017187707126140594, 0.0040985774248838425, -0.024459434673190117, 0.01058137509971857], [-0.027059365063905716, -0.014989091083407402, -0.009872202761471272, 0.030487390235066414, 0.015720214694738388, 0.0023169517517089844, 0.012254779227077961, 0.008705752901732922, -0.00580782163888216, 0.03398459032177925, 0.023017866536974907, 0.004698336124420166, -0.18780839443206787, -0.19778932631015778, -0.0986010879278183, 0.008786008693277836, -0.03389988839626312, 0.0051905387081205845, -0.01252428162842989, 0.011256614699959755, -0.015881408005952835, -0.020811788737773895, -0.0024752106983214617, 0.018874969333410263, 0.011704305186867714, -0.0034756320528686047, 0.005624243523925543, -0.013980449177324772, -0.02653024159371853, -0.01836470328271389, 0.018805593252182007, -0.01964988186955452, -0.04082178324460983, -0.14416049420833588, -0.33026015758514404, -0.38208863139152527, -0.2679595351219177, -0.3152228593826294, -0.6177017092704773, -0.589623212814331, -0.6589490175247192, -0.8116726279258728, -0.06140921264886856, -0.3865477442741394, -0.11251898109912872, -0.45429718494415283, -0.5740856528282166, -0.6736950278282166, -0.8504966497421265, -0.6129295229911804, -0.45446664094924927, -0.4434802532196045, 0.028913890942931175, 0.005303834564983845, -0.03493715450167656, -0.004523401148617268, 0.012200381606817245, -0.02924935892224312, -0.022652359679341316, -0.3908146619796753, -0.7156481742858887, -0.25502169132232666, -0.3398856520652771, -0.5147656798362732, -0.21976211667060852, -0.10917457193136215, -0.6256918907165527, -1.169795036315918, -0.4613131284713745, -0.27212169766426086, -0.39435139298439026, -0.4349520802497864, 0.09434589743614197, 0.016327321529388428, -0.3695901036262512, -1.0480351448059082, -1.0314298868179321, -0.8594574332237244, -0.6181915402412415, -0.502778947353363, -0.20622028410434723, -0.004914420656859875, 0.030392248183488846, 0.02077595330774784, 0.01295899972319603, -0.0050885677337646484, 0.4547448754310608, -0.5044645071029663, -0.7485844492912292, -0.22377853095531464, -0.3336910605430603, -0.4887647330760956, -0.7665571570396423, -0.38880467414855957, -0.5543726682662964, -0.570991039276123, -0.6830397248268127, -0.6062196493148804, -0.365316241979599, -0.48562756180763245, -0.40637773275375366, -0.33795884251594543, -0.5058086514472961, -0.3456011414527893, -0.6127779483795166, -0.5107847452163696, -0.3004309833049774, -0.23840703070163727, -0.2629438638687134, -0.36342698335647583, -0.4311532974243164, 0.035356394946575165, -0.017245357856154442, 0.1847267895936966, 0.6034486293792725, -0.1354156881570816, -0.08914349228143692, -0.3154042959213257, -0.30810433626174927, -0.31425148248672485, -0.07985381782054901, -0.05927683413028717, 0.07441117614507675, 0.054695066064596176, 0.39109721779823303, 0.350904643535614, 0.11934902518987656, -0.1285601258277893, 0.0579158179461956, -0.1112665981054306, -0.13241316378116608, 0.0818844586610794, 0.21950125694274902, 0.03517359495162964, 0.02641894295811653, -0.31952711939811707, -0.1302821785211563, -0.24291439354419708, -0.38217929005622864, -0.3653302788734436, 0.02947825752198696, -0.02877490594983101, 0.1861346811056137, 0.43006718158721924, 0.2848098576068878, 0.10514260828495026, 0.08274505287408829, 0.07431886345148087, 0.07741917669773102, 0.08802498131990433, -0.11542447656393051, 0.062357787042856216, 0.13901741802692413, 0.04449598491191864, 0.12352991849184036, -0.04332645982503891, -0.1234155148267746, -0.2499357908964157, -0.05331197753548622, -0.08652542531490326, -0.30399027466773987, -0.17618747055530548, -0.15296749770641327, -0.06047271937131882, -0.11428483575582504, -0.17745238542556763, -0.5846656560897827, -0.23442205786705017, 0.010739875957369804, -0.2875663936138153, -0.4125444293022156, 0.6367627382278442, 0.1152481660246849, -0.06411197781562805, 0.17694512009620667, -0.02520967833697796, 0.09231332689523697, 0.27776262164115906, 0.1839619278907776, -0.029600882902741432, 0.018405355513095856, -0.07275566458702087, -0.11773058027029037, -0.13745160400867462, 0.010028657503426075, 0.06947631388902664, 0.029341693967580795, -0.07337409257888794, -0.20788703858852386, 0.051319777965545654, -0.09517484158277512, 0.07650645822286606, -0.31653857231140137, -0.3240993022918701, -0.37893736362457275, -0.12727782130241394, 0.15583212673664093, -0.2046431452035904, 0.1763903945684433, 0.7152100801467896, 0.5679896473884583, -0.02688136138021946, 0.20171307027339935, 0.11525771766901016, 0.03760106489062309, 0.0828748419880867, 0.08055149763822556, -0.07768189162015915, -0.09409219026565552, 0.08286022394895554, -0.1455799639225006, 0.00550672085955739, -0.0360664427280426, 0.0774896889925003, 0.06836218386888504, 0.07270968705415726, 0.013642552308738232, 0.08911503106355667, 0.22030194103717804, 0.08450083434581757, -0.17567865550518036, -0.5872153639793396, -0.19337764382362366, -0.5450692176818848, -0.4764966368675232, 0.22215639054775238, 0.21040254831314087, 0.7394963502883911, 0.8000808358192444, 0.14789579808712006, 0.17551742494106293, 0.2597418427467346, 0.12299701571464539, 0.10879666358232498, 0.19763734936714172, 0.002179366536438465, 0.032756537199020386, 0.17672106623649597, 0.13438671827316284, 0.1041840985417366, 0.14119136333465576, 0.09318758547306061, 0.33927780389785767, 0.08513747155666351, 0.013854792341589928, -0.017979780212044716, 0.1515389382839203, -0.11398825794458389, -0.4451846480369568, -0.3140203654766083, -0.25062400102615356, -0.13687850534915924, 0.22262515127658844, 0.5092518925666809, -0.1448032706975937, 0.5879158973693848, 0.507053017616272, 0.39319345355033875, 0.19420328736305237, 0.07502777129411697, 0.09305034577846527, 0.024024294689297676, 0.010089411400258541, -0.0933118686079979, 0.004632565658539534, 0.18926692008972168, 0.17244699597358704, 0.1421760469675064, 0.27187782526016235, 0.3210736811161041, 0.26262110471725464, 0.10912752151489258, 0.1670818328857422, 0.15904703736305237, -0.0022347241174429655, -0.14872151613235474, -0.6315327882766724, -0.3025696277618408, 0.058701805770397186, 0.44412142038345337, 0.1817643791437149, 0.46624842286109924, 0.5651450157165527, 0.4452463686466217, 0.18751853704452515, 0.2121340036392212, 0.21237792074680328, 0.00764094153419137, -0.00924671534448862, -0.008082513697445393, 0.014576313085854053, -0.08716099709272385, -0.17872639000415802, 0.07893059402704239, 0.13849230110645294, 0.11002769321203232, 0.1441071629524231, 0.24401859939098358, 0.24387654662132263, 0.2699907124042511, 0.14301742613315582, 0.10497599095106125, 0.1284146010875702, -0.3895229995250702, -0.5348124504089355, -0.05122140794992447, -0.14402106404304504, 0.543116569519043, 0.30790993571281433, 0.09103483706712723, 0.229252427816391, 0.657043993473053, 0.23219430446624756, 0.22849151492118835, 0.09470652788877487, 0.2082674652338028, 0.06497184932231903, 0.0033190653193742037, -0.015063638798892498, -0.05788310989737511, -0.013684717006981373, -0.08934155106544495, 0.1298448145389557, 0.282553106546402, 0.14079549908638, 0.11035890877246857, 0.11959551274776459, 0.2945651113986969, 0.2822796404361725, 0.025455230847001076, 0.07963945716619492, -0.5828669667243958, -0.5568229556083679, -0.4215361177921295, 0.031484249979257584, 0.4204666018486023, 0.2459644377231598, 0.4847988486289978, 0.2272147536277771, 0.38569530844688416, -0.044298745691776276, 0.21577288210391998, -0.22550886869430542, -0.04447171464562416, -0.03262083977460861, -0.15984442830085754, -0.2784406840801239, -0.1860194057226181, -0.05801405757665634, -0.03471646457910538, 0.12983287870883942, 0.3610958456993103, 0.3542975187301636, 0.22945880889892578, 0.23692750930786133, 0.28522634506225586, 0.25286829471588135, 0.31434497237205505, 0.02658376842737198, -0.25721073150634766, -0.233252614736557, -0.3821738064289093, -0.2870029807090759, 0.5426949858665466, -0.2414093017578125, -0.1098761335015297, 0.6373344659805298, 0.2085123062133789, -0.3893347680568695, -0.15686540305614471, -0.20381103456020355, -0.32672643661499023, -0.1136864721775055, -0.1400412619113922, -0.2551928460597992, -0.08488915115594864, -0.23896528780460358, -0.11543319374322891, 0.1902366578578949, 0.43837302923202515, 0.3313109278678894, 0.328422874212265, 0.3822374939918518, 0.11035453528165817, 0.18441377580165863, 0.14789368212223053, 0.0069663808681070805, -0.10946992039680481, -0.11288536339998245, 0.368240624666214, 0.4393092095851898, 0.453396201133728, -0.3620261251926422, -0.03375745564699173, 0.5152833461761475, 0.05534771457314491, -0.4156297743320465, -0.4166390895843506, -0.3612567186355591, -0.31719157099723816, -0.2687753736972809, -0.2534834146499634, -0.17790795862674713, -0.050899386405944824, -0.03009081445634365, -0.017110086977481842, 0.22490377724170685, 0.215240940451622, 0.21429385244846344, 0.38396063446998596, 0.299063503742218, 0.33686357736587524, -0.12275607138872147, -0.16523806750774384, -0.24114879965782166, 0.01837175525724888, 0.03492850065231323, 0.511150062084198, 0.4060785472393036, 0.4756294786930084, -0.3482888340950012, 0.08490986377000809, 0.11850431561470032, 0.28771719336509705, -0.3365284502506256, -0.6172889471054077, -0.43093717098236084, -0.3200376331806183, -0.11722385138273239, -0.08667360991239548, -0.161912202835083, 0.016683779656887054, -0.10432643443346024, 0.19999216496944427, 0.4370383322238922, 0.338973730802536, 0.23372666537761688, 0.37879320979118347, 0.11245469003915787, -0.024487841874361038, -0.21393436193466187, -0.17096984386444092, 0.1208348274230957, -0.002920326543971896, -0.25783711671829224, -0.09836282581090927, 0.6161090731620789, 0.24536848068237305, 0.3458147346973419, -0.28296369314193726, -0.0030194332357496023, 0.1959291696548462, -0.3859356939792633, -0.49586936831474304, -0.34463199973106384, 0.01999087445437908, -0.019188230857253075, 0.15129266679286957, 0.09459634125232697, -0.14913007616996765, 0.13074377179145813, 0.31049007177352905, 0.47088488936424255, 0.3444506525993347, 0.32955172657966614, 0.21277016401290894, -0.023242654278874397, -0.22708441317081451, -0.2226383239030838, 0.027884576469659805, -0.20468825101852417, -0.14365218579769135, -0.1254136711359024, -0.14118291437625885, 0.32048124074935913, 0.060666292905807495, 0.01915835216641426, -0.15026578307151794, 0.3963397443294525, -0.5311816930770874, -0.3927162289619446, -0.3175117075443268, -0.4411076605319977, -0.1588587462902069, -0.06298424303531647, -0.0020051354076713324, -0.04136279225349426, -0.0862930491566658, 0.1916932761669159, 0.5008297562599182, 0.3948262333869934, 0.13151666522026062, 0.07096683979034424, -0.11534087359905243, -0.13974647223949432, -0.21207298338413239, -0.2800254225730896, -0.22811967134475708, -0.15305447578430176, -0.06534231454133987, -0.029527509585022926, 0.1105639785528183, 0.382319837808609, -0.42511117458343506, 0.0895303264260292, 0.3291490375995636, 0.664053738117218, -0.06796307861804962, -0.41198867559432983, -0.27428099513053894, -0.2888602018356323, -0.09257344901561737, -0.08283134549856186, 0.06955552101135254, -0.1520807296037674, -0.04069487378001213, 0.2354327142238617, 0.45960015058517456, 0.1887536346912384, 0.02116251364350319, -0.06860776245594025, -0.08782592415809631, -0.03734323009848595, -0.07697509229183197, -0.03983061760663986, -0.18500317633152008, -0.1671314686536789, -0.22578571736812592, -0.17261072993278503, -0.11561888456344604, 0.43651941418647766, -0.1136244609951973, -0.12167208641767502, 0.2445829063653946, -0.04078550264239311, 0.5167709589004517, -0.03519422933459282, -0.2936854660511017, -0.16185323894023895, -0.02982509694993496, -0.07854139059782028, 0.015784693881869316, -0.11438355594873428, -0.148643359541893, -0.014752988703548908, 0.40241628885269165, 0.1341121345758438, 0.025617007166147232, 0.013028970919549465, -0.03724028542637825, -0.10338222235441208, -0.08832427859306335, -0.1772194802761078, -0.3091329336166382, -0.2383251041173935, -0.16675503551959991, -0.2260124385356903, -0.15700820088386536, 0.6192556619644165, 0.01797635108232498, 0.014122793450951576, -0.14266490936279297, -0.126887246966362, 0.20159128308296204, -0.16403988003730774, -0.3919457793235779, -0.08188389986753464, 0.017469724640250206, -0.19094575941562653, -0.15077641606330872, -0.07525166124105453, -0.15865547955036163, -0.016131173819303513, 0.07814526557922363, 0.18765561282634735, 0.023989500477910042, -0.0224751066416502, -0.04251271113753319, -0.15711188316345215, 0.0454568937420845, -0.04339965060353279, -0.1891649216413498, -0.24937891960144043, 0.14893312752246857, 0.2533870041370392, -0.308705598115921, 0.5402661561965942, -0.20223091542720795, -0.3625941574573517, 0.30818992853164673, 0.12742260098457336, 0.1339898556470871, -0.47424718737602234, -0.1049651950597763, -0.0640418753027916, -0.1701280027627945, -0.15589579939842224, -0.2119247019290924, -0.07879029214382172, -0.11878805607557297, -0.09545977413654327, 0.020484063774347305, 0.15141938626766205, 0.09213544428348541, 0.03378819674253464, 0.06541579961776733, 0.020205410197377205, 0.0901612788438797, -0.17055386304855347, -0.13366708159446716, -0.020752837881445885, 0.16142438352108002, -0.023197991773486137, 0.046714551746845245, -0.40546053647994995, -0.037586744874715805, -0.31541240215301514, -0.017315315082669258, 0.4548628628253937, 0.07178755849599838, -0.22839592397212982, 0.24180379509925842, 0.2976394593715668, 0.06523294746875763, -0.019129682332277298, -0.1961490958929062, -0.024449270218610764, -0.047067757695913315, -0.05734679847955704, -0.09372324496507645, 0.07121402770280838, 0.05963636934757233, -0.05307893082499504, -0.08137162029743195, -0.17326197028160095, -0.02672877162694931, 0.03774344176054001, 0.16567833721637726, 0.26856493949890137, -0.0885978639125824, 0.19681599736213684, 0.13106994330883026, -0.40179434418678284, 0.01756485365331173, 0.025495173409581184, -0.022318027913570404, -0.4539627134799957, -0.7429563999176025, -0.2961251139640808, -0.3572840988636017, 0.0874820351600647, 0.2400624006986618, -0.03214813768863678, 0.13546589016914368, -0.08099956810474396, 0.1291975975036621, 0.13367868959903717, 0.13465584814548492, 0.04984288662672043, 0.07672657817602158, -0.1026502400636673, -0.15626083314418793, -0.09233391284942627, 0.028084583580493927, 0.11209040880203247, 0.27691271901130676, 0.10717595368623734, -0.011408411897718906, -0.11019657552242279, -0.0720086470246315, -0.4201357364654541, -0.028993314132094383, -0.012147546745836735, -0.03311172127723694, 0.15365289151668549, -0.5904774069786072, 0.03325680270791054, 0.11638769507408142, 0.21007610857486725, 0.007068496197462082, 0.032757893204689026, -0.0360005758702755, 0.05258910730481148, 0.09376917034387589, -0.05886050686240196, 0.07681342214345932, 0.1456661820411682, 0.02146497182548046, -0.17455549538135529, -0.32723650336265564, -0.30088692903518677, -0.0015191909624263644, -0.09685889631509781, -0.13669516146183014, -0.21631330251693726, -0.21742483973503113, -0.0561835914850235, 0.5625696182250977, 0.3594772219657898, 0.025150300934910774, -0.004678645636886358, -0.002030385425314307, -0.35348638892173767, -0.15837864577770233, 0.6430798768997192, 0.07568782567977905, 0.17138028144836426, 0.27789121866226196, 0.22156625986099243, 0.09526392072439194, 0.2757301926612854, 0.3597148656845093, 0.2564546763896942, 0.1842126101255417, 0.3614712655544281, 0.2502710521221161, 0.01014404185116291, -0.0801774263381958, -0.11765357851982117, -0.4014953672885895, -0.14664612710475922, -0.5694209933280945, -0.6635992527008057, -0.530041515827179, -0.61663419008255, -0.2732422947883606, 0.2451404184103012, -0.005305141676217318, 0.022282984107732773, -0.0272781103849411, 0.010042965412139893, -0.3030669689178467, -0.390760213136673, -0.5511453151702881, -0.11620236933231354, 0.30859729647636414, 0.5058861374855042, 0.36145588755607605, 0.03755072504281998, -0.2798234224319458, -0.232398122549057, -0.09410420060157776, 0.06904152780771255, -0.1587647795677185, -0.21374443173408508, 0.030258487910032272, 0.16975907981395721, -0.11063793301582336, -0.06714415550231934, -0.26787087321281433, -0.479231059551239, -0.1942903995513916, -0.04772078990936279, 0.14828957617282867, -0.03257074952125549, -0.022816719487309456, 0.004467576742172241, -0.018223239108920097, 0.03389080986380577, 0.027495291084051132, 0.26332178711891174, 0.5342617630958557, -0.21328523755073547, -0.26349955797195435, -0.2220485955476761, -0.14508108794689178, 0.10257462412118912, -0.2257976531982422, -0.34026163816452026, 0.1081104427576065, 0.10371982306241989, -0.09088492393493652, -0.0737781897187233, 0.4295155107975006, 0.11932998895645142, 0.10977532714605331, -0.11906042695045471, 0.1363120675086975, -0.15533390641212463, 0.1359580159187317, 0.022834565490484238, 0.028034649789333344, 0.028359772637486458, -0.009165478870272636], [-0.028340596705675125, 0.001045963610522449, 0.005999169312417507, 0.03564310073852539, 0.0004123492108192295, -0.017113013193011284, 0.009893898852169514, 0.03194941580295563, -0.031700581312179565, 0.0016744734020903707, -0.019422702491283417, 0.0028324639424681664, -0.0061910878866910934, 0.012191947549581528, -0.0019389860099181533, 0.027258656919002533, -0.019565438851714134, -0.014855129644274712, -0.02213384583592415, 0.03541671857237816, 0.014872381463646889, -0.007415673695504665, -0.016784537583589554, -0.010426143184304237, 0.009247878566384315, -0.01891578547656536, -0.016245655715465546, -0.028058500960469246, -0.025874249637126923, 0.006094570737332106, -0.009063763543963432, 0.013064746744930744, -0.02931106649339199, -0.005333743058145046, 0.014361978508532047, -0.032963987439870834, 0.043535660952329636, 0.02739165723323822, 0.13637296855449677, 0.06333951652050018, 0.003220498329028487, 0.031004784628748894, 0.08432123064994812, -0.4633690118789673, -0.4614258110523224, -0.44815078377723694, 0.1462542563676834, -0.06472431868314743, -0.010035121813416481, -0.0824800580739975, -0.057133059948682785, 0.0073034255765378475, -0.0002645892964210361, 0.006068745162338018, 0.019384343177080154, 0.025402648374438286, -0.02961622178554535, 0.019198913127183914, -0.00697748176753521, -0.02394026145339012, 0.08058083057403564, 0.062319066375494, 0.07945464551448822, 0.17523007094860077, 0.24355611205101013, -0.34461644291877747, -0.44425785541534424, -0.21414022147655487, 0.384291410446167, -0.15386463701725006, -0.07243935018777847, -0.09143999218940735, -0.04075470194220543, 0.12304029613733292, -0.18785342574119568, -0.4693461060523987, -0.5296294093132019, 0.4848651587963104, 0.22301723062992096, -0.06857714056968689, 0.09234725683927536, 0.03203999623656273, -0.016019511967897415, -0.001120277913287282, 0.028448954224586487, 0.004073637071996927, -0.4038243293762207, -0.18358570337295532, -0.09528760612010956, 0.4442828893661499, -0.016597265377640724, -0.10093338787555695, -0.4703153073787689, -0.2057923525571823, 0.03912384435534477, 0.026957707479596138, -0.2778278887271881, -0.5851848125457764, -0.2798870801925659, -0.4663561284542084, -0.23848198354244232, 0.07359887659549713, 0.16203445196151733, 0.05084415525197983, -0.10537008941173553, -0.2829549312591553, -0.272501140832901, 0.22500699758529663, 0.47626468539237976, 0.4128299951553345, 0.21662656962871552, -0.02664993517100811, -0.0022064661607146263, 0.0021979256998747587, -0.3608129024505615, -0.3851584792137146, -0.011066071689128876, 0.3811044991016388, 0.1780906468629837, 0.04293391853570938, 0.10323606431484222, 0.2940537631511688, 0.41941457986831665, -0.07636319845914841, -0.1547464281320572, -0.1690506488084793, -0.024853011593222618, -0.1147514134645462, 0.03962854668498039, 0.06874213367700577, 0.12310008704662323, 0.08367360383272171, -0.15074169635772705, -0.23937112092971802, -0.15268991887569427, -0.22080053389072418, -0.3048471510410309, -0.35823553800582886, -0.145026296377182, 0.40119683742523193, 0.03307940438389778, 0.00850456953048706, -0.5755456686019897, -0.523310124874115, 0.03540297597646713, 0.34548085927963257, -0.003471995936706662, 0.007888243533670902, 0.3317878842353821, 0.0396956242620945, -0.11334466189146042, -0.03574226051568985, 0.12092235684394836, -0.1661272644996643, -0.09578500688076019, -0.11987072974443436, -0.22931599617004395, 0.05263490229845047, -0.0383293479681015, -0.10326078534126282, -0.26024943590164185, 0.015355672687292099, -0.028379911556839943, 0.09027910977602005, 0.1748470664024353, 0.03799837455153465, 0.012402418069541454, 0.5142861008644104, 0.008898484520614147, -0.40717050433158875, -0.3015367090702057, -0.21122492849826813, -0.05670498311519623, 0.13575026392936707, -0.07023885101079941, -0.07501664757728577, 0.24705380201339722, 0.16279536485671997, 0.005910913925617933, 0.025443613529205322, 0.06707760691642761, -0.12396008521318436, 0.05713590979576111, 0.07000274956226349, 0.10440926253795624, 0.22257226705551147, -0.0982627421617508, -0.16286352276802063, -0.09317585080862045, 0.23879624903202057, 0.12372645735740662, -0.003879324533045292, 0.06144462525844574, -0.007538696750998497, -0.12330105900764465, 0.38408946990966797, 0.1439906656742096, -0.43667370080947876, -0.04531300067901611, -0.11942297220230103, 0.12596140801906586, -0.05695798620581627, 0.030950285494327545, -0.10336564481258392, -0.006066794041544199, 0.0009413737570866942, -0.18276993930339813, -0.023280424997210503, -0.054628606885671616, 0.10368070751428604, 0.13839362561702728, 0.11223652213811874, 0.08919693529605865, 0.013145738281309605, -0.2130967080593109, 0.00992566253989935, 0.06549803167581558, -0.07270497828722, -0.23873960971832275, -0.05439736694097519, 0.08125980198383331, -0.05791963264346123, 0.1722438782453537, -0.24604086577892303, -0.3779280185699463, -0.6123020648956299, -0.3026001453399658, -0.14297042787075043, 0.42853039503097534, 0.2208447903394699, 0.038316018879413605, 0.13337621092796326, 0.1661132276058197, 0.04670986533164978, -0.024640673771500587, -0.0365612618625164, 0.07142607867717743, 0.06798045337200165, 0.1697474718093872, 0.1546570509672165, -0.11397908627986908, -0.2501448094844818, -0.11051826924085617, -0.09760554134845734, -0.02702261134982109, -0.1958278864622116, -0.1916274130344391, -0.15470826625823975, 0.14151985943317413, 0.3786325454711914, 0.11513776332139969, -0.2814235985279083, 0.1307903528213501, -0.08319129049777985, 0.419692724943161, -0.0679197832942009, 0.12994834780693054, 0.09415435045957565, 0.06788001209497452, -0.04434386268258095, -0.05291798338294029, -0.09183235466480255, 0.010568523779511452, 0.18394020199775696, 0.248991459608078, 0.23257915675640106, 0.29374855756759644, 0.1719864308834076, -0.001728514558635652, -0.09720828384160995, 0.007859546691179276, -0.17742204666137695, -0.0769597664475441, -0.014809333719313145, -0.041488561779260635, -0.03045661747455597, 0.018686655908823013, -0.1925514042377472, -0.10942211747169495, 0.2416275143623352, 0.14479172229766846, -0.27340734004974365, 0.17482775449752808, -0.45998507738113403, -0.05800079181790352, -0.03767344355583191, -0.07374643534421921, -0.1349305361509323, -0.08278515934944153, -0.0664157122373581, 0.13306251168251038, 0.26333725452423096, 0.2765662372112274, 0.17867271602153778, 0.4495985209941864, 0.28345781564712524, 0.0638376846909523, -0.2199527621269226, -0.139632448554039, -0.2639566659927368, -0.25525495409965515, -0.07335586845874786, -0.002139753894880414, 0.0010900312336161733, 0.1994067281484604, 0.013831636868417263, -0.10288675129413605, 0.4979113042354584, 0.06812986731529236, -0.21024039387702942, 0.20684188604354858, -0.5238096117973328, -0.13964465260505676, 0.09351707994937897, -0.2011886090040207, -0.10251985490322113, 0.1611795723438263, 0.17642991244792938, 0.20728278160095215, 0.27484220266342163, 0.2646985948085785, 0.07466793805360794, 0.14525353908538818, 0.22026070952415466, 0.11343329399824142, 0.035799119621515274, -0.09389103204011917, -0.13031835854053497, -0.27558180689811707, -0.2168716937303543, -0.19556249678134918, -0.17463433742523193, 0.23187367618083954, -0.17157475650310516, 0.26875942945480347, -0.4202771484851837, 0.03497236222028732, -0.004097288474440575, -0.340450257062912, -0.6248263716697693, -0.36128950119018555, -0.7830567359924316, -0.32407939434051514, 0.059462036937475204, 0.1577325314283371, 0.1742943376302719, 0.06970559060573578, 0.1906861662864685, 0.036547426134347916, 0.16740334033966064, 0.12683920562267303, 0.3537168800830841, 0.3193848729133606, 0.2065885066986084, 0.1767631471157074, -0.005393680185079575, -0.03732197359204292, -0.07277293503284454, -0.1790224015712738, -0.2460075169801712, -0.2946318984031677, -0.5202653408050537, -0.8269556760787964, -0.4099086821079254, -0.39594849944114685, -0.016265688464045525, -0.3804130256175995, -0.6168105602264404, -0.47764846682548523, -0.7941029667854309, -0.35986948013305664, 0.18408280611038208, 0.019467594102025032, 0.1109599843621254, 0.06918814778327942, -0.019525857642292976, 0.057573094964027405, 0.14579062163829803, 0.20988084375858307, 0.4774629473686218, 0.2866848409175873, 0.1987760365009308, 0.09704615920782089, -0.1036451980471611, 0.1584475040435791, -0.04730434715747833, 0.2478175014257431, 0.07587092369794846, -0.15397319197654724, -0.18634268641471863, -0.536257266998291, -0.03893084079027176, -0.12365978956222534, -0.020649496465921402, -0.2901628017425537, -0.5378104448318481, -0.4732351303100586, -0.4306493401527405, -0.5067874193191528, 0.01920085772871971, -0.09030503779649734, 0.06697569042444229, -0.05117359384894371, -0.0699540451169014, 0.12706492841243744, 0.29874899983406067, 0.22295676171779633, 0.25064972043037415, 0.16718345880508423, 0.04462660849094391, -0.1158185675740242, -0.07263314723968506, -0.18623150885105133, -0.4102070927619934, -0.2044355571269989, 0.18122641742229462, -0.22973452508449554, -0.08330215513706207, -0.5467408299446106, -0.042912375181913376, -0.07780206203460693, -0.010936192236840725, -0.4483216106891632, -0.2890862822532654, 0.45411381125450134, -0.16376140713691711, -0.2828447222709656, -0.35217610001564026, -0.2622576057910919, -0.16850677132606506, -0.17110541462898254, -0.029765550047159195, 0.016604414209723473, 0.221254363656044, 0.2581177055835724, 0.31243619322776794, 0.18752147257328033, 0.09135279804468155, -0.1855948269367218, -0.19376255571842194, -0.2993471622467041, -0.055191997438669205, 0.029425902292132378, 0.40010470151901245, -0.0707777738571167, -0.171608567237854, 0.1363038867712021, -0.2799362540245056, 0.1675226092338562, -0.4406813681125641, -0.4864802360534668, -0.12223713845014572, 0.4454304873943329, -0.06950615346431732, -0.3695041239261627, -0.26200681924819946, -0.19553905725479126, -0.31650805473327637, -0.24369440972805023, -0.07594689726829529, 0.11682236194610596, 0.025941820815205574, 0.0799320861697197, 0.19645826518535614, 0.24570141732692719, -0.0338214635848999, -0.28181394934654236, -0.4108215868473053, -0.03878626599907875, -0.13737085461616516, -0.08742446452379227, 0.15530388057231903, -0.09003231674432755, -0.17190128564834595, -0.6509132385253906, -0.3843911588191986, -0.0003155512677039951, -0.38766220211982727, -0.4417710602283478, 0.3232490122318268, -0.050142060965299606, -0.23203973472118378, -0.6759588718414307, -0.6504577398300171, -0.10638908296823502, -0.06929153949022293, 0.13758498430252075, 0.06111030653119087, 0.13832008838653564, 0.049443114548921585, -0.0055672787129879, 0.11483243852853775, 0.049622152000665665, -0.34581297636032104, -0.519368588924408, -0.290828138589859, 0.11876141279935837, -0.04259788990020752, 0.18142133951187134, 0.19278354942798615, -0.05251595005393028, -0.2420126348733902, -0.25226983428001404, -0.5270115733146667, -0.41768744587898254, -0.5192199349403381, -0.5693259239196777, 0.4885970950126648, 0.12239624559879303, -0.2511924207210541, -0.7310839295387268, -0.7939618825912476, -0.2276550829410553, -0.007118469104170799, 0.13901470601558685, 0.11365493386983871, 0.14835283160209656, 0.07303620874881744, 0.00878303125500679, -0.16143353283405304, -0.3373689353466034, -0.46969664096832275, -0.47125834226608276, -0.356149286031723, -0.1400497555732727, -0.23877273499965668, -0.24998493492603302, -0.16833637654781342, -0.24006102979183197, 0.28212204575538635, 0.5872051119804382, -0.5557354688644409, -0.3435768783092499, -0.4568198621273041, -0.5427153706550598, 0.37956517934799194, 0.05785050615668297, -0.5145360231399536, -1.3254101276397705, -0.33541199564933777, -0.06881791353225708, -0.12482291460037231, 0.014454060234129429, -0.002685262355953455, 0.13195931911468506, -0.006316449027508497, -0.06749290972948074, -0.23650996387004852, -0.29787373542785645, -0.2754245400428772, -0.22973030805587769, -0.07648851722478867, -0.08556053042411804, -0.14526107907295227, -0.3236090838909149, -0.38636812567710876, -0.7949156761169434, 0.2618298828601837, -0.351362407207489, -0.4159166216850281, -0.0004956552293151617, -0.08548329025506973, -0.3748153746128082, -0.6882198452949524, -0.20414170622825623, -0.8329393863677979, -0.9893407225608826, -0.11152355372905731, -0.001837169169448316, -0.045751381665468216, 0.07394783943891525, -0.03303093835711479, 0.08685068041086197, -0.034526385366916656, -0.052628230303525925, -0.0942923054099083, -0.06220807135105133, -0.1077975332736969, -0.15448372066020966, -0.09670231491327286, -0.04019955173134804, 0.0017783279763534665, -0.034688688814640045, -0.17711980640888214, -0.34817999601364136, 0.32413285970687866, -0.4857216775417328, -0.46738025546073914, -0.39613431692123413, -0.4821900427341461, -0.40822070837020874, -0.610011100769043, -0.16570477187633514, -0.6872392892837524, -0.6800150275230408, -0.2162042111158371, 0.2347995489835739, 0.3154820203781128, 0.08742161095142365, -0.018593721091747284, 0.08228379487991333, -0.0610671304166317, -0.1541115641593933, -0.051107749342918396, -0.0327819287776947, 0.0795348659157753, -0.02167135290801525, -0.138724684715271, -0.26597860455513, 0.02928103134036064, -0.11296290904283524, 0.10213937610387802, -0.06162755563855171, 0.6792328953742981, -0.15328510105609894, 0.0006532243569381535, -0.451501727104187, -0.3523958921432495, -0.4172360301017761, -0.6039152145385742, -0.26199871301651, -0.3079589009284973, -0.12371894717216492, -0.05705808475613594, 0.09338533133268356, 0.012735791504383087, 0.11235927045345306, -0.11083323508501053, -0.03909742087125778, 0.08511023223400116, -0.007948691956698895, -0.14353089034557343, 0.07119201123714447, -0.048894189298152924, 0.01325499638915062, -0.2290337085723877, -0.05861615017056465, 0.027567267417907715, -0.11771745979785919, -0.15977440774440765, 8.354482270078734e-05, 0.37125685811042786, -0.5993618369102478, 0.021088235080242157, 0.03534210845828056, 0.014964397996664047, -0.18452051281929016, -0.7167282104492188, -0.4652879238128662, -0.3680579960346222, -0.13073095679283142, -0.19879181683063507, -0.10111068934202194, -0.05125318467617035, 0.1478571742773056, -0.04057331755757332, 0.09757959097623825, 0.05207471922039986, -0.12797541916370392, -0.24067911505699158, 0.002957276999950409, 0.04532670974731445, 0.15452289581298828, 0.06728442013263702, -0.24998284876346588, 0.09388381987810135, -0.001681461581028998, -0.24836869537830353, -0.4317226707935333, 0.034103866666555405, -0.5097116231918335, 0.014304004609584808, 0.017109237611293793, -0.024211356416344643, -0.07855479419231415, -0.46030768752098083, -0.0018759520025923848, 0.2901638448238373, 0.02839943766593933, 0.0801796168088913, 0.04008271545171738, -0.21759600937366486, -0.0658208504319191, -0.06612659245729446, -0.25935930013656616, -0.09690762311220169, -0.018291236832737923, -0.04372160881757736, -0.05130866914987564, -0.12403587251901627, 0.2000187188386917, 0.40172889828681946, 0.1572084128856659, 0.04265093430876732, 0.00840742141008377, 0.05240670591592789, -0.341640442609787, 0.26212555170059204, -0.3048816919326782, 0.0024634983856230974, -0.009344940073788166, 0.022747058421373367, 0.001800816273316741, 0.30323052406311035, 0.41212308406829834, 0.1466071754693985, -0.055732231587171555, 0.016247743740677834, -0.1225261241197586, -0.21299000084400177, -0.0931212455034256, -0.18763132393360138, -0.19883772730827332, -0.0781913697719574, 0.07591845095157623, -0.2422475814819336, -0.15124982595443726, 0.09196462482213974, 0.16019286215305328, -0.24791526794433594, -0.1282721757888794, -0.2568376958370209, -0.18157844245433807, 0.0850834995508194, 0.09603956341743469, 0.29401007294654846, -0.035932768136262894, -0.0025556557811796665, 0.021061638370156288, 0.015642976388335228, -0.02559434249997139, 0.33144745230674744, 0.1829899549484253, 0.07784532755613327, 0.22659295797348022, 0.34071823954582214, 0.10851971060037613, -0.03539074584841728, -0.15325963497161865, 0.10171955078840256, 0.1785316914319992, -0.1543724536895752, 0.0691089853644371, -0.1998867392539978, -0.23748745024204254, 0.022082608193159103, 0.1935519129037857, 0.16334977746009827, 0.06000575050711632, -0.01895563118159771, -0.04163913056254387, -0.5772039890289307, -0.026188740506768227, -0.00648847222328186, 0.019937187433242798, 0.034698355942964554, -0.012211293913424015, -0.016676563769578934, 0.01494833454489708, 0.02020677551627159, -0.18375499546527863, -0.25379934906959534, 0.09442286193370819, 0.25263282656669617, 0.21029028296470642, 0.20783232152462006, -0.34284403920173645, 0.10846768319606781, 0.2806567847728729, -0.11415071785449982, 0.08812082558870316, 0.2931503355503082, 0.12839245796203613, 0.07212572544813156, 0.04198015481233597, -0.10855548828840256, 0.2604219317436218, 0.1855979710817337, 0.21306464076042175, -0.017690420150756836, 0.01399186346679926, -0.016067905351519585, -0.000797348388005048, -0.020274635404348373], [0.014438259415328503, -0.004654135089367628, -0.03461695462465286, 0.031194696202874184, 0.004181376658380032, 0.024357741698622704, -0.02539638616144657, 0.014153898693621159, 0.019441839307546616, 0.0024197357706725597, 0.01497330516576767, -0.03072807379066944, 0.38260194659233093, 0.3877919018268585, 0.25896981358528137, 0.14069344103336334, 0.012656191363930702, 0.01609761081635952, -0.030183155089616776, 0.026711178943514824, -0.028346067294478416, -0.027121582999825478, 0.025586124509572983, -0.009683813899755478, -0.021812768653035164, 0.0027237790636718273, -0.01639726385474205, -0.016856752336025238, 0.00448677409440279, -0.02014201134443283, 0.023807408288121223, -0.011019553989171982, 0.1484459787607193, 0.24842098355293274, 0.411152720451355, 0.46326228976249695, 0.3729863166809082, 0.3047114610671997, 0.4728940725326538, 0.32916513085365295, 0.4619193375110626, 0.5912662148475647, 0.16708090901374817, 0.8880399465560913, 0.4807174503803253, 0.7200915217399597, 0.756973385810852, 0.8864461183547974, 0.8774406909942627, 0.7138304710388184, 0.5554400086402893, 0.4806826412677765, -0.023723054677248, 0.0003316871006973088, 0.007623166311532259, -0.015320340171456337, -0.03130131587386131, -0.011169267818331718, 0.26837530732154846, 0.39473432302474976, 0.5433699488639832, 0.6413959264755249, 0.39069387316703796, 0.5956646203994751, 0.48743659257888794, 0.18979066610336304, 0.39844954013824463, 0.942454993724823, 0.4097401201725006, 0.2537792921066284, 0.39041781425476074, 0.4389666020870209, 0.08857322484254837, 0.2091592699289322, 0.4034311771392822, 0.6218768358230591, 0.6284351348876953, 0.7895974516868591, 0.7680671215057373, 0.7896057367324829, 0.45466944575309753, -0.26719748973846436, -0.032772764563560486, 0.017666060477495193, -0.0043978821486234665, 0.03437202051281929, -0.22866033017635345, 0.48165297508239746, 0.3531126379966736, 0.4224739670753479, 0.41346266865730286, 0.10148690640926361, 0.19146892428398132, 0.3495824933052063, 0.1605467051267624, 0.06878361850976944, 0.12096327543258667, 0.5573363304138184, 0.14896589517593384, 0.17300492525100708, 0.23016904294490814, 0.16672179102897644, 0.20284141600131989, 0.381456196308136, 0.20638398826122284, 0.3735024034976959, 0.20406650006771088, 0.6321101188659668, 0.4528420567512512, 0.026965754106640816, 0.38110029697418213, -0.0008817315683700144, 0.006740587297827005, -0.14821207523345947, -0.4247579276561737, -0.4322943687438965, 0.3217875361442566, 0.4447177052497864, 0.10180506110191345, -0.13400699198246002, 0.11542010307312012, 0.17783623933792114, 0.34783685207366943, 0.030446495860815048, -0.09576060622930527, 0.011353687383234501, -0.08103960752487183, -0.10035831481218338, 0.029892494902014732, -0.019391082227230072, -0.007934322580695152, 0.25226035714149475, 0.1653313785791397, 0.07445269823074341, -0.318268746137619, -0.026032594963908195, -0.5794077515602112, -0.3807053864002228, 0.40625813603401184, 0.43250396847724915, -0.031214769929647446, -0.009079469367861748, 0.5209854245185852, -0.30963802337646484, 0.2724402844905853, -0.15250244736671448, -0.07546897232532501, -0.020403603091835976, 0.13339701294898987, 0.007197692058980465, 0.15922531485557556, -0.12429109960794449, -0.248289555311203, -0.08212301135063171, -0.0015345634892582893, -0.08643224835395813, -0.11144021898508072, 0.055141009390354156, 0.19396986067295074, 0.16258357465267181, 0.048669371753931046, 0.041476771235466, -0.29673829674720764, -0.06973904371261597, -0.027326764538884163, -0.313081294298172, 0.4396006464958191, 0.42112061381340027, 0.02742873504757881, 0.2492305487394333, -0.18113131821155548, -0.2714260518550873, 0.268976628780365, -0.0621485561132431, -0.03665096312761307, 0.14260996878147125, 0.0319669283926487, -0.25396597385406494, -0.18337616324424744, -0.142812117934227, -0.2253330796957016, -0.1431867778301239, -0.19745352864265442, -0.11480993032455444, -0.06941256672143936, -0.04278180003166199, -0.09056070446968079, -0.2605080008506775, -0.4186612665653229, -0.2507147490978241, -0.22631248831748962, -0.16889223456382751, 0.07208910584449768, -0.17740532755851746, 0.015787526965141296, 0.33022063970565796, -0.023759247735142708, 0.1764219105243683, -0.058828115463256836, -0.6728737950325012, 0.15889544785022736, -0.2402193397283554, -0.19259044528007507, 0.12685343623161316, -0.12947262823581696, -0.10453304648399353, 0.010746237821877003, -0.0314587838947773, -0.12470318377017975, -0.18650735914707184, -0.017451854422688484, 0.010221459902822971, -0.05643169581890106, -0.16645880043506622, -0.1703372299671173, -0.3146629333496094, -0.3795214891433716, -0.2875238358974457, -0.3585593104362488, -0.5718855857849121, -0.2783292829990387, -0.37611332535743713, 0.14660358428955078, 0.3031417727470398, 0.4552825391292572, 0.5392822027206421, -0.10506047308444977, -0.45174670219421387, 0.02846864052116871, -0.11196772009134293, -0.0910106971859932, 0.037238072603940964, -0.05928175523877144, 0.05632401257753372, 0.1541348099708557, -0.05364060401916504, 0.07715050131082535, 0.11167489737272263, 0.04722151905298233, -0.05632088705897331, -0.287386417388916, -0.10655805468559265, -0.44657766819000244, -0.32975441217422485, -0.21422554552555084, -0.4994257986545563, -0.4808848798274994, -0.4701237380504608, -0.8516702055931091, -0.7401174902915955, -0.2092287838459015, -0.19424597918987274, -0.169413760304451, -0.2011202871799469, -0.3943862318992615, -0.05245167762041092, 0.23837143182754517, -0.06992661952972412, -0.14234744012355804, 0.17562507092952728, 0.10444297641515732, 0.057981930673122406, -0.026149790734052658, -0.015328754670917988, 0.07774752378463745, 0.010144337080419064, 0.0957665741443634, -0.03923693671822548, -0.2949262261390686, -0.37485241889953613, -0.34432628750801086, -0.37497928738594055, -0.24047797918319702, -0.11006804555654526, -0.1917429268360138, -0.28566989302635193, -0.2523881494998932, -0.7702935934066772, -0.5237323641777039, -0.4916613698005676, -0.16451963782310486, 0.1474090814590454, 0.0807483121752739, -0.45475855469703674, 0.1225554421544075, 0.043046120554208755, -0.07895529270172119, 0.06352172046899796, 0.06687883287668228, 0.02585625648498535, 0.07478786259889603, 0.020189207047224045, 0.048443831503391266, 0.12332095205783844, 0.0917755663394928, 0.12894262373447418, -0.116054467856884, -0.0830787941813469, -0.06659579277038574, -0.13313624262809753, -0.02801354229450226, 0.04757002741098404, -0.22127927839756012, -0.20743000507354736, -0.037517428398132324, -0.7102356553077698, -0.2515380382537842, -0.4899768531322479, -0.11791598051786423, 0.006900298874825239, -0.5638743042945862, -0.5760151743888855, -0.07680574804544449, 0.09751873463392258, 0.0292556993663311, 0.02203206904232502, 0.0055421944707632065, 0.0780978724360466, -0.10637623071670532, 0.008577514439821243, -0.022943759337067604, 0.01962338201701641, 0.1342930793762207, -0.10289055854082108, 0.05992107465863228, -0.10250220447778702, 0.04633596912026405, 0.14625683426856995, 0.22443117201328278, 0.27115386724472046, -0.15839461982250214, 0.10358404368162155, 0.1573246866464615, -0.41075801849365234, -0.685849666595459, 0.027544928714632988, -0.02748408541083336, -0.168399840593338, -0.630435049533844, -0.03507089987397194, -0.08185739815235138, -0.01828683167695999, 0.05465545132756233, 0.21127238869667053, 0.11776383966207504, 0.1638506054878235, -0.05437396466732025, 0.04267478361725807, -0.03448764234781265, -0.024533327668905258, 0.0987793579697609, -0.044672414660453796, 0.0757555291056633, 0.16836875677108765, 0.23665983974933624, 0.03407229110598564, -0.026673244312405586, 0.21132662892341614, 0.06269332021474838, 0.3192557990550995, 0.4837830364704132, -0.08996814489364624, -0.8768210411071777, -0.19483904540538788, 0.33051103353500366, 0.21519412100315094, -0.39352214336395264, 0.5793787240982056, 0.05270147696137428, 0.08252792805433273, 0.14383052289485931, -0.22622589766979218, -0.1711794137954712, -0.07021927088499069, -0.11336156725883484, -0.18560384213924408, -0.0856575295329094, 0.07846301794052124, 0.09532437473535538, 0.18953926861286163, 0.11794620007276535, 0.035146843641996384, 0.21184813976287842, 0.11745022237300873, -0.09201204776763916, 0.2320210039615631, 0.18335053324699402, 0.7485767006874084, 0.42066463828086853, -0.28387007117271423, -0.4081912636756897, 0.44148924946784973, 0.39424920082092285, -0.4226211905479431, -0.04551667720079422, 0.6553758382797241, -0.4414326846599579, 0.026871273294091225, -0.004382371436804533, -0.37133464217185974, -0.10798761993646622, 0.03590824455022812, 0.009296190924942493, -0.04242967441678047, -0.12599368393421173, 0.16033630073070526, 0.23412568867206573, 0.14392514526844025, -0.0004515048349276185, -0.2707726061344147, 0.16430941224098206, -0.024448983371257782, -0.002416330622509122, 0.08555517345666885, 0.29426008462905884, 0.4803018569946289, 0.4585033655166626, 0.01332568097859621, 0.1228163093328476, 0.3382505774497986, 0.4095001518726349, -0.31045758724212646, 0.482037216424942, 0.16302885115146637, -0.6012484431266785, -0.15522202849388123, -0.1166418045759201, -0.08811082690954208, -0.004553657490760088, -0.15364986658096313, -0.26564034819602966, -0.17388157546520233, 0.07220492511987686, 0.2898114025592804, 0.39895033836364746, -0.013754556886851788, -0.08784373104572296, -0.1854580044746399, 0.08701472729444504, -0.10998569428920746, -0.012426376342773438, 0.14362852275371552, 0.09291784465312958, 0.23639971017837524, 0.20654936134815216, 0.2711043059825897, -0.7030552625656128, 0.04360703378915787, -0.39476341009140015, 0.0990964025259018, 0.23244911432266235, 0.08390673995018005, -0.23101937770843506, -0.0030376503709703684, -0.0472419336438179, -0.006728073116391897, -0.0754728615283966, -0.10049401223659515, -0.1779850274324417, 0.05604647845029831, -0.08773081004619598, 0.08124496042728424, 0.35124337673187256, 0.1558859497308731, 0.12053170800209045, -0.1982627660036087, -0.100519098341465, -0.04034818708896637, -0.089202381670475, 0.16713549196720123, 0.05866018310189247, 0.18571968376636505, 0.2609809935092926, 0.6049118638038635, -0.12029102444648743, 0.2755433917045593, -0.017534732818603516, -0.27768799662590027, 0.06316617131233215, -0.16198964416980743, -0.16373461484909058, -0.08399315923452377, -0.188811257481575, -0.254862904548645, 0.020135069265961647, -0.2297426015138626, 0.04060870781540871, 0.028270184993743896, 0.0017808839911594987, 0.06430675834417343, 0.26185840368270874, 0.08898738771677017, 0.08455409109592438, -0.09100586920976639, -0.018215620890259743, 0.022387413308024406, -0.023629916831851006, 0.08905401080846786, -0.029951179400086403, 0.030710900202393532, 0.15761107206344604, 0.7401372194290161, -0.2863571345806122, 0.5167636871337891, 0.030635859817266464, -0.27279192209243774, -0.037145618349313736, -0.21243543922901154, -0.24979080259799957, -0.16787871718406677, -0.36432576179504395, -0.081047922372818, -0.04436488449573517, -0.027548234909772873, -0.04250528663396835, -0.11917731165885925, 0.28307995200157166, 0.19360989332199097, 0.16758504509925842, 0.18175341188907623, 0.09173627942800522, 0.07564441114664078, 0.11670944839715958, -0.08876797556877136, -0.2381935566663742, -0.14795833826065063, -0.08960529416799545, 0.17272917926311493, -0.03929751738905907, 0.6387181282043457, -0.19050332903862, 0.15223811566829681, 0.36116480827331543, 0.4068185091018677, 0.6019278168678284, -0.0741058960556984, -0.17045028507709503, -0.22996053099632263, -0.1618897020816803, -0.027463329955935478, -0.10257648676633835, 0.10434423387050629, 0.19480180740356445, 0.2213994711637497, 0.34629079699516296, 0.2770226001739502, 0.24060724675655365, 0.29439398646354675, 0.26461124420166016, 0.2448742836713791, 0.12786859273910522, 0.031608764082193375, 0.19102834165096283, 0.07206461578607559, 0.1870412528514862, 0.20512910187244415, -0.20205530524253845, 0.10962680727243423, 0.023724457249045372, -0.059729233384132385, -0.0052275704219937325, 0.3009723424911499, 0.541729748249054, 0.16016244888305664, 0.06240997463464737, -0.2968181073665619, -0.2063613086938858, -0.02425091713666916, -0.07675695419311523, 0.21613526344299316, 0.3581291437149048, 0.3740153908729553, 0.44341740012168884, 0.20196473598480225, 0.3195036053657532, 0.27915844321250916, 0.17756299674510956, 0.18225890398025513, 0.3103921711444855, 0.02870376594364643, 0.16569079458713531, 0.24182653427124023, 0.22366218268871307, 0.18494006991386414, -0.07619240134954453, -0.2723482549190521, 0.47227203845977783, 0.2755420207977295, 0.4520656168460846, -0.22095797955989838, -0.28651565313339233, 0.05259614810347557, 0.29717645049095154, -0.054771050810813904, 0.020203297957777977, 0.06775636970996857, 0.11598510295152664, 0.25133001804351807, 0.36026930809020996, 0.31322580575942993, 0.3173084259033203, 0.4068138897418976, 0.3836776912212372, 0.279112845659256, 0.16715596616268158, 0.11637884378433228, 0.20314688980579376, 0.008689587004482746, 0.08095604926347733, 0.037645045667886734, 0.23707041144371033, -0.1787518560886383, -0.25453126430511475, 0.2020331174135208, 0.45110124349594116, -0.1644091010093689, 0.4523705244064331, 0.4260771572589874, -0.00727488799020648, 0.12855854630470276, 0.2853521406650543, 0.5250851511955261, 0.2100600302219391, -0.10295438021421432, 0.1265702247619629, 0.19463679194450378, 0.2227051556110382, 0.05973706394433975, 0.24506400525569916, 0.277905136346817, 0.18689483404159546, 0.28793516755104065, 0.0518413670361042, 0.05211250111460686, 0.12596237659454346, 0.1430804282426834, 0.25078174471855164, -0.04502780735492706, -0.5920896530151367, -0.7239865660667419, -0.5025264620780945, 0.4463594853878021, 0.28071674704551697, -0.17463630437850952, -0.004631894174963236, -0.02257775142788887, 0.3816272020339966, -0.31031572818756104, -0.2615649998188019, -0.14752958714962006, -0.1297904998064041, -0.18965166807174683, -0.2214450240135193, -0.09533926099538803, -0.3577881157398224, -0.20199286937713623, 0.143523707985878, 0.08948847651481628, -0.057558752596378326, 0.07500122487545013, -0.0004888573894277215, -0.02071879431605339, 0.10164070874452591, 0.30420008301734924, 0.19748981297016144, -0.09073852747678757, -0.05729498341679573, -0.3718501031398773, -0.5896028876304626, 0.06595885008573532, 0.37796550989151, 0.03153747320175171, -0.012630054727196693, -0.014097916893661022, 0.10158634930849075, -0.5833796262741089, -0.805129885673523, -0.4239550828933716, -0.21460333466529846, -0.5109319090843201, -0.6763909459114075, -0.3610707223415375, -0.3843365013599396, -0.37506580352783203, -0.25362154841423035, -0.41752269864082336, -0.1982336789369583, -0.2923740744590759, -0.40928003191947937, -0.2570961117744446, -0.0016497091855853796, -0.2571360766887665, -0.5640973448753357, -0.3967382609844208, -0.47524651885032654, -0.5533327460289001, -0.1412750482559204, 0.2468591034412384, 0.45652562379837036, -0.02891024574637413, -0.03477964922785759, 0.01627981662750244, 0.09414723515510559, -0.2570558190345764, -0.13818053901195526, -0.33206072449684143, -0.023866206407546997, -0.9044300317764282, -1.2992157936096191, -0.9805934429168701, -1.2986767292022705, -1.4007575511932373, -0.8471933603286743, -1.1671937704086304, -1.011804223060608, -1.2447503805160522, -1.3543699979782104, -1.0516891479492188, -1.0709627866744995, -0.7345386147499084, -0.7416197061538696, -0.8938909769058228, -0.5853561758995056, -0.7154456377029419, -0.5188899040222168, -0.2575705051422119, 0.2346799522638321, 0.0075915418565273285, 0.024873245507478714, 0.023432055488228798, -0.002528667449951172, -0.3206911087036133, -0.5103995203971863, -0.5254320502281189, -0.465280145406723, -0.5983002781867981, -0.7820978164672852, -0.7183237671852112, -0.5046209096908569, -0.6488773226737976, -1.0718950033187866, -0.9831986427307129, -0.9392308592796326, -0.5298786759376526, -0.567206859588623, -0.3774136006832123, -0.36591511964797974, -0.4200321435928345, -0.4023805856704712, -0.5920673608779907, -0.2685035467147827, 0.05306053161621094, -0.07003971189260483, -0.015014439821243286, 0.007039372809231281, -0.03289737552404404, 0.03128286823630333, -0.019006337970495224, -0.013956981711089611, -0.000986248254776001, 0.07189541310071945, 0.022776365280151367, 0.07608766108751297, 0.04595308005809784, 0.0488065630197525, 0.08983183652162552, 0.11020051687955856, -0.03543934226036072, 0.05985667556524277, -0.2163127362728119, -0.47188812494277954, -0.36878105998039246, -0.18130025267601013, -0.47130724787712097, -0.464252233505249, -0.24203798174858093, -0.09393395483493805, -0.06920718401670456, -0.04507894814014435, -0.05242405831813812, -0.020596807822585106, 0.005257300101220608, -0.00327500281855464, 0.019465025514364243], [-0.023033125326037407, 0.03262075409293175, -0.026225300505757332, 0.025319131091237068, -0.020789623260498047, 0.011194919236004353, -0.004158884286880493, -0.019716506823897362, -0.0007999454392120242, 0.008381622843444347, -0.016067106276750565, -0.009011447429656982, 0.01431393250823021, 0.08316199481487274, 0.029598182067275047, 0.07688110321760178, -0.006297656800597906, 0.023448863998055458, -0.018408682197332382, -0.011994225904345512, -0.023847265169024467, 0.02180704101920128, -0.02463565580546856, -0.010646496899425983, -0.007119656074792147, -0.013609342277050018, 0.00910196639597416, -0.015137860551476479, 0.01676340214908123, -0.008450567722320557, -0.013486028648912907, 0.014371689409017563, 0.028491292148828506, 0.03692358359694481, 0.019834375008940697, 0.06073416396975517, 0.06414171308279037, 0.2762127220630646, 0.34056276082992554, 0.45961427688598633, 0.28878694772720337, 0.21249432861804962, 0.10632655024528503, 0.07553479075431824, 0.1522141546010971, 0.14298148453235626, -0.03041704185307026, -0.0013308117631822824, -0.049877867102622986, 0.008771926164627075, 0.05336601287126541, 0.014113341458141804, 0.012895763851702213, -0.01644446700811386, 0.020148180425167084, -0.0013227888848632574, 0.006622940767556429, -0.005048274993896484, 0.00608460558578372, -0.0995514988899231, -0.008304164744913578, -0.11496378481388092, 0.43468666076660156, 0.2771209478378296, 0.39925503730773926, 0.3824937045574188, 0.4707759618759155, 0.29420557618141174, 0.18508648872375488, -0.024412430822849274, -0.11300503462553024, -0.33398404717445374, -0.2271420657634735, 0.012022007256746292, 0.16492830216884613, -0.12572598457336426, -0.011614738963544369, 0.16309191286563873, -0.06536197662353516, 0.20274347066879272, 0.1361171305179596, 0.13916604220867157, -0.006582022178918123, -0.00602459954097867, 0.026833049952983856, 0.0042492407374084, 0.10926526039838791, 0.04844171926379204, 0.34665170311927795, -0.30698224902153015, -0.13763871788978577, -0.15760885179042816, 0.029163682833313942, 0.2758130729198456, 0.022311391308903694, 0.31137436628341675, 0.5001734495162964, 0.37370428442955017, 0.18287166953086853, 0.1539386659860611, 0.1647513210773468, 0.27121949195861816, 0.1176227256655693, 0.26761671900749207, 0.2245997041463852, -0.05988379940390587, -0.33669984340667725, -0.7123056650161743, 0.09585888683795929, 0.24632781744003296, 0.30923694372177124, -0.008288929238915443, 0.035529788583517075, -0.30044296383857727, -0.39884984493255615, -0.34738191962242126, -0.44645023345947266, -0.29540935158729553, 0.38915956020355225, 0.2494659572839737, 0.10110991448163986, 0.06886312365531921, -0.035002660006284714, 0.31217315793037415, 0.07504639774560928, 0.1237410232424736, 0.07629572600126266, 0.14953872561454773, -0.032248128205537796, 0.11130170524120331, 0.27217790484428406, 0.08359331637620926, -0.08210764080286026, -0.14278243482112885, 0.07391063123941422, -0.15456634759902954, -0.2963337302207947, -0.1104278564453125, 0.5689262747764587, -0.005694588180631399, -0.02926994301378727, -0.0024188458919525146, -0.12756933271884918, 0.1887800246477127, -0.4845271110534668, -0.23067355155944824, -0.01914207637310028, 0.004268421791493893, 0.25085973739624023, 0.13110150396823883, 0.33895209431648254, 0.15164904296398163, 0.09967619180679321, 0.27259716391563416, 0.2532406747341156, 0.07811884582042694, 0.17037521302700043, 0.19617164134979248, 0.21167899668216705, 0.03346257656812668, 0.049008022993803024, 0.0708787739276886, 0.25330251455307007, 0.27610301971435547, -0.23084473609924316, 0.12325020879507065, 0.028434431180357933, -0.011907941661775112, 0.014645994640886784, 0.2998717129230499, 0.3692439794540405, 0.15992513298988342, 0.05357043445110321, 0.01075899787247181, -0.07514285296201706, 0.1360696405172348, 0.1868607997894287, 0.010958338156342506, 0.26030489802360535, 0.12396425753831863, 0.23843273520469666, 0.25954580307006836, 0.26520583033561707, 0.10795565694570541, 0.09783848375082016, 0.10608188807964325, -0.005202658008784056, -0.052994415163993835, -0.04967861622571945, 0.14421547949314117, 0.2516236901283264, -0.07028856873512268, -0.0066731516271829605, 0.0036476128734648228, -0.0358266644179821, 0.39772871136665344, 0.2033836543560028, 0.4649403393268585, 0.22428908944129944, 0.17819562554359436, 0.20713523030281067, -0.021838568150997162, 0.17686831951141357, 0.10792452841997147, 0.1277444064617157, 0.12262657284736633, 0.17043980956077576, 0.21501705050468445, 0.20448610186576843, 0.25773903727531433, 0.31897541880607605, 0.09199533611536026, 0.2407003790140152, 0.17993687093257904, 0.20264051854610443, 0.17905430495738983, 0.10853224247694016, -0.030373554676771164, -0.043304722756147385, 0.05386139452457428, -0.00730134965851903, -0.0964946448802948, 0.10297020524740219, -0.02338593639433384, 0.12695324420928955, 0.6442793011665344, -0.02144712768495083, -0.17661988735198975, -0.04990058019757271, -0.0899374932050705, -0.1772828996181488, -0.06060848757624626, 0.15487456321716309, 0.06281188130378723, 0.0897311344742775, 0.1061982661485672, 0.20454290509223938, 0.18642747402191162, 0.4213058650493622, 0.2434055060148239, 0.2398054599761963, 0.1610485166311264, 0.013158343732357025, -0.024874363094568253, 0.0660751536488533, -0.043665189296007156, -0.015433311462402344, 0.22072649002075195, -0.024473106488585472, -0.33419227600097656, -0.28663334250450134, -0.36329779028892517, 0.0582822784781456, 0.40333297848701477, 0.22524207830429077, -0.33779892325401306, -0.00792666245251894, -0.17742082476615906, -0.24670296907424927, -0.04049914330244064, -0.13602085411548615, 0.008464554324746132, -0.029215821996331215, -0.10761348903179169, 0.1710328757762909, 0.13948476314544678, 0.13516630232334137, 0.1639128029346466, 0.09166483581066132, 0.02172802947461605, 0.14658384025096893, -0.006057010963559151, -0.02493550255894661, -0.1660299003124237, 0.006445367820560932, 0.14850564301013947, 0.09071037918329239, 0.07903645932674408, -0.6259515285491943, 0.34331437945365906, 0.018216721713542938, 0.21900632977485657, 0.34771570563316345, 0.18492785096168518, -0.10000558197498322, -0.08605640381574631, -0.11307306587696075, -0.132115438580513, -0.10124320536851883, -0.20849992334842682, -0.24991609156131744, -0.09022294729948044, -0.13201630115509033, -0.02223098650574684, -0.13701146841049194, -0.04065651819109917, -0.14304283261299133, -0.042766012251377106, -0.06309330463409424, -0.1890680342912674, 0.021431447938084602, 0.05751126632094383, 0.021578088402748108, -0.1419776827096939, 0.1835693120956421, -0.2745339274406433, -0.3259138762950897, 0.42887231707572937, 0.024882405996322632, 0.21316854655742645, 0.11996013671159744, -0.07852386683225632, -0.17361299693584442, -0.32262739539146423, -0.030412103980779648, -0.20586131513118744, -0.3002352714538574, -0.26144737005233765, -0.18991003930568695, -0.043708909302949905, -0.13157345354557037, -0.2282777577638626, -0.4940635859966278, -0.404483824968338, -0.28440698981285095, -0.13859012722969055, 0.018431389704346657, -0.08245116472244263, -0.17607685923576355, -0.10307096689939499, -0.07836869359016418, -0.10019715875387192, -0.012532437220215797, -0.33812275528907776, 0.08450634032487869, -0.19262437522411346, 0.11234533041715622, 0.08336696028709412, 0.4440970718860626, 0.16638745367527008, 0.0242368932813406, -0.2972852885723114, -0.053390875458717346, -0.11221478134393692, -0.08648857474327087, -0.05520747974514961, 0.03506769984960556, 0.0002988786727655679, 0.0013372576795518398, -0.2530318796634674, -0.4583287835121155, -0.3180973529815674, -0.09610119462013245, -0.04585053399205208, -0.009158375672996044, -0.1060788631439209, -0.014947976917028427, -0.1787458211183548, -0.1618388146162033, -0.23082932829856873, 0.05895843729376793, -0.369609534740448, -0.21786828339099884, -0.18635517358779907, 0.033123183995485306, -0.05835993215441704, 0.5430636405944824, 0.38254210352897644, 0.1353674978017807, -0.22640374302864075, -0.07773254811763763, 0.09317995607852936, 0.04643812030553818, 0.1446978896856308, 0.053841330111026764, -0.11173441261053085, -0.20245151221752167, -0.2694249749183655, -0.18951579928398132, -0.3174070715904236, -0.1786561757326126, -0.06605247408151627, -0.0835445374250412, -0.13689157366752625, -0.16745692491531372, -0.08248016983270645, -0.17576970160007477, -0.12930825352668762, -0.16920886933803558, -0.20391346514225006, 0.18384137749671936, 0.06944576650857925, 0.3714728057384491, -0.46795815229415894, 0.39642179012298584, 0.4062857925891876, 0.18653327226638794, 0.11717304587364197, -0.03925592452287674, 0.36681002378463745, 0.12309284508228302, 0.06495356559753418, -0.01083450298756361, -0.21026012301445007, -0.2950875759124756, -0.27046117186546326, -0.15947428345680237, -0.11089516431093216, -0.2897695004940033, -0.15855057537555695, -0.16531060636043549, -0.20055782794952393, -0.08540966361761093, -0.056734539568424225, -0.16668307781219482, -0.1269303560256958, 0.016653085127472878, -0.1415676325559616, 0.7056793570518494, 0.45406222343444824, 0.3075229823589325, -0.16671134531497955, 0.1748335063457489, 0.2837705910205841, -0.012799911201000214, 0.3329937756061554, 0.047156210988759995, 0.1565261334180832, 0.00898671429604292, 0.010729124769568443, -0.07947377115488052, -0.21300038695335388, -0.3323482275009155, -0.31825417280197144, -0.44501546025276184, -0.18137438595294952, -0.16823838651180267, -0.18026335537433624, -0.10274941474199295, -0.25619494915008545, -0.01696675270795822, 0.13397738337516785, -0.22117634117603302, -0.25435930490493774, 0.14495015144348145, -0.23226985335350037, 0.8721444606781006, 0.46176183223724365, -0.01907428540289402, -0.07763674855232239, 0.17647863924503326, 0.39203768968582153, -0.15526628494262695, 0.11191537976264954, -0.04637320712208748, -0.07902000099420547, -0.0991324707865715, -0.13649345934391022, -0.035659946501255035, -0.03906802088022232, -0.10080014169216156, -0.13312391936779022, -0.35059377551078796, -0.052400924265384674, -0.16926003992557526, -0.15546786785125732, -0.14493896067142487, 0.061034366488456726, 0.02922518365085125, 0.1988823115825653, 0.018321463838219643, -0.12231648713350296, 0.1667807698249817, -0.16654101014137268, 0.8685011267662048, 0.5828493237495422, -0.01100518461316824, -0.112059585750103, 0.298986554145813, 0.06377953290939331, -0.05595140904188156, -0.07853354513645172, -0.24177615344524384, -0.3059770464897156, -0.1985982209444046, -0.2271798849105835, -0.019495822489261627, -0.058892104774713516, -0.13715820014476776, -0.3469674289226532, -0.19507485628128052, -0.11934371292591095, -0.24387270212173462, -0.08400996029376984, -0.10990145802497864, -0.005728146992623806, 0.032170288264751434, -0.010891914367675781, 0.1581086665391922, -0.0644536092877388, -0.23426279425621033, 0.2369956523180008, 0.6174749732017517, 0.6164623498916626, 0.13350576162338257, -0.09540794789791107, -0.05668731406331062, -0.2328423112630844, -0.08612912148237228, -0.03501688688993454, -0.2894483506679535, -0.09527129679918289, -0.10461515188217163, -0.15498600900173187, -0.013915150426328182, -0.2767374813556671, -0.3166424036026001, -0.3283931016921997, -0.16220888495445251, -0.12083795666694641, -0.05895651876926422, -0.007989324629306793, 0.026335284113883972, 0.129039004445076, -0.006811717990785837, 0.13277825713157654, 0.21420367062091827, 0.011334603652358055, -0.0864238440990448, 0.24518002569675446, 0.5024173855781555, 0.6343059539794922, -0.056364983320236206, 0.1965896040201187, 0.25670379400253296, -0.22418759763240814, -0.15880171954631805, -0.1510675698518753, 0.02511201612651348, -0.05629415437579155, -0.11462926119565964, -0.2185722440481186, -0.13138270378112793, -0.073695607483387, -0.09972909092903137, 0.01896251179277897, -0.008714417926967144, -0.016629274934530258, -0.06986050307750702, 0.09419500082731247, -0.01740274205803871, 0.09203112870454788, 0.28446269035339355, 0.1467687040567398, 0.08144493401050568, -0.30586305260658264, -0.08387769013643265, 0.4160425662994385, 0.5740078091621399, 0.4453933537006378, 0.021255889907479286, -0.0738602876663208, 0.44100433588027954, 0.2061251997947693, 0.25572189688682556, 0.23649176955223083, 0.18420879542827606, -0.05580693855881691, 0.07307253032922745, 0.12307615578174591, -0.07008802890777588, 0.11559893935918808, 0.22946208715438843, 0.27504608035087585, 0.1847919076681137, 0.2539312243461609, 0.1305292695760727, 0.04239646717905998, 0.000366860069334507, 0.08841853588819504, 0.12268497794866562, 0.06432545930147171, -0.011200967244803905, -0.046550311148166656, -0.2778717279434204, 0.27410653233528137, 0.4097255766391754, 0.26096412539482117, 0.04960159212350845, -0.2657124698162079, 0.38628819584846497, 0.5167859196662903, 0.08345799893140793, -0.0038233099039644003, -0.003024372737854719, -0.05227437615394592, 0.08279546350240707, 0.14297553896903992, 0.27124276757240295, 0.321449339389801, 0.34097009897232056, 0.34634125232696533, 0.3821469247341156, 0.30898863077163696, 0.2322329878807068, 0.02505565993487835, 0.07523379474878311, 0.13817746937274933, 0.086497001349926, 0.22735372185707092, 0.2490496039390564, 0.2797636091709137, 0.17621107399463654, 0.6171305179595947, 0.5028042197227478, 0.19506868720054626, 0.045743729919195175, -0.2555498778820038, 0.3362312316894531, 0.21877700090408325, -0.2620570957660675, 0.12376559525728226, 0.06917816400527954, -0.003042846219614148, 0.18632124364376068, 0.3221033215522766, 0.2587006986141205, 0.20023620128631592, 0.2534763514995575, 0.31803157925605774, 0.27373385429382324, 0.2662298083305359, 0.19698306918144226, 0.17989537119865417, 0.18296191096305847, 0.18174386024475098, 0.060710106045007706, 0.17859457433223724, 0.2147923856973648, 0.21973846852779388, -0.15651707351207733, 0.1595054417848587, -0.06340298056602478, 0.17758074402809143, -0.026681561022996902, -0.0038960024248808622, -0.07746327668428421, -0.014170036651194096, 0.09166087210178375, 0.08888770639896393, 0.17014123499393463, 0.17541401088237762, 0.17483073472976685, 0.31576427817344666, 0.3124581575393677, 0.41017946600914, 0.2326306700706482, 0.09672809392213821, 0.19199204444885254, 0.2656717896461487, 0.08195734769105911, 0.28510788083076477, 0.1219402328133583, 0.07004382461309433, -0.04646238312125206, -0.029214857146143913, 0.2395000010728836, 0.29517653584480286, 0.08192570507526398, 0.07427706569433212, 0.14477217197418213, -0.0066426401026546955, -0.00417313864454627, 0.007107671350240707, 0.17854495346546173, 0.04861405864357948, 0.3155442178249359, 0.16533151268959045, 0.1782546490430832, 0.3282560110092163, 0.3686368465423584, 0.3056018352508545, 0.09108664095401764, 0.02734028361737728, 0.16833215951919556, 0.1823384314775467, 0.18315890431404114, 0.17873331904411316, -0.0359453409910202, 0.4189293086528778, 0.39592602849006653, -0.029303336516022682, -0.3186051547527313, 0.05246904864907265, 0.09858329594135284, -0.10494823753833771, 0.5797662734985352, 0.39190590381622314, 0.2060641497373581, -0.005051502492278814, 0.03287858888506889, 0.025823039934039116, -0.35377901792526245, 0.40401411056518555, 0.250680536031723, -0.3978326618671417, -0.04646572470664978, 0.40504613518714905, 0.38091811537742615, 0.27008795738220215, -0.0024854575749486685, 0.12300027906894684, 0.14238163828849792, 0.07613164186477661, -0.12761053442955017, 0.028407232835888863, 0.17240305244922638, 0.13549625873565674, 0.06660730391740799, 0.18288852274417877, -0.0022161868400871754, 0.1170097291469574, 0.42277637124061584, 0.028540700674057007, -0.1333129107952118, -0.3934963047504425, -0.012274784035980701, -0.032428838312625885, -0.0006347767193801701, 0.03233037889003754, 0.02650325372815132, -0.015104020945727825, -0.1891390085220337, -0.42488259077072144, -0.13707442581653595, 0.4501606225967407, 0.38228222727775574, 0.2326943725347519, 0.2936898171901703, 0.33870020508766174, 0.41045624017715454, 0.48147958517074585, 0.5370426774024963, 0.7997090816497803, 0.6313043236732483, 0.18508248031139374, 0.294526606798172, 1.012376070022583, 0.5147368907928467, 0.10542662441730499, 0.3919290602207184, 0.43111950159072876, 0.0030485757160931826, 0.07754812389612198, 0.02705218642950058, -0.009487289004027843, -0.030204609036445618, -0.01838330738246441, 0.02983616292476654, 0.022656360641121864, -0.0011774542508646846, 0.3286059498786926, 0.532470166683197, 0.6986537575721741, 0.7552991509437561, 0.8432074785232544, 0.6567389369010925, 0.700226902961731, 0.9206489324569702, 1.1326717138290405, 0.5830209255218506, 0.7276203632354736, 0.7979878187179565, 1.0106040239334106, -0.1633903533220291, -0.23622669279575348, 0.23637479543685913, 0.016456544399261475, -0.11484628915786743, 0.0002752539294306189, -0.03395409509539604, -0.02148848958313465, -0.011811835691332817, -0.030395688489079475], [0.032345131039619446, -0.009287634864449501, 0.03520026430487633, -0.012920950539410114, -0.0014219668228179216, -0.014001451432704926, 0.020346183329820633, -0.017790062353014946, 0.03048804961144924, 0.01955539919435978, -0.03308989480137825, -0.018296731635928154, 0.05552927404642105, -0.026183683425188065, -0.23464107513427734, -0.15003259479999542, -0.010828082449734211, 0.005507512018084526, -0.016202962026000023, 0.001784618478268385, -0.014323197305202484, -0.01944836974143982, 0.0006113435956649482, 0.017933471128344536, 0.03521275147795677, -0.015693968161940575, 0.02371969446539879, 0.03046492300927639, -0.0034509089309722185, -0.02597987838089466, 0.019762316718697548, 0.020012464374303818, -0.04507441446185112, -0.14168742299079895, -0.343586802482605, -0.43480628728866577, -0.4634981155395508, -0.4393446445465088, -0.3807012140750885, 0.31288930773735046, 0.24311666190624237, 0.2244519591331482, 0.1827329844236374, -0.27512872219085693, -0.15119190514087677, -0.20868465304374695, -0.341071754693985, -0.5581704378128052, -0.5773258805274963, -0.18204255402088165, -0.4079091250896454, -0.35924044251441956, 0.028417324647307396, -0.010754884220659733, 0.01493838895112276, 0.024523885920643806, -0.020842306315898895, -0.015101526863873005, -0.21993283927440643, 0.3077690005302429, 0.22526594996452332, -0.29065656661987305, -0.28247886896133423, -0.04723037779331207, 0.17099040746688843, 0.4044201970100403, -0.11100111156702042, -0.7069451212882996, -0.3734782040119171, -0.5087720155715942, -0.6302478313446045, -0.41457903385162354, -0.31437399983406067, -0.2463405579328537, 0.14449946582317352, -0.0170012004673481, 0.10189158469438553, 0.21229144930839539, 0.29866597056388855, 0.10103291273117065, -0.15224589407444, -0.31092381477355957, -0.027209900319576263, 0.00245539634488523, 0.010910043492913246, 0.0348842516541481, -0.38564369082450867, 0.11872291564941406, -0.14470361173152924, -0.2481582760810852, -0.6358221173286438, -0.7042362689971924, -0.41763508319854736, -0.2406899482011795, 0.09793458133935928, 0.07470670342445374, -0.12369774281978607, -0.19149646162986755, 0.04004177823662758, -0.001010380801744759, -0.3527769446372986, -0.22941581904888153, 0.1594078093767166, -0.15273317694664001, -0.09792724996805191, 0.2020997405052185, 0.7844218611717224, 0.5019485950469971, -0.07542844116687775, 0.45437613129615784, 0.3760479986667633, 0.011306175962090492, 0.035148244351148605, -0.273746520280838, -0.5365003943443298, -0.7147583961486816, -0.6783255338668823, -0.8589239716529846, -0.9522729516029358, -0.26058757305145264, -0.15687207877635956, 0.15943346917629242, -0.001694501144811511, 0.10700487345457077, 0.09193290024995804, -0.08285757154226303, 0.03864286094903946, 0.09019581228494644, -0.012887375429272652, 0.28703656792640686, 0.14913034439086914, -0.07123307138681412, -0.013862624764442444, 0.028614234179258347, 0.35386988520622253, 0.37714025378227234, 0.4580960273742676, 0.6410476565361023, 0.3596409559249878, 0.19804149866104126, 0.03494296222925186, 0.0018605974037200212, -0.7536762356758118, -0.42330047488212585, -0.8289207816123962, -0.9115702509880066, -0.46207335591316223, 0.03985876962542534, 0.06670184433460236, 0.11291884630918503, 0.15310834348201752, 0.09799718856811523, -0.011485588736832142, -0.05806596577167511, -0.001503077568486333, -0.06822719424962997, 0.13663984835147858, 0.35085758566856384, 0.06484381854534149, 0.08632144331932068, 0.0772552490234375, -0.11710340529680252, 0.09042108803987503, 0.045881085097789764, 0.10879282653331757, 0.9178258776664734, 0.35117456316947937, 0.07433188706636429, -0.0002499733818694949, 0.24635659158229828, -0.31018561124801636, -0.4138721525669098, -0.27849113941192627, 0.017362775281071663, -0.25563859939575195, -0.029466573148965836, 0.02237607166171074, -0.10895241051912308, -0.17324644327163696, -0.2618522346019745, -0.16772954165935516, -0.19895389676094055, -0.1544370949268341, -0.1072353795170784, -0.23695926368236542, -0.04013218730688095, -0.23013544082641602, 0.11192571371793747, 0.05525563284754753, -0.06445595622062683, 0.08375809341669083, 0.09697271138429642, 0.32985928654670715, 1.1967260837554932, 0.455896258354187, -0.04409058019518852, -0.1799197942018509, -0.15004821121692657, -0.3502477705478668, -0.11485020816326141, -0.10946696996688843, 0.27613160014152527, -0.10759928822517395, -0.13575784862041473, 0.28798601031303406, 0.13118790090084076, -0.01052024494856596, -0.1407749056816101, -0.3336828351020813, -0.23153142631053925, -0.27102896571159363, -0.16642718017101288, -0.13029170036315918, 0.007073026150465012, 0.04507214203476906, 0.04117342084646225, -0.11063282936811447, 0.03245388716459274, 0.13246369361877441, 0.26438963413238525, 0.6203852295875549, 1.3596395254135132, 0.3863966763019562, 0.26091888546943665, 0.43101537227630615, -0.48469653725624084, 0.100664421916008, 0.38895437121391296, -0.06478723883628845, 0.23453064262866974, 0.08299654722213745, 0.0581592433154583, 0.03161206841468811, 0.23652203381061554, -0.03529229760169983, -0.10281568020582199, -0.05584550276398659, 0.03888462111353874, -0.05393814668059349, -0.13524316251277924, 0.12973849475383759, 0.0408138632774353, -0.0022921154741197824, -0.010073043406009674, 0.19167591631412506, 0.33581551909446716, 0.12216106057167053, 0.4026679992675781, 1.1741349697113037, 1.2817437648773193, 0.7297799587249756, 0.3876537084579468, 0.016803091391921043, -0.6275653839111328, 0.16345413029193878, 0.26253068447113037, -0.41258859634399414, 0.22733132541179657, 0.20064479112625122, 0.09974859654903412, 0.03213142231106758, 0.11494113504886627, 0.096600741147995, 0.1850138008594513, 0.004319474101066589, 0.2709170877933502, 0.02281922660768032, -0.23692587018013, -0.000849127653054893, -0.011397169902920723, 0.09162343293428421, 0.23073866963386536, 0.4151204228401184, 0.31478849053382874, 0.043387871235609055, 0.511325478553772, 1.387380838394165, 1.0760786533355713, 0.04300311207771301, -0.44847366213798523, 0.0254194512963295, -0.6658323407173157, 0.04011400043964386, 0.6629655361175537, 0.15092624723911285, 0.21051378548145294, 0.31376394629478455, 0.2689632773399353, 0.22951777279376984, 0.39623504877090454, 0.26714956760406494, 0.16716104745864868, 0.4085886478424072, 0.26042723655700684, 0.08598976582288742, -0.06486242264509201, -0.2590493857860565, -0.03486192226409912, 0.10834658890962601, 0.08667675405740738, 0.35626205801963806, 0.22460778057575226, 0.31334397196769714, 0.7419593334197998, 1.118897795677185, 0.2927825152873993, 0.16991305351257324, -0.37967318296432495, -0.3766341805458069, -0.2103981375694275, 0.22749125957489014, 0.2749181389808655, -0.08834576606750488, -0.01570228859782219, 0.14102831482887268, 0.14789201319217682, 0.10327453911304474, 0.3378419280052185, 0.2697374224662781, 0.12250487506389618, 0.25816041231155396, 0.21594297885894775, -0.09119844436645508, -0.21460914611816406, -0.2305786907672882, -0.2025367021560669, -0.1084662526845932, 0.01346417237073183, -0.28201836347579956, -0.13766199350357056, 0.10948837548494339, 0.5644914507865906, 1.0491207838058472, 0.8808151483535767, 0.9450921416282654, -0.5647765398025513, -0.33708709478378296, -0.057744018733501434, -0.21508266031742096, -0.07770205289125443, -0.2565799951553345, 0.13333046436309814, 0.253819078207016, 0.13272546231746674, -0.017340559512376785, 0.18156705796718597, 0.25773128867149353, 0.27053090929985046, 0.37156128883361816, 0.2494794726371765, -0.3031212091445923, -0.27006810903549194, -0.2401999831199646, -0.19045300781726837, -0.23414009809494019, 0.06284943968057632, 0.004241105634719133, -0.06645023822784424, 0.13829877972602844, 0.09921839833259583, 0.5238473415374756, 0.07613436132669449, 0.1260334551334381, -0.6235781908035278, -0.012721003033220768, 0.31942644715309143, -0.34897926449775696, -0.300012469291687, -0.35965994000434875, 0.19503064453601837, 0.33648642897605896, 0.4021252393722534, 0.18229718506336212, 0.24812749028205872, 0.2352701723575592, 0.3210422098636627, 0.32716843485832214, -0.11413583159446716, -0.22289609909057617, -0.06305230408906937, -0.16546735167503357, -0.1181085854768753, 0.0754970833659172, -0.006844224873930216, 0.040233246982097626, -0.052524637430906296, 0.41779792308807373, -0.16324447095394135, -0.023472541943192482, 0.1215200275182724, 0.013952024281024933, 0.041867610067129135, 0.3875632882118225, -0.08508435636758804, -0.16069521009922028, -0.47248733043670654, -0.28604066371917725, 0.2629375457763672, 0.05198096111416817, 0.15281175076961517, 0.08617360889911652, 0.09137392044067383, 0.10654320567846298, 0.21268126368522644, 0.21585696935653687, -0.02124987170100212, 0.03480563312768936, -0.0025173528119921684, -0.17964522540569305, 0.1491134613752365, -0.06207319721579552, -0.05311407893896103, -0.07904378324747086, 0.08226242661476135, 0.1100887730717659, -0.19686220586299896, 0.0394638292491436, 0.0038864710368216038, -0.5180939435958862, -0.2930721938610077, 0.38065052032470703, -0.3155794143676758, 0.44338473677635193, -0.21737292408943176, 0.051029376685619354, 0.09205733984708786, -0.1297818422317505, 0.2261531502008438, 0.09928183257579803, 0.21800483763217926, 0.09531351923942566, 0.06738898158073425, 0.13521157205104828, -0.04759761318564415, 0.07420076429843903, -0.01770756207406521, -0.06941720843315125, 0.11113475263118744, 0.032385922968387604, 0.08748719841241837, -0.022443247959017754, -0.026173727586865425, -0.030322937294840813, 0.10950380563735962, 0.07074644416570663, 0.2592756450176239, 0.4411488175392151, 0.1396692544221878, -0.01203951146453619, -0.11575501412153244, -0.12241317331790924, 0.042391013354063034, -0.38612428307533264, -0.2547074854373932, -0.061142563819885254, 0.13645705580711365, 0.10686944425106049, 0.024256298318505287, -0.12426009029150009, -0.050394508987665176, 0.13469070196151733, 0.009689552709460258, 0.02472987212240696, 0.13737475872039795, 0.04726972430944443, 0.27059003710746765, 0.07348465919494629, 0.07886038720607758, 0.07627300173044205, -0.013765261508524418, 0.03369826078414917, 0.28937584161758423, -0.15953770279884338, 0.28448939323425293, 0.18242162466049194, -0.3884483277797699, -0.01601376384496689, -0.5497840046882629, -0.03617285564541817, -0.01564360037446022, 0.17640157043933868, 0.17525115609169006, 0.14690770208835602, 0.24862636625766754, -0.12388602644205093, 0.001383605063892901, -0.1964278221130371, 0.018621379509568214, 0.008376576006412506, -0.006408201530575752, -0.036038514226675034, 0.012504913844168186, 0.23071953654289246, 0.2505207359790802, 0.09790906310081482, 0.10646229237318039, 0.31813132762908936, 0.11933870613574982, 0.07080458849668503, 0.2760947048664093, -0.2178458422422409, -0.6447948813438416, -0.43141448497772217, -0.27239635586738586, -0.5333986878395081, -0.7056668996810913, -0.3701707720756531, -0.44369563460350037, 0.17979614436626434, 0.3128387928009033, 0.44480469822883606, 0.25117841362953186, 0.034075792878866196, 0.021461838856339455, -0.04238541051745415, 0.05167926475405693, 0.07235616445541382, 0.0492587685585022, -0.10884076356887817, -0.045894041657447815, 0.13340583443641663, -0.06596709042787552, -0.1262826770544052, -0.024424469098448753, 0.01987963356077671, -0.05360229313373566, -0.06332073360681534, -0.013551738113164902, 0.11776077747344971, -0.8140509128570557, -0.9845536351203918, -0.38351744413375854, -0.32043763995170593, -0.23375755548477173, 0.3889372944831848, 0.15515340864658356, 0.30134427547454834, 0.42703449726104736, 0.26826345920562744, -0.06252477318048477, 0.11397198587656021, -0.003081714967265725, 0.07331352680921555, 0.03087320178747177, -0.03764085844159126, 0.01530408300459385, -0.010738260112702847, -0.00482240691781044, -0.19211219251155853, -0.05359141528606415, 0.00022775783145334572, -0.16229753196239471, 0.05960216000676155, 0.15761391818523407, 0.21204541623592377, -0.11634691804647446, -0.20244157314300537, -0.7488385438919067, -0.5516213774681091, -0.3915916085243225, -0.018121473491191864, 0.4367552101612091, 0.8315632939338684, 0.4718259572982788, 0.4452153742313385, 0.46562787890434265, 0.08725889027118683, -0.013804237358272076, 0.10324932634830475, 0.16509276628494263, 0.10215218365192413, 0.08020151406526566, 0.08991017937660217, 0.17457373440265656, -0.03421487286686897, 0.03850064054131508, -0.16512954235076904, -0.07704513520002365, -0.10388589650392532, -0.07505854964256287, 0.15663185715675354, 0.21770112216472626, 0.12903083860874176, -0.21950051188468933, -0.7674967646598816, -0.533210277557373, -0.6029231548309326, -0.2914847731590271, -0.403538316488266, 0.17460662126541138, 0.5968422293663025, 0.19141696393489838, 0.19331815838813782, -0.20660986006259918, -0.08474588394165039, -0.015751123428344727, 0.08321739733219147, 0.21667298674583435, -0.03237387537956238, 0.2945740222930908, 0.1671575903892517, 0.2544161379337311, 0.07562414556741714, 0.11070920526981354, -0.022802283987402916, 0.10351044684648514, -0.14588840305805206, -0.13670769333839417, -0.03865151107311249, -0.06431710720062256, 0.22461877763271332, 0.09226302802562714, -0.3822483718395233, -0.34710070490837097, 0.06168957054615021, 0.13180102407932281, -0.3938729465007782, -0.3769722282886505, 0.3703494071960449, 0.03262330964207649, -0.31441473960876465, -0.5572342276573181, -0.05562072992324829, 0.02333187684416771, -0.05247771739959717, 0.09809106588363647, -0.007536721881479025, 0.287317156791687, 0.36810415983200073, 0.4072260558605194, 0.1949843317270279, 0.19465389847755432, 0.11423154175281525, 0.06069047749042511, 0.04985060542821884, 0.0832386240363121, -0.12589921057224274, 0.052660491317510605, 0.2110438495874405, 0.15090620517730713, 0.002724145073443651, -0.12211182713508606, 0.4141808748245239, 0.18932853639125824, 0.030720984563231468, -0.024912899360060692, 0.5244534611701965, 0.6565817594528198, 0.07036741077899933, -0.2072191685438156, -0.00842568650841713, -0.050746046006679535, 0.26637840270996094, 0.22291871905326843, 0.3067990839481354, 0.32556644082069397, 0.21780408918857574, 0.2659989297389984, 0.3117288649082184, 0.2724899649620056, 0.3853793442249298, 0.24608035385608673, 0.29850849509239197, 0.26135513186454773, 0.015530272386968136, 0.18734987080097198, 0.0556454211473465, 0.1854444146156311, -0.02906414307653904, 0.4273703098297119, 0.009992830455303192, 0.012941629625856876, -0.0015622718492522836, 0.022740237414836884, 0.27321434020996094, 0.2825450897216797, -0.29916492104530334, -0.19738426804542542, -0.005172954872250557, 0.019518142566084862, 0.07442793250083923, 0.15596365928649902, -0.04361763969063759, 0.10038220882415771, 0.2809372544288635, 0.3033130168914795, 0.23281168937683105, 0.19979338347911835, 0.3579781949520111, 0.060923982411623, 0.3625195026397705, 0.2506547272205353, 0.14092326164245605, -0.03262162581086159, 0.34410157799720764, 0.008863966912031174, -0.03884660825133324, 0.11790945380926132, -0.44669267535209656, -0.006034331861883402, 0.013174508698284626, 0.01857437565922737, -0.05764110013842583, -0.01831333339214325, -0.5388330221176147, -0.2552785277366638, -0.15748953819274902, -0.33948975801467896, -0.5710580945014954, -0.19931195676326752, 0.14667341113090515, 0.02298557013273239, -0.27197524905204773, -0.06057500094175339, -0.07402008026838303, 0.04391736537218094, -0.016588756814599037, -0.0070690372958779335, 0.26007315516471863, 0.16221685707569122, 0.05950150266289711, 0.2978626489639282, 0.42491745948791504, 0.29616039991378784, 0.254660427570343, -0.04023964703083038, -0.17096900939941406, 0.012087405659258366, -0.007214082404971123, -0.03376700356602669, 0.00947484839707613, 0.02551133930683136, -0.04392000287771225, 0.07637546211481094, -0.15135353803634644, -0.723371148109436, -0.7668424248695374, -0.9136362671852112, -0.45308932662010193, -0.17663191258907318, -0.13332568109035492, -0.3146558403968811, -0.7052744030952454, -0.47342443466186523, -0.6592406034469604, -0.4793444871902466, -0.4919738471508026, -0.3063386082649231, -0.5274564623832703, -0.3524723947048187, -0.26268675923347473, -0.0018701715162023902, -0.2768624722957611, -0.051902059465646744, -0.020753158256411552, -0.02799871191382408, 0.02437744103372097, -0.01804068312048912, 0.00700931902974844, 0.015995435416698456, 0.09373966604471207, 0.0002620687009766698, 