{"model.1.weight": [[-0.0206857118755579, -0.005456660874187946, 0.02596057765185833, 0.015384597703814507, -0.009543185122311115, 0.02407148666679859, -0.008713445626199245, -0.015313894487917423, -0.03409744054079056, 0.02141791768372059, 0.020261850208044052, -0.01105750072747469, 0.03505631908774376, 0.03231438994407654, 0.0019525886746123433, 0.022637926042079926, -0.003183654509484768, -0.013756049796938896, -0.03313150629401207, -0.018033888190984726, -0.027670418843626976, 0.011724025942385197, -0.023247642442584038, 0.015709150582551956, 0.034308504313230515, 0.008184659294784069, 0.0096033476293087, 0.0016633826307952404, -0.009318036958575249, 0.020154744386672974, 0.0005716894520446658, 0.027390260249376297, 0.01962323859333992, 0.009783685207366943, 0.008849633857607841, -0.021508146077394485, -0.003412766382098198, 0.0347544327378273, -0.0008411535527557135, 0.02682008221745491, 0.010404732078313828, -0.0027177506126463413, 0.0355251207947731, -0.016377467662096024, 0.02249683253467083, 0.023154400289058685, -0.02151891216635704, -0.01931171864271164, 0.009093391709029675, -0.0030458273831754923, -0.010631910525262356, 0.022417349740862846, 0.031723763793706894, -0.03457222506403923, -0.00823715329170227, -0.006169604603201151, 0.02633717842400074, -0.018085330724716187, 0.025791216641664505, 0.025646917521953583, -0.00040091361734084785, -0.020225368440151215, -0.008374035358428955, -0.003317726543173194, -0.006697705946862698, 0.03180326893925667, -0.03365452215075493, 0.004819218534976244, -0.023260561749339104, 0.00733008049428463, 0.015996288508176804, -0.021841924637556076, -0.008944722823798656, -0.016521204262971878, 0.009295526891946793, -0.031246960163116455, -0.0035640625283122063, -0.02649337612092495, 0.023725727573037148, 0.010930688120424747, 0.019339043647050858, -0.029599228873848915, 0.002971232170239091, 0.01687762700021267, 0.01930548995733261, 0.023439178243279457, -0.03504075109958649, -0.0350106917321682, 0.03492132946848869, 0.01975751481950283, 0.03551831096410751, -0.035446420311927795, 0.03146818280220032, -0.025948964059352875, 0.017895396798849106, -0.03705891594290733, -0.013394903391599655, 0.007442238740622997, -0.03966778516769409, -0.02082325890660286, 0.01140916720032692, -0.013808082789182663, -0.04334324225783348, 0.01591441035270691, 0.0192471444606781, 0.017618943005800247, -0.00811023823916912, 0.004840029403567314, 0.013585193082690239, -0.002214474370703101, -0.005693606100976467, -0.0009469688520766795, 0.017753828316926956, 0.030107751488685608, 0.03361465781927109, 0.0012972909025847912, -0.03526774421334267, 0.018653107807040215, -0.004085387568920851, 0.029182400554418564, -0.029533162713050842, -0.010668504983186722, -0.04361635446548462, -0.03772140294313431, -0.019421076402068138, -0.03398849815130234, -0.007952242158353329, -0.04937589168548584, 0.0051523842848837376, 0.008382675237953663, -0.03462589532136917, 0.01602994278073311, 0.006178564392030239, 0.0008012616308405995, -0.032287027686834335, -0.008283969014883041, -0.03809228911995888, -0.02130037173628807, -0.013967165723443031, -0.02165204845368862, 0.032411180436611176, 0.01603100262582302, 0.01903156377375126, -0.0245090089738369, 0.022300375625491142, -0.03473103418946266, -0.01018060464411974, 0.023784803226590157, 0.02226373739540577, -0.023584408685564995, -0.02574433945119381, -0.022566640749573708, -0.04939901828765869, -0.023547736927866936, 0.0031456793658435345, -0.0453256219625473, 0.009705733507871628, -0.04035748913884163, -0.023534199222922325, -0.03294963389635086, 0.000647847366053611, -0.022099271416664124, -0.020206546410918236, 0.030269430950284004, -0.004201869945973158, 0.007664690725505352, 0.02217612974345684, -0.015256145969033241, 0.015576925128698349, -0.007561973296105862, -0.035653602331876755, -0.01711786724627018, 0.013031021691858768, -0.034281954169273376, 0.016844479367136955, 0.015888545662164688, -0.007724699564278126, -0.039852041751146317, 0.01330002211034298, 0.008633745834231377, -0.04031914100050926, -0.024322429671883583, -0.024935021996498108, -0.006272893864661455, -0.010354563593864441, 0.02363213151693344, -0.02411380596458912, 0.008583913557231426, 0.015286324545741081, -0.01719566062092781, 0.01597610116004944, 0.024649208411574364, 0.01818099431693554, 0.014999253675341606, -0.0032054272014647722, 0.031645502895116806, -0.014271838590502739, 0.03127368912100792, -0.0046330648474395275, -0.027873560786247253, -0.0012440058635547757, -0.005472466349601746, 0.0020823730155825615, 0.00022972050646785647, -0.023348016664385796, -0.003589220345020294, 0.0032156321685761213, -0.041056953370571136, -0.019030610099434853, -0.037798922508955, -0.04292354732751846, 0.0049814567901194096, -0.039268311113119125, 0.021495351567864418, 0.015974020585417747, 0.01609201170504093, -0.020712019875645638, 0.020840181037783623, -0.002892114454880357, -0.0017627449706196785, -0.013422156684100628, -0.00011367381375748664, 0.031594354659318924, -0.01579759083688259, -0.02039167284965515, -0.03391840681433678, -0.012393970973789692, 0.009839292615652084, -0.038857560604810715, -0.03485262021422386, -0.019691629335284233, -0.038976386189460754, 0.019673485308885574, -0.006736838724464178, 0.014409314841032028, -0.030223676934838295, -0.03676711022853851, 0.011826283298432827, 0.01012704148888588, -0.030540086328983307, -0.023163732141256332, 0.0016435981960967183, 0.01446954719722271, 0.022382866591215134, 0.004313225857913494, 0.019948968663811684, 0.0033814532216638327, 0.007784293033182621, 0.004413897637277842, -0.03046972118318081, 0.03577645868062973, 0.017560925334692, 0.0353957824409008, 0.027921950444579124, 0.027456972748041153, -0.0005544729065150023, -0.034155890345573425, -0.03897274285554886, -0.04109697788953781, -0.04135812073945999, -0.0007779094739817083, -0.03406972438097, -0.013311445713043213, -0.004767289850860834, -0.010537177324295044, -0.017127636820077896, -0.013606082648038864, 0.0008067450253292918, -0.02181585691869259, -0.019645679742097855, -0.02624809555709362, 0.0002385437983321026, 0.0028144530951976776, -0.013676861301064491, -0.027491550892591476, 0.02487441524863243, 0.020960453897714615, -0.022165842354297638, -0.019156618043780327, 0.00580997159704566, 0.012061136774718761, -0.010364260524511337, 0.0074503240175545216, 0.03108943998813629, 0.015944676473736763, -0.03285364806652069, 0.006644413806498051, 0.00812452845275402, -0.03056076169013977, 0.023989975452423096, 0.015532677061855793, 0.024323729798197746, -0.0039896368980407715, -0.03561277687549591, 0.0184482391923666, 0.0156998373568058, 0.01750698871910572, -0.03742700815200806, 0.014967421069741249, -0.018500473350286484, -0.01642906479537487, -0.03447972238063812, -0.0003275633498560637, 0.024195371195673943, -0.014781621284782887, 0.026909390464425087, 0.0018226332031190395, 0.0061130826361477375, 0.03434036672115326, 0.018150746822357178, -0.0039305672980844975, -0.03235612064599991, 0.02160690352320671, 0.0006231740699149668, 0.00168178032618016, 0.010866278782486916, 0.004509645514190197, -0.025696422904729843, -0.01930224522948265, 0.019390489906072617, -0.014707197435200214, 0.011914887465536594, -0.009475329890847206, 0.011958100832998753, 0.020793600007891655, 0.005944754462689161, -0.038460999727249146, -0.0219456534832716, -0.011848755180835724, -0.03467511385679245, 0.022206440567970276, -0.021289678290486336, -0.003370793769136071, 0.018188439309597015, -0.002319770399481058, -0.034572865813970566, 0.02840704657137394, 0.023703720420598984, 0.013551261276006699, -0.01251914631575346, 0.014607042074203491, -0.010473783127963543, 0.0019407907966524363, 0.01155674085021019, -0.00968061201274395, 0.02276751399040222, -0.040938813239336014, 0.0034038880839943886, -0.03915579989552498, -0.03356614336371422, 0.0032816100865602493, -0.01651202142238617, -0.0210783239454031, -0.026948876678943634, 0.025963446125388145, -0.015180004760622978, 0.01918804831802845, -0.04216865822672844, 0.016205091029405594, 0.0380326546728611, 0.0205828957259655, 0.02691717818379402, 0.029522672295570374, -0.03472323343157768, -0.004420633893460035, -0.021459342911839485, -0.0029274034313857555, 0.01007971540093422, 0.005666723474860191, 0.009135688655078411, -0.0018515244591981173, 0.03508453816175461, 0.0053850868716835976, 0.027521425858139992, 0.012609920464456081, -0.002254593651741743, -0.037356261163949966, -0.0026861741207540035, 0.013853950425982475, -0.003008488332852721, 0.0040293289348483086, -0.004919679369777441, 0.019788065925240517, 0.016470512375235558, -0.02504272572696209, -0.016850879415869713, -0.017585529014468193, -0.009377050213515759, -0.03207806125283241, 0.024899842217564583, 0.027181047946214676, -0.005846449639648199, 0.005871177185326815, 0.014384040609002113, 0.003289959393441677, 0.006030607968568802, -0.018359722569584846, -0.025737805292010307, 0.0019049433758482337, 0.014373356476426125, -0.02409060113132, -0.004979969467967749, -0.034025683999061584, 0.019778946414589882, 0.017429867759346962, 0.015418646857142448, -0.026321308687329292, -0.013808414340019226, 0.0038754877168685198, 0.016750136390328407, -0.029616286978125572, 0.01906738616526127, -0.04346124827861786, 0.002910993993282318, -0.018263092264533043, 0.007537554949522018, 0.010702300816774368, 0.03331005945801735, -0.021083619445562363, 0.011509742587804794, 0.018036136403679848, -0.002171955071389675, 0.014862829819321632, 0.007361243013292551, -0.02649230882525444, -0.005357387010008097, 0.010389236733317375, 0.012685762718319893, 0.0020587132312357426, 0.017082247883081436, 0.018728110939264297, -0.028000712394714355, -0.01466602273285389, 0.023843681439757347, -0.012956131249666214, -0.03387539088726044, -0.005956784822046757, 0.01928393915295601, 0.02056632936000824, 0.008002527989447117, -0.011072599329054356, 0.00012820966367144138, -0.012331660836935043, 0.008701187558472157, 0.009658885188400745, 0.033281221985816956, 0.006009749136865139, 0.01583104208111763, -0.001211081282235682, -0.02462662197649479, -0.039171915501356125, 0.010238930583000183, -0.02076202817261219, 0.03291485458612442, -0.016871867701411247, -0.02815432660281658, 0.034036628901958466, -0.017119770869612694, -0.014954370446503162, -0.006406692788004875, -0.032080795615911484, -0.023320961743593216, -0.027053354308009148, 0.005847530905157328, 0.02338690124452114, -0.024828635156154633, 0.014513871632516384, 0.009324397891759872, -0.029110457748174667, -0.013067776337265968, -0.0381857305765152, 0.019528185948729515, -0.03523273766040802, 0.0029013657476752996, 0.029644230380654335, 4.461408025235869e-05, 0.027068600058555603, 0.015528492629528046, -0.026140905916690826, -0.02877964824438095, -0.012557540088891983, 0.010993500240147114, 0.017125502228736877, 0.010882011614739895, 0.03212679550051689, 0.028454700484871864, -0.004157316405326128, -0.024066036567091942, -0.0072379265911877155, -0.01927139423787594, 0.021404637023806572, 0.014799922704696655, -0.020407604053616524, 0.026480669155716896, -0.03780168294906616, 0.01485460251569748, 0.005958719179034233, -0.028075644746422768, -0.000692589208483696, 0.030681882053613663, 0.031634196639060974, -0.01104860007762909, -0.03522821515798569, 0.02717956155538559, -0.002291687997058034, 0.007947385311126709, -0.035552237182855606, -0.02933022938668728, -0.023105023428797722, -1.878815601230599e-05, -0.008310999721288681, 0.0005808194982819259, 0.02903939038515091, -0.05220223590731621, -0.0006169616826809943, 0.0164895411580801, 0.012371997348964214, -0.03453468531370163, -0.019662948325276375, 0.012412956915795803, -0.027439644560217857, -0.024800797924399376, 0.01261776965111494, -0.040960945188999176, -0.0040801879949867725, 0.0003727198054548353, -0.02922549657523632, -0.041009437292814255, -0.0038846060633659363, 0.02309449017047882, 0.00814724899828434, -0.008064696565270424, 0.020418087020516396, -0.00677537964656949, 0.015033714473247528, -0.032146062701940536, -0.021288277581334114, -0.020518863573670387, -0.0008459859527647495, -0.020368896424770355, -0.03319922834634781, -0.012511539272964, 0.006959259510040283, 0.01895027793943882, -0.034948624670505524, 0.023823097348213196, -0.01635042391717434, -0.00823727436363697, -0.02230185829102993, -0.03179541230201721, -0.012293095700442791, -0.04561397433280945, -0.019348716363310814, -0.0031699889805167913, 0.01510985754430294, 0.01401688251644373, 0.02942860685288906, 0.006221286486834288, 0.004180154763162136, 0.019421139732003212, 0.022841496393084526, -0.011394212022423744, -0.021168513223528862, -0.04119480401277542, 0.02641865983605385, 0.021159538999199867, 0.025066208094358444, -0.03670920804142952, -0.04704807698726654, 0.0020192121155560017, -0.03276017680764198, -0.01767887733876705, -0.04515717178583145, 0.0013233516365289688, 0.003303941572085023, -0.01656949706375599, 0.012441781349480152, -0.01582062430679798, -0.012843813747167587, 0.01348811574280262, 0.01439574547111988, -0.0029018272180110216, -0.01944434829056263, -0.015745490789413452, 0.0011325740488246083, 0.035092003643512726, -0.009619325399398804, 0.010341440327465534, -0.021580467000603676, 0.00041061214869841933, -0.024751996621489525, -0.03103056736290455, -0.018739240244030952, 0.005300924181938171, -0.03151114284992218, -0.018648933619260788, -0.008006698451936245, 0.016218027099967003, -0.039145905524492264, -0.02827361784875393, -0.029703417792916298, -0.002811208600178361, -0.03122100979089737, 0.006030024494975805, -0.00576581247150898, 0.0035775599535554647, 0.011280062608420849, -0.024245543405413628, -0.009548485279083252, 0.021069658920168877, -0.016455242410302162, 0.025726547464728355, -0.00992053747177124, 0.016988856717944145, -0.03463886305689812, -0.010786286555230618, 0.009676325134932995, 0.000605889770668, 0.01428836677223444, 0.006209845654666424, 0.007179273758083582, 0.029239755123853683, 0.01583646424114704, 0.009509826079010963, -0.001116296392865479, -0.009872529655694962, -0.03400538116693497, -0.0036047270987182856, 0.018580006435513496, -0.03590027615427971, -0.023251794278621674, 0.006031307857483625, 0.00847483891993761, -0.03537147492170334, 0.013954375870525837, -0.02641744539141655, 0.011279899626970291, -0.03250367194414139, -0.007633512374013662, -0.02876129560172558, -0.0004428369866218418, 0.027429059147834778, -0.03151760622859001, 0.029353812336921692, -0.025373809039592743, 0.0005226561333984137, -0.02992129884660244, 0.024503761902451515, 0.02964673936367035, 0.0050763534381985664, -0.013120763003826141, -0.03255998343229294, 0.0011252424446865916, -0.030814191326498985, 0.018097080290317535, -0.02004070393741131, -0.02470707707107067, -0.004875614307820797, -0.02028152346611023, -0.02892255038022995, -0.021020131185650826, 0.011169124394655228, 0.016889074817299843, 0.002411159221082926, -0.015176729299128056, 0.03240500018000603, -0.02845839224755764, -0.0148121677339077, -0.00035707015194930136, 0.031815752387046814, -0.0076058171689510345, -0.03266468644142151, -0.006664144340902567, 0.009159088134765625, 0.0043562352657318115, 0.02663593739271164, 0.01312475185841322, -0.02152421697974205, -0.01108672097325325, 0.022536594420671463, -0.019762933254241943, 0.023387514054775238, 0.015754295513033867, -0.03959285840392113, -0.003665720112621784, -0.006354942452162504, 0.029692048206925392, 0.00710925180464983, 0.01622820273041725, -0.002165669109672308, -0.029171643778681755, -0.029592439532279968, 0.00793165247887373, -0.004505966790020466, -0.023506011813879013, -0.032490458339452744, -0.001978712622076273, 0.0014176028780639172, -0.03069218248128891, 0.027120526880025864, 0.00401760870590806, 0.026279127225279808, 0.01272627804428339, 0.032642919570207596, -0.0012651938013732433, 0.03781707584857941, 0.03057067096233368, 0.012444906868040562, 0.007765632122755051, -0.032018739730119705, -0.027230648323893547, -0.010235807858407497, 0.0046965875662863255, 0.003687627613544464, 0.017635587602853775, 0.025090621784329414, 0.022800885140895844, 0.02068241685628891, -0.001051605329848826, 0.033310551196336746, 0.003484288463369012, -0.014368215575814247, 0.03181805834174156, 0.015839066356420517, -0.008428838104009628, -0.033618226647377014, -0.02388780564069748, 0.028113536536693573, 0.031056363135576248, 0.009749327786266804, 0.02009986713528633, -0.02925407513976097, -0.02896435558795929, 0.029334070160984993, 0.005722010973840952, -0.0017097899690270424, 0.02222113311290741, 0.027177514508366585, -0.010212096385657787, 0.001437853672541678, 0.02256591245532036, 0.004312483128160238, 0.016727855429053307, 0.01959569752216339, -0.020373625680804253, -0.02164439670741558, 0.0032153695356100798, -0.013834120705723763, -0.02905571646988392, -0.03540213778614998, -0.01094832643866539, -0.0028638073708862066, 0.014778150245547295, 0.010625269263982773, 0.022469887509942055, -0.0315244123339653, -0.02814806066453457, 0.007039692252874374, 0.03561903163790703, -0.010008011944591999, 0.01438356377184391, -0.022675851359963417, -0.030905120074748993, -0.021462323144078255, -0.002238499466329813, -0.008241087198257446, -0.00035532884066924453, 0.034587562084198, -0.006549837999045849, -0.02875867299735546, -0.03385058045387268, 0.00621867086738348, -0.0016900685150176287, 0.010537330992519855, 0.0021212485153228045, -0.006480174604803324, 0.011712756007909775, -0.010846534743905067, -0.03505469113588333, 0.016592277213931084, -0.02131398394703865, 0.02500738948583603, -0.003526304615661502, 0.025956057012081146], [-0.021953707560896873, -0.024253791198134422, 0.033591657876968384, 0.002195128472521901, -0.014803614467382431, 0.0077058421447873116, -0.007420331705361605, 0.006325232330709696, -0.009178715758025646, 0.003938960377126932, 0.020440617576241493, -0.035641901195049286, -0.039857715368270874, -0.029194597154855728, -0.003378655295819044, 0.029460469260811806, -0.003300615819171071, 0.0040923529304564, 0.017274657264351845, -0.0028873810078948736, 0.010860891081392765, 0.030593136325478554, 0.03267480432987213, -0.001641907962039113, 0.0024463748559355736, 0.023623595014214516, -0.002003312110900879, 0.016086388379335403, -0.034688800573349, -0.0010527032427489758, -0.0037987276446074247, -0.03202800825238228, 0.029810437932610512, 0.029117342084646225, -0.058639153838157654, -0.06404899060726166, -0.0626714676618576, 0.005866506602615118, -0.0018115149578079581, -0.004767147358506918, -0.1205115094780922, -0.08750534802675247, 0.16165180504322052, 0.12621264159679413, 0.05936352536082268, -0.058006323873996735, -0.03732678294181824, -0.019036661833524704, -0.08186584711074829, -0.08303205668926239, 0.025628168135881424, 0.03363551199436188, -0.0008754900773055851, -0.02851676568388939, 0.02450067736208439, 0.024589914828538895, 0.025312718003988266, 0.02555232122540474, -0.004222305491566658, -0.029663022607564926, -0.0923725813627243, -0.13780353963375092, -0.32778200507164, -0.38111254572868347, -0.15879595279693604, -0.19669610261917114, -0.20201760530471802, -0.18608684837818146, -0.2346661239862442, 0.0336843878030777, -0.047168172895908356, 0.3712025582790375, 0.35484570264816284, 0.15472538769245148, 0.28535547852516174, 0.43769365549087524, 0.443528413772583, 0.31812629103660583, 0.3819707930088043, 0.3856276869773865, -0.020315635949373245, 0.032885730266571045, -0.010756505653262138, 0.0003935822460334748, 0.013905270025134087, 0.0054982309229671955, -0.25610363483428955, -0.3143044412136078, 0.3384905755519867, 0.395117849111557, 0.1507294923067093, 0.2704230844974518, 0.6934988498687744, 0.39083951711654663, 0.49207013845443726, 0.1600673496723175, 0.31641706824302673, 0.1100483387708664, 0.1530473381280899, 0.40919163823127747, -0.055377718061208725, -0.34979233145713806, -0.19033581018447876, -0.3654884397983551, 0.08152587711811066, -0.19568414986133575, -0.3522518575191498, 0.0018111325334757566, 0.5409027934074402, -0.05298011377453804, 0.025134781375527382, -0.011355021968483925, -0.03544856607913971, 0.11365260183811188, -0.07653027772903442, 0.15560033917427063, 0.27775001525878906, 0.11776097118854523, 0.07767702639102936, 0.33202022314071655, 0.4871193766593933, 0.2591905891895294, 0.23212498426437378, 0.25489121675491333, 0.13944165408611298, -0.04288142919540405, 0.1145334243774414, 0.29731953144073486, 0.19116342067718506, 0.019964808598160744, 0.24955452978610992, 0.10162314772605896, -0.05330045521259308, -0.0726340264081955, -0.06852386891841888, -0.13480184972286224, 0.06770723313093185, 0.11034590750932693, 0.355425089597702, -0.009152247570455074, -0.027664650231599808, -0.004090564791113138, -0.12248999625444412, 0.07967601716518402, 0.274405837059021, 0.06801875680685043, 0.16165012121200562, 0.3533284068107605, 0.002956072334200144, -0.07676311582326889, 0.18487940728664398, 0.23251359164714813, 0.01695423386991024, 0.020464077591896057, 0.0048523517325520515, 0.11845718324184418, 0.13159486651420593, 0.04085496440529823, 0.11419156938791275, 0.05053027719259262, 0.20897427201271057, -0.09165173768997192, 0.0008115086820907891, -0.020631233230233192, -0.25387272238731384, 0.05103339999914169, 0.18999801576137543, -0.22205835580825806, 0.03044513426721096, 0.30473771691322327, 0.052286721765995026, -0.029254630208015442, -0.046828743070364, -0.13246044516563416, 0.08678557723760605, 0.2372339814901352, 0.2691103219985962, 0.13978411257266998, 0.1794714480638504, 0.19172759354114532, -0.02896961383521557, -0.017619719728827477, -0.029651425778865814, -0.03666899353265762, 0.17498420178890228, 0.259700745344162, 0.08157853037118912, 0.06809907406568527, 0.014660783112049103, -0.06583980470895767, 0.008304859511554241, 0.13436342775821686, -0.022114552557468414, 0.01472320593893528, 0.4013819694519043, 0.2838532328605652, -0.0522555336356163, 0.37481191754341125, -0.32801491022109985, 0.005043132230639458, 0.1355457454919815, 0.16600850224494934, 0.12523630261421204, 0.1541270911693573, 0.24394609034061432, 0.04342084750533104, 0.06455553323030472, 0.06365540623664856, 0.07730630785226822, -0.0009183107176795602, 0.07303981482982635, 0.019011622294783592, 0.04941089078783989, -0.019968481734395027, -0.04256647825241089, 0.10603860765695572, 0.1927124559879303, -0.06934832781553268, 0.14155477285385132, -0.020162541419267654, 0.08219505846500397, 0.384769082069397, 0.2553478479385376, 0.23329821228981018, -0.07585979253053665, 0.01856701634824276, -0.25931447744369507, -0.052265092730522156, 0.10199224203824997, 0.14040899276733398, -0.037395279854536057, -0.08784542232751846, 0.049873899668455124, 0.12392035126686096, 0.09250988811254501, 0.06509163230657578, 0.002094309078529477, 0.1315007507801056, 0.029430359601974487, 0.04482729732990265, -0.042280007153749466, -0.2059917449951172, -0.024098578840494156, 0.007026169449090958, -0.13814638555049896, -0.20390081405639648, -0.06890179216861725, -0.2072562873363495, -0.17596957087516785, 0.07796179503202438, -0.060431431978940964, 0.1243635043501854, -0.17964862287044525, -0.057640623301267624, -0.08176836371421814, -0.04111754521727562, -0.033259317278862, 0.06280440837144852, 0.20352736115455627, 0.07733985036611557, 0.12263230979442596, 0.11553945392370224, 0.012394258752465248, -0.07617607712745667, 0.0787636786699295, -0.026050765067338943, 0.06243409588932991, 0.00691900122910738, -0.15293622016906738, -0.2806655466556549, -0.15901179611682892, -0.21471764147281647, -0.31063365936279297, -0.355257511138916, 0.2768137454986572, 0.009046637453138828, -0.12691977620124817, -0.11392863839864731, 0.02072981558740139, 0.09663920104503632, -0.16021554172039032, -0.36179018020629883, 0.006424705497920513, 0.3694642186164856, -0.02550608478486538, 0.009030061773955822, 0.028069211170077324, 0.14494366943836212, 0.15314503014087677, -0.08116216212511063, 0.08507119119167328, -0.012642745859920979, 0.011104562319815159, 0.043165937066078186, 0.06067825108766556, -0.11051685363054276, -0.11491432040929794, -0.13321593403816223, -0.0558074451982975, -0.09088752418756485, -0.034594763070344925, -0.2569296658039093, -0.10555343329906464, -0.4331907629966736, -0.31966567039489746, -0.07267656177282333, 0.11448324471712112, -0.18315525352954865, -0.043231718242168427, -0.41099676489830017, -0.5655804872512817, 0.22980068624019623, 0.08667131513357162, -0.1951790153980255, -0.12751486897468567, -0.004944073036313057, -0.14505299925804138, -0.2096816450357437, -0.052734412252902985, -0.004753467161208391, 0.30865201354026794, 0.23747670650482178, 0.14700102806091309, 0.038683414459228516, 0.009053699672222137, 0.247774139046669, 0.20885884761810303, -0.12019189447164536, 0.03062397986650467, -0.13894115388393402, -0.4868772327899933, -0.709741473197937, -0.4928671717643738, -0.2803085446357727, -0.25208866596221924, -0.3266245424747467, -0.04463323578238487, -0.42056432366371155, -0.6163924336433411, 0.2595716118812561, -0.13880057632923126, -0.05387600511312485, -0.16800673305988312, -0.02330184169113636, 0.029832350090146065, 0.016118282452225685, 0.18139345943927765, 0.18976791203022003, 0.07525433599948883, 0.04056817293167114, 0.230855330824852, 0.16513051092624664, 0.06937094777822495, 0.021776581183075905, 0.17157350480556488, -0.13238324224948883, -0.09304162114858627, -0.18446588516235352, -0.38604339957237244, -0.2683863937854767, -0.5837241411209106, -0.49238866567611694, 0.027606280520558357, -0.15352000296115875, 0.21310478448867798, -0.24724042415618896, -0.500417172908783, 0.07332529127597809, -0.14417940378189087, -0.04750871658325195, -0.2426729053258896, 0.010545365512371063, -0.03565007448196411, -0.03152894973754883, 0.03507992625236511, 0.04426732286810875, -0.01063548680394888, 0.13211463391780853, 0.20047640800476074, 0.01986410841345787, 0.04097408801317215, 0.05542631819844246, 0.05481415241956711, -0.1488857865333557, -0.11351623386144638, -0.09978719800710678, -0.1368030160665512, 0.05132662504911423, -0.15887700021266937, -0.43994462490081787, -0.017924712970852852, -0.24672438204288483, -0.1253945231437683, 0.3593335747718811, -0.2585766017436981, -0.11545518040657043, -0.724268913269043, -0.5883451104164124, -0.2557218074798584, 0.09106705337762833, -0.08522527664899826, -0.014989631250500679, -0.09228141605854034, -0.05035903677344322, 0.030411873012781143, 0.044600047171115875, 0.0829773023724556, 0.03838082030415535, 0.09131424129009247, -0.041717879474163055, -0.10163342952728271, -0.2345205694437027, -0.21189036965370178, 0.047425102442502975, -0.02139652706682682, 0.11349958926439285, -0.11905758827924728, -0.019608158618211746, -0.24663618206977844, -0.28696852922439575, -0.16339169442653656, 0.2662399709224701, 0.49372372031211853, -0.0481170192360878, -0.3302494287490845, -0.7738370895385742, -0.782620906829834, -0.5759551525115967, -0.23574909567832947, -0.15301774442195892, -0.02626275271177292, 0.13971850275993347, 0.1569725126028061, 0.10951042920351028, 0.019376730546355247, 0.024326544255018234, -0.02392609231173992, -0.12736457586288452, -0.14580248296260834, -0.13250620663166046, -0.05462103709578514, 0.18139542639255524, 0.3020003139972687, 0.2582772970199585, 0.21385526657104492, 0.4407229423522949, 0.3970406949520111, 0.015107187442481518, -0.013362539000809193, 0.3748355507850647, 0.2952050268650055, 0.22810809314250946, -0.21146483719348907, -0.6048623919487, -0.8336105346679688, -0.8167508244514465, -0.6543301343917847, -0.5487441420555115, -0.39803168177604675, -0.31082871556282043, -0.043793193995952606, 0.04055338725447655, 0.08706045895814896, -0.02555113472044468, -0.1012527346611023, -0.03298238664865494, 0.165871724486351, 0.09828177094459534, 0.026714714244008064, 0.10132908821105957, 0.3754254877567291, 0.3811313807964325, 0.3119627833366394, 0.29509082436561584, -0.18624189496040344, 0.05362388491630554, 0.02020207978785038, 0.25576624274253845, 0.27050647139549255, 0.5071395039558411, -0.23483237624168396, -0.3917689919471741, -0.4756987988948822, -0.48527029156684875, -0.565483570098877, -0.8833305239677429, -1.1175800561904907, -0.8784394860267639, -0.5201988220214844, -0.2866295278072357, -0.14781327545642853, -0.025102362036705017, -0.17326685786247253, 0.04946259409189224, -0.007943013682961464, 0.0605250783264637, -0.09490861743688583, 0.2283136397600174, 0.07183320075273514, 0.12986944615840912, 0.12391477078199387, -0.2956855297088623, -0.359327107667923, 0.08237940818071365, 0.3826608955860138, 0.0509013868868351, 0.43336665630340576, 0.6928036212921143, 0.12948597967624664, -0.11119436472654343, -0.05730809271335602, -0.15814971923828125, -0.3465331494808197, -0.4189446270465851, -0.42496153712272644, -0.5289064049720764, -0.6627298593521118, -0.45783787965774536, -0.04736948385834694, -0.011246073059737682, 0.026756437495350838, -0.11328067630529404, -0.14505986869335175, 0.17082510888576508, 0.14160391688346863, 0.19281603395938873, 0.12177921086549759, 0.14413951337337494, 0.12194453924894333, 0.01714935153722763, -0.1874358206987381, -0.11953283846378326, -0.104712575674057, -0.07165548205375671, 0.007294845767319202, 0.5256819725036621, 0.27766600251197815, 0.13046111166477203, 0.09876178950071335, -0.04710892215371132, 0.09201526641845703, 0.0031782931182533503, 0.14665564894676208, 0.03534437716007233, -0.08197780698537827, -0.11667955666780472, -0.0007572851027362049, -0.0769137293100357, -0.03133591637015343, -0.06085863336920738, -0.07697364687919617, 0.07493298500776291, 0.06554616242647171, 0.19077526032924652, 0.14405088126659393, 0.10649063438177109, 0.21658778190612793, 0.1632154881954193, -0.45814815163612366, -0.14419755339622498, 0.023480990901589394, 0.19214391708374023, -0.2595817744731903, 0.483633428812027, 0.619204580783844, 0.15766654908657074, 0.17713361978530884, 0.10356445610523224, 0.29332128167152405, 0.23166732490062714, 0.2057868093252182, 0.19704662263393402, 0.07122945785522461, 0.15883032977581024, 0.04157028719782829, -0.016213349997997284, 0.04373582825064659, 0.020825127139687538, 0.13208475708961487, 0.06979013979434967, 0.17507699131965637, 0.2118331342935562, 0.2763814330101013, 0.10229145735502243, 0.06392969936132431, -0.4273158311843872, -0.17564533650875092, -0.11276136338710785, -0.2913151979446411, 0.2670520544052124, -0.10261094570159912, 0.20468904078006744, 0.6614315509796143, 0.3809070289134979, 0.1305546760559082, 0.3023722171783447, 0.3990417420864105, 0.3529670834541321, 0.21550463140010834, 0.2409617304801941, 0.20396894216537476, 0.23173388838768005, 0.136514350771904, 0.10865024477243423, 0.06442774087190628, 0.010990490205585957, 0.041170116513967514, 0.06742853671312332, 0.102287158370018, 0.0680157020688057, 0.05536358430981636, -0.10532622039318085, -0.765986979007721, -0.4293169379234314, 0.012707598507404327, 0.002621245803311467, -0.3041631281375885, -0.06685587763786316, -0.10556627810001373, 0.3249970078468323, 0.24755027890205383, 0.19829508662223816, 0.21862298250198364, 0.17088674008846283, 0.32675057649612427, 0.04578293487429619, 0.16531361639499664, 0.18734818696975708, 0.049226198345422745, 0.06640056520700455, 0.08839820325374603, 0.12241753190755844, 0.03639059513807297, 0.1794642210006714, 0.05364000424742699, 0.13003912568092346, 0.17618779838085175, -0.05484817549586296, 0.17863644659519196, -0.03629623353481293, -0.6021521687507629, -0.3939496576786041, -0.15115664899349213, -0.004787403158843517, -0.016549719497561455, -0.005865842569619417, 0.5787322521209717, 0.6167562007904053, 0.2000388652086258, 0.17866387963294983, 0.026770194992423058, 0.10112807899713516, 0.10226552933454514, 0.11272410303354263, 0.2393425852060318, 0.3715634346008301, 0.07621419429779053, 0.12701141834259033, 0.04271996021270752, 0.19591668248176575, -0.04231533408164978, 0.03591867908835411, 0.006776449270546436, -0.2640218436717987, 0.1555018126964569, -0.07718728482723236, -0.5222591757774353, -0.5521464943885803, -0.2362879067659378, -0.30088010430336, -0.0770348533987999, 0.024335062131285667, 0.021428514271974564, -0.022745197638869286, 0.007081909570842981, 0.45245039463043213, 0.41144388914108276, 0.037255268543958664, 0.05590751767158508, 0.30185097455978394, 0.021974289789795876, -0.0720147043466568, -0.02719726413488388, 0.06436857581138611, -0.05732716992497444, -0.07768627256155014, -0.12529361248016357, -0.0074850027449429035, 0.03450291231274605, 0.03713909909129143, -0.23848678171634674, -0.4822360575199127, -0.23666729032993317, -0.16508011519908905, -0.5959177017211914, -0.26123103499412537, -0.3801347613334656, -0.16227839887142181, 0.01538357324898243, 0.011537033133208752, 0.0010336850536987185, -0.011659474112093449, 0.4409172832965851, -0.42997249960899353, -0.27350932359695435, 0.29563969373703003, 0.3468969464302063, 0.4555544853210449, 0.25017285346984863, 0.15434592962265015, 0.2841354012489319, 0.05212818831205368, 0.2073209583759308, 0.19584542512893677, -0.0472722165286541, -0.08334704488515854, 0.16847065091133118, -0.08575562387704849, -0.382415235042572, -0.1540568470954895, -0.12844130396842957, -0.17411237955093384, -0.31738197803497314, -0.4004259705543518, -0.2912875711917877, 0.08002343028783798, -0.040104981511831284, 0.03462303429841995, 0.022545164451003075, 0.029709037393331528, 0.013109233230352402, 0.31103554368019104, 0.22404542565345764, 0.10478268563747406, -0.1165156364440918, -0.038500383496284485, -0.07346147298812866, 0.27589887380599976, 0.11892734467983246, -0.022693531587719917, -0.05047876015305519, -0.1368359923362732, -0.17576491832733154, 0.18316435813903809, 0.1998862773180008, 0.22810064256191254, 0.03798871859908104, 0.09437002241611481, 0.23566731810569763, 0.17612865567207336, 0.22670415043830872, -0.05640901252627373, 0.04415197670459747, -0.0260271318256855, 0.0077026234939694405, 0.029979387298226357, 0.030924316495656967, 0.018089085817337036, -0.024258827790617943, -0.034854281693696976, -0.014702580869197845, 0.013874833472073078, -0.005030594766139984, -0.2327815443277359, -0.09411328285932541, -0.4119871258735657, -0.3620176911354065, -0.2969251275062561, -0.18605278432369232, -0.1830543726682663, 0.16422566771507263, 0.12331198900938034, 0.16347239911556244, -0.5210922956466675, -0.55609130859375, -0.5232622027397156, -0.4278225898742676, -0.3215033710002899, -0.1907854974269867, -0.03174532204866409, -0.0075050597079098225, 0.01935536228120327, 0.009015879593789577, -0.023985054343938828], [-0.0075581930577754974, 0.012532975524663925, 0.023080898448824883, 0.030368708074092865, -0.015797492116689682, 0.026143642142415047, -0.0233637522906065, -0.010363740846514702, -0.018905116245150566, -0.028612788766622543, 0.02847895957529545, 0.007561671081930399, -0.09082642197608948, -0.11452221870422363, -0.09311271458864212, -0.02814078889787197, 0.006336642429232597, -0.004211400635540485, 0.006285616662353277, 0.014427023939788342, -0.027658626437187195, 0.029155902564525604, -0.013403509743511677, 0.031839750707149506, 0.028644707053899765, -0.0022551503498107195, 0.025779912248253822, 0.016462475061416626, -0.022034969180822372, -0.006530723534524441, 0.008504173718392849, 0.001681387540884316, -0.041027892380952835, -0.09087761491537094, -0.37094712257385254, -0.42606642842292786, -0.22871841490268707, -0.25746840238571167, -0.3887888491153717, -0.05295950546860695, 0.01698251999914646, -0.051985785365104675, 0.2728571593761444, -0.08230166882276535, -0.19678530097007751, -0.20795677602291107, -0.5931439399719238, -0.4280553460121155, -0.3697797954082489, -0.24825690686702728, -0.34344932436943054, -0.23235686123371124, 0.029730262234807014, -0.013799063861370087, -0.02487015910446644, 0.0029826464597135782, 0.0028660681564360857, -0.017886128276586533, -0.08649343252182007, -0.28531065583229065, -0.34441664814949036, -0.18391770124435425, -0.35911476612091064, -0.34685078263282776, -0.5855379104614258, -0.5064805746078491, -0.12010267376899719, 0.013368109241127968, 0.26292550563812256, 0.3585810363292694, -0.08736900985240936, -0.2093416452407837, -0.054311323910951614, -0.27185413241386414, -0.3044302761554718, -0.04752829298377037, -0.012147335335612297, -0.2557307481765747, -0.27106261253356934, -0.45539724826812744, -0.2917384207248688, -0.025196580216288567, 0.0003276510105933994, -0.032270874828100204, 0.01763208582997322, -0.003800251754000783, 0.36187493801116943, -0.4339990019798279, -0.5515259504318237, 0.13715387880802155, -0.2809293270111084, -0.330812007188797, -0.17884580790996552, -0.26195743680000305, 0.19487445056438446, 0.21106837689876556, 0.3447284400463104, 0.008519578725099564, 0.2507034242153168, 0.2096264809370041, 0.10249286890029907, 0.05412739887833595, -0.10196468234062195, -0.05127374455332756, 0.23161490261554718, -0.35252082347869873, -0.43314433097839355, -0.23516269028186798, -0.4347537159919739, -0.04895295575261116, -0.06863420456647873, 0.0003862466255668551, -0.009331729263067245, 0.053747788071632385, 0.3433362543582916, 0.16703449189662933, 0.12224305421113968, -0.2752011716365814, -0.1837995946407318, 0.03459769859910011, 0.18498753011226654, -0.06552586704492569, -0.11413849145174026, -0.03180631622672081, 0.140665665268898, 0.12519624829292297, 0.09206894040107727, 0.1551550030708313, 0.2305733561515808, 0.1287277787923813, -0.004315019119530916, -0.16082264482975006, -0.09023018926382065, -0.4006120264530182, -0.3873084783554077, -0.3195413649082184, -0.002711433218792081, 0.27187544107437134, -0.07027595490217209, 0.03889903053641319, -0.0316038504242897, -0.025045860558748245, -0.062119193375110626, -0.03661484643816948, 0.33379966020584106, 0.2462426871061325, 0.2779366672039032, 0.3094846308231354, 0.12589886784553528, 0.03024418093264103, -0.07909303903579712, 0.054054491221904755, 0.05707323178648949, 0.03798525407910347, 0.05322377383708954, 0.21202383935451508, -0.13708087801933289, -0.1507587432861328, -0.041373737156391144, 0.1686822772026062, -0.05032312497496605, -0.3937155306339264, -0.6199110746383667, -0.3354637026786804, -0.0029871081933379173, 0.3260635733604431, -0.20997841656208038, -0.022202199324965477, -0.01511131040751934, -0.14511798322200775, 0.16425104439258575, 0.061378564685583115, -0.0131373917683959, -0.3513563573360443, -0.01029630284756422, 0.10446891188621521, 0.031834498047828674, 0.1755322366952896, 0.0700521469116211, 0.08697256445884705, -0.02716022916138172, 0.11078756302595139, 0.10938378423452377, 0.11623542755842209, 0.12722021341323853, 0.11492480337619781, 0.14005756378173828, -0.04946049675345421, -0.0684543251991272, -0.2769030034542084, -0.898134171962738, -0.6030073761940002, -0.5559000968933105, -0.10602929443120956, 0.1776145100593567, 0.08571001887321472, -0.00461278110742569, 0.24232536554336548, -0.18783654272556305, 0.11376750469207764, 0.04197894036769867, -0.19200649857521057, -0.03935402259230614, -0.21600446105003357, -0.21670623123645782, -0.1366443634033203, -0.16105955839157104, -0.02659756690263748, 0.11785375326871872, 0.10379582643508911, 0.0707404837012291, 0.24798065423965454, 0.10352340340614319, 0.06386923044919968, 0.01730363257229328, 0.0058873603120446205, -0.22183769941329956, -0.3204193413257599, -0.582473635673523, -0.4752989709377289, -0.6365249156951904, -0.4693705141544342, 0.08980009704828262, 0.16697987914085388, -0.4137328863143921, -0.3059421181678772, -0.0555277056992054, 0.015478045679628849, -0.021609336137771606, -0.19817210733890533, -0.15238633751869202, -0.21890871226787567, 0.00412719463929534, -0.12217783182859421, -0.020265180617570877, -0.06393423676490784, -0.1981145739555359, -0.06823784112930298, 0.059160906821489334, 0.24865543842315674, 0.17134909331798553, 0.03032742068171501, 0.1668068766593933, 0.14629356563091278, -0.1917858123779297, 0.010627096518874168, -0.1553238183259964, -0.6522748470306396, -0.5822399854660034, -0.4811978042125702, 0.12009033560752869, 0.2709802985191345, 0.12008611112833023, 0.11647111177444458, 0.12464655190706253, 0.2590341866016388, 0.06248626857995987, -0.02673831209540367, 0.05036509037017822, 0.04285567253828049, 0.07636192440986633, 0.057277265936136246, 0.05718059837818146, -0.14164887368679047, -0.16335435211658478, 0.009470535442233086, 0.31133830547332764, 0.4342246949672699, 0.21687251329421997, 0.08821552991867065, -0.09389657527208328, 0.022362710908055305, 0.06371808052062988, -0.07951716333627701, -0.08151651918888092, -0.31548750400543213, -0.6879709362983704, -0.3769824206829071, 0.09524654597043991, 0.49472177028656006, 0.143706277012825, 0.061577241867780685, -0.22066935896873474, 0.5247441530227661, 0.0371585339307785, 0.14273560047149658, 0.1153494194149971, 0.15117722749710083, 0.002087373286485672, -0.012511787936091423, -0.07256225496530533, -0.021337714046239853, -0.05205446109175682, 0.14530383050441742, 0.4756696820259094, 0.275358110666275, 0.12312857061624527, -0.06619863957166672, -0.15474455058574677, 0.032876770943403244, 0.022402962669730186, -0.14231278002262115, 0.16101917624473572, -0.10153970867395401, -0.6848360896110535, -0.09842453896999359, -0.20817121863365173, 0.47443386912345886, 0.24039071798324585, -0.5009013414382935, 0.2648578882217407, 0.38000380992889404, 0.16806891560554504, 0.10783250629901886, 0.0838950052857399, 0.13020499050617218, 0.1657278686761856, 0.10854583233594894, 0.19714175164699554, -0.003048303769901395, -0.005185261368751526, 0.21677537262439728, 0.45630598068237305, 0.1454586684703827, -0.09661488980054855, 0.009209694340825081, 0.07493013888597488, 0.07651644945144653, 0.34297218918800354, 0.06736350059509277, 0.22561533749103546, -0.01041126437485218, -0.4067796468734741, -0.35268309712409973, 0.03223567456007004, 0.28370341658592224, 0.24068355560302734, -0.29890695214271545, 0.49947959184646606, 0.25564101338386536, 0.5352569818496704, 0.29876595735549927, 0.09866753965616226, -0.028533119708299637, 0.032718610018491745, -0.04382015019655228, -0.06537062674760818, -0.14585644006729126, -0.16895337402820587, 0.12310735136270523, 0.34091925621032715, 0.10044322907924652, -0.036036837846040726, 0.00993720069527626, 0.01896875724196434, -0.07524143159389496, 0.07385905832052231, -0.023146918043494225, 0.07740654051303864, 0.4323495924472809, -0.3830862045288086, -0.5932188034057617, -0.171902135014534, 0.4510084390640259, -0.25772935152053833, -0.04477079585194588, 0.2582310736179352, -0.079430490732193, 0.542393684387207, 0.02749335952103138, -0.0473519004881382, -0.19534915685653687, -0.012118124403059483, -0.17092213034629822, -0.24820218980312347, -0.3490390181541443, -0.21411998569965363, 0.1509099006652832, 0.37716785073280334, 0.19564464688301086, 0.3270215690135956, 0.24331441521644592, 0.15020468831062317, 0.14680632948875427, 0.01850154437124729, 0.20296159386634827, -0.01883428916335106, -0.08750921487808228, -0.4864026606082916, -0.20696787536144257, -0.19856582581996918, -0.35646918416023254, -0.3468642830848694, 0.2166585624217987, -0.1738845854997635, -0.06102839484810829, 0.14597757160663605, -0.32240813970565796, -0.2522752583026886, -0.21507619321346283, -0.022265996783971786, -0.046068158000707626, -0.30592527985572815, -0.2404748797416687, -0.08986429125070572, 0.28818726539611816, 0.11761802434921265, 0.07538308203220367, 0.22184690833091736, 0.29340118169784546, 0.23586015403270721, 0.3054279685020447, 0.27099916338920593, 0.14341343939304352, -0.11186350136995316, -0.4696947932243347, -0.7843741178512573, -0.39803391695022583, -0.1529897004365921, -0.17441082000732422, -0.27831485867500305, 0.2729777991771698, -0.3053433299064636, -0.41044968366622925, -0.09929709136486053, -0.06932927668094635, -0.2056371122598648, -0.2422483265399933, 0.15824046730995178, 0.004857433028519154, 0.03392162173986435, -0.10427884012460709, 0.09135589748620987, 0.24671640992164612, 0.08112915605306625, 0.04737895354628563, 0.14872270822525024, 0.19951178133487701, 0.08335066586732864, 0.32663169503211975, 0.2428361177444458, -5.2170416893204674e-05, 0.17543631792068481, -0.3309822678565979, -0.9078983664512634, -0.3459324836730957, 0.4706328809261322, -0.44231417775154114, 0.10600317269563675, 0.4236849546432495, 0.009959423914551735, -0.2974080741405487, 0.17747719585895538, 0.07075164467096329, 0.05744197219610214, 0.053024772554636, -0.00694743636995554, -0.04346812888979912, 0.020707372575998306, 0.12116705626249313, 0.1158522441983223, 0.09255386888980865, -0.1395600438117981, -0.1757941097021103, 0.016894038766622543, 0.051005247980356216, 0.17326347529888153, 0.10326710343360901, 0.14681020379066467, -0.19491836428642273, 0.03953181579709053, -0.2393227070569992, -0.36700761318206787, -0.45107555389404297, 0.3618144392967224, -0.10348331183195114, -0.0011521365959197283, 0.3922707140445709, -0.15231439471244812, -0.035535670816898346, -0.10184099525213242, -0.1762038767337799, -0.18654003739356995, 0.10503288358449936, -0.03905244171619415, -0.11121459305286407, -0.11624764651060104, -0.08802006393671036, 0.16683775186538696, 0.17666682600975037, -0.12884004414081573, 0.10495581477880478, 0.0643729642033577, 0.10678987950086594, 0.14760370552539825, 0.15568344295024872, -0.05566353723406792, -0.1705331802368164, -0.0720827728509903, -0.0966000035405159, -0.24970704317092896, -0.11127971112728119, 0.3879574239253998, 0.02216067537665367, 0.4512212574481964, 0.34091392159461975, 0.2051568329334259, 0.15604065358638763, -0.12762339413166046, -0.1749645471572876, -0.195798859000206, -0.22533971071243286, -0.17516179382801056, -0.21781568229198456, -0.12077905237674713, 0.1645575761795044, 0.1544846147298813, 0.16971519589424133, -0.04170738533139229, -0.0679703876376152, -0.047082915902137756, 0.22103920578956604, 0.2690403163433075, 0.2902533710002899, 0.10999070107936859, -0.005871548783034086, 0.06579180061817169, -0.27589377760887146, -0.6198820471763611, -0.061535485088825226, 0.4447643756866455, -0.16641542315483093, 0.2559150457382202, 0.3169413208961487, -0.36260485649108887, 0.17851226031780243, -0.15125834941864014, -0.042278267443180084, -0.12704935669898987, -0.1595831662416458, -0.28057780861854553, -0.06487637758255005, -0.007832212373614311, -0.04650161415338516, 0.09636352211236954, 0.010245725512504578, -0.07880274206399918, -0.19255667924880981, -0.07428636401891708, 0.13064104318618774, 0.31246045231819153, 0.36737725138664246, -0.005755073856562376, -0.104885533452034, -0.22291713953018188, -0.5253655314445496, -0.3454304039478302, 0.16096138954162598, -0.45539239048957825, 0.019150694832205772, 0.005045060999691486, 0.1959819793701172, -0.45027095079421997, -0.1839534044265747, -0.03285566717386246, 0.03656848147511482, 0.023227669298648834, -0.12790600955486298, -0.19891245663166046, -0.14264807105064392, -0.00740174762904644, -0.08754032105207443, -0.0740014985203743, -0.022210506722331047, 0.12084391713142395, -0.19917632639408112, -0.010882865637540817, 0.10793301463127136, 0.19093051552772522, 0.16304682195186615, -0.03500819206237793, -0.09838772565126419, -0.11527122557163239, -0.393128365278244, -0.022323530167341232, 0.21932245790958405, -0.24580447375774384, 0.18812674283981323, 0.17776086926460266, 0.11081143468618393, -0.1943371593952179, -0.46759313344955444, -0.1829630732536316, 0.02833452634513378, 0.12803789973258972, -0.023721206933259964, -0.15614640712738037, -0.2095177322626114, -0.0964168906211853, -0.1472068428993225, 0.11441683024168015, 0.024611428380012512, -0.059157878160476685, -0.14786134660243988, 0.008568236604332924, -0.004227093420922756, 0.09457198530435562, -0.022363921627402306, -0.036837074905633926, -0.0945872887969017, -0.21548841893672943, -0.5080271363258362, -0.2279876321554184, -0.19635404646396637, -0.6287542581558228, 0.010323627851903439, 0.15736491978168488, 0.24624881148338318, -0.24285168945789337, -0.16082265973091125, -0.09284801781177521, -0.02001882903277874, -0.05301931872963905, -0.11338593810796738, -0.1117994487285614, -0.2503093481063843, -0.19681498408317566, -0.10224390029907227, 0.06056211516261101, 0.11804772913455963, 0.25112247467041016, 0.05733168497681618, 0.09802725166082382, -0.01869407296180725, 0.015960916876792908, -0.007244274485856295, 0.27862638235092163, -0.045275893062353134, 0.06585881859064102, -0.2353227287530899, -0.10280774533748627, 0.1573183834552765, -0.4573903977870941, -0.012597409076988697, -0.020311785861849785, 0.018865535035729408, 0.4000298082828522, 0.05301564186811447, -0.29887011647224426, -0.16756616532802582, -0.3739534020423889, -0.2171759456396103, -0.23541481792926788, -0.35188889503479004, -0.338216632604599, -0.24826040863990784, -0.15776103734970093, 0.1771431267261505, 0.17563819885253906, 0.1463320255279541, 0.10491208732128143, 0.11078926920890808, 0.14435674250125885, -0.010258624330163002, 0.21290335059165955, 0.0318746380507946, -0.13680514693260193, -0.13997966051101685, -0.026477297767996788, 0.2032989263534546, -0.2590366303920746, -0.01838800311088562, 0.02007315121591091, 0.014153438620269299, 0.5438814163208008, -0.04615231230854988, 0.3937196731567383, 0.12173988670110703, -0.24515816569328308, -0.07403463125228882, -0.1875694990158081, -0.17860467731952667, 0.037807755172252655, 0.018227439373731613, -0.005434023216366768, 0.10765893012285233, -0.0665164515376091, 0.02017255872488022, -0.004142821300774813, -0.13090749084949493, -0.35683608055114746, -0.21750402450561523, 0.2678963840007782, 0.17023590207099915, 0.11490807682275772, 0.3134639263153076, -0.2709382176399231, -0.031014591455459595, -0.2750795781612396, 0.02164558134973049, 0.01318273413926363, 0.003787074936553836, 0.5013827085494995, -0.5157967805862427, -0.12683099508285522, 0.6203679442405701, 0.029145484790205956, 0.21617509424686432, 0.45950615406036377, 0.12267061322927475, -0.05356648564338684, 0.029048332944512367, -0.04039085656404495, 0.020636947825551033, 0.032972995191812515, -0.3002561330795288, -0.11596174538135529, -0.20525938272476196, -0.24999257922172546, -0.1450781524181366, 0.12122190743684769, 0.034393131732940674, -0.21536916494369507, -0.1742316037416458, -0.3302019536495209, 0.275623083114624, -0.26449742913246155, 0.013629096560180187, 0.019634133204817772, 0.005735503975301981, -0.00031077436869964004, 0.29683011770248413, 0.19186052680015564, 0.5740378499031067, 0.6516374349594116, 0.648335337638855, 0.5862385630607605, 0.5657671689987183, 0.5957010984420776, 0.4225411117076874, 0.1486041098833084, 0.20487628877162933, 0.4202883243560791, 0.08966763317584991, 0.18700455129146576, 0.5121654272079468, 0.25673484802246094, -0.10556155443191528, 0.18778052926063538, 0.4115065038204193, 0.19322195649147034, 0.2970389425754547, 0.26261627674102783, -0.07766120135784149, 0.026692170649766922, 0.020922712981700897, -0.02289772219955921, -0.011951949447393417, 0.010187817737460136, -0.008554059080779552, -0.3092430531978607, -0.6479260325431824, 0.1558244228363037, 0.3439140319824219, 0.24289311468601227, 0.11300847679376602, 0.24930495023727417, 0.31280553340911865, 0.3618563413619995, 0.006034706253558397, 0.32207709550857544, 0.4320507049560547, 0.3173133432865143, -0.07539261877536774, 0.2947046756744385, 0.05850723385810852, 0.16334104537963867, 0.35887449979782104, 0.16610850393772125, -0.38817697763442993, -0.034914448857307434, 0.03556590527296066, -0.022550178691744804, 0.013361833058297634], [-0.026406127959489822, 0.0007150130695663393, 0.022902633994817734, 0.023499945178627968, -0.0180852971971035, 0.030545052140951157, -0.011632089503109455, -0.027711639180779457, 0.021936405450105667, 0.0062202769331634045, 0.01403764821588993, -0.03230159357190132, 0.03617642819881439, 0.04254205524921417, 0.018346328288316727, -0.008560564368963242, 0.004371745511889458, -0.017544103786349297, -0.005660342518240213, -0.012969490140676498, -0.00986715778708458, 0.01816382259130478, -0.031193377450108528, -0.001702904817648232, 0.018470382317900658, 0.009519296698272228, -0.009419416077435017, 0.035036347806453705, -0.01637914404273033, -0.0247634407132864, 0.015219706110656261, 0.014272447675466537, 0.07469872385263443, 0.10302131623029709, 0.4160143733024597, 0.4015651345252991, 0.09018658846616745, 0.040883440524339676, -0.011390435509383678, 0.4277149438858032, 0.26122888922691345, 0.3879231810569763, 0.14362165331840515, 0.4240976572036743, -0.15053719282150269, -0.30748164653778076, -0.04561419412493706, 0.16921450197696686, 0.0917145237326622, -0.233756884932518, 0.21078573167324066, 0.20136646926403046, 0.03508515655994415, 0.012431366369128227, 0.018199201673269272, 0.013394207693636417, -0.027828937396407127, -0.0009275547345168889, -0.016306955367326736, -0.1877426654100418, -0.10862268507480621, -0.02925063483417034, -0.09007792919874191, 0.4477353096008301, 0.10639842599630356, 0.016794301569461823, 0.15322652459144592, 0.16652663052082062, 0.25958988070487976, 0.3311764597892761, 0.07510549575090408, 0.351744681596756, 0.2662581205368042, 0.11424540728330612, 0.05478009209036827, 0.14624294638633728, 0.24133598804473877, 0.1468619704246521, 0.25889503955841064, 0.3742101490497589, 0.13198170065879822, 0.14595267176628113, -0.0033332365565001965, -0.00011864305270137265, 0.002317113569006324, -0.02340894564986229, 0.08926582336425781, -0.20049726963043213, -0.2765645384788513, 0.100650355219841, 0.0984935313463211, -0.12399511784315109, 0.04303746670484543, 0.2339220643043518, 0.04500587657094002, -0.2132539451122284, 0.27866753935813904, 0.37537872791290283, 0.2886044681072235, 0.3424420952796936, 0.3837895691394806, 0.08438295125961304, -0.10851684957742691, 0.2609366476535797, 0.6250646114349365, -0.00295624160207808, -0.10306254774332047, -0.1775432527065277, 0.2577841281890869, 0.3796888589859009, 0.4471580684185028, -0.004397975746542215, 0.029052849858999252, 0.02063826285302639, 0.31983548402786255, 0.06268880516290665, -0.28519564867019653, 0.10251086950302124, -0.18161578476428986, -0.23312148451805115, 0.041943371295928955, 0.20576328039169312, 0.0983458161354065, 0.21718521416187286, 0.20434653759002686, 0.2795215845108032, 0.04940911382436752, 0.17028632760047913, 0.022606482729315758, -0.1866375207901001, -0.19292083382606506, -0.042203325778245926, 0.026918908581137657, 0.17403152585029602, -0.07316739112138748, -0.0239030160009861, 0.07924976199865341, -0.026173630729317665, 0.2670676112174988, -0.30818986892700195, 0.0028748002368956804, -0.0003506328503135592, 0.44771263003349304, 0.10970255732536316, 0.35086047649383545, 0.6352291703224182, 0.1901431828737259, -0.13076381385326385, -0.03437352925539017, 0.06347480416297913, -0.16345195472240448, -0.3333987295627594, -0.3352448046207428, -0.2513062059879303, -0.15803839266300201, -0.01843210868537426, -0.03720931336283684, -0.1250603049993515, 0.01404623407870531, -0.09116091579198837, -0.047162096947431564, -0.05324689298868179, 0.11865031719207764, 0.09512169659137726, -0.09862367808818817, 0.2489277571439743, 0.3452144265174866, 0.04356827586889267, 0.016995955258607864, 0.058213215321302414, -0.03536485508084297, 0.4071258008480072, 0.2770472466945648, 0.14420530200004578, -0.06532229483127594, -0.4040379822254181, -0.041847553104162216, -0.2693294882774353, -0.2919039726257324, -0.3279990553855896, -0.16669556498527527, -0.1687539517879486, -0.1924845576286316, -0.11787146329879761, -0.09328990429639816, -0.0761062353849411, 0.017526283860206604, -0.11390653997659683, -0.13462898135185242, 0.05767018720507622, -0.06927412748336792, -0.21735882759094238, 0.1101183220744133, 0.211686372756958, 0.3623201251029968, 0.12225940078496933, 0.03214273229241371, 0.336997926235199, 0.20783381164073944, 0.5482856035232544, 0.05321773886680603, -0.18222931027412415, 0.02153635211288929, 0.1899222731590271, 0.09378255158662796, -0.01642778515815735, -0.061027225106954575, -0.03487764298915863, -0.018624458461999893, -0.19455020129680634, -0.035613007843494415, -0.06800013780593872, 0.03088034689426422, 0.019634732976555824, 0.08570437133312225, 0.026429293677210808, 0.003363874275237322, -0.06986037641763687, -0.01622612774372101, -0.1172916442155838, 0.042371127754449844, -0.21447789669036865, 0.027259161695837975, 0.3256983458995819, -0.08131422102451324, 0.4392821788787842, 0.1405578851699829, 0.2447614073753357, 0.1455911546945572, 0.20330864191055298, 0.09319636225700378, 0.23252476751804352, 0.14662764966487885, 0.06922690570354462, 0.19462598860263824, 0.12061233818531036, 0.17506904900074005, -0.0063290768302977085, 0.10237474739551544, 0.12498979270458221, 0.010572899132966995, 0.09605517238378525, 0.022344255819916725, 0.04595239832997322, 0.1202913299202919, 0.01924913376569748, 0.07764293253421783, 0.13230392336845398, 0.049918849021196365, -0.2635328769683838, -0.2964343726634979, -0.26026099920272827, 0.18808703124523163, 0.5859999656677246, 0.36252960562705994, 0.27497655153274536, 0.6820200085639954, 0.30289527773857117, 0.1260293871164322, 0.3170636296272278, 0.34591546654701233, 0.2628626227378845, 0.2047700136899948, 0.34460094571113586, 0.2833899259567261, 0.36789530515670776, 0.40364664793014526, 0.18142487108707428, 0.0013876007869839668, 0.04903392866253853, 0.06357989460229874, -0.03993673250079155, -0.022620752453804016, -0.01805955544114113, 0.17918501794338226, 0.04010457918047905, 0.16383734345436096, 0.1264607459306717, -0.21578580141067505, 0.33132800459861755, 0.18986541032791138, 0.45080575346946716, 0.27983880043029785, 0.10616107285022736, 0.6586928367614746, 0.26869940757751465, 0.06151878833770752, 0.33850812911987305, 0.3692614436149597, 0.4032513201236725, 0.3822877109050751, 0.5576420426368713, 0.40221044421195984, 0.6811873316764832, 0.44534534215927124, 0.1398368626832962, -0.01825329288840294, -0.013070445507764816, -0.0946904644370079, -0.03466164693236351, 0.10412132740020752, -0.012478779070079327, -0.02317718416452408, -0.2309829145669937, -0.2572993040084839, 0.2264104187488556, 0.3511115610599518, 0.2125997096300125, 0.18716780841350555, 0.4479639232158661, 0.2030438333749771, 0.20293821394443512, 0.4057646691799164, 0.13391083478927612, 0.025509659200906754, 0.03258359059691429, 0.14703425765037537, 0.18902289867401123, 0.3244214653968811, 0.48642900586128235, 0.18127454817295074, 0.32015183568000793, 0.07976209372282028, -0.10954903066158295, -0.21004271507263184, -0.10952947288751602, 0.04383154213428497, -0.07868530601263046, 0.0464639775454998, -0.14576582610607147, -0.06864576786756516, -0.1622045636177063, -0.35059595108032227, -0.0321853905916214, 0.146854966878891, 0.14726310968399048, 0.1735750287771225, 0.5349838137626648, 0.20616360008716583, -0.21121662855148315, -0.11042501032352448, -0.11275594681501389, -0.1276131272315979, -0.053813569247722626, 0.03726782277226448, 0.010875317268073559, 0.04913298785686493, -0.08558584749698639, -0.20535485446453094, -0.23398394882678986, -0.21628151834011078, -0.021232880651950836, -0.054753027856349945, -0.05934189260005951, 0.04617522656917572, -0.06354357302188873, -0.09682364016771317, -0.33306166529655457, -0.2612127959728241, -0.26451194286346436, -0.13716313242912292, 0.09585745632648468, 0.2857154905796051, 0.056000616401433945, 0.03153562918305397, 0.35433143377304077, 0.07235520333051682, -0.38639137148857117, -0.2871888279914856, -0.21111729741096497, -0.2641395330429077, -0.18360544741153717, -0.23356588184833527, -0.18399539589881897, -0.2802804410457611, -0.20101246237754822, -0.3079471290111542, -0.46932825446128845, -0.1540568470954895, -0.1508568972349167, -0.0392657034099102, 0.051198024302721024, -0.09451358765363693, -0.12784810364246368, 0.03226667642593384, -0.13990595936775208, -0.16832870244979858, -0.12340230494737625, 0.3968897759914398, 0.4133318066596985, 0.20840810239315033, -0.3220711946487427, 0.02564125880599022, 0.44878438115119934, 0.683062732219696, -0.20738035440444946, -0.23460417985916138, -0.21087948977947235, -0.3227432072162628, -0.24084340035915375, -0.1805417239665985, -0.11760445684194565, -0.0200505331158638, -0.19784745573997498, -0.10032930225133896, -0.23657912015914917, -0.004876681603491306, 0.015922555699944496, -0.11771213263273239, -0.19236725568771362, -0.19551876187324524, 0.0646987035870552, -0.11449450254440308, -0.011845224536955357, 0.16036391258239746, 0.3906796872615814, 0.6147364974021912, -0.10779140144586563, 0.08945585787296295, -0.07456541061401367, 0.050032839179039, 0.36597681045532227, 0.4370546340942383, 0.12360784411430359, -0.11917012929916382, 0.04169517010450363, -0.11083054542541504, -0.050915949046611786, -0.08813416212797165, 0.03478986769914627, -0.19796748459339142, -0.0841284766793251, 0.0036094565875828266, -0.016028689220547676, -0.010182427242398262, -8.933251228882e-05, -0.09079516679048538, -0.2022126168012619, -0.013541142456233501, 0.03144092112779617, 0.06665660440921783, 0.11346154659986496, 0.3964107930660248, 0.27556800842285156, 0.5370872616767883, -0.15323415398597717, 0.010316040366888046, -0.07084346562623978, 0.12650759518146515, 0.3392643332481384, 0.4956406056880951, -0.023695722222328186, -0.26012295484542847, 0.04841606318950653, -0.2842693030834198, -0.01948811113834381, 0.11330564320087433, 0.21374492347240448, 0.08013973385095596, -0.12923753261566162, -0.17370553314685822, -0.06735759973526001, 0.031033404171466827, -0.09310118108987808, -0.07394259423017502, -0.07104648649692535, -0.009608210064470768, 0.081344835460186, 0.09596529603004456, 0.21091347932815552, 0.3839282691478729, 0.13603495061397552, 0.3263944387435913, -0.3081135153770447, 0.36784878373146057, 0.10253842920064926, 0.030595334246754646, 0.3102757930755615, -0.1668941229581833, -0.02154023014008999, -0.17667824029922485, -0.16799134016036987, -0.17078076303005219, -0.03201747685670853, 0.06101984158158302, 0.01075492799282074, 0.059186551719903946, -0.05737345665693283, -0.08228836953639984, -0.20357030630111694, 0.0387563593685627, -0.03991801664233208, -0.09583932906389236, -0.0033200534526258707, 0.046377670019865036, 0.07266008108854294, 0.14607562124729156, -0.03116615302860737, 0.0730612725019455, 0.11959688365459442, 0.24883626401424408, -0.000843146292027086, 0.016557635739445686, -0.23977221548557281, 0.3556065559387207, 0.032145529985427856, 0.15100626647472382, 0.054556362330913544, -0.1987684667110443, 0.0233141016215086, -0.07222189754247665, -0.11743997782468796, -0.05571908876299858, -0.21409735083580017, -0.09867347776889801, -0.293936163187027, -0.26050522923469543, -0.3252789378166199, -0.007718674372881651, 0.13390858471393585, 0.06696311384439468, 0.11195546388626099, 0.12169022858142853, 0.0035480153746902943, 0.017789030447602272, 0.04707765206694603, 0.06978388130664825, -0.07437606900930405, -0.0592990480363369, 0.05165018513798714, 0.05251016840338707, 0.1034630686044693, 0.04189290851354599, 0.3295612037181854, -0.07861360907554626, -0.1311042606830597, -0.01585344411432743, 0.08586796373128891, -0.09034694731235504, -0.29671552777290344, 0.03551024571061134, -0.10237902402877808, -0.2820378839969635, -0.19595471024513245, -0.13455474376678467, -0.07358710467815399, 0.10871382802724838, 0.27081143856048584, 0.16915860772132874, 0.1637955904006958, 0.02408454939723015, 0.03865884244441986, 0.08717356622219086, -0.07638783752918243, -0.15108826756477356, -0.23293009400367737, 0.3233420252799988, 0.3019786775112152, -0.5058846473693848, -0.22152487933635712, -0.03336133807897568, 0.13577651977539062, -0.6354320049285889, -0.21713395416736603, -0.09803345054388046, -0.18233363330364227, -0.02551862969994545, 0.056367479264736176, 0.0650780200958252, 0.04971202835440636, -0.11583442240953445, -0.0992053747177124, -0.09216836839914322, -0.0641135573387146, 0.08693182468414307, 0.237004816532135, 0.1112126037478447, 0.11571459472179413, 0.19147077202796936, 0.11831967532634735, -0.02943025343120098, -0.0481911301612854, -0.06301229447126389, 0.08281906694173813, 0.053219061344861984, -0.2537814974784851, -0.16223539412021637, 0.13832925260066986, 0.010713014751672745, 0.14538978040218353, -0.423018217086792, -0.2678420841693878, -0.030492737889289856, -0.12830272316932678, -0.08357865363359451, 0.022400403395295143, 0.019439855590462685, -0.005166926886886358, -0.047819409519433975, -0.023472996428608894, 0.18864552676677704, 0.0839744433760643, 0.09164559096097946, 0.11456756293773651, 0.16535469889640808, 0.046112194657325745, 0.3272821605205536, 0.1588839292526245, -0.017072714865207672, 0.04726549983024597, 0.017342757433652878, -0.13663548231124878, 0.11590137332677841, 0.24631530046463013, 0.27056649327278137, 0.01884988322854042, 0.00201848684810102, 0.08488292247056961, -0.22970890998840332, -0.23827235400676727, 0.22236429154872894, 0.20976358652114868, 0.2533704340457916, 0.10074112564325333, 0.2283652275800705, 0.22945502400398254, -0.053867291659116745, -0.05274176225066185, 0.09860461950302124, 0.06733638048171997, -0.1420907825231552, 0.19054771959781647, 0.07318922132253647, 0.22798068821430206, 0.1959615796804428, -0.002190792467445135, 0.015631578862667084, -0.16773538291454315, -0.0005939651164226234, -0.2807588577270508, -0.14815138280391693, 0.14751382172107697, -0.3144964873790741, 0.03126707300543785, -0.03166164457798004, -0.021990245208144188, 0.1828957349061966, -0.16485144197940826, 0.14160364866256714, 0.007849385030567646, 0.11360485106706619, -0.013802437111735344, -0.22147105634212494, 0.1147548034787178, 0.13826167583465576, -0.005250701680779457, 0.0019011300755664706, -0.07469666749238968, 0.028414327651262283, 0.1052771583199501, -0.05642132833600044, -0.006457896437495947, -0.32007452845573425, -0.27400749921798706, -0.33698660135269165, -0.24513188004493713, -0.14511290192604065, -0.26357796788215637, -0.06234282627701759, -0.42485755681991577, -0.04039030149579048, 0.008145252242684364, -0.013960008509457111, 0.01902279257774353, 0.02527458593249321, 0.4972079396247864, 0.11199366301298141, 0.2822263538837433, 0.003254547016695142, -0.09236455708742142, -0.17256586253643036, -0.052784115076065063, -0.051014430820941925, 0.0021717955823987722, 0.05836084857583046, -0.028875179588794708, -0.042289793491363525, 0.0521845668554306, -0.19070492684841156, 0.07718534022569656, -0.1904623657464981, 0.039159875363111496, -0.22070711851119995, 0.04013605788350105, -0.09572769701480865, -0.24632978439331055, 0.004523179028183222, -0.32155707478523254, 0.2311362624168396, 0.00348083907738328, 0.01332633476704359, -0.03132437542080879, -0.3913968503475189, 0.40845316648483276, 0.33332324028015137, -0.06102905422449112, -0.045219238847494125, 0.12631012499332428, 0.11010517179965973, 0.11565950512886047, -0.031052904203534126, 0.12959426641464233, 0.2609995901584625, -0.010778217576444149, -0.07941114157438278, 0.00246466719545424, 0.07409875094890594, 0.04100438952445984, -0.08163797110319138, 0.272188276052475, -0.06666167080402374, 0.012199822813272476, -0.0432317741215229, -0.10565583407878876, 0.46258091926574707, -0.12044795602560043, -0.13169613480567932, 0.014164376072585583, -0.030638180673122406, -0.030616898089647293, 0.00799467321485281, -0.05748256295919418, -0.49609771370887756, -0.47271767258644104, -0.4064950942993164, -0.09729135781526566, -0.18354098498821259, -0.13998794555664062, -0.14421427249908447, 0.0020091638434678316, -0.11114319413900375, 0.02685004472732544, 0.0562327541410923, 0.3010646402835846, 0.18776455521583557, -0.030443865805864334, 0.04823673516511917, 0.7187042832374573, 0.3384743332862854, -0.04020265117287636, 0.21757176518440247, -0.02316901832818985, -0.3322621285915375, 0.22797441482543945, 0.00512447115033865, -0.02655245177447796, 0.011523153632879257, -0.013411395251750946, -0.02595631591975689, -0.014787985011935234, 0.44419974088668823, 0.57865309715271, 0.13123461604118347, -0.007324707228690386, 0.07977189868688583, 0.04368365928530693, 0.08899182826280594, -0.07134465873241425, -0.08787558227777481, 0.5520322918891907, 0.30219748616218567, -0.05495695397257805, -0.2630557715892792, 0.3510545790195465, -0.022496242076158524, 0.1658620536327362, 0.014100349508225918, 0.03457338362932205, 0.1751658022403717, 0.37314435839653015, -0.0010198525851592422, -0.035328518599271774, 0.005079299211502075, 0.016475725919008255], [-0.030629295855760574, -0.009711487218737602, 0.03081078827381134, 0.0032081904355436563, -0.025774700567126274, 0.032654304057359695, 0.018065176904201508, -0.02250395156443119, 0.024452218785881996, -0.018258223310112953, 0.022054605185985565, -0.009775894694030285, -0.168229341506958, -0.17161837220191956, 0.05253985524177551, 0.03915465250611305, 0.016808390617370605, -0.03031041845679283, 0.021268513053655624, -0.028281178325414658, 0.018276117742061615, -0.028024615719914436, 0.007192377932369709, 0.004892336670309305, 0.025053178891539574, 0.02806065045297146, 0.009316389448940754, 0.012675579637289047, 0.018639732152223587, 0.031987737864255905, 0.013182700611650944, 0.007269970141351223, -0.09199295938014984, -0.09740850329399109, -0.33704593777656555, -0.3292085826396942, -0.240834042429924, -0.2784751057624817, -0.17454726994037628, 0.123052679002285, -0.10793573409318924, -0.08562444895505905, 0.25323057174682617, -0.3273720443248749, -0.04291743412613869, -0.29785585403442383, -0.5814737677574158, -0.576949417591095, -0.5520607829093933, -0.4262430965900421, -0.447390079498291, -0.3425363302230835, 0.01378452405333519, -0.020009513944387436, 0.00194740726146847, -0.015531281009316444, 0.012494015507400036, 0.0020615544635802507, -0.17892660200595856, -0.40145066380500793, -0.4952654242515564, -0.25360795855522156, -0.40407609939575195, -0.30673834681510925, -0.4058539569377899, -0.23265042901039124, -0.388283908367157, -0.517452597618103, 0.17685289680957794, -0.17958831787109375, 0.0442671999335289, 0.022281043231487274, -0.00803742278367281, -0.07998643815517426, -0.07981426268815994, -0.5609045624732971, -0.711879551410675, -0.7322996854782104, -0.7687331438064575, -0.6675467491149902, -0.18588444590568542, 0.08963931351900101, 0.03438157960772514, -0.01920148730278015, -0.010593155398964882, 0.010021512396633625, -0.25001153349876404, -0.4768364429473877, -0.18756701052188873, -0.060655467212200165, -0.3365032970905304, -0.6079367995262146, -0.6560404896736145, -0.4779582917690277, -0.526913046836853, -0.168087437748909, 0.07793096452951431, -0.23391862213611603, 0.060644689947366714, 0.15168000757694244, 0.15965618193149567, 0.09221122413873672, 0.056523289531469345, -0.06174813583493233, 0.19449757039546967, -0.12783513963222504, 0.026159049943089485, -0.16220203042030334, -0.09074724465608597, 0.4576583206653595, 0.06678690016269684, 0.014727337285876274, -0.02847592532634735, 0.03839021176099777, -0.13708050549030304, 0.12699182331562042, -0.356589674949646, -0.33941829204559326, -0.4208671748638153, -0.4841160476207733, -0.8077062964439392, -0.8424643874168396, -0.8003079891204834, -0.4423971176147461, -0.19229955971240997, -0.34957143664360046, -0.08775755763053894, 0.16994599997997284, 0.1286357194185257, 0.20274020731449127, 0.12863968312740326, -0.11207018792629242, -0.07132627815008163, -0.010674570687115192, -0.004139459691941738, -0.07178850471973419, 0.349850594997406, 0.5244272947311401, 0.2557304799556732, -0.3788778781890869, 0.002142331562936306, -0.03499942272901535, -0.44463321566581726, -0.21019555628299713, -0.6344360113143921, -0.22737818956375122, -0.4250812828540802, -0.32808977365493774, -0.09030597656965256, -0.36492982506752014, -0.4295395016670227, -0.026770731434226036, 0.036581382155418396, 0.137898251414299, -0.03749041259288788, -0.09787850081920624, -0.0082386564463377, 0.015497175045311451, -0.033779844641685486, -0.13782821595668793, -0.08053290098905563, -0.1083328053355217, -0.05414118990302086, -0.39245960116386414, -0.28217175602912903, 0.14941197633743286, -0.23275558650493622, -0.3585077226161957, -0.021303672343492508, -0.2895369827747345, 0.17312408983707428, 0.22996418178081512, -0.10252901911735535, -0.021091900765895844, -0.11328784376382828, -0.1179388165473938, 0.010833151638507843, -0.05960068479180336, -0.09239760786294937, 0.022237727418541908, -0.05991261452436447, 0.008969297632575035, -0.06341609358787537, -0.03852102532982826, 0.13198868930339813, 0.38440030813217163, 0.20842653512954712, 0.1881071776151657, 0.10066492855548859, 0.1404290497303009, 0.0013711423380300403, -0.1299205720424652, -0.347442626953125, 0.07592552155256271, -0.04654618352651596, -0.3608391284942627, 0.033339690417051315, -0.1239137351512909, 0.534270167350769, 0.5454579591751099, -0.172475665807724, -0.4268723428249359, 0.19232980906963348, -0.16472482681274414, -0.1356370896100998, -0.05983876809477806, 0.0400117002427578, 0.01604272797703743, -0.07146609574556351, -0.057131242007017136, -0.2326018512248993, -0.004773391410708427, 0.2120172381401062, 0.28438183665275574, 0.24368077516555786, 0.1653805822134018, 0.18088355660438538, 0.0964406207203865, 0.14178414642810822, 0.18045669794082642, 0.06859546154737473, 0.08509286493062973, -0.3331511318683624, -0.28230684995651245, -0.4406285881996155, 0.430929571390152, 0.1165650263428688, -0.09351813048124313, -0.4908028841018677, -0.15291179716587067, 0.19518157839775085, -0.1339031159877777, 0.11757544428110123, 0.2582041323184967, 0.17699071764945984, 0.19858308136463165, -0.011908182874321938, -0.08257216960191727, 0.008628316223621368, 0.15743088722229004, 0.31002092361450195, 0.11194470524787903, 0.40078192949295044, 0.25155749917030334, 0.035182736814022064, -0.03322411701083183, 0.0548832081258297, 0.1898076981306076, 0.5278199315071106, 0.48326584696769714, -0.10615720599889755, 0.46483084559440613, 0.2521251142024994, 0.3887113034725189, -0.09951265901327133, -0.15281251072883606, -0.39116424322128296, 0.05260040983557701, 0.18420270085334778, -0.22244125604629517, -0.08722754567861557, 0.0890919640660286, 0.22298207879066467, 0.01765994355082512, 0.18095657229423523, 0.0642021968960762, 0.06308802217245102, 0.20545966923236847, 0.12369263917207718, 0.2389967441558838, 0.25933876633644104, 0.23390325903892517, 0.15861932933330536, -0.23902593553066254, -0.12221073359251022, -0.022241080179810524, 0.3553827702999115, 0.9249338507652283, 0.5722817778587341, 0.6146357655525208, 0.2738536298274994, 0.26674869656562805, -0.3203708231449127, -0.3878225088119507, -0.2917453944683075, -0.11749570816755295, 0.034016937017440796, -0.22033587098121643, -0.09660650044679642, 0.14751316606998444, 0.053715821355581284, 0.01676744595170021, 0.1403515487909317, 0.050827424973249435, 0.15133121609687805, 0.12138361483812332, 0.19305533170700073, 0.06436417996883392, 0.1958281397819519, 0.2755899727344513, 0.07496512681245804, -0.07128946483135223, 0.10027945041656494, 0.0480891689658165, 0.22456613183021545, 0.8958866000175476, 0.3952716886997223, 0.3299691081047058, 0.2513192892074585, -0.316074401140213, 0.0987151488661766, -0.39601799845695496, -0.24527350068092346, -0.13612684607505798, 0.15771101415157318, -0.028063252568244934, 0.03398172929883003, 0.06668689846992493, 0.09864863008260727, 0.18883921205997467, 0.22648943960666656, 0.2428433746099472, 0.23427200317382812, 0.11320982873439789, 0.008237147703766823, 0.2583884596824646, 0.1630242019891739, 0.17031806707382202, 0.037079863250255585, -0.01883910782635212, 0.1539173275232315, 0.2597428262233734, 0.5381285548210144, 0.6036211848258972, 0.24015231430530548, 0.03519785776734352, 0.16869036853313446, 0.20822566747665405, 0.266215443611145, -0.1772364377975464, 0.09988334029912949, 0.007768208626657724, 0.061506811529397964, -0.057384539395570755, 0.009944421239197254, -0.0043661873787641525, 0.09608662128448486, 0.045896515250205994, 0.08288417756557465, 0.09213987737894058, -0.009011234156787395, -0.02338491939008236, -0.08087927103042603, 0.07630308717489243, 0.10529457777738571, 0.051903095096349716, -0.18478935956954956, -0.19293729960918427, -0.14968611299991608, 0.07763797789812088, -0.004485262092202902, -0.0505458302795887, 0.49530014395713806, 0.3785504400730133, -0.35736536979675293, 0.027510806918144226, 0.23489642143249512, -0.04030544310808182, 0.02178952470421791, -0.12105275690555573, -0.10937760025262833, 0.11587334424257278, -0.03422212973237038, 0.03362855687737465, 0.10534881800413132, 0.12147732079029083, 0.24031022191047668, 0.17434366047382355, -0.06327363848686218, -0.08816861361265182, -0.034063223749399185, 0.06030793860554695, -0.0367102324962616, -0.2576088607311249, -0.12381953746080399, -0.006366002839058638, -0.010238067246973515, -0.24834346771240234, -0.17906050384044647, 0.028970371931791306, 0.382448673248291, -0.15532740950584412, 0.1204812079668045, 0.12998415529727936, 0.06273235380649567, 0.042643625289201736, 0.06030765548348427, -0.1656719297170639, 0.13991783559322357, 0.13092227280139923, 0.01833762414753437, 0.030803116038441658, 0.05468619242310524, 0.12786151468753815, 0.10780837386846542, 0.022784516215324402, -0.09770507365465164, -0.016076654195785522, 0.02180211991071701, 0.23408453166484833, 0.2343684434890747, 0.06909768283367157, 0.13331212103366852, -0.042923782020807266, -0.13335847854614258, -0.07195937633514404, -0.08518847823143005, -0.026510830968618393, 0.1433282047510147, 0.16685917973518372, 0.1192246824502945, 0.24426817893981934, -0.5849869251251221, 0.12038562446832657, 0.21664057672023773, 0.19368502497673035, 0.22564785182476044, -0.08988658338785172, 0.0767718255519867, 0.034976329654455185, 0.1881570667028427, 0.1373443454504013, 0.017209745943546295, -0.11050470918416977, -0.11534389108419418, 0.10114792734384537, -0.038319773972034454, 0.3866843581199646, 0.26732319593429565, 0.12949064373970032, 0.059813253581523895, -0.1424420177936554, 0.012333178892731667, -0.0880110040307045, -0.1447511613368988, -0.3192600607872009, 0.019937939941883087, 0.11556489765644073, 0.12483455240726471, 0.25122666358947754, -0.34194812178611755, -0.071387380361557, 0.3310759365558624, 0.1659916341304779, 0.24430830776691437, -0.014065846800804138, 0.07536153495311737, -0.023156631737947464, 0.15761399269104004, 0.08423615247011185, 0.1462928056716919, 0.0016436546575278044, -0.09450970590114594, 0.08905401080846786, 0.2268843650817871, 0.46956998109817505, 0.14718513190746307, -0.16585026681423187, 0.11301734298467636, -0.03892551362514496, -0.03863849118351936, -0.292240172624588, -0.44258904457092285, -0.28599902987480164, 0.13748744130134583, 0.3298369348049164, 0.011726724915206432, 0.06316259503364563, -0.4138045907020569, -0.03135986626148224, 0.024495022371411324, -0.0002134611422661692, 0.20640601217746735, 0.07145681977272034, 0.17229925096035004, 0.1785210371017456, 0.1057414561510086, 0.07403071969747543, 0.027965780347585678, -0.019539372995495796, -0.007046378683298826, 0.2167801558971405, 0.3112275302410126, 0.30540743470191956, -0.09166046977043152, -0.19865724444389343, -0.13414736092090607, -0.1410123109817505, -0.24862706661224365, -0.33360162377357483, -0.16359159350395203, -0.36690446734428406, -0.36820438504219055, 0.34907668828964233, 0.4737107455730438, -0.16359843313694, -0.0028062271885573864, -0.21661658585071564, -0.16569961607456207, 0.10755514353513718, 0.2862448990345001, -0.02820369228720665, 0.21907570958137512, 0.05756025016307831, 0.23375466465950012, 0.1703302562236786, -0.07273563742637634, 0.06273341178894043, 0.15806598961353302, 0.1853857934474945, 0.1821935474872589, 0.03979814052581787, -0.23368102312088013, -0.10164546221494675, 0.05649814382195473, 0.08696841448545456, 0.12145067006349564, -0.134460911154747, -0.15365634858608246, -0.5990006923675537, -0.07615775614976883, 0.04461609944701195, -0.2864607572555542, 0.28037112951278687, 0.19863225519657135, -0.2864147424697876, -0.29531481862068176, -0.04148471727967262, 0.024297388270497322, -0.24310742318630219, -0.001957606291398406, -0.10888941586017609, -0.0019070658599957824, -0.06250787526369095, -0.007268659304827452, 0.10871019214391708, 0.048305951058864594, 0.06131812930107117, -0.10848995298147202, -0.052406344562768936, 0.07548891752958298, 0.04646219685673714, 0.02833554334938526, 0.018765540793538094, 0.025100620463490486, 0.11423883587121964, -0.12708702683448792, -0.4677213132381439, 0.07701626420021057, -0.3047481179237366, -0.027707314118742943, 0.18601644039154053, 0.03153880313038826, -0.14385423064231873, -0.3438611626625061, 0.11555131524801254, 0.017286092042922974, -0.22404934465885162, 0.05236372351646423, -0.17328223586082458, -0.06208213046193123, -0.07394801825284958, -0.1854555606842041, 0.020828496664762497, -0.14478585124015808, 0.005936040543019772, -0.09773451089859009, -0.014456409029662609, -0.06689015030860901, 0.06481868773698807, -0.2814795672893524, -0.2567996680736542, -0.08372990041971207, 0.11999448388814926, -0.0317121259868145, -0.03034244291484356, -0.31851819157600403, -0.35602301359176636, -0.27630746364593506, 0.0030089744832366705, -0.04999139904975891, -0.3498252332210541, -0.035621631890535355, 0.05266506224870682, 0.12290883809328079, 0.03936287388205528, -0.05433358997106552, -0.05735218524932861, -0.06709644198417664, -0.08581481128931046, -0.054258737713098526, -0.10305164754390717, -0.1883823275566101, -0.17408013343811035, -0.1414346843957901, -0.1680777370929718, -0.13482943177223206, -0.08434455841779709, -0.2726536691188812, -0.015948431566357613, 0.09615381807088852, -0.036632053554058075, -0.14955292642116547, -0.35085225105285645, -0.5358541011810303, 0.028514323756098747, -0.24333086609840393, -0.0871950089931488, -0.311488538980484, -0.042044747620821, -0.02511684037744999, -0.31602364778518677, 0.1671808809041977, 0.25687482953071594, 0.06870613247156143, -0.07808084785938263, -0.006461577024310827, 0.041287895292043686, 0.048098597675561905, -0.09389879554510117, -0.04665207490324974, -0.1771104633808136, -0.18283291161060333, -0.3094709813594818, -0.2700759172439575, -0.20144641399383545, -0.2035088837146759, -0.11091294884681702, 0.12276838719844818, 0.16519030928611755, 0.26335713267326355, 0.06346353888511658, -0.5218702554702759, 0.05703352391719818, -0.03491588309407234, -0.02734208293259144, -0.5575311779975891, 0.42948201298713684, 0.35392194986343384, 0.08233904093503952, 0.0949881449341774, 0.3363238275051117, 0.10829947888851166, -0.09895588457584381, 0.15149323642253876, 0.13313038647174835, -0.005517247132956982, -0.03406354784965515, -0.18711815774440765, -0.15917816758155823, -0.09697335958480835, -0.25703537464141846, -0.2655973732471466, -0.20664198696613312, -0.11998491734266281, -0.16807200014591217, -0.00470787612721324, 0.16955053806304932, 0.28447920083999634, 0.08820569515228271, -0.5500745177268982, -0.019982164725661278, -0.02902442403137684, -0.02971298061311245, 0.058395855128765106, 0.46894165873527527, 0.47814419865608215, 0.4731783866882324, 0.4127899408340454, 0.4473459720611572, 0.36407437920570374, 0.09809961915016174, 0.16678451001644135, 0.21922363340854645, 0.04126959294080734, -0.04287245497107506, -0.1236334890127182, -0.1871943473815918, -0.12113923579454422, -0.2657025456428528, -0.37828585505485535, -0.09427332133054733, 0.06795748323202133, -0.22351521253585815, -0.0483691543340683, 0.3348025977611542, -0.04711306840181351, -0.18050196766853333, -0.2561519145965576, 0.03485064208507538, -0.010656106285750866, -0.017453309148550034, -0.08112596720457077, 0.5955104827880859, 0.20728467404842377, 0.3251333236694336, 0.2261546105146408, 0.31809234619140625, 0.22257448732852936, 0.2587427496910095, 0.2213468849658966, 0.2992839217185974, -0.19933456182479858, 0.05907246470451355, 0.22833038866519928, 0.11488834023475647, 0.39694708585739136, 0.1735745072364807, 0.046919941902160645, 0.043050531297922134, 0.20611843466758728, 0.24408571422100067, -0.11530270427465439, -0.2263398915529251, -0.2896401882171631, 0.2378903180360794, -0.03981299325823784, 0.02485424466431141, -0.03507310897111893, 0.03137462958693504, -0.002752602333202958, 0.24089741706848145, 0.028602803125977516, 0.06391622871160507, 0.2894025146961212, 0.6087546348571777, 0.7099688649177551, 0.9124436974525452, 0.3583332598209381, 0.0707307979464531, 0.17994683980941772, 0.6446361541748047, 1.077166199684143, 0.5195196270942688, 0.41146382689476013, 0.6163965463638306, 0.46519801020622253, 0.36939993500709534, 0.7134489417076111, 0.7370750904083252, 0.7665508985519409, 0.5778535008430481, 0.2788572907447815, 0.2062872052192688, 0.011442432180047035, 0.018259717151522636, 0.0037091460544615984, 0.0072344159707427025, 0.019726669415831566, 0.027088405564427376, 0.42163318395614624, 0.6423869132995605, 0.6164966821670532, 0.45935720205307007, 0.5200712084770203, 0.4146036207675934, 0.6439417600631714, 0.5710650086402893, 0.7161974310874939, 0.5280383229255676, 0.6415778994560242, 0.6007835865020752, 0.8537896871566772, 0.7016575336456299, 0.6717978119850159, 0.741024374961853, 0.33829164505004883, 0.44950518012046814, 0.359453946352005, 0.19785140454769135, -0.02814248763024807, 0.021763674914836884, 0.008961886167526245, 0.014858050271868706], [0.0346919484436512, -0.012325044721364975, -0.021960297599434853, 0.028656670823693275, 0.028727741912007332, 0.015227233059704304, -0.01165333017706871, 0.012891084887087345, -0.016191203147172928, -0.03143978863954544, 0.015103315003216267, -0.0037953045684844255, -0.15503035485744476, -0.054476816207170486, 0.062375981360673904, 0.01967415027320385, 0.02299019880592823, -0.003574056550860405, 0.005306473933160305, -0.013323579914867878, -0.013919336721301079, -0.030339378863573074, -0.032671138644218445, 0.014042714610695839, -0.031123444437980652, -0.01367619726806879, -0.02123226970434189, 0.007102468516677618, 0.014299738220870495, 0.0014371403958648443, -0.012327250093221664, 0.007914799265563488, -0.0892193615436554, -0.11729999631643295, -0.16658473014831543, -0.2098444551229477, -0.043294209986925125, -0.09227298200130463, -0.02781694382429123, -0.34755560755729675, -0.5908153057098389, -0.6894287467002869, 0.1540692150592804, -0.19209952652454376, -0.2791551351547241, -0.47672802209854126, -0.3307422697544098, -0.5688353776931763, -0.566589891910553, -0.4214315414428711, -0.3330029547214508, -0.22260595858097076, -0.030951764434576035, 0.026598939672112465, 0.030918242409825325, 0.025917790830135345, -0.019189197570085526, -0.01072118990123272, -0.06592385470867157, -0.39689901471138, -0.44591742753982544, -0.3286115825176239, -0.01904168166220188, -0.2739965319633484, 0.4061910808086395, 0.3009680211544037, 0.10251647979021072, -0.07438242435455322, 0.45794758200645447, 0.43558189272880554, 0.2889176607131958, 0.13721710443496704, -0.16515152156352997, -0.3074154555797577, -0.09907440841197968, -0.8161967992782593, -0.6243032217025757, -0.6845489144325256, -0.8072336316108704, -0.5243449807167053, 0.03040165640413761, 0.1342691332101822, 0.013825285248458385, 0.0030835315119475126, 0.016093263402581215, 0.027023443952202797, 0.2430054098367691, -0.3930428922176361, -0.05059349909424782, -0.06959137320518494, 0.10381834208965302, -0.15911678969860077, -0.25155821442604065, 0.06450898945331573, 0.2366763800382614, 0.38242271542549133, 0.48834213614463806, 0.21521833539009094, 0.14459724724292755, 0.3124637007713318, 0.2709829807281494, 0.0564582496881485, 0.06583958864212036, -0.15438419580459595, -0.3751172125339508, -0.22175335884094238, -0.06191315874457359, 0.01896398514509201, -0.22743189334869385, 0.023467324674129486, -0.00471561960875988, -0.032766472548246384, 0.02735128253698349, 0.04862763732671738, 0.3346766531467438, 0.10682045668363571, -0.47756484150886536, -0.03175181895494461, 0.03862554952502251, 0.22030316293239594, 0.21080556511878967, 0.17403867840766907, 0.40247011184692383, 0.35187873244285583, 0.40664100646972656, 0.3043268024921417, 0.3800356388092041, 0.1509624868631363, 0.24617397785186768, 0.12278757244348526, 0.01423399057239294, -0.1448543816804886, -0.13494448363780975, -0.2122432291507721, -0.31303972005844116, -0.4694519639015198, -0.08577542006969452, 0.028940632939338684, 0.356905460357666, -0.2700704336166382, 0.007569645531475544, 0.032587986439466476, -0.0010654021752998233, 0.3304232656955719, -0.044508352875709534, -0.01743749901652336, 0.06805829703807831, 0.2930793762207031, -0.005580532364547253, -0.0896308645606041, -0.1302628368139267, 0.04600398242473602, 0.237481951713562, 0.11515120416879654, 0.12507079541683197, 0.12361409515142441, 0.2759178578853607, 0.1719079166650772, 0.06549098342657089, 0.10516718029975891, 0.10030312836170197, 0.04886830598115921, -0.08019313961267471, -0.20087137818336487, -0.027294350787997246, -0.0425541028380394, -0.2165462225675583, -0.34387776255607605, -0.02980916202068329, 0.2148590087890625, -0.48930326104164124, 0.22558511793613434, -0.0011164856841787696, -0.15787579119205475, -0.16805052757263184, 0.03726668283343315, -0.0745040625333786, 0.18385599553585052, 0.003688619937747717, -0.044184841215610504, 0.020983155816793442, -0.04913711175322533, -0.023456992581486702, 0.13738495111465454, 0.03252136707305908, 0.06885328143835068, -0.05913170054554939, -0.027639903128147125, -0.17475174367427826, -0.27742376923561096, -0.24117597937583923, 0.03758132457733154, -0.11134347319602966, 0.1316917985677719, -0.2698136866092682, -0.27901357412338257, 0.008211178705096245, 0.5558509826660156, -0.3637992739677429, 0.13000307977199554, 0.12386489659547806, -0.17176195979118347, -0.0009726835414767265, 0.10021936148405075, 0.0745556503534317, 0.03926277160644531, -0.11170709133148193, -0.11570443212985992, 0.04262663051486015, -0.014211077243089676, -0.06755448877811432, 0.10386406630277634, 0.03765401244163513, -0.15757663547992706, -0.05119975656270981, -0.08419216424226761, -0.18830890953540802, -0.2582521140575409, -0.10687471181154251, -0.17820347845554352, -0.20000582933425903, -0.17020286619663239, -0.20687152445316315, -0.2637487053871155, -0.4479749798774719, 0.1416265368461609, -0.3322925865650177, 0.46448591351509094, 0.3982205390930176, 0.09286082535982132, 0.10376796126365662, 0.08725117146968842, -0.16951817274093628, -0.012902847491204739, 0.21257303655147552, 0.12018968909978867, -0.029777416959404945, 0.1535109281539917, 0.05747435241937637, 0.0538686104118824, -0.009375328198075294, 0.035294122993946075, 0.02043912000954151, 0.1572822630405426, -0.06455919146537781, -0.2735132575035095, 0.13450124859809875, 0.2457018494606018, -0.23737876117229462, -0.13422058522701263, 0.21946562826633453, 0.3610824942588806, -0.1345081478357315, -0.40437257289886475, 0.06956624239683151, 0.8440382480621338, 0.034430984407663345, 0.16296504437923431, -0.013750167563557625, -0.22831767797470093, -0.09841283410787582, -0.046438753604888916, 0.0014792203437536955, -0.12790539860725403, -0.08303587138652802, 0.011021480895578861, 0.06428887695074081, 0.16244253516197205, 0.01006313506513834, 0.09086163341999054, -0.05610146000981331, 0.03534548729658127, -0.025447234511375427, 0.09894972294569016, 0.3629375398159027, 0.306174099445343, -0.3090270757675171, 0.2991192638874054, 0.44303399324417114, -0.2469257414340973, -0.1265632063150406, -0.14330068230628967, -0.35593920946121216, 0.20056237280368805, 0.07781610637903214, 0.011581150814890862, -0.09982217103242874, -0.1844063103199005, -0.18596690893173218, -0.12587030231952667, 0.10088062286376953, -0.02347928285598755, 0.019226351752877235, 0.08931662887334824, 0.2338714301586151, 0.20037595927715302, -0.0017570685595273972, -0.09081863611936569, 0.052228834480047226, 0.2452908754348755, 0.17584289610385895, 0.11364525556564331, 0.22163204848766327, 0.26108598709106445, 0.06305411458015442, -0.1703481376171112, 0.28301534056663513, 0.12747082114219666, -0.09594830125570297, -0.44406217336654663, -0.36485472321510315, 0.1388021856546402, 0.48389944434165955, 0.10998110473155975, -0.185787171125412, -0.12947575747966766, -0.20036309957504272, -0.13296492397785187, -0.16013096272945404, 0.1539245992898941, 0.24633872509002686, 0.2769642472267151, 0.5292851328849792, 0.22508038580417633, -0.06142420694231987, -0.17394419014453888, 0.008832103572785854, 0.10631566494703293, 0.051770616322755814, 0.027950329706072807, 0.037627212703228, 0.1581091582775116, 0.4324325621128082, 0.43617522716522217, 0.6235781311988831, 0.4046047329902649, -0.12215013802051544, -0.2008742392063141, -0.027418630197644234, 0.3004041910171509, 0.2760244607925415, 0.1913437694311142, -0.24581624567508698, -0.19779738783836365, -0.37362614274024963, -0.09573284536600113, -0.13897734880447388, 0.03370324522256851, 0.141428604722023, 0.2974090576171875, 0.31694722175598145, 0.14502330124378204, 0.10009633004665375, 0.13585583865642548, -0.06203870102763176, -0.022522252053022385, 0.004967677406966686, -0.04401130974292755, -0.22656600177288055, -0.1812882125377655, -0.014607353135943413, 0.07714418321847916, 0.6359673142433167, 0.5070393085479736, 0.2692086398601532, -0.23247647285461426, 0.13851621747016907, 0.30477407574653625, -0.3907497525215149, 0.041270509362220764, -0.18420901894569397, -0.30860742926597595, -0.20224831998348236, -0.074759840965271, -0.199668288230896, 0.1087174192070961, 0.2152242362499237, 0.3709649443626404, 0.28605329990386963, 0.27676495909690857, 0.2539665400981903, 0.0033413672354072332, -0.17323850095272064, -0.22580042481422424, 0.06794603168964386, -0.09035469591617584, -0.2485586553812027, -0.32108190655708313, -0.08235937356948853, 0.15003152191638947, 0.8110273480415344, 0.509074866771698, -0.11176234483718872, -0.1807669848203659, -0.30439597368240356, 0.3688415586948395, -0.5452372431755066, -0.23016948997974396, -0.014910866506397724, -0.14407694339752197, -0.27380263805389404, -0.18768814206123352, -0.0859983041882515, 0.14006473124027252, 0.28994253277778625, 0.318623423576355, 0.4032323658466339, 0.20492617785930634, 0.30529072880744934, 0.12384486198425293, -0.25679540634155273, -0.21657410264015198, -0.22648505866527557, -0.09685290604829788, -0.22600522637367249, -0.20346198976039886, -0.12843745946884155, 0.30308157205581665, 0.8078001737594604, 0.3810787796974182, -0.10445699840784073, -0.2217739075422287, -0.005371816921979189, 0.41078659892082214, -0.10781057924032211, 0.023348096758127213, 0.1131196990609169, -0.16982261836528778, -0.08723911643028259, -0.07757645845413208, -0.2245541214942932, 0.1980135291814804, 0.13961665332317352, 0.3833322823047638, 0.6276549100875854, 0.33235591650009155, 0.28672218322753906, -0.05720276013016701, -0.24407917261123657, -0.14092707633972168, -0.22610479593276978, -0.22002986073493958, -0.0588279627263546, -0.29995718598365784, -0.19599783420562744, 0.17879937589168549, 0.1889902800321579, 0.7473496198654175, -0.02543294057250023, 0.03315623849630356, 0.05378172919154167, 0.5550805926322937, 0.3391093313694, -0.006032899953424931, 0.20230060815811157, 0.17301543056964874, -0.03613945096731186, 0.15076108276844025, 0.18249835073947906, 0.12774719297885895, 0.10498320311307907, 0.2707059681415558, 0.4032384753227234, 0.27331894636154175, 0.22696954011917114, -0.05705961212515831, -0.0034584233071655035, -0.12347251176834106, -0.22770722210407257, -0.04537979140877724, -0.03198038414120674, -0.11815554648637772, -0.11924135684967041, 0.31300655007362366, 0.4678826332092285, 0.4446893632411957, 6.0856345953652635e-05, -0.15375041961669922, -0.12493381649255753, 0.3014383614063263, 0.3962344527244568, 0.12111437320709229, 0.38451817631721497, 0.2650217115879059, 0.21231213212013245, 0.07649524509906769, 0.024178987368941307, 0.07433191686868668, -0.017734047025442123, 0.18649151921272278, 0.1893676519393921, 0.06051553040742874, 0.01914883591234684, -0.06498120725154877, -0.03300241380929947, -0.005749499425292015, -0.11109378188848495, -0.07292325049638748, -0.11995898932218552, -0.05287913233041763, 0.020734749734401703, 0.012855841778218746, 0.24376726150512695, -0.11595283448696136, 0.14235199987888336, -0.08018822968006134, -0.4271227717399597, 0.2798979580402374, 0.285117506980896, 0.2929498851299286, 0.3533232510089874, 0.3477042019367218, 0.1836751103401184, 0.04760705679655075, 0.059116799384355545, -0.23373350501060486, -0.1529972106218338, -0.02920767106115818, 0.0014599821297451854, 0.09232188761234283, -0.10952462255954742, 0.09848053008317947, -0.02868718095123768, -0.0346243791282177, 0.05584875866770744, -0.0011422339593991637, 0.21629005670547485, 0.1881682425737381, 0.4219304025173187, 0.1863149255514145, 0.001711478689685464, 0.5147887468338013, -0.24642692506313324, -0.48022401332855225, -0.5848943591117859, -0.3746960163116455, 0.07803020626306534, 0.10942741483449936, 0.11478641629219055, 0.03314404934644699, -0.04527915269136429, 0.04479970410466194, 0.10382038354873657, -0.2648369371891022, -0.31080636382102966, 0.08167507499456406, -0.09785686433315277, 0.004286775831133127, 0.11108725517988205, 0.3063269555568695, 0.12556548416614532, 0.11913198232650757, -0.018309729173779488, 0.11005928367376328, 0.2599993348121643, 0.48805612325668335, 0.06480757892131805, 0.022262947633862495, 0.8144486546516418, 0.1327541172504425, 0.00551263801753521, -0.4059351980686188, -0.41442346572875977, -0.3154655992984772, -0.057222239673137665, 0.008347510360181332, 0.13563032448291779, 0.036113131791353226, 0.0626956969499588, -0.03599601238965988, -0.02647901140153408, -0.11505766212940216, -0.16184094548225403, -0.06541122496128082, -0.10108774900436401, 0.06733686476945877, 0.06429192423820496, 0.26871564984321594, 0.11207932978868484, 0.07736761122941971, 0.18251655995845795, 0.25579917430877686, 0.23770393431186676, 0.31431612372398376, -0.008111700415611267, -0.1833316683769226, 0.5802283883094788, -0.2987038493156433, -0.22584086656570435, 0.2670791745185852, 0.1785029023885727, -0.22312316298484802, 0.013548677787184715, -0.1477162390947342, 0.02957918681204319, 0.09524407982826233, 0.003908645361661911, 0.002135477727279067, -0.10495130717754364, -0.099059097468853, -0.23034775257110596, -0.029902258887887, 0.09964030981063843, 0.002137212548404932, 0.013113157823681831, 0.30342623591423035, 0.12494353204965591, 0.23854433000087738, 0.005329729989171028, 0.0696958526968956, 0.1834467351436615, 0.14056965708732605, -0.17840421199798584, -0.0191475972533226, -0.2722912132740021, -0.028272297233343124, -0.2456839233636856, 0.027475111186504364, 0.29956936836242676, -0.09777788072824478, 0.1926937699317932, 0.026957843452692032, 0.03445501625537872, 0.194967582821846, -0.04640233516693115, -0.005495668388903141, -0.09540130943059921, -0.06589178740978241, -0.1427379548549652, -0.14497798681259155, -0.021555837243795395, -0.17822910845279694, -0.1287371963262558, -0.04900764673948288, 0.10532630980014801, 0.06178205460309982, 0.09664945304393768, 0.14824046194553375, -0.025296656414866447, 0.005187260918319225, 0.0561005137860775, -0.17271606624126434, -0.4454129934310913, -0.037861939519643784, -0.022909948602318764, -0.029442396014928818, 0.4878091514110565, -0.19201093912124634, 0.3445429801940918, -0.060809772461652756, -0.193675696849823, 0.03128494322299957, -0.13765300810337067, -0.10634934157133102, -0.1478201150894165, -0.1382012963294983, -0.057895127683877945, 0.010224678553640842, -0.25300806760787964, -0.1456068903207779, -0.06909531354904175, -0.23870258033275604, -0.013268589042127132, 0.1603027731180191, 0.20338496565818787, 0.1521652638912201, 0.29453402757644653, 0.2732532024383545, -0.20168356597423553, -0.11142586916685104, -0.42457833886146545, -0.03225747495889664, 0.006914445664733648, -0.013451896607875824, 0.17782054841518402, -0.3715292811393738, -0.11398209631443024, -0.39094769954681396, -0.14075571298599243, -0.25529637932777405, -0.19148984551429749, -0.3910077214241028, -0.2335035353899002, -0.019693762063980103, -0.03483440726995468, -0.10034360736608505, -0.04795105755329132, -0.08427661657333374, 0.07967641949653625, -0.26353171467781067, 0.021167408674955368, 0.3056718111038208, -0.19614021480083466, -0.2216941863298416, -0.16004148125648499, -0.19993136823177338, -0.14088642597198486, 0.14056240022182465, 0.27671146392822266, 0.016513455659151077, 0.03418818861246109, -0.005070401355624199, -0.11265946179628372, -0.39388251304626465, -0.8564702272415161, -0.6858707070350647, 0.07413966208696365, -0.11655673384666443, -0.11281925439834595, -0.33692118525505066, 0.008841493166983128, -0.009332064539194107, 0.06262640655040741, -0.09020617604255676, 0.21565844118595123, 0.1751084327697754, 0.11664726585149765, 0.5947603583335876, 0.21768754720687866, -0.2481752634048462, 0.020686112344264984, -0.21360279619693756, 